{"learner":{"attributes":{"scikit_learn":"{\"_estimator_type\": \"regressor\"}"},"feature_names":["rolling_saves_3","rolling_saves_5","rolling_saves_8","rolling_saves_12","rolling_opponent_xg_3","rolling_opponent_xg_5","rolling_opponent_xg_8","rolling_opponent_xg_12","rolling_opponent_deep_3","rolling_opponent_deep_5","rolling_opponent_deep_8","rolling_opponent_deep_12","def_atk_diff","value","was_home_0","was_home_1","unique_id_5","unique_id_14","unique_id_15","unique_id_39","unique_id_46","unique_id_47","unique_id_51","unique_id_55","unique_id_73","unique_id_75","unique_id_84","unique_id_91","unique_id_109","unique_id_142","unique_id_146","unique_id_152","unique_id_154","unique_id_155","unique_id_183","unique_id_185","unique_id_201","unique_id_204","unique_id_209","unique_id_227","unique_id_235","unique_id_242","unique_id_248","unique_id_280","unique_id_283","unique_id_293","unique_id_294","unique_id_304","unique_id_308","unique_id_310","unique_id_325","unique_id_344","unique_id_347","unique_id_358","unique_id_367","unique_id_374","unique_id_383","unique_id_396","unique_id_412","unique_id_413","unique_id_414","unique_id_427","unique_id_443","unique_id_445","unique_id_454","unique_id_465","unique_id_466","unique_id_469","unique_id_479","unique_id_488","unique_id_508","unique_id_510","unique_id_513","unique_id_521","unique_id_522","unique_id_536","unique_id_554","unique_id_556","unique_id_568","unique_id_581","unique_id_599","unique_id_615","unique_id_624","unique_id_639","unique_id_641","unique_id_660","unique_id_668","unique_id_669","unique_id_704","unique_id_737","unique_id_752","unique_id_755","unique_id_772","unique_id_773","unique_id_776","unique_id_785","unique_id_789","unique_id_799","unique_id_807","unique_id_809","unique_id_819","unique_id_823","unique_id_843","unique_id_849","unique_id_857","unique_id_860","unique_id_872","unique_id_875","unique_id_885","unique_id_903","unique_id_905","unique_id_916","unique_id_933","unique_id_940","unique_id_948","unique_id_950","unique_id_960","unique_id_961","unique_id_970","unique_id_978","unique_id_979","unique_id_985","unique_id_997","unique_id_1006","unique_id_1008","unique_id_1011","unique_id_1026","unique_id_1036","unique_id_1066","unique_id_1067","unique_id_1072","unique_id_1075","unique_id_1084","unique_id_1090","unique_id_1092","unique_id_1094","unique_id_1095","unique_id_1099","unique_id_1125","unique_id_1129","unique_id_1134","unique_id_1138","unique_id_1149","unique_id_1151","unique_id_1159","unique_id_1161","unique_id_1171","unique_id_1178","unique_id_1182","unique_id_1192","unique_id_1203","unique_id_1206","unique_id_1214","unique_id_1217","unique_id_1230","unique_id_1236","unique_id_1244","unique_id_1256","unique_id_1262","unique_id_1284"],"feature_types":["float","float","float","float","float","float","float","float","float","float","float","float","int","int","i","i","i","i","i","i","i","i","i","i","i","i","i","i","i","i","i","i","i","i","i","i","i","i","i","i","i","i","i","i","i","i","i","i","i","i","i","i","i","i","i","i","i","i","i","i","i","i","i","i","i","i","i","i","i","i","i","i","i","i","i","i","i","i","i","i","i","i","i","i","i","i","i","i","i","i","i","i","i","i","i","i","i","i","i","i","i","i","i","i","i","i","i","i","i","i","i","i","i","i","i","i","i","i","i","i","i","i","i","i","i","i","i","i","i","i","i","i","i","i","i","i","i","i","i","i","i","i","i","i","i","i","i","i","i","i","i","i","i","i","i","i","i","i","i","i"],"gradient_booster":{"model":{"gbtree_model_param":{"num_parallel_tree":"1","num_trees":"100"},"iteration_indptr":[0,1,2,3,4,5,6,7,8,9,10,11,12,13,14,15,16,17,18,19,20,21,22,23,24,25,26,27,28,29,30,31,32,33,34,35,36,37,38,39,40,41,42,43,44,45,46,47,48,49,50,51,52,53,54,55,56,57,58,59,60,61,62,63,64,65,66,67,68,69,70,71,72,73,74,75,76,77,78,79,80,81,82,83,84,85,86,87,88,89,90,91,92,93,94,95,96,97,98,99,100],"tree_info":[0,0,0,0,0,0,0,0,0,0,0,0,0,0,0,0,0,0,0,0,0,0,0,0,0,0,0,0,0,0,0,0,0,0,0,0,0,0,0,0,0,0,0,0,0,0,0,0,0,0,0,0,0,0,0,0,0,0,0,0,0,0,0,0,0,0,0,0,0,0,0,0,0,0,0,0,0,0,0,0,0,0,0,0,0,0,0,0,0,0,0,0,0,0,0,0,0,0,0,0],"trees":[{"base_weights":[-1.4749158E-8,-8.511086E-1,2.5217006E0,-8.52209E-2,6.1119795E-1,2.7308483E0,2.0069926E0,9.884262E-3,1.07413195E-1,1.2076751E0,2.7984576E0,1.7426425E0,2.5924373E0,1.0387264E0,4.574132E-1,2.5870898E0,2.9890249E0,2.0424724E0,1.3150711E0,2.4106805E0,4.909568E0,8.338581E-2,3.7655094E-1,2.7001154E-1,1.287591E-1,3.6703083E-1,2.8575474E-1,1.6312715E-1,2.4876963E-1,1.2174181E-1,4.111198E-1,3.9178047E-1,2.1469402E-1,6.456887E-1,1.361198E-1],"categories":[],"categories_nodes":[],"categories_segments":[],"categories_sizes":[],"default_left":[0,0,0,0,0,0,0,0,0,0,0,0,0,0,0,0,1,0,0,0,0,0,0,0,0,0,0,0,0,0,0,0,0,0,0],"id":0,"left_children":[1,3,5,-1,7,9,11,-1,-1,13,15,17,19,21,-1,23,25,27,29,31,33,-1,-1,-1,-1,-1,-1,-1,-1,-1,-1,-1,-1,-1,-1],"loss_changes":[1.3047E4,7.8344727E0,1.5965332E2,0E0,8.4257674E-1,1.0866406E2,6.466101E1,0E0,0E0,2.254914E1,3.419873E1,3.7183838E1,4.5862732E1,2.3115776E1,0E0,7.010864E1,3.797119E1,2.9078674E1,3.0764511E1,4.286493E1,4.062503E1,0E0,0E0,0E0,0E0,0E0,0E0,0E0,0E0,0E0,0E0,0E0,0E0,0E0,0E0],"parents":[2147483647,0,0,1,1,2,2,4,4,5,5,6,6,9,9,10,10,11,11,12,12,13,13,15,15,16,16,17,17,18,18,19,19,20,20],"right_children":[2,4,6,-1,8,10,12,-1,-1,14,16,18,20,22,-1,24,26,28,30,32,34,-1,-1,-1,-1,-1,-1,-1,-1,-1,-1,-1,-1,-1,-1],"split_conditions":[6E-1,4E-1,1.84616E0,-8.52209E-2,5E-1,-2.25E2,4.6E1,9.884262E-3,1.07413195E-1,1.8952694E0,2.9E0,2.153301E0,1E0,1E0,4.574132E-1,1.699684E0,2.5E0,1.9739323E0,1E0,2.5E0,1E0,8.338581E-2,3.7655094E-1,2.7001154E-1,1.287591E-1,3.6703083E-1,2.8575474E-1,1.6312715E-1,2.4876963E-1,1.2174181E-1,4.111198E-1,3.9178047E-1,2.1469402E-1,6.456887E-1,1.361198E-1],"split_indices":[1,1,5,0,0,12,13,0,0,6,3,7,40,99,0,5,1,6,42,1,14,0,0,0,0,0,0,0,0,0,0,0,0,0,0],"split_type":[0,0,0,0,0,0,0,0,0,0,0,0,0,0,0,0,0,0,0,0,0,0,0,0,0,0,0,0,0,0,0,0,0,0,0],"sum_hessian":[6.077E3,4.544E3,1.533E3,4.541E3,3E0,1.087E3,4.46E2,2E0,1E0,4.7E1,1.04E3,3.1E2,1.36E2,4.6E1,1E0,5E2,5.4E2,1.8E2,1.3E2,1.28E2,8E0,4.4E1,2E0,4.59E2,4.1E1,8.3E1,4.57E2,9.6E1,8.4E1,1.27E2,3E0,1.7E1,1.11E2,5E0,3E0],"tree_param":{"num_deleted":"0","num_feature":"160","num_nodes":"35","size_leaf_vector":"1"}},{"base_weights":[7.1307615E-4,-7.670069E-2,2.2694075E0,2.4549341E0,1.8115127E0,1.1250973E0,2.515056E0,1.571416E0,2.3433268E0,9.674773E-1,4.3454257E-1,2.47748E0,3.557312E0,1.8405008E0,1.1876316E0,2.1743138E0,4.5054784E0,7.803367E-2,3.5144755E-1,2.4916422E-1,9.229175E-3,5.872254E-1,2.6191664E-1,1.7846176E-1,5.949747E-1,1.0966275E-1,3.8028583E-1,4.9151275E-1,2.024159E-1,5.57637E-1,5.0490644E-2],"categories":[],"categories_nodes":[],"categories_segments":[],"categories_sizes":[],"default_left":[0,0,0,0,0,0,0,0,0,0,0,0,0,0,0,0,0,0,0,0,0,0,0,0,0,0,0,0,0,0,0],"id":1,"left_children":[1,-1,3,5,7,9,11,13,15,17,-1,19,21,23,25,27,29,-1,-1,-1,-1,-1,-1,-1,-1,-1,-1,-1,-1,-1,-1],"loss_changes":[1.0587927E4,0E0,1.2612402E2,8.439844E1,5.3393677E1,2.0667698E1,3.2034668E1,2.9931335E1,4.0267822E1,2.0136585E1,0E0,3.3887207E1,5.8459167E1,3.0946472E1,2.7007248E1,4.3140503E1,3.574205E1,0E0,0E0,0E0,0E0,0E0,0E0,0E0,0E0,0E0,0E0,0E0,0E0,0E0,0E0],"parents":[2147483647,0,0,2,2,3,3,4,4,5,5,6,6,7,7,8,8,9,9,11,11,12,12,13,13,14,14,15,15,16,16],"right_children":[2,-1,4,6,8,10,12,14,16,18,-1,20,22,24,26,28,30,-1,-1,-1,-1,-1,-1,-1,-1,-1,-1,-1,-1,-1,-1],"split_conditions":[4E-1,-7.670069E-2,1.84616E0,-2.25E2,4.6E1,1.8952694E0,2.13217E0,2.153301E0,1E0,1E0,4.3454257E-1,2.10638E0,1.6929249E0,1.3416667E1,1E0,1.4275441E0,2.3178153E0,7.803367E-2,3.5144755E-1,2.4916422E-1,9.229175E-3,5.872254E-1,2.6191664E-1,1.7846176E-1,5.949747E-1,1.0966275E-1,3.8028583E-1,4.9151275E-1,2.024159E-1,5.57637E-1,5.0490644E-2],"split_indices":[1,0,5,12,13,6,4,7,40,99,0,4,5,11,42,7,4,0,0,0,0,0,0,0,0,0,0,0,0,0,0],"split_type":[0,0,0,0,0,0,0,0,0,0,0,0,0,0,0,0,0,0,0,0,0,0,0,0,0,0,0,0,0,0,0],"sum_hessian":[6.077E3,4.541E3,1.536E3,1.09E3,4.46E2,4.8E1,1.042E3,3.1E2,1.36E2,4.7E1,1E0,1.009E3,3.3E1,1.8E2,1.3E2,1.28E2,8E0,4.5E1,2E0,1.003E3,6E0,8E0,2.5E1,1.79E2,1E0,1.27E2,3E0,5E0,1.23E2,6E0,2E0],"tree_param":{"num_deleted":"0","num_feature":"160","num_nodes":"31","size_leaf_vector":"1"}},{"base_weights":[1.3756183E-3,-6.894843E-1,2.0482836E0,-6.90068E-1,9.814086E-2,2.2770877E0,1.7319294E0,-6.9032304E-2,-7.3856353E-3,2.2009757E0,3.4332497E0,1.6948463E0,4.8855658E0,1.4513943E0,2.360345E0,4.866989E0,2.4168324E0,1.4903679E0,2.1425529E0,6.933751E-1,-1.5659852E-1,4.3575737E-1,1.3202244E-1,2.3222342E-1,4.973328E-1,4.901333E-2,5.5692357E-1,3.8228866E-2,3.052595E-1,1.5383928E-1,1.09555675E-2,1.6516507E-1,2.602521E-1,-1.933275E-2,-4.1570305E-3],"categories":[],"categories_nodes":[],"categories_segments":[],"categories_sizes":[],"default_left":[0,0,0,0,0,0,0,0,0,0,0,0,0,0,0,0,0,0,0,0,0,0,0,0,0,0,0,0,0,0,0,0,0,0,0],"id":2,"left_children":[1,3,5,7,-1,9,11,-1,-1,13,15,17,19,21,23,25,27,29,31,-1,33,-1,-1,-1,-1,-1,-1,-1,-1,-1,-1,-1,-1,-1,-1],"loss_changes":[8.596475E3,5.1098633E0,1.07092285E2,6.633301E-1,0E0,7.049756E1,6.750122E1,0E0,0E0,9.632324E1,6.547296E1,5.5579468E1,7.3376816E1,5.1046326E1,5.6864014E1,6.181665E1,4.1518066E1,2.9274536E1,4.063556E1,0E0,4.6379194E-3,0E0,0E0,0E0,0E0,0E0,0E0,0E0,0E0,0E0,0E0,0E0,0E0,0E0,0E0],"parents":[2147483647,0,0,1,1,2,2,3,3,5,5,6,6,9,9,10,10,11,11,12,12,13,13,14,14,15,15,16,16,17,17,18,18,20,20],"right_children":[2,4,6,8,-1,10,12,-1,-1,14,16,18,20,22,24,26,28,30,32,-1,34,-1,-1,-1,-1,-1,-1,-1,-1,-1,-1,-1,-1,-1,-1],"split_conditions":[6E-1,5E-1,8E0,4E-1,9.814086E-2,1E1,2.8E2,-6.9032304E-2,-7.3856353E-3,-5.5E1,1.5535353E0,4.6E1,4E0,1.6E0,9.083333E0,-2.3E2,6.4166665E0,3.028274E0,8.818182E0,6.933751E-1,4.5E0,4.3575737E-1,1.3202244E-1,2.3222342E-1,4.973328E-1,4.901333E-2,5.5692357E-1,3.8228866E-2,3.052595E-1,1.5383928E-1,1.09555675E-2,1.6516507E-1,2.602521E-1,-1.933275E-2,-4.1570305E-3],"split_indices":[1,0,10,1,0,8,12,0,0,12,5,13,1,1,11,12,11,5,11,0,0,0,0,0,0,0,0,0,0,0,0,0,0,0,0],"split_type":[0,0,0,0,0,0,0,0,0,0,0,0,0,0,0,0,0,0,0,0,0,0,0,0,0,0,0,0,0,0,0,0,0,0,0],"sum_hessian":[6.077E3,4.544E3,1.533E3,4.543E3,1E0,8.86E2,6.47E2,4.541E3,2E0,8.34E2,5.2E1,6.41E2,6E0,1.48E2,6.86E2,2E1,3.2E1,4.43E2,1.98E2,4E0,2E0,5E0,1.43E2,6.78E2,8E0,3E0,1.7E1,8E0,2.4E1,4.28E2,1.5E1,9.8E1,1E2,1E0,1E0],"tree_param":{"num_deleted":"0","num_feature":"160","num_nodes":"35","size_leaf_vector":"1"}},{"base_weights":[1.8186067E-3,-6.205311E-1,1.8457414E0,-6.21078E-1,9.323382E-2,2.0027258E0,1.4595115E0,-6.2130596E-2,-6.893262E-3,8.601902E-1,2.0534837E0,1.6303725E0,9.27623E-1,7.05635E-1,4.062143E-1,2.038417E0,4.7676048E-1,1.887132E0,1.2688446E0,7.0315033E-1,2.3173714E0,5.2515537E-2,3.1776175E-1,1.8244909E-1,2.2084646E-1,1.4511745E-1,2.8210196E-1,8.6636744E-2,2.3199026E-1,1.5662773E-2,9.574772E-2,3.917183E-1,4.278884E-2],"categories":[],"categories_nodes":[],"categories_segments":[],"categories_sizes":[],"default_left":[0,0,0,0,0,0,0,0,0,0,0,0,0,0,0,0,0,0,0,0,0,0,0,0,0,0,0,0,0,0,0,0,0],"id":3,"left_children":[1,3,5,7,-1,9,11,-1,-1,13,15,17,19,21,-1,23,-1,25,27,29,31,-1,-1,-1,-1,-1,-1,-1,-1,-1,-1,-1,-1],"loss_changes":[6.9760444E3,4.439087E0,9.0086426E1,5.2905273E-1,0E0,6.133008E1,3.9110596E1,0E0,0E0,2.0887783E1,3.2850586E1,2.8887756E1,3.299816E1,1.9299948E1,0E0,3.3694336E1,0E0,7.529755E1,5.848297E1,1.3332581E1,4.3666138E1,0E0,0E0,0E0,0E0,0E0,0E0,0E0,0E0,0E0,0E0,0E0,0E0],"parents":[2147483647,0,0,1,1,2,2,3,3,5,5,6,6,9,9,10,10,11,11,12,12,13,13,15,15,17,17,18,18,19,19,20,20],"right_children":[2,4,6,8,-1,10,12,-1,-1,14,16,18,20,22,-1,24,-1,26,28,30,32,-1,-1,-1,-1,-1,-1,-1,-1,-1,-1,-1,-1],"split_conditions":[6E-1,5E-1,1.84616E0,4E-1,9.323382E-2,-2.25E2,1.175E1,-6.2130596E-2,-6.893262E-3,1.8952694E0,1E0,1.9652454E0,1E0,1E0,4.062143E-1,3E1,4.7676048E-1,1.981602E0,4.375E0,2.115871E0,2.2307668E0,5.2515537E-2,3.1776175E-1,1.8244909E-1,2.2084646E-1,1.4511745E-1,2.8210196E-1,8.6636744E-2,2.3199026E-1,1.5662773E-2,9.574772E-2,3.917183E-1,4.278884E-2],"split_indices":[1,0,5,1,0,12,9,0,0,6,78,7,24,99,0,12,0,6,2,6,4,0,0,0,0,0,0,0,0,0,0,0,0],"split_type":[0,0,0,0,0,0,0,0,0,0,0,0,0,0,0,0,0,0,0,0,0,0,0,0,0,0,0,0,0,0,0,0,0],"sum_hessian":[6.077E3,4.544E3,1.533E3,4.543E3,1E0,1.087E3,4.46E2,4.541E3,2E0,4.7E1,1.04E3,3.36E2,1.1E2,4.6E1,1E0,1.036E3,4E0,1.94E2,1.42E2,9.6E1,1.4E1,4.4E1,2E0,4.64E2,5.72E2,1.34E2,6E1,1.04E2,3.8E1,3.1E1,6.5E1,7E0,7E0],"tree_param":{"num_deleted":"0","num_feature":"160","num_nodes":"33","size_leaf_vector":"1"}},{"base_weights":[2.1257878E-3,-5.584838E-1,1.663122E0,-5.591891E-2,3.8201377E-1,1.854214E0,1.3996853E0,5.8800917E-2,1.1734557E-2,1.8083305E0,3.6580606E0,1.365589E0,4.331703E0,1.2223122E0,1.939408E0,5.919173E0,1.4689618E0,3.5953435E-1,1.4498103E0,6.2169647E0,-2.5429998E-2,3.8424012E-1,1.1137042E-1,1.7012016E-1,2.252435E-1,4.4265777E-2,6.47849E-1,3.4280058E-2,3.635584E-1,2.3111524E-2,3.390245E-1,1.2530275E-1,1.8979394E-1,7.546715E-1,2.814893E-1],"categories":[],"categories_nodes":[],"categories_segments":[],"categories_sizes":[],"default_left":[0,0,0,0,0,0,0,0,0,0,0,0,0,0,0,0,0,0,0,0,0,0,0,0,0,0,0,0,0,0,0,0,0,0,0],"id":4,"left_children":[1,3,5,-1,7,9,11,-1,-1,13,15,17,19,21,23,25,27,29,31,33,-1,-1,-1,-1,-1,-1,-1,-1,-1,-1,-1,-1,-1,-1,-1],"loss_changes":[5.660582E3,3.2286377E0,7.462744E1,0E0,1.4908147E-1,6.671631E1,5.8965576E1,0E0,0E0,6.415015E1,9.525073E1,5.3960938E1,6.210167E1,4.153528E1,4.881079E1,2.7763367E1,2.8033312E1,1.9065722E1,4.9914917E1,1.3763275E0,0E0,0E0,0E0,0E0,0E0,0E0,0E0,0E0,0E0,0E0,0E0,0E0,0E0,0E0,0E0],"parents":[2147483647,0,0,1,1,2,2,4,4,5,5,6,6,9,9,10,10,11,11,12,12,13,13,14,14,15,15,16,16,17,17,18,18,19,19],"right_children":[2,4,6,-1,8,10,12,-1,-1,14,16,18,20,22,24,26,28,30,32,34,-1,-1,-1,-1,-1,-1,-1,-1,-1,-1,-1,-1,-1,-1,-1],"split_conditions":[8.75E-1,4E-1,8E0,-5.591891E-2,3.3333334E-1,1.1E1,2.8E2,5.8800917E-2,1.1734557E-2,-5.5E1,1.660173E0,7E0,4E0,1.6E0,2.9166667E0,1.1162652E0,7.714286E0,4.8333335E0,4.6E1,3.5E0,-2.5429998E-2,3.8424012E-1,1.1137042E-1,1.7012016E-1,2.252435E-1,4.4265777E-2,6.47849E-1,3.4280058E-2,3.635584E-1,2.3111524E-2,3.390245E-1,1.2530275E-1,1.8979394E-1,7.546715E-1,2.814893E-1],"split_indices":[2,1,10,0,0,8,12,0,0,12,5,9,1,1,3,6,10,2,13,0,0,0,0,0,0,0,0,0,0,0,0,0,0,0,0],"split_type":[0,0,0,0,0,0,0,0,0,0,0,0,0,0,0,0,0,0,0,0,0,0,0,0,0,0,0,0,0,0,0,0,0,0,0],"sum_hessian":[6.077E3,4.544E3,1.533E3,4.541E3,3E0,8.85E2,6.48E2,1E0,2E0,8.65E2,2E1,6.42E2,6E0,1.6E2,7.05E2,9E0,1.1E1,5E1,5.92E2,4E0,2E0,5E0,1.55E2,4.04E2,3.01E2,1E0,8E0,8E0,3E0,4.9E1,1E0,4.14E2,1.78E2,2E0,2E0],"tree_param":{"num_deleted":"0","num_feature":"160","num_nodes":"35","size_leaf_vector":"1"}},{"base_weights":[2.5192671E-3,-5.027054E-1,1.4994186E0,-5.031783E-1,8.230698E-2,1.6142728E0,1.106271E0,-5.0328244E-2,-1.7775051E-2,1.5994099E0,4.8020217E-1,1.8019872E0,9.06722E-1,1.3784271E0,1.801922E0,9.09617E-1,2.8468425E0,6.6628796E-1,1.442629E0,1.624607E-1,9.891767E-2,1.6820423E-1,2.769985E-1,1.8384427E-1,-1.5098336E-2,5.450358E-1,2.2312446E-1,-6.174005E-2,7.6350905E-2,2.6395684E-1,8.605602E-2],"categories":[],"categories_nodes":[],"categories_segments":[],"categories_sizes":[],"default_left":[0,0,0,0,0,0,0,0,0,0,0,0,0,0,0,0,0,0,0,0,0,0,0,0,0,0,0,0,0,0,0],"id":5,"left_children":[1,3,5,7,-1,9,11,-1,-1,13,-1,15,17,19,21,23,25,27,29,-1,-1,-1,-1,-1,-1,-1,-1,-1,-1,-1,-1],"loss_changes":[4.5973657E3,3.2635498E0,6.74812E1,6.4575195E-2,0E0,4.8463867E1,4.695642E1,0E0,0E0,5.036792E1,0E0,6.9205124E1,3.4343765E1,5.2917603E1,6.6480225E1,4.263742E1,4.393405E1,2.4308495E1,5.625139E1,0E0,0E0,0E0,0E0,0E0,0E0,0E0,0E0,0E0,0E0,0E0,0E0],"parents":[2147483647,0,0,1,1,2,2,3,3,5,5,6,6,9,9,11,11,12,12,13,13,14,14,15,15,16,16,17,17,18,18],"right_children":[2,4,6,8,-1,10,12,-1,-1,14,-1,16,18,20,22,24,26,28,30,-1,-1,-1,-1,-1,-1,-1,-1,-1,-1,-1,-1],"split_conditions":[6E-1,5E-1,1.969238E0,4E-1,8.230698E-2,5.285714E0,1.9284067E0,-5.0328244E-2,-1.7775051E-2,3E1,4.8020217E-1,2.146506E0,2.6480966E0,1E0,1.981171E0,1.8842195E0,1.470646E0,6.857143E0,2.1304154E0,1.624607E-1,9.891767E-2,1.6820423E-1,2.769985E-1,1.8384427E-1,-1.5098336E-2,5.450358E-1,2.2312446E-1,-6.174005E-2,7.6350905E-2,2.6395684E-1,8.605602E-2],"split_indices":[1,0,5,1,0,2,4,0,0,12,0,5,4,14,4,7,4,10,7,0,0,0,0,0,0,0,0,0,0,0,0],"split_type":[0,0,0,0,0,0,0,0,0,0,0,0,0,0,0,0,0,0,0,0,0,0,0,0,0,0,0,0,0,0,0],"sum_hessian":[6.077E3,4.544E3,1.533E3,4.543E3,1E0,1.184E3,3.49E2,4.541E3,2E0,1.18E3,4E0,7.6E1,2.73E2,5.68E2,6.12E2,4.2E1,3.4E1,1.9E2,8.3E1,3.46E2,2.22E2,5.47E2,6.5E1,2.2E1,2E1,5E0,2.9E1,1.3E1,1.77E2,2.6E1,5.7E1],"tree_param":{"num_deleted":"0","num_feature":"160","num_nodes":"31","size_leaf_vector":"1"}},{"base_weights":[2.6790688E-3,-4.5245922E-1,1.3511802E0,-4.529653E-2,2.3529303E-1,4.507056E-1,1.3971603E0,4.745066E-2,-2.6137035E-4,3.4686285E-1,2.2331588E0,1.5502955E0,1.1313486E0,2.6888508E-1,2.9806313E-1,4.1099772E-1,2.3756035E-1,1.4821503E0,2.761646E0,1.065309E0,2.2514446E0,5.2311093E-2,-2.9547045E-2,7.463631E-2,-3.900226E-2,2.613599E-1,1.4417091E-1,4.4252864E-1,1.7915355E-1,3.3509854E-2,1.1494452E-1,5.3287942E-2,3.2720745E-1],"categories":[],"categories_nodes":[],"categories_segments":[],"categories_sizes":[],"default_left":[0,0,0,0,0,0,0,0,0,0,0,0,0,0,0,0,0,0,0,0,0,0,0,0,0,0,0,0,0,0,0,0,0],"id":6,"left_children":[1,3,5,-1,7,9,11,-1,-1,13,15,17,19,21,-1,-1,23,25,27,29,31,-1,-1,-1,-1,-1,-1,-1,-1,-1,-1,-1,-1],"loss_changes":[3.7310115E3,1.6884766E0,6.2883545E1,0E0,2.2888233E-1,1.32926035E1,5.7634766E1,0E0,0E0,1.4190957E1,1.4005135E1,7.209839E1,3.732373E1,1.0484674E1,0E0,0E0,1.2490462E0,3.6315186E1,6.953989E1,3.0886292E1,4.912294E1,0E0,0E0,0E0,0E0,0E0,0E0,0E0,0E0,0E0,0E0,0E0,0E0],"parents":[2147483647,0,0,1,1,2,2,4,4,5,5,6,6,9,9,10,10,11,11,12,12,13,13,16,16,17,17,18,18,19,19,20,20],"right_children":[2,4,6,-1,8,10,12,-1,-1,14,16,18,20,22,-1,-1,24,26,28,30,32,-1,-1,-1,-1,-1,-1,-1,-1,-1,-1,-1,-1],"split_conditions":[8.75E-1,4E-1,-2.2E2,-4.529653E-2,3.3333334E-1,1E0,1.7335628E0,4.745066E-2,-2.6137035E-4,5.25E0,2.3333333E0,1.9754033E0,1E0,1E0,2.9806313E-1,4.1099772E-1,3.5E0,6.780208E-1,1.5442033E0,6.5E0,1.812492E0,5.2311093E-2,-2.9547045E-2,7.463631E-2,-3.900226E-2,2.613599E-1,1.4417091E-1,4.4252864E-1,1.7915355E-1,3.3509854E-2,1.1494452E-1,5.3287942E-2,3.2720745E-1],"split_indices":[2,1,12,0,0,27,5,0,0,2,0,4,40,14,0,0,0,5,6,9,6,0,0,0,0,0,0,0,0,0,0,0,0],"split_type":[0,0,0,0,0,0,0,0,0,0,0,0,0,0,0,0,0,0,0,0,0,0,0,0,0,0,0,0,0,0,0,0,0],"sum_hessian":[6.077E3,4.544E3,1.533E3,4.541E3,3E0,7.5E1,1.458E3,1E0,2E0,7.2E1,3E0,9.22E2,5.36E2,7.1E1,1E0,1E0,2E0,8.75E2,4.7E1,5.08E2,2.8E1,4.9E1,2.2E1,1E0,1E0,2.8E1,8.47E2,1.6E1,3.1E1,5.3E1,4.55E2,1.1E1,1.7E1],"tree_param":{"num_deleted":"0","num_feature":"160","num_nodes":"33","size_leaf_vector":"1"}},{"base_weights":[2.7937547E-3,-4.0723202E-1,1.2176336E0,-4.076723E-2,7.966899E-2,1.2750902E0,5.9254366E-1,1.2541054E0,3.0171394E0,2.731588E0,4.859817E-1,1.0518531E0,1.4230423E0,1.6564138E0,5.679453E-1,2.4890071E-1,5.1313084E-1,3.1085792E-1,1.761174E0,1.2845829E-1,6.4654574E-2,1.3803884E-1,2.7795094E-1,3.5094222E-1,6.4880855E-2,1.7744006E-1,-8.510661E-2,-6.61252E-2,4.341236E-2,3.2397345E-1,6.2466743E-3],"categories":[],"categories_nodes":[],"categories_segments":[],"categories_sizes":[],"default_left":[0,0,0,0,0,0,0,0,0,0,0,0,0,0,0,0,0,0,0,0,0,0,0,0,0,0,0,0,0,0,0],"id":7,"left_children":[1,3,5,-1,-1,7,9,11,13,15,17,19,21,23,-1,25,-1,27,29,-1,-1,-1,-1,-1,-1,-1,-1,-1,-1,-1,-1],"loss_changes":[3.0280425E3,2.7338867E0,5.4338867E1,0E0,0E0,4.7541748E1,2.8532734E1,4.596216E1,4.855533E1,3.4469334E1,2.7590406E1,5.9161438E1,3.9788696E1,2.0128273E1,0E0,8.222129E0,0E0,1.370778E1,3.747224E1,0E0,0E0,0E0,0E0,0E0,0E0,0E0,0E0,0E0,0E0,0E0,0E0],"parents":[2147483647,0,0,1,1,2,2,5,5,6,6,7,7,8,8,9,9,10,10,11,11,12,12,13,13,15,15,17,17,18,18],"right_children":[2,4,6,-1,-1,8,10,12,14,16,18,20,22,24,-1,26,-1,28,30,-1,-1,-1,-1,-1,-1,-1,-1,-1,-1,-1,-1],"split_conditions":[6E-1,5E-1,1.175E1,-4.076723E-2,7.966899E-2,5E0,1.5811183E0,1.5E1,1.2E1,1.22E1,1E0,1E0,1E0,1.347355E0,5.679453E-1,2E0,5.1313084E-1,1.7362891E0,2.2307668E0,1.2845829E-1,6.4654574E-2,1.3803884E-1,2.7795094E-1,3.5094222E-1,6.4880855E-2,1.7744006E-1,-8.510661E-2,-6.61252E-2,4.341236E-2,3.2397345E-1,6.2466743E-3],"split_indices":[1,0,9,0,0,2,5,12,8,9,24,14,56,4,0,0,0,6,4,0,0,0,0,0,0,0,0,0,0,0,0],"split_type":[0,0,0,0,0,0,0,0,0,0,0,0,0,0,0,0,0,0,0,0,0,0,0,0,0,0,0,0,0,0,0],"sum_hessian":[6.077E3,4.544E3,1.533E3,4.543E3,1E0,1.403E3,1.3E2,1.388E3,1.5E1,5E0,1.25E2,6.35E2,7.53E2,1.1E1,4E0,3E0,2E0,1.11E2,1.4E1,4.02E2,2.33E2,7.32E2,2.1E1,3E0,8E0,1E0,2E0,1.2E1,9.9E1,7E0,7E0],"tree_param":{"num_deleted":"0","num_feature":"160","num_nodes":"31","size_leaf_vector":"1"}},{"base_weights":[2.9330486E-3,-3.6580494E-1,1.1002221E0,-3.6666694E-1,1.777742E-1,3.1217232E-1,1.1406565E0,-3.6686972E-1,2.7774204E-2,5.467033E-1,-3.7184942E-1,1.2749826E0,9.0890217E-1,-3.6658978E-1,-6.687403E-2,4.034901E-1,2.9900436E0,-1.3710502E-1,-3.6358625E-2,1.2138492E0,2.357736E0,-9.6162416E-2,9.685631E-1,-3.669205E-2,7.122326E-4,3.12587E-2,2.656129E-1,3.8402495E-1,6.448158E-2,-4.213222E-2,5.1878344E-2,2.3609562E-1,1.1743553E-1,1.8071868E-1,5.324213E-1,-4.8758462E-2,9.148235E-2,1.0205412E-1,-2.8295571E-2],"categories":[],"categories_nodes":[],"categories_segments":[],"categories_sizes":[],"default_left":[0,0,0,0,0,0,0,0,0,0,0,0,0,0,0,0,0,0,0,0,0,0,0,0,0,0,0,0,0,0,0,0,0,0,0,0,0,0,0],"id":8,"left_children":[1,3,5,7,-1,9,11,13,-1,15,17,19,21,23,-1,25,27,-1,29,31,33,35,37,-1,-1,-1,-1,-1,-1,-1,-1,-1,-1,-1,-1,-1,-1,-1,-1],"loss_changes":[2.4596353E3,9.059082E0,4.836438E1,6.963501E-1,0E0,1.23955345E1,4.4105225E1,1.3909912E-1,0E0,1.8738901E1,6.654603E0,5.790271E1,3.2293335E1,5.643921E-1,0E0,1.0432182E1,3.5055275E0,0E0,3.6379263E0,3.668689E1,6.877136E1,1.2713446E1,3.3269897E1,0E0,0E0,0E0,0E0,0E0,0E0,0E0,0E0,0E0,0E0,0E0,0E0,0E0,0E0,0E0,0E0],"parents":[2147483647,0,0,1,1,2,2,3,3,5,5,6,6,7,7,9,9,10,10,11,11,12,12,13,13,15,15,16,16,18,18,19,19,20,20,21,21,22,22],"right_children":[2,4,6,8,-1,10,12,14,-1,16,18,20,22,24,-1,26,28,-1,30,32,34,36,38,-1,-1,-1,-1,-1,-1,-1,-1,-1,-1,-1,-1,-1,-1,-1,-1],"split_conditions":[1E0,1E0,-2.2E2,1.2E0,1.777742E-1,2.0756934E0,1.7335628E0,1.3333334E0,2.7774204E-2,1E0,2.1764414E0,1.9754033E0,1.5442033E0,4E-1,-6.687403E-2,5.25E0,2.3333333E0,-1.3710502E-1,2.3289826E0,6.780208E-1,9.25E0,7.5454545E0,3.028274E0,-3.669205E-2,7.122326E-4,3.12587E-2,2.656129E-1,3.8402495E-1,6.448158E-2,-4.213222E-2,5.1878344E-2,2.3609562E-1,1.1743553E-1,1.8071868E-1,5.324213E-1,-4.8758462E-2,9.148235E-2,1.0205412E-1,-2.8295571E-2],"split_indices":[3,2,12,1,0,4,5,0,0,27,4,4,6,1,0,2,0,0,7,5,9,11,5,0,0,0,0,0,0,0,0,0,0,0,0,0,0,0,0],"split_type":[0,0,0,0,0,0,0,0,0,0,0,0,0,0,0,0,0,0,0,0,0,0,0,0,0,0,0,0,0,0,0,0,0,0,0,0,0,0,0],"sum_hessian":[6.077E3,4.549E3,1.528E3,4.548E3,1E0,7.5E1,1.453E3,4.547E3,1E0,5.6E1,1.9E1,9.17E2,5.36E2,4.545E3,2E0,5.4E1,2E0,4E0,1.5E1,8.7E2,4.7E1,3E1,5.06E2,4.541E3,4E0,5.3E1,1E0,1E0,1E0,9E0,6E0,2.7E1,8.43E2,4.1E1,6E0,2.2E1,8E0,4.86E2,2E1],"tree_param":{"num_deleted":"0","num_feature":"160","num_nodes":"39","size_leaf_vector":"1"}},{"base_weights":[2.9529964E-3,-3.2920188E-1,9.913779E-1,-3.3001676E-1,1.688855E-1,1.1416357E0,7.9958266E-1,-3.3020535E-1,2.63855E-2,1.1132246E0,3.688585E0,7.68607E-1,3.6457405E0,-3.2993874E-1,-6.241576E-1,7.407699E-1,1.2287209E0,-3.2274103E-1,4.880784E0,-1.5223727E-1,8.529782E-1,5.401297E0,-4.9543384E-2,-3.302365E-2,6.552601E-4,-1.8882096E-2,-7.474154E-2,2.2678895E-2,1.4234711E-1,1.5045819E-1,9.5077045E-2,-5.812372E-2,9.712565E-3,6.435143E-1,6.632591E-2,8.272171E-2,-4.318077E-2,7.8112744E-2,1.742537E-1,6.6615963E-1,2.3405655E-1],"categories":[],"categories_nodes":[],"categories_segments":[],"categories_sizes":[],"default_left":[0,0,0,0,0,0,0,0,0,0,0,0,0,0,0,0,0,0,0,0,0,0,0,0,0,0,0,0,0,0,0,0,0,0,0,0,0,0,0,0,0],"id":9,"left_children":[1,3,5,7,-1,9,11,13,-1,15,17,19,21,23,25,27,29,31,33,35,37,39,-1,-1,-1,-1,-1,-1,-1,-1,-1,-1,-1,-1,-1,-1,-1,-1,-1,-1,-1],"loss_changes":[1.9957955E3,8.039764E0,4.315088E1,5.9664917E-1,0E0,5.776294E1,5.670685E1,1.5054321E-1,0E0,3.552527E1,4.461592E1,5.2106293E1,5.3566444E1,4.5767212E-1,1.9848228E-2,7.090894E1,4.802533E1,3.8205484E-1,4.162062E1,1.5965307E1,3.781909E1,3.695282E0,0E0,0E0,0E0,0E0,0E0,0E0,0E0,0E0,0E0,0E0,0E0,0E0,0E0,0E0,0E0,0E0,0E0,0E0,0E0],"parents":[2147483647,0,0,1,1,2,2,3,3,5,5,6,6,7,7,9,9,10,10,11,11,12,12,13,13,14,14,15,15,16,16,17,17,18,18,19,19,20,20,21,21],"right_children":[2,4,6,8,-1,10,12,14,-1,16,18,20,22,24,26,28,30,32,34,36,38,40,-1,-1,-1,-1,-1,-1,-1,-1,-1,-1,-1,-1,-1,-1,-1,-1,-1,-1,-1],"split_conditions":[1E0,1E0,7.875E0,1.2E0,1.688855E-1,1.2333333E1,2.8E2,1.3333334E0,2.63855E-2,2.4166667E0,7.3333335E0,7E0,4E0,4E-1,9.166667E-1,1.7E2,1E0,6.666667E-1,3.5E0,-1.05E2,1E0,3.5E0,-4.9543384E-2,-3.302365E-2,6.552601E-4,-1.8882096E-2,-7.474154E-2,2.2678895E-2,1.4234711E-1,1.5045819E-1,9.5077045E-2,-5.812372E-2,9.712565E-3,6.435143E-1,6.632591E-2,8.272171E-2,-4.318077E-2,7.8112744E-2,1.742537E-1,6.6615963E-1,2.3405655E-1],"split_indices":[3,2,10,1,0,8,12,0,0,3,10,9,1,1,3,12,14,0,2,12,40,0,0,0,0,0,0,0,0,0,0,0,0,0,0,0,0,0,0,0,0],"split_type":[0,0,0,0,0,0,0,0,0,0,0,0,0,0,0,0,0,0,0,0,0,0,0,0,0,0,0,0,0,0,0,0,0,0,0,0,0,0,0,0,0],"sum_hessian":[6.077E3,4.549E3,1.528E3,4.548E3,1E0,8.54E2,6.74E2,4.547E3,1E0,8.46E2,8E0,6.68E2,6E0,4.545E3,2E0,2.02E2,6.44E2,2E0,6E0,5.6E1,6.12E2,4E0,2E0,4.541E3,4E0,1E0,1E0,1.16E2,8.6E1,3.21E2,3.23E2,1E0,1E0,4E0,2E0,1.2E1,4.4E1,5.68E2,4.4E1,2E0,2E0],"tree_param":{"num_deleted":"0","num_feature":"160","num_nodes":"41","size_leaf_vector":"1"}},{"base_weights":[3.033458E-3,-2.9693162E-1,8.917807E-1,-2.9730603E-2,7.021697E-2,1.7585228E-1,9.27947E-1,7.825044E-2,1.8887223E0,8.912455E-1,1.644002E0,9.438142E-3,2.4819617E-1,3.6091805E-1,1.1217614E-1,1.0361452E0,6.8745047E-1,3.1034586E0,1.154099E0,-7.7456185E-3,1.4842822E-1,5.7351865E-2,-4.0525444E-2,9.7239785E-2,2.557609E-1,6.531998E-2,3.4026915E-1,4.1732445E-1,4.4664346E-2,7.840265E-2,3.5268673E-1],"categories":[],"categories_nodes":[],"categories_segments":[],"categories_sizes":[],"default_left":[0,0,0,0,0,0,0,0,0,0,0,0,0,0,0,0,0,0,0,0,0,0,0,0,0,0,0,0,0,0,0],"id":10,"left_children":[1,3,5,-1,-1,7,9,11,13,15,17,19,-1,-1,21,23,25,27,29,-1,-1,-1,-1,-1,-1,-1,-1,-1,-1,-1,-1],"loss_changes":[1.6206178E3,1.9088745E0,3.955603E1,0E0,0E0,1.2390652E1,3.6904053E1,1.1885727E1,1.1821029E1,4.036377E1,4.646776E1,9.214012E0,0E0,0E0,9.4855905E-1,7.617139E1,5.180966E1,4.6453857E1,4.465204E1,0E0,0E0,0E0,0E0,0E0,0E0,0E0,0E0,0E0,0E0,0E0,0E0],"parents":[2147483647,0,0,1,1,2,2,5,5,6,6,7,7,8,8,9,9,10,10,11,11,14,14,15,15,16,16,17,17,18,18],"right_children":[2,4,6,-1,-1,8,10,12,14,16,18,20,-1,-1,22,24,26,28,30,-1,-1,-1,-1,-1,-1,-1,-1,-1,-1,-1,-1],"split_conditions":[6E-1,5E-1,-2.2E2,-2.9730603E-2,7.021697E-2,1E0,1E0,5.25E0,2.3333333E0,7.875E0,7E0,1E0,2.4819617E-1,3.6091805E-1,3.5E0,1.0333333E1,2.8E2,1.7707106E0,1E1,-7.7456185E-3,1.4842822E-1,5.7351865E-2,-4.0525444E-2,9.7239785E-2,2.557609E-1,6.531998E-2,3.4026915E-1,4.1732445E-1,4.4664346E-2,7.840265E-2,3.5268673E-1],"split_indices":[1,0,12,0,0,27,40,2,0,10,8,99,0,0,0,8,12,5,9,0,0,0,0,0,0,0,0,0,0,0,0],"split_type":[0,0,0,0,0,0,0,0,0,0,0,0,0,0,0,0,0,0,0,0,0,0,0,0,0,0,0,0,0,0,0],"sum_hessian":[6.077E3,4.544E3,1.533E3,4.543E3,1E0,7.4E1,1.459E3,7.1E1,3E0,1.39E3,6.9E1,7E1,1E0,1E0,2E0,8.1E2,5.8E2,1.6E1,5.3E1,6.7E1,3E0,1E0,1E0,7.79E2,3.1E1,5.74E2,6E0,1.1E1,5E0,4.7E1,6E0],"tree_param":{"num_deleted":"0","num_feature":"160","num_nodes":"31","size_leaf_vector":"1"}},{"base_weights":[3.134639E-3,-2.6676565E-1,8.063022E-1,-2.675083E-1,1.5557924E-1,6.7536414E-1,9.915747E-1,-2.6719198E-1,-6.577762E-2,6.0716677E-1,1.4165307E0,1.7070342E0,7.840974E-1,-2.6749609E-2,7.5446763E-3,2.960883E-1,7.357858E-1,4.375436E-1,1.1882061E0,2.1182761E0,8.1168103E-1,1.3480531E0,5.686404E-1,3.563338E-2,-2.5593335E-2,4.7286537E-2,-3.0266484E-2,2.3924807E-1,6.603777E-2,7.647248E-2,2.5961277E-1,8.873815E-2,2.6643285E-1,3.636121E-1,3.785513E-2,1.5819013E-1,1.4053531E-2,4.6569463E-2,1.9776091E-1],"categories":[],"categories_nodes":[],"categories_segments":[],"categories_sizes":[],"default_left":[0,0,0,0,0,0,0,0,0,0,0,0,0,0,0,0,0,0,0,0,0,0,0,0,0,0,0,0,0,0,0,0,0,0,0,0,0,0,0],"id":11,"left_children":[1,3,5,7,-1,9,11,13,-1,15,17,19,21,-1,23,25,27,-1,29,31,33,35,37,-1,-1,-1,-1,-1,-1,-1,-1,-1,-1,-1,-1,-1,-1,-1,-1],"loss_changes":[1.3177744E3,6.5747986E0,3.642273E1,3.857727E-1,0E0,4.4580414E1,9.2328186E1,3.819275E-1,0E0,3.2790894E1,4.5470413E1,5.0197784E1,5.889392E1,0E0,6.425873E-1,2.5863655E1,7.1253265E1,0E0,4.0346878E1,6.216046E1,5.4897587E1,3.7898453E1,5.0860954E1,0E0,0E0,0E0,0E0,0E0,0E0,0E0,0E0,0E0,0E0,0E0,0E0,0E0,0E0,0E0,0E0],"parents":[2147483647,0,0,1,1,2,2,3,3,5,5,6,6,7,7,9,9,10,10,11,11,12,12,14,14,15,15,16,16,18,18,19,19,20,20,21,21,22,22],"right_children":[2,4,6,8,-1,10,12,14,-1,16,18,20,22,-1,24,26,28,-1,30,32,34,36,38,-1,-1,-1,-1,-1,-1,-1,-1,-1,-1,-1,-1,-1,-1,-1,-1],"split_conditions":[1E0,1E0,4.5E1,1.3333334E0,1.5557924E-1,1E0,8E1,4E-1,-6.577762E-2,2.8333333E0,6.428571E0,1.849086E0,4.75E0,-2.6749609E-2,9.166667E-1,3E0,2.2E0,4.375436E-1,1E1,2.75E0,7.125E0,1.1577042E0,1E0,3.563338E-2,-2.5593335E-2,4.7286537E-2,-3.0266484E-2,2.3924807E-1,6.603777E-2,7.647248E-2,2.5961277E-1,8.873815E-2,2.6643285E-1,3.636121E-1,3.785513E-2,1.5819013E-1,1.4053531E-2,4.6569463E-2,1.9776091E-1],"split_indices":[3,2,12,0,0,40,12,1,0,3,10,6,9,0,3,1,1,0,12,3,10,5,35,0,0,0,0,0,0,0,0,0,0,0,0,0,0,0,0],"split_type":[0,0,0,0,0,0,0,0,0,0,0,0,0,0,0,0,0,0,0,0,0,0,0,0,0,0,0,0,0,0,0,0,0,0,0,0,0,0,0],"sum_hessian":[6.077E3,4.549E3,1.528E3,4.548E3,1E0,8.98E2,6.3E2,4.546E3,2E0,8.24E2,7.4E1,1.4E2,4.9E2,4.541E3,5E0,2.42E2,5.82E2,4E0,7E1,9.5E1,4.5E1,1.34E2,3.56E2,2E0,3E0,1.87E2,5.5E1,2.4E1,5.58E2,5.5E1,1.5E1,3E1,6.5E1,5E0,4E1,1.12E2,2.2E1,3.33E2,2.3E1],"tree_param":{"num_deleted":"0","num_feature":"160","num_nodes":"39","size_leaf_vector":"1"}},{"base_weights":[3.206561E-3,-2.4007301E-1,7.271561E-1,-2.407756E-1,1.4780027E-1,1.8049908E0,7.065792E-1,-2.4047646E-1,-6.1392453E-2,-1.1716789E-1,3.0556326E0,5.711048E-1,8.517568E-1,-2.4075236E-2,8.463542E-3,5.9793425E-1,-9.319257E-1,-1.3038509E-2,3.4891274E0,5.289151E-1,1.6454352E0,1.9695768E-1,9.3752545E-1,3.3257827E-2,-2.3673838E-2,-3.085947E-2,1.9095044E-1,-9.778881E-3,-1.0791954E-1,4.207861E-1,4.6064544E-2,5.027407E-2,2.2464147E-1,3.946883E-1,5.8074642E-2,-7.698783E-2,6.360698E-2,2.867349E-1,8.99157E-2],"categories":[],"categories_nodes":[],"categories_segments":[],"categories_sizes":[],"default_left":[0,0,0,0,0,0,0,0,0,0,0,0,0,0,0,0,0,0,0,0,0,0,0,0,0,0,0,0,0,0,0,0,0,0,0,0,0,0,0],"id":12,"left_children":[1,3,5,7,-1,9,11,13,-1,15,17,19,21,-1,23,25,27,-1,29,31,33,35,37,-1,-1,-1,-1,-1,-1,-1,-1,-1,-1,-1,-1,-1,-1,-1,-1],"loss_changes":[1.0706449E3,5.8482056E0,3.263556E1,3.6013794E-1,0E0,6.766813E1,2.9054565E1,3.1433105E-1,0E0,7.548851E0,2.393399E1,3.4483765E1,4.0419983E1,0E0,5.555753E-1,8.912097E0,6.315255E-1,0E0,3.0711716E1,3.2676468E1,6.876731E1,3.6576393E1,4.4736206E1,0E0,0E0,0E0,0E0,0E0,0E0,0E0,0E0,0E0,0E0,0E0,0E0,0E0,0E0,0E0,0E0],"parents":[2147483647,0,0,1,1,2,2,3,3,5,5,6,6,7,7,9,9,10,10,11,11,12,12,14,14,15,15,16,16,18,18,19,19,20,20,21,21,22,22],"right_children":[2,4,6,8,-1,10,12,14,-1,16,18,20,22,-1,24,26,28,-1,30,32,34,36,38,-1,-1,-1,-1,-1,-1,-1,-1,-1,-1,-1,-1,-1,-1,-1,-1],"split_conditions":[1E0,1E0,6.780208E-1,1.3333334E0,1.4780027E-1,1.8E0,4.6E1,4E-1,-6.1392453E-2,5.5E1,1.25E0,1E0,-9E1,-2.4075236E-2,9.166667E-1,6.678813E-1,5.232796E-1,-1.3038509E-2,4.3333335E0,1E0,1.536743E0,6.5833335E0,-8.5E1,3.3257827E-2,-2.3673838E-2,-3.085947E-2,1.9095044E-1,-9.778881E-3,-1.0791954E-1,4.207861E-1,4.6064544E-2,5.027407E-2,2.2464147E-1,3.946883E-1,5.8074642E-2,-7.698783E-2,6.360698E-2,2.867349E-1,8.99157E-2],"split_indices":[3,2,5,0,0,3,13,1,0,13,1,42,12,0,3,4,6,0,8,35,4,11,12,0,0,0,0,0,0,0,0,0,0,0,0,0,0,0,0],"split_type":[0,0,0,0,0,0,0,0,0,0,0,0,0,0,0,0,0,0,0,0,0,0,0,0,0,0,0,0,0,0,0,0,0,0,0,0,0,0,0],"sum_hessian":[6.077E3,4.549E3,1.528E3,4.548E3,1E0,2.7E1,1.501E3,4.546E3,2E0,1.1E1,1.6E1,7.79E2,7.22E2,4.541E3,5E0,6E0,5E0,2E0,1.4E1,7.51E2,2.8E1,8.4E1,6.38E2,2E0,3E0,4E0,2E0,1E0,4E0,1.1E1,3E0,7.41E2,1E1,8E0,2E1,2.6E1,5.8E1,1.1E1,6.27E2],"tree_param":{"num_deleted":"0","num_feature":"160","num_nodes":"39","size_leaf_vector":"1"}},{"base_weights":[3.1588569E-3,-2.160499E-1,6.554785E-1,-2.1671472E-1,1.4041026E-1,7.0334333E-1,2.555327E-1,-2.1643199E-1,-5.7299614E-1,6.88701E-1,2.6185188E0,2.8086288E0,1.9091593E-1,-2.1668242E-2,9.21452E-3,-1.6441477E-2,-6.950795E-2,6.5576804E-1,1.2668972E0,4.4972677E0,-1.5968356E-1,3.8457403E-1,-1.5135253E-2,-1.1066218E-1,5.694255E-1,3.1040644E-2,-2.1898305E-2,5.0543886E-2,8.34785E-2,1.0900837E-1,4.970247E-1,4.8843154E-1,1.2810151E-1,7.764612E-2,-1.0426005E-1,6.1990358E-2,-2.992935E-2,2.801101E-1,3.6107514E-2],"categories":[],"categories_nodes":[],"categories_segments":[],"categories_sizes":[],"default_left":[0,0,0,0,0,0,0,0,0,0,0,0,0,0,0,0,0,0,0,0,1,0,0,0,0,0,0,0,0,0,0,0,0,0,0,0,0,0,0],"id":13,"left_children":[1,3,5,7,-1,9,11,13,15,17,19,21,23,-1,25,-1,-1,27,29,31,33,-1,-1,35,37,-1,-1,-1,-1,-1,-1,-1,-1,-1,-1,-1,-1,-1,-1],"loss_changes":[8.6926013E2,5.2051086E0,2.9090454E1,3.3421326E-1,0E0,3.6475037E1,2.6684303E1,2.589264E-1,3.5361588E-2,2.4989746E1,5.291359E1,1.2861385E1,1.855535E1,0E0,4.8036134E-1,0E0,0E0,3.41593E1,4.1727776E1,1.2121658E0,4.942229E0,0E0,0E0,1.2726021E1,3.246647E1,0E0,0E0,0E0,0E0,0E0,0E0,0E0,0E0,0E0,0E0,0E0,0E0,0E0,0E0],"parents":[2147483647,0,0,1,1,2,2,3,3,5,5,6,6,7,7,8,8,9,9,10,10,11,11,12,12,14,14,17,17,18,18,19,19,20,20,23,23,24,24],"right_children":[2,4,6,8,-1,10,12,14,16,18,20,22,24,-1,26,-1,-1,28,30,32,34,-1,-1,36,38,-1,-1,-1,-1,-1,-1,-1,-1,-1,-1,-1,-1,-1,-1],"split_conditions":[1E0,1E0,2.288816E0,1.3333334E0,1.4041026E-1,5.25E0,5E0,4E-1,9.166667E-1,1E0,4.4E1,4.5E0,2.6480966E0,-2.1668242E-2,9.166667E-1,-1.6441477E-2,-6.950795E-2,4.5E1,2.167926E0,7E0,4.6666665E0,3.8457403E-1,-1.5135253E-2,1.9638133E0,3.2E0,3.1040644E-2,-2.1898305E-2,5.0543886E-2,8.34785E-2,1.0900837E-1,4.970247E-1,4.8843154E-1,1.2810151E-1,7.764612E-2,-1.0426005E-1,6.1990358E-2,-2.992935E-2,2.801101E-1,3.6107514E-2],"split_indices":[3,2,5,0,0,2,8,1,3,40,13,0,4,0,3,0,0,12,5,1,0,0,0,4,1,0,0,0,0,0,0,0,0,0,0,0,0,0,0],"split_type":[0,0,0,0,0,0,0,0,0,0,0,0,0,0,0,0,0,0,0,0,0,0,0,0,0,0,0,0,0,0,0,0,0,0,0,0,0,0,0],"sum_hessian":[6.077E3,4.549E3,1.528E3,4.548E3,1E0,1.364E3,1.64E2,4.546E3,2E0,1.355E3,9E0,3E0,1.61E2,4.541E3,5E0,1E0,1E0,1.284E3,7.1E1,5E0,4E0,2E0,1E0,9E1,7.1E1,2E0,3E0,7E2,5.84E2,6.9E1,2E0,4E0,1E0,2E0,2E0,1.8E1,7.2E1,5E0,6.6E1],"tree_param":{"num_deleted":"0","num_feature":"160","num_nodes":"39","size_leaf_vector":"1"}},{"base_weights":[3.1867886E-3,-1.9489802E-1,5.900788E-1,-1.9520193E-1,5.9300896E-2,6.055677E-1,-5.546988E-1,-1.9501895E-2,-4.0716182E-2,9.451648E-3,6.361949E-1,-3.141301E-1,-1.2616928E0,-8.340565E-2,1.6785202E0,4.794011E-1,7.479394E-1,1.7924163E-1,-5.995366E-1,-1.620337E-1,8.6442E-3,-1.4248157E-2,2.055492E-1,3.3546695E-1,1.5806357E-4,5.301189E-2,-5.409919E-2,1.3821362E-1,6.708386E-2,-1.31677715E-2,6.376933E-2,-7.733488E-2,1.2174543E-2],"categories":[],"categories_nodes":[],"categories_segments":[],"categories_sizes":[],"default_left":[0,0,0,0,0,0,0,0,0,0,0,0,0,0,0,0,0,0,0,0,0,0,0,0,0,0,0,0,0,0,0,0,0],"id":14,"left_children":[1,3,5,7,-1,9,11,-1,-1,13,15,17,19,21,23,25,27,29,31,-1,-1,-1,-1,-1,-1,-1,-1,-1,-1,-1,-1,-1,-1],"loss_changes":[7.0670917E2,1.2040405E0,2.7535828E1,9.6832275E-2,0E0,2.7635681E1,3.1753583E0,0E0,0E0,1.1763887E1,2.487146E1,2.5012574E0,2.5575686E0,9.390597E0,1.1237901E1,3.1441513E1,4.0097473E1,1.0817604E0,1.4731958E0,0E0,0E0,0E0,0E0,0E0,0E0,0E0,0E0,0E0,0E0,0E0,0E0,0E0,0E0],"parents":[2147483647,0,0,1,1,2,2,3,3,5,5,6,6,9,9,10,10,11,11,12,12,13,13,14,14,15,15,16,16,17,17,18,18],"right_children":[2,4,6,8,-1,10,12,-1,-1,14,16,18,20,22,24,26,28,30,32,-1,-1,-1,-1,-1,-1,-1,-1,-1,-1,-1,-1,-1,-1],"split_conditions":[6E-1,5E-1,3.028274E0,4E-1,5.9300896E-2,-2.2E2,6E0,-1.9501895E-2,-4.0716182E-2,1E0,2.909091E0,1.2E1,7.5E0,5.25E0,2.3333333E0,3.6666667E0,1.1202472E0,4.5E0,5.625E0,-1.620337E-1,8.6442E-3,-1.4248157E-2,2.055492E-1,3.3546695E-1,1.5806357E-4,5.301189E-2,-5.409919E-2,1.3821362E-1,6.708386E-2,-1.31677715E-2,6.376933E-2,-7.733488E-2,1.2174543E-2],"split_indices":[1,0,5,1,0,12,1,0,0,27,3,8,0,2,0,1,5,0,2,0,0,0,0,0,0,0,0,0,0,0,0,0,0],"split_type":[0,0,0,0,0,0,0,0,0,0,0,0,0,0,0,0,0,0,0,0,0,0,0,0,0,0,0,0,0,0,0,0,0],"sum_hessian":[6.077E3,4.544E3,1.533E3,4.543E3,1E0,1.513E3,2E1,4.541E3,2E0,7.4E1,1.439E3,1.6E1,4E0,7.1E1,3E0,6.01E2,8.38E2,6E0,1E1,3E0,1E0,7E1,1E0,1E0,2E0,5.73E2,2.8E1,8.9E1,7.49E2,4E0,2E0,8E0,2E0],"tree_param":{"num_deleted":"0","num_feature":"160","num_nodes":"33","size_leaf_vector":"1"}},{"base_weights":[2.9606202E-3,-1.7506558E-1,5.3272927E-1,-1.7567888E-1,1.3073915E-1,1.5045154E0,5.1425874E-1,-1.7537369E-1,-5.796876E-1,-2.2429E-1,2.6363478E0,4.848979E-1,1.0440654E0,-1.754675E-1,1.2557054E-2,-1.8269992E-2,-6.868315E-2,4.4401926E-1,-9.6660244E-1,2.9264917E0,-1.002978E-1,3.7230727E-1,6.3644814E-1,2.1753213E0,5.6079835E-1,-1.7552136E-2,-9.145999E-3,-4.374614E-2,1.7651473E-1,-1.611445E-2,-1.0954652E-1,2.2498596E-2,3.5326096E-1,-2.7430207E-2,4.349145E-2,1.2943968E-1,4.4511594E-2,-1.169133E-1,2.735446E-1,2.3040641E-2,2.840627E-1],"categories":[],"categories_nodes":[],"categories_segments":[],"categories_sizes":[],"default_left":[0,0,0,0,0,0,0,0,0,0,1,0,0,0,0,0,0,0,0,1,0,0,0,0,0,0,0,0,0,0,0,0,0,0,0,0,0,0,0,0,0],"id":15,"left_children":[1,3,5,7,-1,9,11,13,15,17,19,21,23,25,-1,-1,-1,27,29,31,-1,33,35,37,39,-1,-1,-1,-1,-1,-1,-1,-1,-1,-1,-1,-1,-1,-1,-1,-1],"loss_changes":[5.7332587E2,4.3664246E0,2.6670929E1,4.5924377E-1,0E0,5.5379402E1,2.2858215E1,1.5040588E-1,2.1203756E-3,6.382321E0,2.0885986E1,2.4078003E1,4.1422585E1,4.5166016E-3,0E0,0E0,0E0,8.924025E0,4.4623327E-1,2.5404099E1,0E0,3.3314857E1,7.571121E1,4.6284264E1,4.152677E1,0E0,0E0,0E0,0E0,0E0,0E0,0E0,0E0,0E0,0E0,0E0,0E0,0E0,0E0,0E0,0E0],"parents":[2147483647,0,0,1,1,2,2,3,3,5,5,6,6,7,7,8,8,9,9,10,10,11,11,12,12,13,13,17,17,18,18,19,19,21,21,22,22,23,23,24,24],"right_children":[2,4,6,8,-1,10,12,14,16,18,20,22,24,26,-1,-1,-1,28,30,32,-1,34,36,38,40,-1,-1,-1,-1,-1,-1,-1,-1,-1,-1,-1,-1,-1,-1,-1,-1],"split_conditions":[1E0,1E0,6.780208E-1,1.3333334E0,1.3073915E-1,1.8E0,1E0,1.2E0,9.166667E-1,5.5E1,2.6666667E0,4.5E1,7.3333335E0,4E-1,1.2557054E-2,-1.8269992E-2,-6.868315E-2,3.5E0,5.232796E-1,1.25E0,-1.002978E-1,1.1979918E0,8E1,1.010883E0,1E1,-1.7552136E-2,-9.145999E-3,-4.374614E-2,1.7651473E-1,-1.611445E-2,-1.0954652E-1,2.2498596E-2,3.5326096E-1,-2.7430207E-2,4.349145E-2,1.2943968E-1,4.4511594E-2,-1.169133E-1,2.735446E-1,2.3040641E-2,2.840627E-1],"split_indices":[3,2,5,0,0,3,40,1,3,13,0,12,8,1,0,0,0,10,6,1,0,7,12,4,9,0,0,0,0,0,0,0,0,0,0,0,0,0,0,0,0],"split_type":[0,0,0,0,0,0,0,0,0,0,0,0,0,0,0,0,0,0,0,0,0,0,0,0,0,0,0,0,0,0,0,0,0,0,0,0,0,0,0,0,0],"sum_hessian":[6.077E3,4.549E3,1.528E3,4.548E3,1E0,2.7E1,1.501E3,4.546E3,2E0,1.1E1,1.6E1,1.424E3,7.7E1,4.545E3,1E0,1E0,1E0,6E0,5E0,1.5E1,1E0,8.19E2,6.05E2,2.2E1,5.5E1,4.541E3,4E0,4E0,2E0,1E0,4E0,3E0,1.2E1,7.2E1,7.47E2,1.35E2,4.7E2,3E0,1.9E1,4.9E1,6E0],"tree_param":{"num_deleted":"0","num_feature":"160","num_nodes":"41","size_leaf_vector":"1"}},{"base_weights":[2.8235032E-3,-1.5337522E-1,4.9521032E-1,-1.5605076E-1,5.7945746E-1,5.3965217E-1,3.1105671E-2,-1.5322727E-1,-1.4364278E0,-2.8110962E-2,2.043244E0,5.132287E-1,1.6728461E0,-1.13962166E-1,1.1412187E0,-1.5425909E-1,2.2909053E-1,1.2231434E-2,-1.623212E0,1.2676977E0,-5.436233E-1,2.906754E-1,4.986523E-2,8.02344E-1,4.3576506E-1,4.239939E0,7.0721173E-1,2.1128407E0,-1.720723E-1,2.554715E0,-4.149299E-1,-1.5720768E-2,3.1479985E-2,-6.542054E-2,-1.806613E-1,-1.5454984E-2,1.7932968E-1,1.6404584E-1,-9.685722E-2,7.207869E-2,2.8915304E-1,2.6854658E-2,5.945733E-2,4.9727654E-1,-4.4492163E-2,2.048546E-2,3.9879748E-1,3.8968462E-1,-7.275851E-2,-1.0325091E-1,-5.961934E-3,-2.3948789E-2,3.5260305E-1,6.695478E-2,-8.880138E-2],"categories":[],"categories_nodes":[],"categories_segments":[],"categories_sizes":[],"default_left":[0,0,0,0,0,0,0,0,0,0,0,1,0,0,0,0,0,0,0,0,0,0,0,1,0,0,0,0,0,0,0,0,0,0,0,0,0,0,0,0,0,0,0,0,0,0,0,0,0,0,0,0,0,0,0],"id":16,"left_children":[1,3,5,7,9,11,13,15,17,19,21,23,25,27,29,31,-1,-1,33,35,37,-1,-1,39,41,43,45,47,49,51,53,-1,-1,-1,-1,-1,-1,-1,-1,-1,-1,-1,-1,-1,-1,-1,-1,-1,-1,-1,-1,-1,-1,-1,-1],"loss_changes":[4.6753613E2,9.139145E0,3.0179169E1,1.64059E1,1.51763935E1,3.9145172E1,2.0904434E1,1.192897E1,3.1100254E0,9.37322E0,5.219393E0,2.8921814E1,7.1367676E1,1.5244542E1,3.405418E1,6.396332E0,0E0,0E0,4.1755486E-1,3.267282E0,1.0870132E1,0E0,0E0,4.4772552E1,2.7272354E1,2.9677979E1,3.7089684E1,1.8037292E1,1.0872172E1,2.255687E1,4.6989584E0,0E0,0E0,0E0,0E0,0E0,0E0,0E0,0E0,0E0,0E0,0E0,0E0,0E0,0E0,0E0,0E0,0E0,0E0,0E0,0E0,0E0,0E0,0E0,0E0],"parents":[2147483647,0,0,1,1,2,2,3,3,4,4,5,5,6,6,7,7,8,8,9,9,10,10,11,11,12,12,13,13,14,14,15,15,18,18,19,19,20,20,23,23,24,24,25,25,26,26,27,27,28,28,29,29,30,30],"right_children":[2,4,6,8,10,12,14,16,18,20,22,24,26,28,30,32,-1,-1,34,36,38,-1,-1,40,42,44,46,48,50,52,54,-1,-1,-1,-1,-1,-1,-1,-1,-1,-1,-1,-1,-1,-1,-1,-1,-1,-1,-1,-1,-1,-1,-1,-1],"split_conditions":[1.3333334E0,2.7E0,1.175E1,2E0,6.6666665E0,1.3E1,1E0,1E0,2.125E0,8.34507E-1,1.72779E0,2.25E0,1.7650694E0,1.4698324E0,2.2307668E0,5.5E1,2.2909053E-1,1.2231434E-2,1E0,1.5E0,-1.45E2,2.906754E-1,4.986523E-2,3.142857E0,1.5E1,1.075E1,5E0,4.3333335E0,1.7362891E0,1.15E1,2.008298E0,-1.5720768E-2,3.1479985E-2,-6.542054E-2,-1.806613E-1,-1.5454984E-2,1.7932968E-1,1.6404584E-1,-9.685722E-2,7.207869E-2,2.8915304E-1,2.6854658E-2,5.945733E-2,4.9727654E-1,-4.4492163E-2,2.048546E-2,3.9879748E-1,3.8968462E-1,-7.275851E-2,-1.0325091E-1,-5.961934E-3,-2.3948789E-2,3.5260305E-1,6.695478E-2,-8.880138E-2],"split_indices":[0,3,9,1,8,8,24,62,2,4,4,1,4,6,4,13,0,0,0,1,12,0,0,2,12,9,2,0,6,8,5,0,0,0,0,0,0,0,0,0,0,0,0,0,0,0,0,0,0,0,0,0,0,0,0],"split_type":[0,0,0,0,0,0,0,0,0,0,0,0,0,0,0,0,0,0,0,0,0,0,0,0,0,0,0,0,0,0,0,0,0,0,0,0,0,0,0,0,0,0,0,0,0,0,0,0,0,0,0,0,0,0,0],"sum_hessian":[6.077E3,4.614E3,1.463E3,4.598E3,1.6E1,1.335E3,1.28E2,4.589E3,9E0,1.2E1,4E0,1.306E3,2.9E1,1.14E2,1.4E1,4.588E3,1E0,1E0,8E0,3E0,9E0,2E0,2E0,2.74E2,1.032E3,7E0,2.2E1,2E0,1.12E2,7E0,7E0,4.56E3,2.8E1,2E0,6E0,1E0,2E0,1E0,8E0,2.65E2,9E0,5.04E2,5.28E2,6E0,1E0,2E1,2E0,1E0,1E0,1.2E1,1E2,2E0,5E0,2E0,5E0],"tree_param":{"num_deleted":"0","num_feature":"160","num_nodes":"55","size_leaf_vector":"1"}},{"base_weights":[2.9387693E-3,-1.4209163E-1,4.345185E-1,-1.4267239E-1,1.24988236E-1,1.3043095E0,4.1801473E-1,-1.4234011E-1,-5.9875567E-2,-2.5270757E-1,2.326656E0,-4.6351644E-1,4.3324953E-1,-1.4242736E-1,1.2715245E-2,3.8188818E-1,-9.5095134E-1,2.5928543E0,-9.662565E-2,4.5619774E-1,-1.7591447E0,2.0172877E0,4.1232425E-1,-1.4221202E-2,-1.8024415E-2,-4.4225764E-2,1.6281685E-1,-1.8912662E-2,-1.065491E-1,3.5275638E-1,8.871471E-2,-9.532634E-3,2.877911E-1,-2.1742797E-1,-8.2612686E-2,2.6136336E-1,-1.752073E-2,-2.7951512E-2,4.3860234E-2],"categories":[],"categories_nodes":[],"categories_segments":[],"categories_sizes":[],"default_left":[0,0,0,0,0,0,0,0,0,0,1,0,0,0,0,0,0,0,0,0,0,0,0,0,0,0,0,0,0,0,0,0,0,0,0,0,0,0,0],"id":17,"left_children":[1,3,5,7,-1,9,11,13,-1,15,17,19,21,23,-1,25,27,29,-1,31,33,35,37,-1,-1,-1,-1,-1,-1,-1,-1,-1,-1,-1,-1,-1,-1,-1,-1],"loss_changes":[3.8049704E2,3.8565292E0,2.140332E1,6.04187E-1,0E0,4.5158676E1,2.037259E1,1.2502289E-1,0E0,5.6803875E0,1.7407005E1,3.1784315E1,4.812552E1,1.1383057E-2,0E0,7.9098873E0,3.2204247E-1,2.2379997E1,0E0,2.164447E1,2.4643784E0,2.530014E1,2.6647568E1,0E0,0E0,0E0,0E0,0E0,0E0,0E0,0E0,0E0,0E0,0E0,0E0,0E0,0E0,0E0,0E0],"parents":[2147483647,0,0,1,1,2,2,3,3,5,5,6,6,7,7,9,9,10,10,11,11,12,12,13,13,15,15,16,16,17,17,19,19,20,20,21,21,22,22],"right_children":[2,4,6,8,-1,10,12,14,-1,16,18,20,22,24,-1,26,28,30,-1,32,34,36,38,-1,-1,-1,-1,-1,-1,-1,-1,-1,-1,-1,-1,-1,-1,-1,-1],"split_conditions":[1E0,1E0,6.780208E-1,1.3333334E0,1.24988236E-1,1.8E0,8.421649E-1,1.2E0,-5.9875567E-2,5.5E1,2.6666667E0,8.6074674E-1,8.926769E-1,5.5E1,1.2715245E-2,6.678813E-1,5.232796E-1,1.45E2,-9.662565E-2,9.059827E-1,1.35E2,3.1E2,4E1,-1.4221202E-2,-1.8024415E-2,-4.4225764E-2,1.6281685E-1,-1.8912662E-2,-1.065491E-1,3.5275638E-1,8.871471E-2,-9.532634E-3,2.877911E-1,-2.1742797E-1,-8.2612686E-2,2.6136336E-1,-1.752073E-2,-2.7951512E-2,4.3860234E-2],"split_indices":[3,2,5,0,0,3,6,1,0,13,0,5,7,13,0,4,6,12,0,4,12,12,13,0,0,0,0,0,0,0,0,0,0,0,0,0,0,0,0],"split_type":[0,0,0,0,0,0,0,0,0,0,0,0,0,0,0,0,0,0,0,0,0,0,0,0,0,0,0,0,0,0,0,0,0,0,0,0,0,0,0],"sum_hessian":[6.077E3,4.549E3,1.528E3,4.548E3,1E0,2.7E1,1.501E3,4.546E3,2E0,1.1E1,1.6E1,2.5E1,1.476E3,4.545E3,1E0,6E0,5E0,1.5E1,1E0,1.5E1,1E1,1.8E1,1.458E3,4.524E3,2.1E1,4E0,2E0,1E0,4E0,9E0,6E0,1.3E1,2E0,6E0,4E0,1.4E1,4E0,5.3E1,1.405E3],"tree_param":{"num_deleted":"0","num_feature":"160","num_nodes":"39","size_leaf_vector":"1"}},{"base_weights":[2.7471625E-3,-1.2464725E-1,4.0433353E-1,-1.2699595E-1,5.180795E-1,4.4413227E-1,-1.0979898E-2,-1.24291494E-1,-1.3556443E0,-1.1255734E0,9.5068896E-1,4.2576063E-1,1.9331837E0,-1.4361413E-1,1.0066144E0,-1.2525754E-1,2.15443E-1,9.426856E-3,-1.52722E0,-1.6875243E-2,-1.388263E-1,2.2651218E-1,1.9840376E-1,4.7723708E-1,9.035784E-2,8.3835846E-1,4.1741276E-1,1.9779586E0,-1.9866814E-1,2.4885292E0,-2.578318E-1,-1.2676193E-2,5.762821E-2,-6.398318E-2,-1.6893551E-1,-8.171529E-2,1.377391E-1,4.4656362E-2,1.6422378E-1,1.3114648E-1,-9.1421595E-3,1.6166802E-1,-5.746279E-2,3.680074E-1,-7.13136E-2,4.762118E-2,-3.2313865E-2,4.8904475E-2,3.8658813E-1,-9.9670194E-2,2.826565E-1],"categories":[],"categories_nodes":[],"categories_segments":[],"categories_sizes":[],"default_left":[0,0,0,0,0,0,0,0,0,0,0,0,0,0,0,0,0,0,0,0,0,0,0,0,0,1,0,0,0,0,0,0,0,0,0,0,0,0,0,0,0,0,0,0,0,0,0,0,0,0,0],"id":18,"left_children":[1,3,5,7,9,11,13,15,17,19,21,23,25,27,29,31,-1,-1,33,-1,-1,-1,35,37,39,41,-1,43,45,47,49,-1,-1,-1,-1,-1,-1,-1,-1,-1,-1,-1,-1,-1,-1,-1,-1,-1,-1,-1,-1],"loss_changes":[3.1100003E2,7.032501E0,2.4203262E1,1.5113213E1,1.3158087E1,3.5725006E1,1.7555416E1,1.037397E1,2.6316662E0,7.711148E-1,1.3394186E1,2.2764404E1,3.575566E1,1.3825084E1,2.8748638E1,4.91626E0,0E0,0E0,2.1398735E-1,0E0,0E0,0E0,1.3098824E1,4.018277E1,3.940896E1,1.4126084E1,0E0,1.636605E1,9.646183E0,1.7387371E1,2.3327961E1,0E0,0E0,0E0,0E0,0E0,0E0,0E0,0E0,0E0,0E0,0E0,0E0,0E0,0E0,0E0,0E0,0E0,0E0,0E0,0E0],"parents":[2147483647,0,0,1,1,2,2,3,3,4,4,5,5,6,6,7,7,8,8,9,9,10,10,11,11,12,12,13,13,14,14,15,15,18,18,22,22,23,23,24,24,25,25,27,27,28,28,29,29,30,30],"right_children":[2,4,6,8,10,12,14,16,18,20,22,24,26,28,30,32,-1,-1,34,-1,-1,-1,36,38,40,42,-1,44,46,48,50,-1,-1,-1,-1,-1,-1,-1,-1,-1,-1,-1,-1,-1,-1,-1,-1,-1,-1,-1,-1],"split_conditions":[1.3333334E0,2.7E0,1.175E1,2E0,1.2443566E0,5E0,1E0,1E0,2.125E0,1.5E0,1.4735936E0,9.571428E0,1.2E1,1.4698324E0,2.261554E0,2E0,2.15443E-1,9.426856E-3,1E0,-1.6875243E-2,-1.388263E-1,2.2651218E-1,6.5E0,1.2333333E1,1.5301172E0,5E0,4.1741276E-1,4.3333335E0,3E0,2.0678406E0,4.8333335E0,-1.2676193E-2,5.762821E-2,-6.398318E-2,-1.6893551E-1,-8.171529E-2,1.377391E-1,4.4656362E-2,1.6422378E-1,1.3114648E-1,-9.1421595E-3,1.6166802E-1,-5.746279E-2,3.680074E-1,-7.13136E-2,4.762118E-2,-3.2313865E-2,4.8904475E-2,3.8658813E-1,-9.9670194E-2,2.826565E-1],"split_indices":[0,3,9,1,6,2,24,62,2,1,6,10,8,6,5,2,0,0,0,0,0,0,8,8,7,3,0,0,1,5,2,0,0,0,0,0,0,0,0,0,0,0,0,0,0,0,0,0,0,0,0],"split_type":[0,0,0,0,0,0,0,0,0,0,0,0,0,0,0,0,0,0,0,0,0,0,0,0,0,0,0,0,0,0,0,0,0,0,0,0,0,0,0,0,0,0,0,0,0,0,0,0,0,0,0],"sum_hessian":[6.077E3,4.614E3,1.463E3,4.598E3,1.6E1,1.335E3,1.28E2,4.589E3,9E0,3E0,1.3E1,1.32E3,1.5E1,1.14E2,1.4E1,4.588E3,1E0,1E0,8E0,1E0,2E0,4E0,9E0,1.144E3,1.76E2,1.1E1,4E0,2E0,1.12E2,6E0,8E0,4.579E3,9E0,2E0,6E0,5E0,4E0,1.116E3,2.8E1,2.2E1,1.54E2,7E0,4E0,1E0,1E0,1.7E1,9.5E1,3E0,3E0,7E0,1E0],"tree_param":{"num_deleted":"0","num_feature":"160","num_nodes":"51","size_leaf_vector":"1"}},{"base_weights":[2.792751E-3,-1.1214704E-1,3.6511812E-1,-1.1428834E-1,4.7373244E-1,6.034602E-1,3.0674013E-1,-1.1180561E-1,-1.242429E0,-5.1270448E-2,1.7439934E0,-8.6922246E-1,6.765043E-1,2.347392E0,2.960405E-1,-1.1272198E-1,2.0467086E-1,8.955515E-3,-1.4003779E0,1.0579171E0,-4.8981842E-1,2.562313E-1,3.4434255E-2,3.8176998E-1,-1.4077965E0,2.48945E0,6.196501E-1,3.2920638E-1,-1.1879825E-1,-6.630797E-2,3.617898E-1,-1.1526628E-2,2.9132083E-2,-5.9717633E-2,-1.5445532E-1,-1.603148E-2,1.5174328E-1,1.4232492E-1,-8.605203E-2,1.2142702E-1,-5.7798695E-2,-1.7678753E-1,-6.941427E-2,3.359898E-1,1.2952018E-1,7.370302E-2,-2.65392E-2,1.01529196E-1,-2.6253194E-2,9.231504E-2,2.4717674E-2],"categories":[],"categories_nodes":[],"categories_segments":[],"categories_sizes":[],"default_left":[0,0,1,0,0,0,0,0,0,0,0,0,0,0,0,0,0,0,0,0,0,0,0,0,0,0,0,0,0,0,0,0,0,0,0,0,0,0,0,0,0,0,0,0,0,0,0,0,0,0,0],"id":19,"left_children":[1,3,5,7,9,11,13,15,17,19,21,23,25,27,29,31,-1,-1,33,35,37,-1,-1,39,41,43,45,-1,-1,47,49,-1,-1,-1,-1,-1,-1,-1,-1,-1,-1,-1,-1,-1,-1,-1,-1,-1,-1,-1,-1],"loss_changes":[2.5316292E2,5.8438416E0,2.0184906E1,1.2742249E1,1.1426558E1,3.1460869E1,2.5025757E1,9.309715E0,2.2292662E0,6.841803E0,4.844496E0,9.969981E0,2.6699577E1,2.394952E1,2.7969727E1,4.751087E0,0E0,0E0,1.1984444E-1,2.4824529E0,8.316513E0,0E0,0E0,4.696822E0,1.342556E0,3.9645004E0,2.793325E1,0E0,0E0,3.8681232E1,6.366069E1,0E0,0E0,0E0,0E0,0E0,0E0,0E0,0E0,0E0,0E0,0E0,0E0,0E0,0E0,0E0,0E0,0E0,0E0,0E0,0E0],"parents":[2147483647,0,0,1,1,2,2,3,3,4,4,5,5,6,6,7,7,8,8,9,9,10,10,11,11,12,12,13,13,14,14,15,15,18,18,19,19,20,20,23,23,24,24,25,25,26,26,29,29,30,30],"right_children":[2,4,6,8,10,12,14,16,18,20,22,24,26,28,30,32,-1,-1,34,36,38,-1,-1,40,42,44,46,-1,-1,48,50,-1,-1,-1,-1,-1,-1,-1,-1,-1,-1,-1,-1,-1,-1,-1,-1,-1,-1,-1,-1],"split_conditions":[1.3333334E0,2.7E0,2.25E0,2E0,6.6666665E0,7.354185E-1,2E0,1E0,2.125E0,8.34507E-1,1.72779E0,5.0785536E-1,5.0785536E-1,3E0,1.2764835E0,5.5E1,2.0467086E-1,8.955515E-3,1E0,1.5E0,-1.45E2,2.562313E-1,3.4434255E-2,6.243504E-1,5.3E1,2E0,2.6E2,3.2920638E-1,-1.1879825E-1,8.699548E-1,1.447325E0,-1.1526628E-2,2.9132083E-2,-5.9717633E-2,-1.5445532E-1,-1.603148E-2,1.5174328E-1,1.4232492E-1,-8.605203E-2,1.2142702E-1,-5.7798695E-2,-1.7678753E-1,-6.941427E-2,3.359898E-1,1.2952018E-1,7.370302E-2,-2.65392E-2,1.01529196E-1,-2.6253194E-2,9.231504E-2,2.4717674E-2],"split_indices":[0,3,1,1,8,6,8,62,2,4,4,4,4,1,7,13,0,0,0,1,12,0,0,5,13,1,12,0,0,5,7,0,0,0,0,0,0,0,0,0,0,0,0,0,0,0,0,0,0,0,0],"split_type":[0,0,0,0,0,0,0,0,0,0,0,0,0,0,0,0,0,0,0,0,0,0,0,0,0,0,0,0,0,0,0,0,0,0,0,0,0,0,0,0,0,0,0,0,0,0,0,0,0,0,0],"sum_hessian":[6.077E3,4.614E3,1.463E3,4.598E3,1.6E1,2.86E2,1.177E3,4.589E3,9E0,1.2E1,4E0,1.3E1,2.73E2,5E0,1.172E3,4.588E3,1E0,1E0,8E0,3E0,9E0,2E0,2E0,4E0,9E0,7E0,2.66E2,4E0,1E0,1.8E2,9.92E2,4.56E3,2.8E1,2E0,6E0,1E0,2E0,1E0,8E0,2E0,2E0,5E0,4E0,3E0,4E0,2.35E2,3.1E1,2.7E1,1.53E2,1.67E2,8.25E2],"tree_param":{"num_deleted":"0","num_feature":"160","num_nodes":"51","size_leaf_vector":"1"}},{"base_weights":[2.7162763E-3,-9.7620904E-2,3.4277403E-1,-1.0127551E-1,1.2261086E0,1.5143405E0,3.1483245E-1,-1.0312221E-1,1.3551086E0,-2.8492928E-1,3.700755E0,6.434695E-1,2.5880697E0,3.6114183E-1,-9.823171E-3,-1.0052617E-1,-9.032698E-1,2.9391924E-1,-1.7173119E-1,-7.441745E-1,8.816193E-2,4.5605347E-1,1.6073905E-1,-2.6707822E-1,2.2425625E0,3.265427E0,7.831949E-2,3.5473162E-1,3.9754176E-1,-7.310011E-2,1.7319299E0,-1.0389495E-2,1.0255696E-1,-1.4318731E-1,-9.459857E-3,8.237964E-3,-4.6703186E-2,-8.3272524E-2,-1.0643506E-2,-1.08599566E-1,8.693247E-2,3.7370595E-1,1.8742472E-2,1.7646252E-1,4.221991E-1,1.4041498E-1,-8.316739E-2,1.7383313E-2,4.669975E-2,2.7225736E-1,-1.0674796E-2,4.126787E-3,3.4088358E-1],"categories":[],"categories_nodes":[],"categories_segments":[],"categories_sizes":[],"default_left":[0,0,0,0,0,0,0,0,0,0,0,0,0,0,0,0,0,0,0,0,0,0,0,0,0,0,0,0,0,0,0,0,0,0,0,0,0,0,0,0,0,0,0,0,0,0,0,0,0,0,0,0,0],"id":20,"left_children":[1,3,5,7,9,11,13,15,17,19,21,23,25,27,29,31,33,-1,35,37,-1,-1,-1,39,41,43,45,47,-1,49,51,-1,-1,-1,-1,-1,-1,-1,-1,-1,-1,-1,-1,-1,-1,-1,-1,-1,-1,-1,-1,-1,-1],"loss_changes":[2.0741747E2,2.2832382E1,4.48618E1,1.2732025E1,4.9665146E1,2.8257195E1,2.0360397E1,9.624332E0,1.5016601E1,5.477665E0,1.668602E0,2.8263899E1,2.3544235E1,2.6044205E1,1.8862783E1,1.7795948E1,6.2765408E0,0E0,3.386303E-1,3.066752E-1,0E0,0E0,0E0,1.3042146E1,2.0799362E1,8.341515E0,5.9937816E0,2.3964355E1,0E0,1.5811914E1,1.6869814E1,0E0,0E0,0E0,0E0,0E0,0E0,0E0,0E0,0E0,0E0,0E0,0E0,0E0,0E0,0E0,0E0,0E0,0E0,0E0,0E0,0E0,0E0],"parents":[2147483647,0,0,1,1,2,2,3,3,4,4,5,5,6,6,7,7,8,8,9,9,10,10,11,11,12,12,13,13,14,14,15,15,16,16,18,18,19,19,23,23,24,24,25,25,26,26,27,27,29,29,30,30],"right_children":[2,4,6,8,10,12,14,16,18,20,22,24,26,28,30,32,34,-1,36,38,-1,-1,-1,40,42,44,46,48,-1,50,52,-1,-1,-1,-1,-1,-1,-1,-1,-1,-1,-1,-1,-1,-1,-1,-1,-1,-1,-1,-1,-1,-1],"split_conditions":[1.6666666E0,3.142857E0,8.926769E-1,1E0,4.9E1,8.466311E-1,2.1452708E0,2.8888888E0,1.2972634E0,3.9166667E0,2.25E0,2.090909E0,3.1E2,1.3416667E1,1E0,2.25E0,1.4768302E0,2.9391924E-1,1.3333334E0,3.6666667E0,8.816193E-2,4.5605347E-1,1.6073905E-1,3.6666667E0,2.6666667E0,9.217616E-1,1.5E0,2.9E0,3.9754176E-1,6.6666665E0,4.5E0,-1.0389495E-2,1.0255696E-1,-1.4318731E-1,-9.459857E-3,8.237964E-3,-4.6703186E-2,-8.3272524E-2,-1.0643506E-2,-1.08599566E-1,8.693247E-2,3.7370595E-1,1.8742472E-2,1.7646252E-1,4.221991E-1,1.4041498E-1,-8.316739E-2,1.7383313E-2,4.669975E-2,2.7225736E-1,-1.0674796E-2,4.126787E-3,3.4088358E-1],"split_indices":[0,2,7,27,13,6,7,3,6,3,1,3,12,11,42,1,5,0,0,2,0,0,0,9,0,5,1,3,0,10,1,0,0,0,0,0,0,0,0,0,0,0,0,0,0,0,0,0,0,0,0,0,0],"split_type":[0,0,0,0,0,0,0,0,0,0,0,0,0,0,0,0,0,0,0,0,0,0,0,0,0,0,0,0,0,0,0,0,0,0,0,0,0,0,0,0,0,0,0,0,0,0,0,0,0,0,0,0,0],"sum_hessian":[6.077E3,4.693E3,1.384E3,4.681E3,1.2E1,3.1E1,1.353E3,4.676E3,5E0,8E0,4E0,1.8E1,1.3E1,1.184E3,1.69E2,4.662E3,1.4E1,2E0,3E0,6E0,2E0,2E0,2E0,1.2E1,6E0,1E1,3E0,1.183E3,1E0,1.64E2,5E0,4.649E3,1.3E1,8E0,6E0,2E0,1E0,5E0,1E0,7E0,5E0,3E0,3E0,5E0,5E0,1E0,2E0,4.54E2,7.29E2,1E0,1.63E2,3E0,2E0],"tree_param":{"num_deleted":"0","num_feature":"160","num_nodes":"53","size_leaf_vector":"1"}},{"base_weights":[2.9219263E-3,-8.7687105E-2,3.1000918E-1,-9.110632E-2,1.1505007E0,1.3949906E0,2.8413814E-1,-9.2822924E-2,1.2621734E0,-2.5707573E-1,3.4540381E0,5.9863734E-1,2.3761134E0,3.0094483E-1,-5.8587074E-1,-9.045379E-2,-8.231193E-1,2.7432463E-1,-1.6417442E-1,-6.8317366E-1,8.228447E-2,4.2564994E-1,1.5002312E-1,-2.4203704E-1,2.0743701E0,2.9933083E0,8.479941E-2,4.2425236E-1,1.6912816E-1,3.7088197E-1,-9.0601116E-1,-9.350768E-3,9.303381E-2,-1.3045955E-1,-8.649002E-3,7.688762E-3,-4.436803E-2,-8.23374E-2,-2.217819E-2,-9.9097095E-2,7.96881E-2,3.0937067E-1,-3.1598058E-2,1.617573E-1,3.8701588E-1,1.3339423E-1,-7.76229E-2,3.916983E-2,3.1342512E-1,-6.402181E-2,2.721232E-2,-1.16545156E-1,1.3850358E-1],"categories":[],"categories_nodes":[],"categories_segments":[],"categories_sizes":[],"default_left":[0,0,0,0,0,0,0,0,0,0,0,0,0,0,0,0,0,0,0,0,0,0,0,0,0,0,0,0,0,0,0,0,0,0,0,0,0,0,0,0,0,0,0,0,0,0,0,0,0,0,0,0,0],"id":21,"left_children":[1,3,5,7,9,11,13,15,17,19,21,23,25,27,29,31,33,-1,35,37,-1,-1,-1,39,41,43,45,47,49,-1,51,-1,-1,-1,-1,-1,-1,-1,-1,-1,-1,-1,-1,-1,-1,-1,-1,-1,-1,-1,-1,-1,-1],"loss_changes":[1.6914679E2,1.9977467E1,3.8480057E1,1.0993679E1,4.3039215E1,2.3579819E1,1.9974457E1,8.017544E0,1.3125519E1,4.703512E0,1.4535332E0,2.4073679E1,1.9544792E1,2.1529793E1,3.9107735E1,1.4623413E1,5.207206E0,0E0,3.0362654E-1,2.702012E-1,0E0,0E0,0E0,1.0904739E1,1.8033554E1,7.0091934E0,5.3376346E0,5.9292343E1,5.3857174E1,0E0,1.6473948E1,0E0,0E0,0E0,0E0,0E0,0E0,0E0,0E0,0E0,0E0,0E0,0E0,0E0,0E0,0E0,0E0,0E0,0E0,0E0,0E0,0E0,0E0],"parents":[2147483647,0,0,1,1,2,2,3,3,4,4,5,5,6,6,7,7,8,8,9,9,10,10,11,11,12,12,13,13,14,14,15,15,16,16,18,18,19,19,23,23,24,24,25,25,26,26,27,27,28,28,30,30],"right_children":[2,4,6,8,10,12,14,16,18,20,22,24,26,28,30,32,34,-1,36,38,-1,-1,-1,40,42,44,46,48,50,-1,52,-1,-1,-1,-1,-1,-1,-1,-1,-1,-1,-1,-1,-1,-1,-1,-1,-1,-1,-1,-1,-1,-1],"split_conditions":[1.6666666E0,3.142857E0,8.926769E-1,1E0,4.9E1,8.466311E-1,1E0,2.8888888E0,1.2972634E0,3.9166667E0,2.25E0,2.090909E0,3.1E2,7.875E0,5.2E0,2.25E0,1.4768302E0,2.7432463E-1,1.3333334E0,3.5714285E0,8.228447E-2,4.2564994E-1,1.5002312E-1,3.6666667E0,2.875E0,9.217616E-1,1.5E0,1.2333333E1,7.25E0,3.7088197E-1,9.25E0,-9.350768E-3,9.303381E-2,-1.3045955E-1,-8.649002E-3,7.688762E-3,-4.436803E-2,-8.23374E-2,-2.217819E-2,-9.9097095E-2,7.96881E-2,3.0937067E-1,-3.1598058E-2,1.617573E-1,3.8701588E-1,1.3339423E-1,-7.76229E-2,3.916983E-2,3.1342512E-1,-6.402181E-2,2.721232E-2,-1.16545156E-1,1.3850358E-1],"split_indices":[0,2,7,27,13,6,110,3,6,3,1,3,12,10,9,1,5,0,0,2,0,0,0,9,2,5,1,8,9,0,10,0,0,0,0,0,0,0,0,0,0,0,0,0,0,0,0,0,0,0,0,0,0],"split_type":[0,0,0,0,0,0,0,0,0,0,0,0,0,0,0,0,0,0,0,0,0,0,0,0,0,0,0,0,0,0,0,0,0,0,0,0,0,0,0,0,0,0,0,0,0,0,0,0,0,0,0,0,0],"sum_hessian":[6.077E3,4.693E3,1.384E3,4.681E3,1.2E1,3.1E1,1.353E3,4.676E3,5E0,8E0,4E0,1.8E1,1.3E1,1.328E3,2.5E1,4.662E3,1.4E1,2E0,3E0,6E0,2E0,2E0,2E0,1.2E1,6E0,1E1,3E0,6.85E2,6.43E2,1E0,2.4E1,4.649E3,1.3E1,8E0,6E0,2E0,1E0,4E0,2E0,7E0,5E0,4E0,2E0,5E0,5E0,1E0,2E0,6.78E2,7E0,7.2E1,5.71E2,2.2E1,2E0],"tree_param":{"num_deleted":"0","num_feature":"160","num_nodes":"53","size_leaf_vector":"1"}},{"base_weights":[3.0093319E-3,-8.446607E-2,2.621832E-1,-8.471105E-2,5.1436227E-2,-2.0251429E-1,2.8587505E-1,-8.450077E-2,-3.7483573E-2,-2.885028E-1,1.3959079E0,2.611903E-1,7.723126E-1,-8.4115155E-2,-1.5990395E-2,-3.445941E-1,1.8469885E-1,3.0526423E-1,-1.7388447E-1,3.488111E-1,1.08674854E-1,3.4167835E-1,5.6027216E-1,-8.390007E-3,-9.778306E-3,-1.0879404E-2,-8.648399E-2,3.0951882E-2,-5.7034552E-2,2.949158E-2,1.4209788E-1,-6.0995635E-2,1.935376E-2,7.812834E-2,-1.414149E-1],"categories":[],"categories_nodes":[],"categories_segments":[],"categories_sizes":[],"default_left":[0,0,0,0,0,0,0,0,0,0,0,0,0,0,0,0,0,0,0,0,0,0,0,0,0,0,0,0,0,0,0,0,0,0,0],"id":22,"left_children":[1,3,5,7,-1,9,11,13,-1,15,17,19,21,23,-1,25,-1,-1,27,29,31,-1,33,-1,-1,-1,-1,-1,-1,-1,-1,-1,-1,-1,-1],"loss_changes":[1.3781854E2,7.1032715E-1,1.694654E1,2.4554062E-1,0E0,1.071117E1,1.7329369E1,1.1861801E-1,0E0,9.260795E0,1.0933723E1,1.8550758E1,3.733711E1,5.088806E-3,0E0,8.615763E0,0E0,0E0,7.514844E-1,5.060492E1,3.1159422E1,0E0,2.9905218E1,0E0,0E0,0E0,0E0,0E0,0E0,0E0,0E0,0E0,0E0,0E0,0E0],"parents":[2147483647,0,0,1,1,2,2,3,3,5,5,6,6,7,7,9,9,10,10,11,11,12,12,13,13,15,15,18,18,19,19,20,20,22,22],"right_children":[2,4,6,8,-1,10,12,14,-1,16,18,20,22,24,-1,26,-1,-1,28,30,32,-1,34,-1,-1,-1,-1,-1,-1,-1,-1,-1,-1,-1,-1],"split_conditions":[6E-1,5E-1,-2.2E2,4E-1,5.1436227E-2,1E0,1E0,5.5E1,-3.7483573E-2,5.25E0,2.3333333E0,1.7335628E0,6.428571E0,1E0,-1.5990395E-2,1E0,1.8469885E-1,3.0526423E-1,3.5E0,1.9754033E0,6.5E0,3.4167835E-1,4.1666665E0,-8.390007E-3,-9.778306E-3,-1.0879404E-2,-8.648399E-2,3.0951882E-2,-5.7034552E-2,2.949158E-2,1.4209788E-1,-6.0995635E-2,1.935376E-2,7.812834E-2,-1.414149E-1],"split_indices":[1,0,12,1,0,27,40,13,0,2,0,5,10,105,0,14,0,0,0,4,9,0,3,0,0,0,0,0,0,0,0,0,0,0,0],"split_type":[0,0,0,0,0,0,0,0,0,0,0,0,0,0,0,0,0,0,0,0,0,0,0,0,0,0,0,0,0,0,0,0,0,0,0],"sum_hessian":[6.077E3,4.544E3,1.533E3,4.543E3,1E0,7.4E1,1.459E3,4.541E3,2E0,7.1E1,3E0,1.39E3,6.9E1,4.52E3,2.1E1,7E1,1E0,1E0,2E0,8.82E2,5.08E2,4E0,6.5E1,4.457E3,6.3E1,4.9E1,2.1E1,1E0,1E0,8.41E2,4.1E1,5.3E1,4.55E2,5.9E1,6E0],"tree_param":{"num_deleted":"0","num_feature":"160","num_nodes":"35","size_leaf_vector":"1"}},{"base_weights":[2.8325433E-3,-6.842274E-2,2.676192E-1,-6.2945455E-2,-1.200914E0,4.3610692E-1,9.713997E-2,-7.452779E-2,3.042332E-1,7.813443E-2,-1.3265322E0,2.2313201E0,3.8127333E-1,-2.9395434E-1,2.525163E-1,-7.876323E-2,3.4861127E-1,1.4658214E-1,2.052455E0,-1.6153425E0,-2.8714788E-1,3.133106E0,5.997263E-1,5.307352E-1,-5.0195497E-2,-1.7121847E0,-1.6633654E-1,2.2854471E-1,2.9281428E0,-7.5636157E-3,-1.6578719E-1,1.5864153E-1,-1.3492003E-2,5.434514E-2,-5.6105465E-2,3.2545096E-1,3.0798197E-2,-1.9247545E-1,-8.983605E-2,-3.8007695E-2,8.87487E-3,5.0917166E-1,1.00671045E-1,-7.1371175E-2,3.0266938E-1,6.799135E-2,-3.271634E-2,-1.0763414E-1,1.5240404E-2,-9.6710585E-2,-2.4255453E-1,4.769026E-2,-4.1077476E-2,1.8628327E-2,1.7802165E-1,3.3255804E-2,3.6824852E-1],"categories":[],"categories_nodes":[],"categories_segments":[],"categories_sizes":[],"default_left":[0,0,0,0,0,0,0,0,0,0,0,0,0,0,0,0,0,0,0,0,0,0,0,0,0,0,0,0,0,0,0,0,0,0,0,0,0,0,0,0,0,0,0,0,0,0,0,0,0,0,0,0,0,0,0,0,0],"id":23,"left_children":[1,3,5,7,9,11,13,15,17,-1,19,21,23,25,27,29,31,33,35,37,39,41,43,45,47,49,51,53,55,-1,-1,-1,-1,-1,-1,-1,-1,-1,-1,-1,-1,-1,-1,-1,-1,-1,-1,-1,-1,-1,-1,-1,-1,-1,-1,-1,-1],"loss_changes":[1.14694664E2,2.9636696E1,3.6982437E1,2.0299963E1,6.7636604E0,6.2937057E1,3.9086517E1,8.312714E0,3.9938065E1,0E0,6.1402245E0,2.6076607E1,4.0654152E1,3.283663E1,2.8834757E1,2.2480743E1,2.7745821E1,3.8218204E1,2.4161083E1,2.0422058E0,2.433216E-1,4.4851486E1,2.7661556E1,6.011705E1,3.4051197E1,5.626892E0,2.676815E1,2.963656E1,6.6072006E0,0E0,0E0,0E0,0E0,0E0,0E0,0E0,0E0,0E0,0E0,0E0,0E0,0E0,0E0,0E0,0E0,0E0,0E0,0E0,0E0,0E0,0E0,0E0,0E0,0E0,0E0,0E0,0E0],"parents":[2147483647,0,0,1,1,2,2,3,3,4,4,5,5,6,6,7,7,8,8,10,10,11,11,12,12,13,13,14,14,15,15,16,16,17,17,18,18,19,19,20,20,21,21,22,22,23,23,24,24,25,25,26,26,27,27,28,28],"right_children":[2,4,6,8,10,12,14,16,18,-1,20,22,24,26,28,30,32,34,36,38,40,42,44,46,48,50,52,54,56,-1,-1,-1,-1,-1,-1,-1,-1,-1,-1,-1,-1,-1,-1,-1,-1,-1,-1,-1,-1,-1,-1,-1,-1,-1,-1,-1,-1],"split_conditions":[2.4166667E0,2.6E0,1E0,1.5E0,4E0,4.75E0,0E0,1.7272727E0,1.0333333E1,7.813443E-2,1.6716439E0,5.6666665E0,3.75E0,1.2538676E0,1.3416667E1,1.5E0,3.5E0,1.4011517E0,1.05E1,1.4567157E0,2.75E0,1.0804743E0,4.2E0,1.9570535E0,1.4798386E0,3E0,4.5E1,1E0,5E0,-7.5636157E-3,-1.6578719E-1,1.5864153E-1,-1.3492003E-2,5.434514E-2,-5.6105465E-2,3.2545096E-1,3.0798197E-2,-1.9247545E-1,-8.983605E-2,-3.8007695E-2,8.87487E-3,5.0917166E-1,1.00671045E-1,-7.1371175E-2,3.0266938E-1,6.799135E-2,-3.271634E-2,-1.0763414E-1,1.5240404E-2,-9.6710585E-2,-2.4255453E-1,4.769026E-2,-4.1077476E-2,1.8628327E-2,1.7802165E-1,3.3255804E-2,3.6824852E-1],"split_indices":[3,2,14,0,9,11,12,3,8,0,7,8,3,7,11,2,9,4,9,4,1,5,1,7,5,0,13,35,0,0,0,0,0,0,0,0,0,0,0,0,0,0,0,0,0,0,0,0,0,0,0,0,0,0,0,0,0],"split_type":[0,0,0,0,0,0,0,0,0,0,0,0,0,0,0,0,0,0,0,0,0,0,0,0,0,0,0,0,0,0,0,0,0,0,0,0,0,0,0,0,0,0,0,0,0,0,0,0,0,0,0,0,0,0,0,0,0],"sum_hessian":[6.077E3,4.789E3,1.288E3,4.767E3,2.2E1,6.47E2,6.41E2,4.622E3,1.45E2,1E0,2.1E1,1.8E1,6.29E2,1.82E2,4.59E2,4.577E3,4.5E1,1.34E2,1.1E1,1.6E1,5E0,1.1E1,7E0,4.67E2,1.62E2,1.4E1,1.68E2,4.56E2,3E0,4.569E3,8E0,1.2E1,3.3E1,8.6E1,4.8E1,6E0,5E0,1E1,6E0,4E0,1E0,5E0,6E0,5E0,2E0,3.98E2,6.9E1,2.6E1,1.36E2,8E0,6E0,4.6E1,1.22E2,4.45E2,1.1E1,1E0,2E0],"tree_param":{"num_deleted":"0","num_feature":"160","num_nodes":"57","size_leaf_vector":"1"}},{"base_weights":[2.7372628E-3,-6.156106E-2,2.416715E-1,-5.6582477E-2,-1.0909665E0,3.9370617E-1,8.78395E-2,-6.708111E-2,2.7623788E-1,7.4227706E-2,-1.2080356E0,2.0524588E0,3.430554E-1,2.9145716E-2,9.945884E-1,-7.092478E-2,3.1690565E-1,1.3191086E-1,1.8768967E0,-1.9071072E0,-7.546616E-1,3.5509286E0,1.087709E0,4.777371E-1,-4.5742806E-2,2.2149085E-1,-3.0759072E-1,2.0076895E0,-1.775016E-1,-6.80742E-3,-1.5105055E-1,1.4399771E-1,-1.2182474E-2,6.741574E-2,-3.3786234E-2,2.9755518E-1,2.8231679E-2,-8.2133904E-2,-2.3943003E-1,-1.0339036E-1,-2.878275E-2,4.111364E-1,9.415842E-3,1.9370142E-1,-1.3074814E-1,6.120927E-2,-2.9491453E-2,-9.726938E-2,1.3727486E-2,-2.0342885E-2,4.2656157E-2,-1.726893E-1,-2.0275032E-2,6.612356E-2,2.9624268E-1,1.5186245E-2,-1.1300933E-1],"categories":[],"categories_nodes":[],"categories_segments":[],"categories_sizes":[],"default_left":[0,0,0,0,0,0,0,0,0,0,0,0,0,0,0,0,0,0,0,0,0,0,0,0,0,0,0,0,0,0,0,0,0,0,0,0,0,0,0,0,0,0,0,0,0,0,0,0,0,0,0,0,0,0,0,0,0],"id":24,"left_children":[1,3,5,7,9,11,13,15,17,-1,19,21,23,25,27,29,31,33,35,37,39,41,43,45,47,49,51,53,55,-1,-1,-1,-1,-1,-1,-1,-1,-1,-1,-1,-1,-1,-1,-1,-1,-1,-1,-1,-1,-1,-1,-1,-1,-1,-1,-1,-1],"loss_changes":[9.3391624E1,2.448693E1,3.011229E1,1.667868E1,5.8328686E0,5.373899E1,3.4138588E1,6.845644E0,3.348109E1,0E0,5.533478E0,2.360495E1,3.3011185E1,3.9188976E1,4.666675E1,1.8683638E1,2.28408E1,3.461671E1,2.0182667E1,2.2652988E0,1.6578093E0,1.3173958E1,2.8977823E1,4.8763626E1,2.7786215E1,3.3635128E1,3.2385925E1,2.5036842E1,6.1328588E0,0E0,0E0,0E0,0E0,0E0,0E0,0E0,0E0,0E0,0E0,0E0,0E0,0E0,0E0,0E0,0E0,0E0,0E0,0E0,0E0,0E0,0E0,0E0,0E0,0E0,0E0,0E0,0E0],"parents":[2147483647,0,0,1,1,2,2,3,3,4,4,5,5,6,6,7,7,8,8,10,10,11,11,12,12,13,13,14,14,15,15,16,16,17,17,18,18,19,19,20,20,21,21,22,22,23,23,24,24,25,25,26,26,27,27,28,28],"right_children":[2,4,6,8,10,12,14,16,18,-1,20,22,24,26,28,30,32,34,36,38,40,42,44,46,48,50,52,54,56,-1,-1,-1,-1,-1,-1,-1,-1,-1,-1,-1,-1,-1,-1,-1,-1,-1,-1,-1,-1,-1,-1,-1,-1,-1,-1,-1,-1],"split_conditions":[2.4166667E0,2.6E0,1E0,1.5E0,4E0,4.75E0,4.714286E0,1.7272727E0,1.0333333E1,7.4227706E-2,5.818182E0,4.2E0,3.75E0,3.6E0,2.173966E0,1.5E0,3.5E0,5.125E0,1.05E1,1.0950066E0,1E0,4.6666665E0,1.35E2,1.9570535E0,1.4798386E0,2E1,4E1,1.8514383E0,5.3333335E0,-6.80742E-3,-1.5105055E-1,1.4399771E-1,-1.2182474E-2,6.741574E-2,-3.3786234E-2,2.9755518E-1,2.8231679E-2,-8.2133904E-2,-2.3943003E-1,-1.0339036E-1,-2.878275E-2,4.111364E-1,9.415842E-3,1.9370142E-1,-1.3074814E-1,6.120927E-2,-2.9491453E-2,-9.726938E-2,1.3727486E-2,-2.0342885E-2,4.2656157E-2,-1.726893E-1,-2.0275032E-2,6.612356E-2,2.9624268E-1,1.5186245E-2,-1.1300933E-1],"split_indices":[3,2,14,0,9,11,2,3,8,0,11,9,3,1,5,2,9,10,9,6,14,0,12,7,5,12,13,7,3,0,0,0,0,0,0,0,0,0,0,0,0,0,0,0,0,0,0,0,0,0,0,0,0,0,0,0,0],"split_type":[0,0,0,0,0,0,0,0,0,0,0,0,0,0,0,0,0,0,0,0,0,0,0,0,0,0,0,0,0,0,0,0,0,0,0,0,0,0,0,0,0,0,0,0,0,0,0,0,0,0,0,0,0,0,0,0,0],"sum_hessian":[6.077E3,4.789E3,1.288E3,4.767E3,2.2E1,6.47E2,6.41E2,4.622E3,1.45E2,1E0,2.1E1,1.8E1,6.29E2,6.03E2,3.8E1,4.577E3,4.5E1,1.34E2,1.1E1,7E0,1.4E1,6E0,1.2E1,4.67E2,1.62E2,3.84E2,2.19E2,2E1,1.8E1,4.569E3,8E0,1.2E1,3.3E1,6.2E1,7.2E1,6E0,5E0,3E0,4E0,8E0,6E0,5E0,1E0,9E0,3E0,3.98E2,6.9E1,2.6E1,1.36E2,1.25E2,2.59E2,1.4E1,2.05E2,9E0,1.1E1,1.4E1,4E0],"tree_param":{"num_deleted":"0","num_feature":"160","num_nodes":"57","size_leaf_vector":"1"}},{"base_weights":[2.5424245E-3,-4.4764563E-2,2.7056068E-1,-4.9139533E-2,8.5704505E-1,7.8334725E-1,2.1207324E-1,-4.5143254E-2,-8.0468845E-1,3.0246263E0,-1.539379E-1,-6.6449064E-1,1.4172542E0,-1.9365065E-1,2.3028943E-1,-4.9211793E-2,1.255034E0,-1.1163512E0,3.649273E-1,3.9307342E0,-1.659065E-1,1.7401326E0,-6.4876086E-1,8.3439875E-1,-1.1793373E0,-1.0535121E-3,2.0031E0,-7.184203E-2,3.3078784E-1,-5.0254534E-3,1.2923236E-1,4.1852012E-2,4.740421E-1,-1.3269602E-1,9.406366E-2,4.2661792E-1,9.590318E-2,-3.0350557E-3,2.3404105E-1,4.9754478E-2,-1.4682473E-1,-4.0215604E-2,2.1714926E-1,3.1008227E-2,-1.7572497E-1,2.782835E-1,-1.1145388E-1,2.6767716E-1,2.7208129E-2,-2.1145998E-2,1.4763941E-1,-1.1607491E-1,3.858438E-2],"categories":[],"categories_nodes":[],"categories_segments":[],"categories_sizes":[],"default_left":[0,0,0,0,0,0,0,0,0,0,0,1,0,0,0,0,0,0,0,0,0,0,0,0,0,0,0,0,0,0,0,0,0,0,0,0,0,0,0,0,0,0,0,0,0,0,0,0,0,0,0,0,0],"id":25,"left_children":[1,3,5,7,9,11,13,15,17,19,21,23,25,-1,27,29,31,33,-1,35,-1,37,39,41,43,45,47,49,51,-1,-1,-1,-1,-1,-1,-1,-1,-1,-1,-1,-1,-1,-1,-1,-1,-1,-1,-1,-1,-1,-1,-1,-1],"loss_changes":[7.70759E1,2.0427952E1,2.7186188E1,1.5492367E1,5.525029E1,8.6296646E1,3.25399E1,2.7129791E1,4.1553497E1,4.0472794E1,1.799906E1,2.3363283E1,5.4011215E1,0E0,2.4739845E1,7.201991E0,4.4665222E1,1.2511906E1,0E0,2.8864975E0,0E0,4.32216E0,1.4821248E1,1.4100396E1,1.948148E1,6.509795E1,5.2914062E1,4.4409145E1,5.062197E1,0E0,0E0,0E0,0E0,0E0,0E0,0E0,0E0,0E0,0E0,0E0,0E0,0E0,0E0,0E0,0E0,0E0,0E0,0E0,0E0,0E0,0E0,0E0,0E0],"parents":[2147483647,0,0,1,1,2,2,3,3,4,4,5,5,6,6,7,7,8,8,9,9,10,10,11,11,12,12,14,14,15,15,16,16,17,17,19,19,21,21,22,22,23,23,24,24,25,25,26,26,27,27,28,28],"right_children":[2,4,6,8,10,12,14,16,18,20,22,24,26,-1,28,30,32,34,-1,36,-1,38,40,42,44,46,48,50,52,-1,-1,-1,-1,-1,-1,-1,-1,-1,-1,-1,-1,-1,-1,-1,-1,-1,-1,-1,-1,-1,-1,-1,-1],"split_conditions":[2.9E0,1E0,1.1202472E0,3.6666667E0,6.5E0,1.0096915E0,1.1334804E0,3.6E0,1E0,2.7E0,2.142857E0,3E0,9.217616E-1,-1.9365065E-1,7E0,5E0,5.4E1,3.5714285E0,3.649273E-1,1.3545116E0,-1.659065E-1,3.3333334E-1,7.5454545E0,8.9391136E-1,8.466311E-1,1.1098461E0,3.3333333E0,2.13217E0,1.2834646E0,-5.0254534E-3,1.2923236E-1,4.1852012E-2,4.740421E-1,-1.3269602E-1,9.406366E-2,4.2661792E-1,9.590318E-2,-3.0350557E-3,2.3404105E-1,4.9754478E-2,-1.4682473E-1,-4.0215604E-2,2.1714926E-1,3.1008227E-2,-1.7572497E-1,2.782835E-1,-1.1145388E-1,2.6767716E-1,2.7208129E-2,-2.1145998E-2,1.4763941E-1,-1.1607491E-1,3.858438E-2],"split_indices":[3,40,5,1,8,6,5,1,59,3,2,2,5,0,9,0,13,2,0,4,0,0,11,4,6,6,1,4,7,0,0,0,0,0,0,0,0,0,0,0,0,0,0,0,0,0,0,0,0,0,0,0,0],"split_type":[0,0,0,0,0,0,0,0,0,0,0,0,0,0,0,0,0,0,0,0,0,0,0,0,0,0,0,0,0,0,0,0,0,0,0,0,0,0,0,0,0,0,0,0,0,0,0,0,0,0,0,0,0],"sum_hessian":[6.077E3,5.166E3,9.11E2,5.142E3,2.4E1,9.2E1,8.19E2,5.116E3,2.6E1,7E0,1.7E1,2.8E1,6.4E1,6E0,8.13E2,5.101E3,1.5E1,2.5E1,1E0,6E0,1E0,3E0,1.4E1,7E0,2.1E1,1.9E1,4.5E1,2.03E2,6.1E2,5.098E3,3E0,1.3E1,2E0,2.3E1,2E0,5E0,1E0,1E0,2E0,6E0,8E0,4E0,3E0,6E0,1.5E1,5E0,1.4E1,3.2E1,1.3E1,1.87E2,1.6E1,2.1E1,5.89E2],"tree_param":{"num_deleted":"0","num_feature":"160","num_nodes":"53","size_leaf_vector":"1"}},{"base_weights":[2.5853454E-3,-5.358142E-2,1.9294217E-1,-5.642941E-2,9.762546E-1,1.6305208E-1,8.739956E-1,-5.7817895E-2,1.0353006E0,-2.8518695E-1,3.0515985E0,4.679055E-1,1.0472158E-1,6.080378E-1,2.4602268E0,-5.5357497E-2,-8.1881845E-1,2.3896566E-1,-2.3929141E-1,-6.9994694E-1,7.776487E-1,3.867233E-1,1.21876456E-1,-3.8070813E-1,5.9313816E-1,-2.4544689E-1,1.6530254E-1,1.5545363E0,1.3093749E-1,3.3752793E-1,-1.8995373E-2,-5.7870126E-3,7.8314655E-2,-1.17347635E-1,1.2519255E-2,8.142672E-3,-6.007229E-2,-7.95459E-2,-6.3437345E-3,2.1658838E-2,9.4988465E-2,2.2095068E-1,-9.044734E-2,1.0895045E-1,2.6283512E-2,8.070355E-2,-4.5721542E-2,7.296253E-2,7.9909265E-3,2.3533772E-1,3.6166828E-2,-2.6796196E-2,1.7648156E-1],"categories":[],"categories_nodes":[],"categories_segments":[],"categories_sizes":[],"default_left":[0,0,0,0,0,1,0,0,0,0,0,0,0,0,0,0,0,0,0,0,0,0,0,0,0,0,0,0,0,0,0,0,0,0,0,0,0,0,0,0,0,0,0,0,0,0,0,0,0,0,0,0,0],"id":26,"left_children":[1,3,5,7,9,11,13,15,17,19,21,23,25,27,29,31,33,-1,35,37,39,-1,-1,41,43,45,47,49,51,-1,-1,-1,-1,-1,-1,-1,-1,-1,-1,-1,-1,-1,-1,-1,-1,-1,-1,-1,-1,-1,-1,-1,-1],"loss_changes":[6.499465E1,1.3822415E1,2.8051598E1,7.1570807E0,3.49033E1,2.356583E1,2.2972576E1,8.711713E0,1.0929333E1,4.5117083E0,2.761364E0,2.2862202E1,2.3714886E1,2.2826769E1,2.0041576E1,9.869537E0,5.1689243E0,0E0,5.125854E-1,3.7509847E-1,8.417034E-2,0E0,0E0,3.9985046E1,3.020858E1,3.7144634E1,4.5817978E1,1.5348358E1,2.328426E1,0E0,0E0,0E0,0E0,0E0,0E0,0E0,0E0,0E0,0E0,0E0,0E0,0E0,0E0,0E0,0E0,0E0,0E0,0E0,0E0,0E0,0E0,0E0,0E0],"parents":[2147483647,0,0,1,1,2,2,3,3,4,4,5,5,6,6,7,7,8,8,9,9,10,10,11,11,12,12,13,13,14,14,15,15,16,16,18,18,19,19,20,20,23,23,24,24,25,25,26,26,27,27,28,28],"right_children":[2,4,6,8,10,12,14,16,18,20,22,24,26,28,30,32,34,-1,36,38,40,-1,-1,42,44,46,48,50,52,-1,-1,-1,-1,-1,-1,-1,-1,-1,-1,-1,-1,-1,-1,-1,-1,-1,-1,-1,-1,-1,-1,-1,-1],"split_conditions":[1.6666666E0,3.142857E0,1E0,1E0,4.9E1,2.25E0,9.142858E0,2.8888888E0,1.2972634E0,3.9166667E0,2.25E0,7.6690334E-1,1.2764835E0,2.3333333E0,1.1142858E1,2.25E0,1.6148996E0,2.3896566E-1,1.3333334E0,3.6666667E0,2.2E0,3.867233E-1,1.21876456E-1,6.243504E-1,5.6666665E0,8.699548E-1,1.4149845E0,1.95E2,1.6929249E0,3.3752793E-1,-1.8995373E-2,-5.7870126E-3,7.8314655E-2,-1.17347635E-1,1.2519255E-2,8.142672E-3,-6.007229E-2,-7.95459E-2,-6.3437345E-3,2.1658838E-2,9.4988465E-2,2.2095068E-1,-9.044734E-2,1.0895045E-1,2.6283512E-2,8.070355E-2,-4.5721542E-2,7.296253E-2,7.9909265E-3,2.3533772E-1,3.6166828E-2,-2.6796196E-2,1.7648156E-1],"split_indices":[0,2,18,27,13,1,10,3,6,3,1,4,7,0,10,1,5,0,0,2,1,0,0,5,8,5,7,12,5,0,0,0,0,0,0,0,0,0,0,0,0,0,0,0,0,0,0,0,0,0,0,0,0],"split_type":[0,0,0,0,0,0,0,0,0,0,0,0,0,0,0,0,0,0,0,0,0,0,0,0,0,0,0,0,0,0,0,0,0,0,0,0,0,0,0,0,0,0,0,0,0,0,0,0,0,0,0,0,0],"sum_hessian":[6.077E3,4.693E3,1.384E3,4.681E3,1.2E1,1.327E3,5.7E1,4.676E3,5E0,8E0,4E0,2.12E2,1.115E3,5E1,7E0,4.662E3,1.4E1,2E0,3E0,6E0,2E0,2E0,2E0,2.7E1,1.85E2,1.64E2,9.51E2,1.6E1,3.4E1,5E0,2E0,4.649E3,1.3E1,1E1,4E0,2E0,1E0,5E0,1E0,1E0,1E0,4E0,2.3E1,7.3E1,1.12E2,2.7E1,1.37E2,1.24E2,8.27E2,9E0,7E0,2.8E1,6E0],"tree_param":{"num_deleted":"0","num_feature":"160","num_nodes":"53","size_leaf_vector":"1"}},{"base_weights":[2.6255175E-3,-3.715973E-2,2.2831985E-1,-4.1069157E-2,7.687305E-1,6.0781276E-1,1.6036333E-1,-3.672989E-2,-6.73429E-1,2.7175963E0,-1.4013934E-1,3.780034E-1,2.3364842E0,1.2722516E-1,1.7223326E0,-4.0272273E-2,1.9754882E0,-8.926814E-1,1.9628242E-1,3.5572836E0,-1.5801072E-1,1.6167489E0,-5.9930027E-1,8.2590634E-1,-3.3905128E-1,2.9392521E0,-1.2552612E-1,-6.377634E-1,1.7633195E-1,-1.7796975E-1,3.22012E0,-4.348584E-3,8.697977E-2,2.7586192E-2,3.280017E-1,2.4470804E-2,-1.2664345E-1,3.8478026E-1,9.070847E-2,-2.5939522E-3,2.1729584E-1,4.4020914E-2,-1.3412187E-1,4.7238342E-2,2.232074E-1,-7.419761E-2,1.4893983E-1,3.2757753E-1,-7.177734E-2,2.7125705E-2,-1.287491E-1,1.5298878E-1,1.3912809E-2,1.2809508E-1,-1.3095123E-1,5.0532204E-1,-3.345605E-2],"categories":[],"categories_nodes":[],"categories_segments":[],"categories_sizes":[],"default_left":[0,0,0,0,0,0,0,0,0,0,0,1,0,0,0,0,0,0,0,0,0,0,0,0,0,0,0,0,0,0,0,0,0,0,0,0,0,0,0,0,0,0,0,0,0,0,0,0,0,0,0,0,0,0,0,0,0],"id":27,"left_children":[1,3,5,7,9,11,13,15,17,19,21,23,25,27,29,31,33,35,-1,37,-1,39,41,43,45,47,-1,49,51,53,55,-1,-1,-1,-1,-1,-1,-1,-1,-1,-1,-1,-1,-1,-1,-1,-1,-1,-1,-1,-1,-1,-1,-1,-1,-1,-1],"loss_changes":[5.45847E1,1.6313715E1,2.3396324E1,1.4090296E1,4.4662476E1,5.3939358E1,3.9843735E1,3.650387E1,2.198235E1,3.4490696E1,1.5489419E1,3.9784042E1,3.832936E1,2.8625153E1,4.6113064E1,1.4958983E1,1.9050072E1,1.4338293E1,0E0,1.8992538E0,0E0,3.7110806E0,1.2158885E1,3.672615E1,3.6468033E1,1.958068E1,0E0,2.7517557E1,3.574241E1,1.4884067E1,6.033538E1,0E0,0E0,0E0,0E0,0E0,0E0,0E0,0E0,0E0,0E0,0E0,0E0,0E0,0E0,0E0,0E0,0E0,0E0,0E0,0E0,0E0,0E0,0E0,0E0,0E0,0E0],"parents":[2147483647,0,0,1,1,2,2,3,3,4,4,5,5,6,6,7,7,8,8,9,9,10,10,11,11,12,12,13,13,14,14,15,15,16,16,17,17,19,19,21,21,22,22,23,23,24,24,25,25,27,27,28,28,29,29,30,30],"right_children":[2,4,6,8,10,12,14,16,18,20,22,24,26,28,30,32,34,36,-1,38,-1,40,42,44,46,48,-1,50,52,54,56,-1,-1,-1,-1,-1,-1,-1,-1,-1,-1,-1,-1,-1,-1,-1,-1,-1,-1,-1,-1,-1,-1,-1,-1,-1,-1],"split_conditions":[2.909091E0,1E0,6.3333335E0,3.1666667E0,6.5E0,7.25E0,2.8E2,3.142857E0,3.625E0,2.7E0,2.142857E0,3.3333333E0,3.5454545E0,2.75E0,7.181818E0,4.3333335E0,3.3333333E0,-3.5E1,1.9628242E-1,1.3545116E0,-1.5801072E-1,3.3333334E-1,7.5454545E0,6.2E0,1.5676466E0,8.75E0,-1.2552612E-1,1.6200867E0,2.2E0,5.5E0,3.6666667E0,-4.348584E-3,8.697977E-2,2.7586192E-2,3.280017E-1,2.4470804E-2,-1.2664345E-1,3.8478026E-1,9.070847E-2,-2.5939522E-3,2.1729584E-1,4.4020914E-2,-1.3412187E-1,4.7238342E-2,2.232074E-1,-7.419761E-2,1.4893983E-1,3.2757753E-1,-7.177734E-2,2.7125705E-2,-1.287491E-1,1.5298878E-1,1.3912809E-2,1.2809508E-1,-1.3095123E-1,5.0532204E-1,-3.345605E-2],"split_indices":[3,40,11,2,8,10,12,2,2,3,2,0,3,2,11,0,1,12,0,4,0,0,11,9,7,9,0,4,1,8,1,0,0,0,0,0,0,0,0,0,0,0,0,0,0,0,0,0,0,0,0,0,0,0,0,0,0],"split_type":[0,0,0,0,0,0,0,0,0,0,0,0,0,0,0,0,0,0,0,0,0,0,0,0,0,0,0,0,0,0,0,0,0,0,0,0,0,0,0,0,0,0,0,0,0,0,0,0,0,0,0,0,0,0,0,0,0],"sum_hessian":[6.077E3,5.167E3,9.1E2,5.143E3,2.4E1,1.37E2,7.73E2,5.109E3,3.4E1,7E0,1.7E1,1.22E2,1.5E1,7.58E2,1.5E1,5.101E3,8E0,3.2E1,2E0,6E0,1E0,3E0,1.4E1,7.5E1,4.7E1,1.3E1,2E0,4.5E1,7.13E2,7E0,8E0,5.084E3,1.7E1,4E0,4E0,8E0,2.4E1,5E0,1E0,1E0,2E0,6E0,8E0,6.1E1,1.4E1,3.9E1,8E0,1.2E1,1E0,1.9E1,2.6E1,1.8E1,6.95E2,3E0,4E0,5E0,3E0],"tree_param":{"num_deleted":"0","num_feature":"160","num_nodes":"57","size_leaf_vector":"1"}},{"base_weights":[2.6893993E-3,-4.4013225E-2,1.6097058E-1,-4.6538744E-2,8.689479E-1,1.0714113E0,1.3933463E-1,-4.7790937E-2,9.373006E-1,-2.706753E-1,2.74648E0,3.5348353E-1,1.9692123E0,-7.468507E-3,2.2945511E-1,-4.2371925E-2,-4.0383402E-1,2.1807995E-1,-2.2964868E-1,-6.360213E-1,6.7202395E-1,3.5537833E-1,1.02368355E-1,-3.4888372E-1,1.6073822E0,2.4938316E0,3.4205973E-2,8.1651375E-2,-8.042623E-1,3.861287E-1,7.2917184E-3,-4.7470466E-3,5.5615902E-2,-6.875373E-2,2.9088015E-2,7.889728E-3,-5.776433E-2,-7.196176E-2,-6.722188E-3,1.2926459E-2,8.787713E-2,-9.956056E-2,5.7155944E-2,2.8231174E-1,-1.0198355E-3,1.3254112E-1,3.2466134E-1,1.2383894E-1,-7.79985E-2,-6.2986545E-2,2.1792276E-2,1.2769572E-2,-1.15097575E-1,3.635263E-2,3.9491495E-1,-7.1781605E-2,1.4585398E-2],"categories":[],"categories_nodes":[],"categories_segments":[],"categories_sizes":[],"default_left":[0,0,0,0,0,0,0,0,0,0,0,0,0,0,0,0,0,0,0,0,0,0,0,0,0,0,0,0,0,0,0,0,0,0,0,0,0,0,0,0,0,0,0,0,0,0,0,0,0,0,0,0,0,0,0,0,0],"id":28,"left_children":[1,3,5,7,9,11,13,15,17,19,21,23,25,27,29,31,33,-1,35,37,39,-1,-1,41,43,45,47,49,51,53,55,-1,-1,-1,-1,-1,-1,-1,-1,-1,-1,-1,-1,-1,-1,-1,-1,-1,-1,-1,-1,-1,-1,-1,-1,-1,-1],"loss_changes":[4.4936554E1,1.08633995E1,2.7132782E1,5.812808E0,2.8559237E1,1.9929714E1,1.7915094E1,9.0067E0,9.207418E0,3.5271246E0,3.316143E0,1.7294039E1,1.4126682E1,3.6706917E1,2.920037E1,1.4088335E1,1.3996477E1,0E0,4.750638E-1,2.8447247E-1,2.2304821E-1,0E0,0E0,8.307567E0,1.3794638E1,5.3721237E0,4.8876657E0,4.5223377E1,1.6949337E1,3.8186577E1,3.5069157E1,0E0,0E0,0E0,0E0,0E0,0E0,0E0,0E0,0E0,0E0,0E0,0E0,0E0,0E0,0E0,0E0,0E0,0E0,0E0,0E0,0E0,0E0,0E0,0E0,0E0,0E0],"parents":[2147483647,0,0,1,1,2,2,3,3,4,4,5,5,6,6,7,7,8,8,9,9,10,10,11,11,12,12,13,13,14,14,15,15,16,16,18,18,19,19,20,20,23,23,24,24,25,25,26,26,27,27,28,28,29,29,30,30],"right_children":[2,4,6,8,10,12,14,16,18,20,22,24,26,28,30,32,34,-1,36,38,40,-1,-1,42,44,46,48,50,52,54,56,-1,-1,-1,-1,-1,-1,-1,-1,-1,-1,-1,-1,-1,-1,-1,-1,-1,-1,-1,-1,-1,-1,-1,-1,-1,-1],"split_conditions":[1.6666666E0,3.142857E0,8.926769E-1,1E0,4.9E1,8.466311E-1,7E0,1.6E0,1.2972634E0,3.9166667E0,2.25E0,2.090909E0,3.1E2,7.875E0,9.5E0,1.7272727E0,2.25E0,2.1807995E-1,1.3333334E0,3.6666667E0,2.2E0,3.5537833E-1,1.02368355E-1,3.6666667E0,2.6666667E0,9.217616E-1,1.5E0,-5.5E1,-5.5E1,1.3E1,1E1,-4.7470466E-3,5.5615902E-2,-6.875373E-2,2.9088015E-2,7.889728E-3,-5.776433E-2,-7.196176E-2,-6.722188E-3,1.2926459E-2,8.787713E-2,-9.956056E-2,5.7155944E-2,2.8231174E-1,-1.0198355E-3,1.3254112E-1,3.2466134E-1,1.2383894E-1,-7.79985E-2,-6.2986545E-2,2.1792276E-2,1.2769572E-2,-1.15097575E-1,3.635263E-2,3.9491495E-1,-7.1781605E-2,1.4585398E-2],"split_indices":[0,2,7,27,13,6,9,1,6,3,1,3,12,10,9,3,1,0,0,2,1,0,0,9,0,5,1,12,12,8,9,0,0,0,0,0,0,0,0,0,0,0,0,0,0,0,0,0,0,0,0,0,0,0,0,0,0],"split_type":[0,0,0,0,0,0,0,0,0,0,0,0,0,0,0,0,0,0,0,0,0,0,0,0,0,0,0,0,0,0,0,0,0,0,0,0,0,0,0,0,0,0,0,0,0,0,0,0,0,0,0,0,0,0,0,0,0],"sum_hessian":[6.077E3,4.693E3,1.384E3,4.681E3,1.2E1,3.1E1,1.353E3,4.676E3,5E0,8E0,4E0,1.8E1,1.3E1,5.15E2,8.38E2,4.607E3,6.9E1,2E0,3E0,6E0,2E0,2E0,2E0,1.2E1,6E0,1E1,3E0,4.64E2,5.1E1,4.91E2,3.47E2,4.569E3,3.8E1,4.9E1,2E1,2E0,1E0,5E0,1E0,1E0,1E0,7E0,5E0,3E0,3E0,5E0,5E0,1E0,2E0,7.4E1,3.9E2,1.4E1,3.7E1,4.89E2,2E0,5.5E1,2.92E2],"tree_param":{"num_deleted":"0","num_feature":"160","num_nodes":"57","size_leaf_vector":"1"}},{"base_weights":[2.6889306E-3,-3.0697923E-2,1.9208583E-1,-2.6729723E-2,-7.3296857E-1,-5.887839E-1,2.2210574E-1,-3.026069E-2,1.1059533E0,-9.911568E-1,3.248151E-1,9.616981E-1,-9.5537645E-1,-4.765959E-1,2.5865757E-1,-3.4152675E-2,8.3456856E-1,3.3703896E-1,4.3255693E-1,-1.162684E0,8.25798E-1,2.4989684E0,-8.1599665E-1,-1.3081015E0,-1.8966126E-1,6.911015E-1,-9.885691E-1,8.7443167E-1,1.9673981E-1,-3.625109E-3,5.2924663E-2,2.4724984E-1,-3.655687E-3,3.600878E-1,-5.0700735E-2,-1.6338745E-1,-2.4539199E-2,1.1810159E-1,5.7681086E-3,3.097271E-1,3.5203017E-2,-1.0321758E-1,-8.3729625E-3,6.274586E-2,-1.4504914E-1,6.3874915E-2,-6.359442E-2,-1.3954373E-1,2.0053382E-1,-1.1445308E-1,1.8451418E-1,3.8232405E-2,2.69594E-1,-1.7263345E-1,2.1690961E-2],"categories":[],"categories_nodes":[],"categories_segments":[],"categories_sizes":[],"default_left":[0,0,0,0,0,0,0,0,0,0,0,0,0,0,0,0,0,0,0,0,0,0,0,0,0,0,0,0,0,0,0,0,0,0,0,0,0,0,0,0,0,0,0,0,0,0,0,0,0,0,0,0,0,0,0],"id":29,"left_children":[1,3,5,7,9,11,13,15,17,19,-1,21,23,25,27,29,31,33,-1,35,37,39,41,43,45,47,49,51,53,-1,-1,-1,-1,-1,-1,-1,-1,-1,-1,-1,-1,-1,-1,-1,-1,-1,-1,-1,-1,-1,-1,-1,-1,-1,-1],"loss_changes":[3.843932E1,1.4382333E1,2.148611E1,2.0590717E1,3.3027897E1,2.0244217E1,2.2546356E1,1.7278765E1,3.8151855E1,9.686541E0,0E0,2.116873E1,7.3143406E0,2.6987707E1,3.1664303E1,6.0521803E0,3.290776E1,4.0393314E1,0E0,1.0836761E1,7.504244E-1,4.047741E0,5.467799E-1,6.146599E0,4.1032624E0,4.1189205E1,1.5812288E1,6.709401E1,2.985335E1,0E0,0E0,0E0,0E0,0E0,0E0,0E0,0E0,0E0,0E0,0E0,0E0,0E0,0E0,0E0,0E0,0E0,0E0,0E0,0E0,0E0,0E0,0E0,0E0,0E0,0E0],"parents":[2147483647,0,0,1,1,2,2,3,3,4,4,5,5,6,6,7,7,8,8,9,9,11,11,12,12,13,13,14,14,15,15,16,16,17,17,19,19,20,20,21,21,22,22,23,23,24,24,25,25,26,26,27,27,28,28],"right_children":[2,4,6,8,10,12,14,16,18,20,-1,22,24,26,28,30,32,34,-1,36,38,40,42,44,46,48,50,52,54,-1,-1,-1,-1,-1,-1,-1,-1,-1,-1,-1,-1,-1,-1,-1,-1,-1,-1,-1,-1,-1,-1,-1,-1,-1,-1],"split_conditions":[2.909091E0,3.6666667E0,-2.55E2,3.6E0,1E0,7.75E0,4E1,1E0,5.4E1,3.5714285E0,3.248151E-1,4.8E1,1.1E1,3E0,1.1202472E0,1E0,6.5E0,6.285714E0,4.3255693E-1,1E1,4.3333335E0,4.5E0,3.125E0,-3.3E2,8.285714E0,1.1715686E0,4.625E0,1.0759832E0,1.13728E0,-3.625109E-3,5.2924663E-2,2.4724984E-1,-3.655687E-3,3.600878E-1,-5.0700735E-2,-1.6338745E-1,-2.4539199E-2,1.1810159E-1,5.7681086E-3,3.097271E-1,3.5203017E-2,-1.0321758E-1,-8.3729625E-3,6.274586E-2,-1.4504914E-1,6.3874915E-2,-6.359442E-2,-1.3954373E-1,2.0053382E-1,-1.1445308E-1,1.8451418E-1,3.8232405E-2,2.69594E-1,-1.7263345E-1,2.1690961E-2],"split_indices":[3,1,12,1,59,9,13,40,13,2,0,13,8,1,5,115,8,10,0,8,0,3,2,12,10,7,2,5,5,0,0,0,0,0,0,0,0,0,0,0,0,0,0,0,0,0,0,0,0,0,0,0,0,0,0],"split_type":[0,0,0,0,0,0,0,0,0,0,0,0,0,0,0,0,0,0,0,0,0,0,0,0,0,0,0,0,0,0,0,0,0,0,0,0,0,0,0,0,0,0,0,0,0,0,0,0,0,0,0,0,0,0,0],"sum_hessian":[6.077E3,5.167E3,9.1E2,5.139E3,2.8E1,3.3E1,8.77E2,5.124E3,1.5E1,2.7E1,1E0,6E0,2.7E1,4.3E1,8.34E2,5.102E3,2.2E1,1.3E1,2E0,2.5E1,2E0,3E0,3E0,1.8E1,9E0,1.3E1,3E1,7.5E1,7.59E2,5.084E3,1.8E1,7E0,1.5E1,2E0,1.1E1,1.6E1,9E0,1E0,1E0,2E0,1E0,2E0,1E0,1E0,1.7E1,3E0,6E0,5E0,8E0,2.9E1,1E0,6E1,1.5E1,7E0,7.52E2],"tree_param":{"num_deleted":"0","num_feature":"160","num_nodes":"55","size_leaf_vector":"1"}},{"base_weights":[2.705485E-3,-2.7377432E-2,1.733595E-1,-2.3855418E-2,-6.5068E-1,3.0813175E-1,3.4642885E-3,-2.7177468E-2,1.0417295E0,-8.943288E-1,3.0857432E-1,2.4742982E-1,1.3022283E0,3.8848504E-2,-1.7529105E0,-3.0727744E-2,7.617027E-1,3.2543412E-1,4.037198E-1,-1.0536435E0,7.8450805E-1,1.6495849E-1,9.694743E-1,1.6455956E0,-2.222153E-1,-4.947734E-1,1.4481296E-1,-1.8847951E-1,-4.1485954E-2,-2.3849965E-3,-1.8547885E-2,2.2561549E-1,-3.3129647E-3,3.3608195E-1,-4.6053175E-2,-1.1895168E-1,1.1715952E-1,1.12196505E-1,5.4797055E-3,1.0021492E-2,1.311911E-1,2.0012689E-1,-2.839139E-2,2.2019354E-1,-6.685828E-2,2.1238814E-1,-6.979751E-2,-6.314056E-2,2.3549361E-2],"categories":[],"categories_nodes":[],"categories_segments":[],"categories_sizes":[],"default_left":[0,0,1,0,0,0,0,0,0,0,0,0,0,0,0,0,0,0,0,0,0,0,0,0,0,0,0,0,0,0,0,0,0,0,0,0,0,0,0,0,0,0,0,0,0,0,0,0,0],"id":30,"left_children":[1,3,5,7,9,11,13,15,17,19,-1,21,23,25,27,29,31,33,-1,35,37,39,41,43,-1,45,47,-1,-1,-1,-1,-1,-1,-1,-1,-1,-1,-1,-1,-1,-1,-1,-1,-1,-1,-1,-1,-1,-1],"loss_changes":[3.1207804E1,1.1329687E1,2.0858246E1,1.822353E1,2.9160545E1,3.0332333E1,2.5175869E1,1.4377218E1,3.3016407E1,8.315567E0,0E0,2.8423096E1,3.8751324E1,2.2519995E1,6.298218E-1,5.426925E0,2.7395039E1,3.4947693E1,0E0,9.254747E0,6.77258E-1,3.1947895E1,6.3936905E1,3.623385E1,0E0,3.6602005E1,2.351751E1,0E0,0E0,0E0,0E0,0E0,0E0,0E0,0E0,0E0,0E0,0E0,0E0,0E0,0E0,0E0,0E0,0E0,0E0,0E0,0E0,0E0,0E0],"parents":[2147483647,0,0,1,1,2,2,3,3,4,4,5,5,6,6,7,7,8,8,9,9,11,11,12,12,13,13,14,14,15,15,16,16,17,17,19,19,20,20,21,21,22,22,23,23,25,25,26,26],"right_children":[2,4,6,8,10,12,14,16,18,20,-1,22,24,26,28,30,32,34,-1,36,38,40,42,44,-1,46,48,-1,-1,-1,-1,-1,-1,-1,-1,-1,-1,-1,-1,-1,-1,-1,-1,-1,-1,-1,-1,-1,-1],"split_conditions":[2.909091E0,3.6666667E0,3.6666667E0,3.6E0,1E0,5.5E1,1E0,1E0,5.4E1,3.5714285E0,3.0857432E-1,3.625E0,3.4444444E0,7E0,4.25E0,2.5833333E0,6.5E0,6.285714E0,4.037198E-1,1E0,4.3333335E0,1E0,1.6453264E0,2.65E2,-2.222153E-1,4.714286E0,1.4768302E0,-1.8847951E-1,-4.1485954E-2,-2.3849965E-3,-1.8547885E-2,2.2561549E-1,-3.3129647E-3,3.3608195E-1,-4.6053175E-2,-1.1895168E-1,1.1715952E-1,1.12196505E-1,5.4797055E-3,1.0021492E-2,1.311911E-1,2.0012689E-1,-2.839139E-2,2.2019354E-1,-6.685828E-2,2.1238814E-1,-6.979751E-2,-6.314056E-2,2.3549361E-2],"split_indices":[3,1,2,1,59,13,127,40,13,2,0,2,3,9,1,3,8,10,0,21,0,76,4,12,0,10,5,0,0,0,0,0,0,0,0,0,0,0,0,0,0,0,0,0,0,0,0,0,0],"split_type":[0,0,0,0,0,0,0,0,0,0,0,0,0,0,0,0,0,0,0,0,0,0,0,0,0,0,0,0,0,0,0,0,0,0,0,0,0,0,0,0,0,0,0,0,0,0,0,0,0],"sum_hessian":[6.077E3,5.167E3,9.1E2,5.139E3,2.8E1,5.07E2,4.03E2,5.124E3,1.5E1,2.7E1,1E0,4.79E2,2.8E1,3.96E2,7E0,5.102E3,2.2E1,1.3E1,2E0,2.5E1,2E0,4.31E2,4.8E1,2.6E1,2E0,6.5E1,3.31E2,6E0,1E0,4.886E3,2.16E2,7E0,1.5E1,2E0,1.1E1,2.4E1,1E0,1E0,1E0,4.09E2,2.2E1,2.6E1,2.2E1,2.1E1,5E0,4E0,6.1E1,3.4E1,2.97E2],"tree_param":{"num_deleted":"0","num_feature":"160","num_nodes":"49","size_leaf_vector":"1"}},{"base_weights":[2.6713067E-3,-3.3872575E-2,1.265228E-1,-3.6012437E-2,7.394129E-1,8.274032E-1,9.910727E-2,-3.7155773E-2,8.61219E-1,-2.7697635E-1,2.421031E0,-5.6214404E-1,1.2583209E0,1.19232565E-1,-1.3000499E0,-3.4687005E-2,-8.0213666E-1,2.0267192E-1,-2.2821087E-1,-6.1120117E-1,5.95207E-1,1.1555374E-1,3.7415028E-1,2.695745E-1,-1.3135563E-1,1.9632605E0,2.8765807E-1,8.5410386E-1,8.528358E-2,-1.5516485E0,1.6143626E-1,-3.6748876E-3,6.526261E-2,-1.14494614E-1,1.124713E-2,7.7644186E-3,-5.7288803E-2,-6.997989E-2,-3.980744E-3,1.0694516E-2,7.858653E-2,1.0464187E-1,-5.7466324E-2,-2.6053721E-2,2.4451411E-1,-6.685362E-2,9.5692135E-2,1.5905605E-1,2.4798347E-2,-9.344762E-3,1.787604E-2,-1.8444967E-1,-6.5555456E-3],"categories":[],"categories_nodes":[],"categories_segments":[],"categories_sizes":[],"default_left":[0,0,1,0,0,0,0,0,0,0,0,0,0,0,0,0,0,0,0,0,0,0,0,1,0,0,0,0,0,0,0,0,0,0,0,0,0,0,0,0,0,0,0,0,0,0,0,0,0,0,0,0,0],"id":31,"left_children":[1,3,5,7,9,11,13,15,17,19,21,23,25,27,29,31,33,-1,35,37,39,-1,-1,41,-1,43,45,47,49,51,-1,-1,-1,-1,-1,-1,-1,-1,-1,-1,-1,-1,-1,-1,-1,-1,-1,-1,-1,-1,-1,-1,-1],"loss_changes":[2.7513401E1,7.7939076E0,2.6530773E1,4.8349624E0,2.2889889E1,3.1843945E1,3.771837E1,8.804977E0,8.080902E0,2.9873388E0,4.0317974E0,8.478627E0,2.6805603E1,3.2758904E1,1.6436905E1,6.632154E0,4.8318157E0,0E0,4.6616638E-1,3.265121E-1,1.9522905E-1,0E0,0E0,5.1922264E0,0E0,2.5283958E1,1.2158758E1,2.5495686E1,2.1051098E1,7.712677E0,0E0,0E0,0E0,0E0,0E0,0E0,0E0,0E0,0E0,0E0,0E0,0E0,0E0,0E0,0E0,0E0,0E0,0E0,0E0,0E0,0E0,0E0,0E0],"parents":[2147483647,0,0,1,1,2,2,3,3,4,4,5,5,6,6,7,7,8,8,9,9,10,10,11,11,12,12,13,13,14,14,15,15,16,16,18,18,19,19,20,20,23,23,25,25,26,26,27,27,28,28,29,29],"right_children":[2,4,6,8,10,12,14,16,18,20,22,24,26,28,30,32,34,-1,36,38,40,-1,-1,42,-1,44,46,48,50,52,-1,-1,-1,-1,-1,-1,-1,-1,-1,-1,-1,-1,-1,-1,-1,-1,-1,-1,-1,-1,-1,-1,-1],"split_conditions":[1.6666666E0,3.142857E0,1.8571428E0,1E0,4.9E1,3.25E0,1E0,2.8888888E0,1.2972634E0,3.9166667E0,3.2E0,3.125E0,6E0,4.75E0,2.5714285E0,2.25E0,1.6148996E0,2.0267192E-1,1.3333334E0,3.6666667E0,2.2E0,1.1555374E-1,3.7415028E-1,1.6363636E0,-1.3135563E-1,8.0238086E-1,8.2E0,2.6E0,7E0,6E0,1.6143626E-1,-3.6748876E-3,6.526261E-2,-1.14494614E-1,1.124713E-2,7.7644186E-3,-5.7288803E-2,-6.997989E-2,-3.980744E-3,1.0694516E-2,7.858653E-2,1.0464187E-1,-5.7466324E-2,-2.6053721E-2,2.4451411E-1,-6.685362E-2,9.5692135E-2,1.5905605E-1,2.4798347E-2,-9.344762E-3,1.787604E-2,-1.8444967E-1,-6.5555456E-3],"split_indices":[0,2,2,27,13,9,52,3,6,3,3,10,9,11,2,1,5,0,0,2,1,0,0,3,0,7,9,3,9,8,0,0,0,0,0,0,0,0,0,0,0,0,0,0,0,0,0,0,0,0,0,0,0],"split_type":[0,0,0,0,0,0,0,0,0,0,0,0,0,0,0,0,0,0,0,0,0,0,0,0,0,0,0,0,0,0,0,0,0,0,0,0,0,0,0,0,0,0,0,0,0,0,0,0,0,0,0,0,0],"sum_hessian":[6.077E3,4.693E3,1.384E3,4.681E3,1.2E1,5.1E1,1.333E3,4.676E3,5E0,8E0,4E0,1.2E1,3.9E1,1.315E3,1.8E1,4.662E3,1.4E1,2E0,3E0,6E0,2E0,3E0,1E0,6E0,6E0,2.2E1,1.7E1,5.7E1,1.258E3,1.7E1,1E0,4.649E3,1.3E1,1E1,4E0,2E0,1E0,5E0,1E0,1E0,1E0,3E0,3E0,4E0,1.8E1,7E0,1E1,2.5E1,3.2E1,4.32E2,8.26E2,1.4E1,3E0],"tree_param":{"num_deleted":"0","num_feature":"160","num_nodes":"53","size_leaf_vector":"1"}},{"base_weights":[2.5592232E-3,-3.0353975E-2,1.1410579E-1,-3.238738E-2,7.043196E-1,8.779376E-2,7.145931E-1,-2.8330263E-2,-2.8815347E-1,-2.4757645E-1,2.2768686E0,3.6047158E-1,3.5671752E-2,4.6755826E-1,2.2001162E0,-3.3057064E-2,5.125333E-1,5.026765E-1,-5.5611014E-1,-5.6064683E-1,5.654466E-1,1.068872E-1,3.5544276E-1,1.5262891E-1,8.4197044E-1,-5.151492E-1,6.745622E-2,1.2806845E0,5.9252433E-2,3.044608E-1,-2.2223957E-2,-3.0528053E-3,-9.174192E-2,1.89179E-1,-7.5867125E-3,-6.493788E-2,1.3995694E-1,-2.9427126E-2,-2.0576294E-1,-6.414823E-2,-3.7817121E-3,1.01597905E-2,7.46572E-2,4.955498E-2,-5.2275773E-2,1.9195753E-1,1.9064143E-2,-6.444293E-2,3.6208305E-1,3.4603705E-3,8.7991245E-2,1.977428E-1,2.4966964E-2,-2.123223E-2,2.2170372E-1],"categories":[],"categories_nodes":[],"categories_segments":[],"categories_sizes":[],"default_left":[0,0,0,0,0,1,0,0,0,0,0,0,0,0,0,0,0,0,0,0,0,0,0,0,0,0,0,0,0,0,0,0,0,0,0,0,0,0,0,0,0,0,0,0,0,0,0,0,0,0,0,0,0,0,0],"id":32,"left_children":[1,3,5,7,9,11,13,15,17,19,21,23,25,27,29,31,33,35,37,39,41,-1,-1,43,45,47,49,51,53,-1,-1,-1,-1,-1,-1,-1,-1,-1,-1,-1,-1,-1,-1,-1,-1,-1,-1,-1,-1,-1,-1,-1,-1,-1,-1],"loss_changes":[2.2317955E1,7.035126E0,2.1820314E1,4.8502216E0,2.0023441E1,1.8861362E1,2.0255922E1,1.1802663E1,1.57488365E1,2.607817E0,3.9172058E0,2.1187681E1,1.957318E1,1.6856329E1,1.7041908E1,1.0195318E1,3.2605736E1,2.0540983E1,2.1018087E1,2.7158308E-1,1.7619419E-1,0E0,0E0,3.499968E1,4.4554073E1,3.4950077E1,2.8155499E1,1.1718294E1,2.0980722E1,0E0,0E0,0E0,0E0,0E0,0E0,0E0,0E0,0E0,0E0,0E0,0E0,0E0,0E0,0E0,0E0,0E0,0E0,0E0,0E0,0E0,0E0,0E0,0E0,0E0,0E0],"parents":[2147483647,0,0,1,1,2,2,3,3,4,4,5,5,6,6,7,7,8,8,9,9,10,10,11,11,12,12,13,13,14,14,15,15,16,16,17,17,18,18,19,19,20,20,23,23,24,24,25,25,26,26,27,27,28,28],"right_children":[2,4,6,8,10,12,14,16,18,20,22,24,26,28,30,32,34,36,38,40,42,-1,-1,44,46,48,50,52,54,-1,-1,-1,-1,-1,-1,-1,-1,-1,-1,-1,-1,-1,-1,-1,-1,-1,-1,-1,-1,-1,-1,-1,-1,-1,-1],"split_conditions":[1.6666666E0,3.142857E0,1E0,1.6E0,4.9E1,2.25E0,9.142858E0,1.7272727E0,1.006537E0,3.9166667E0,3.2E0,1.6092863E0,2.2857144E0,2.3333333E0,1.1142858E1,1.3333334E0,1.8571428E0,1.3333334E0,5.2E1,3.6666667E0,2.2E0,1.068872E-1,3.5544276E-1,7E0,1.7595915E0,1E0,1E0,1.95E2,1.6648519E0,3.044608E-1,-2.2223957E-2,-3.0528053E-3,-9.174192E-2,1.89179E-1,-7.5867125E-3,-6.493788E-2,1.3995694E-1,-2.9427126E-2,-2.0576294E-1,-6.414823E-2,-3.7817121E-3,1.01597905E-2,7.46572E-2,4.955498E-2,-5.2275773E-2,1.9195753E-1,1.9064143E-2,-6.444293E-2,3.6208305E-1,3.4603705E-3,8.7991245E-2,1.977428E-1,2.4966964E-2,-2.123223E-2,2.2170372E-1],"split_indices":[0,2,18,1,13,1,10,3,5,3,3,7,2,0,10,0,3,0,13,2,1,0,0,11,7,72,49,12,6,0,0,0,0,0,0,0,0,0,0,0,0,0,0,0,0,0,0,0,0,0,0,0,0,0,0],"split_type":[0,0,0,0,0,0,0,0,0,0,0,0,0,0,0,0,0,0,0,0,0,0,0,0,0,0,0,0,0,0,0,0,0,0,0,0,0,0,0,0,0,0,0,0,0,0,0,0,0,0,0,0,0,0,0],"sum_hessian":[6.077E3,4.693E3,1.384E3,4.681E3,1.2E1,1.327E3,5.7E1,4.609E3,7.2E1,8E0,4E0,2.12E2,1.115E3,5E1,7E0,4.57E3,3.9E1,1.8E1,5.4E1,6E0,2E0,3E0,1E0,1.49E2,6.3E1,6E1,1.055E3,1.6E1,3.4E1,5E0,2E0,4.558E3,1.2E1,1.1E1,2.8E1,8E0,1E1,4.7E1,7E0,5E0,1E0,1E0,1E0,9.9E1,5E1,2.3E1,4E1,5.9E1,1E0,1.015E3,4E1,9E0,7E0,3.1E1,3E0],"tree_param":{"num_deleted":"0","num_feature":"160","num_nodes":"55","size_leaf_vector":"1"}},{"base_weights":[2.584411E-3,-2.652521E-2,1.1075548E-1,-2.1815874E-2,-1.0016379E0,1.03467286E-1,2.4262197E-1,-2.2782257E-2,1.5207173E-1,6.2615454E-2,-1.1040901E0,2.3466007E-1,-2.9735198E-2,-2.352908E-2,1.7679162E-1,-1.7282209E0,-6.9761425E-1,1.6616457E0,1.9125152E-1,-5.737685E-2,1.4193225E0,-2.5364952E-3,5.595212E-2,-1.07004166E-1,-2.468506E-1,-9.697776E-2,-2.4803078E-2,2.1618442E-1,-1.7127935E-2,2.6641473E-2,-4.237192E-2,-1.1087419E-2,7.5341314E-2,3.7274954E-1,-7.6187186E-2],"categories":[],"categories_nodes":[],"categories_segments":[],"categories_sizes":[],"default_left":[0,0,0,0,0,0,0,0,0,0,0,0,0,0,0,0,0,0,0,0,0,0,0,0,0,0,0,0,0,0,0,0,0,0,0],"id":33,"left_children":[1,3,5,7,9,11,-1,13,-1,-1,15,17,19,21,-1,23,25,27,29,31,33,-1,-1,-1,-1,-1,-1,-1,-1,-1,-1,-1,-1,-1,-1],"loss_changes":[1.9141459E1,2.1974472E1,2.1501541E1,7.142201E0,4.5270615E0,2.2480091E1,0E0,6.4153404E0,0E0,0E0,4.375639E0,3.9821514E1,2.567616E1,5.1146736E0,0E0,1.2565193E0,1.5948672E0,1.7789978E1,2.9233482E1,2.7323105E1,6.325476E1,0E0,0E0,0E0,0E0,0E0,0E0,0E0,0E0,0E0,0E0,0E0,0E0,0E0,0E0],"parents":[2147483647,0,0,1,1,2,2,3,3,4,4,5,5,7,7,10,10,11,11,12,12,13,13,15,15,16,16,17,17,18,18,19,19,20,20],"right_children":[2,4,6,8,10,12,-1,14,-1,-1,16,18,20,22,-1,24,26,28,30,32,34,-1,-1,-1,-1,-1,-1,-1,-1,-1,-1,-1,-1,-1,-1],"split_conditions":[2.4166667E0,2.6E0,3.4E2,2.4E0,4E0,1E0,2.4262197E-1,1E0,1.5207173E-1,6.2615454E-2,5.818182E0,4.75E0,1E0,1E0,1.7679162E-1,6.125E0,1E0,1.35E2,1.1285714E1,4.714286E0,1.5682884E0,-2.5364952E-3,5.595212E-2,-1.07004166E-1,-2.468506E-1,-9.697776E-2,-2.4803078E-2,2.1618442E-1,-1.7127935E-2,2.6641473E-2,-4.237192E-2,-1.1087419E-2,7.5341314E-2,3.7274954E-1,-7.6187186E-2],"split_indices":[3,2,12,3,9,14,0,115,0,0,11,11,35,21,0,10,14,12,10,2,6,0,0,0,0,0,0,0,0,0,0,0,0,0,0],"split_type":[0,0,0,0,0,0,0,0,0,0,0,0,0,0,0,0,0,0,0,0,0,0,0,0,0,0,0,0,0,0,0,0,0,0,0],"sum_hessian":[6.077E3,4.789E3,1.288E3,4.767E3,2.2E1,1.285E3,3E0,4.765E3,2E0,1E0,2.1E1,6.47E2,6.38E2,4.764E3,1E0,7E0,1.4E1,1.8E1,6.29E2,6.27E2,1.1E1,4.75E3,1.4E1,5E0,2E0,8E0,6E0,1.4E1,4E0,5.61E2,6.8E1,5.89E2,3.8E1,5E0,6E0],"tree_param":{"num_deleted":"0","num_feature":"160","num_nodes":"35","size_leaf_vector":"1"}},{"base_weights":[2.450367E-3,-2.1059472E-2,1.2142693E-1,-2.6313577E-2,8.3485234E-1,8.2441315E-2,7.018085E-1,-2.853833E-2,1.0969259E0,3.0097802E0,-5.2504316E-2,1.4739919E-1,-4.5926175E-1,-2.486413E-2,1.2131153E0,-2.9748887E-2,2.0126943E-1,-1.4393468E-1,2.389521E0,-1.5462059E-1,4.6177506E0,-4.7528648E-1,2.9244723E0,5.15535E-2,8.735399E-1,1.6623685E-1,-9.073495E-1,1.1081876E0,-3.3274803E-1,2.0883486E0,-3.739357E-1,-2.5469156E-3,-7.676413E-2,3.5248795E-1,-2.9925037E-2,2.6863504E-2,-3.8525082E-2,5.17622E-1,9.1270305E-2,2.8488183E-2,-9.649964E-2,3.5767356E-1,8.09973E-2,-3.893966E-2,1.1359922E-2,5.9622537E-2,2.6408872E-1,1.0354103E-3,2.2412221E-1,6.6979684E-2,-1.20463185E-1,-4.4386324E-2,1.9951788E-1,-2.3923803E-3,-9.910966E-2,2.7273953E-1,-8.855073E-2,1.5259576E-2,-9.2226654E-2],"categories":[],"categories_nodes":[],"categories_segments":[],"categories_sizes":[],"default_left":[0,0,0,0,0,0,0,1,0,0,0,0,0,0,0,0,0,0,0,0,0,0,0,0,0,0,0,0,0,0,0,0,0,0,0,0,0,0,0,0,0,0,0,0,0,0,0,0,0,0,0,0,0,0,0,0,0,0,0],"id":34,"left_children":[1,3,5,7,9,11,13,15,17,19,21,23,25,27,29,31,-1,-1,33,35,37,39,41,43,45,47,49,51,53,55,57,-1,-1,-1,-1,-1,-1,-1,-1,-1,-1,-1,-1,-1,-1,-1,-1,-1,-1,-1,-1,-1,-1,-1,-1,-1,-1,-1,-1],"loss_changes":[1.7003454E1,2.2848991E1,2.2636555E1,1.2640907E1,5.9986076E1,3.3179485E1,2.3437984E1,1.2506454E1,3.622308E1,4.650837E1,3.0338055E1,5.8486435E1,2.845894E1,9.787653E0,5.217538E1,1.5880893E1,0E0,0E0,2.2423859E1,4.93954E-1,7.6905746E0,8.092411E0,1.2405701E0,2.0399378E1,4.6456314E1,1.3885334E1,2.8469463E1,9.145519E0,4.449197E0,4.8025505E1,4.182722E0,0E0,0E0,0E0,0E0,0E0,0E0,0E0,0E0,0E0,0E0,0E0,0E0,0E0,0E0,0E0,0E0,0E0,0E0,0E0,0E0,0E0,0E0,0E0,0E0,0E0,0E0,0E0,0E0],"parents":[2147483647,0,0,1,1,2,2,3,3,4,4,5,5,6,6,7,7,8,8,9,9,10,10,11,11,12,12,13,13,14,14,15,15,18,18,19,19,20,20,21,21,22,22,23,23,24,24,25,25,26,26,27,27,28,28,29,29,30,30],"right_children":[2,4,6,8,10,12,14,16,18,20,22,24,26,28,30,32,-1,-1,34,36,38,40,42,44,46,48,50,52,54,56,58,-1,-1,-1,-1,-1,-1,-1,-1,-1,-1,-1,-1,-1,-1,-1,-1,-1,-1,-1,-1,-1,-1,-1,-1,-1,-1,-1,-1],"split_conditions":[4.6E1,1E0,1.15E1,1E0,1.536743E0,9.2E0,3E0,8.666667E0,7.25E0,-9.5E1,2.3847897E0,8.2E0,2.5E0,1.7989607E0,1.1285714E1,5.6E0,2.0126943E-1,-1.4393468E-1,3.5E1,3E0,8.333333E0,-4.5E1,4.428571E0,-6E1,2.0679176E0,3.2857144E0,4.7E1,1.33692E0,3.3333334E-1,5.5E0,1.55E1,-2.5469156E-3,-7.676413E-2,3.5248795E-1,-2.9925037E-2,2.6863504E-2,-3.8525082E-2,5.17622E-1,9.1270305E-2,2.8488183E-2,-9.649964E-2,3.5767356E-1,8.09973E-2,-3.893966E-2,1.1359922E-2,5.9622537E-2,2.6408872E-1,1.0354103E-3,2.2412221E-1,6.6979684E-2,-1.20463185E-1,-4.4386324E-2,1.9951788E-1,-2.3923803E-3,-9.910966E-2,2.7273953E-1,-8.855073E-2,1.5259576E-2,-9.2226654E-2],"split_indices":[13,42,8,18,4,9,2,0,10,12,6,9,1,4,10,1,0,0,12,0,8,12,2,12,6,2,13,4,0,0,8,0,0,0,0,0,0,0,0,0,0,0,0,0,0,0,0,0,0,0,0,0,0,0,0,0,0,0,0],"split_type":[0,0,0,0,0,0,0,0,0,0,0,0,0,0,0,0,0,0,0,0,0,0,0,0,0,0,0,0,0,0,0,0,0,0,0,0,0,0,0,0,0,0,0,0,0,0,0,0,0,0,0,0,0,0,0,0,0,0,0],"sum_hessian":[6.077E3,5.075E3,1.002E3,5.045E3,3E1,9.4E2,6.2E1,5.036E3,9E0,8E0,2.2E1,8.4E2,1E2,2.6E1,3.6E1,5.034E3,2E0,3E0,6E0,3E0,5E0,2E1,2E0,7.43E2,9.7E1,4.2E1,5.8E1,5E0,2.1E1,2.3E1,1.3E1,5.006E3,2.8E1,4E0,2E0,1E0,2E0,4E0,1E0,8E0,1.2E1,1E0,1E0,9.1E1,6.52E2,8.5E1,1.2E1,4E1,2E0,9E0,4.9E1,2E0,3E0,1.5E1,6E0,1.9E1,4E0,7E0,6E0],"tree_param":{"num_deleted":"0","num_feature":"160","num_nodes":"59","size_leaf_vector":"1"}},{"base_weights":[2.5174746E-3,-1.8350596E-2,1.2089691E-1,-1.4468956E-2,-5.712978E-1,3.945127E-1,4.1388936E-2,-1.7480671E-2,1.7021433E0,-1.4383639E0,-1.8248923E-1,-9.1795164E-1,5.0295967E-1,6.462983E-2,-1.2042887E0,-1.5082458E-2,-1.0380626E0,3.0200118E-1,2.761857E-1,-7.130706E-3,-1.5679388E-1,-4.7604966E-1,8.7538713E-1,-1.6351663E0,2.3777665E-1,4.4392663E-1,3.1370132E0,4.6588087E-1,-4.552774E-4,-1.9212116E0,-3.1532454E-1,-1.7930039E-3,1.19710796E-1,-1.6428897E-1,-3.7134472E-2,-3.315113E-2,1.4180255E-1,-9.514861E-3,-7.537964E-2,1.650918E-1,-4.5044985E-2,-1.7221634E-1,-4.260962E-2,2.0329896E-1,-4.0025707E-2,3.0513272E-2,1.255108E-1,9.244883E-2,3.566359E-1,3.16366E-2,3.1536812E-1,-3.5123948E-3,2.2761714E-1,-1.4982319E-2,-2.1914725E-1,2.8666044E-2,-6.1345067E-2],"categories":[],"categories_nodes":[],"categories_segments":[],"categories_sizes":[],"default_left":[0,0,1,0,0,0,0,0,0,0,0,0,0,0,0,0,0,0,0,0,0,0,0,0,0,0,0,0,0,0,0,0,0,0,0,0,0,0,0,0,0,0,0,0,0,0,0,0,0,0,0,0,0,0,0,0,0],"id":35,"left_children":[1,3,5,7,9,11,13,15,17,19,21,23,25,27,29,31,33,35,-1,-1,-1,37,39,41,43,45,47,49,51,53,55,-1,-1,-1,-1,-1,-1,-1,-1,-1,-1,-1,-1,-1,-1,-1,-1,-1,-1,-1,-1,-1,-1,-1,-1,-1,-1],"loss_changes":[1.5017007E1,1.1084027E1,1.9802145E1,2.6567095E1,1.1873931E1,2.96399E1,2.0545948E1,1.2528156E1,1.2519659E1,1.8366966E0,8.491045E0,1.365129E1,2.8151657E1,1.8150461E1,7.6793385E0,1.7674019E1,4.2289095E0,4.005168E0,0E0,0E0,0E0,2.1499515E0,6.913021E0,3.1804466E-1,8.831562E0,2.0670803E1,5.026932E-1,3.798329E1,4.7357594E1,3.0228252E0,1.4321239E0,0E0,0E0,0E0,0E0,0E0,0E0,0E0,0E0,0E0,0E0,0E0,0E0,0E0,0E0,0E0,0E0,0E0,0E0,0E0,0E0,0E0,0E0,0E0,0E0,0E0,0E0],"parents":[2147483647,0,0,1,1,2,2,3,3,4,4,5,5,6,6,7,7,8,8,9,9,10,10,11,11,12,12,13,13,14,14,15,15,16,16,17,17,21,21,22,22,23,23,24,24,25,25,26,26,27,27,28,28,29,29,30,30],"right_children":[2,4,6,8,10,12,14,16,18,20,22,24,26,28,30,32,34,36,-1,-1,-1,38,40,42,44,46,48,50,52,54,56,-1,-1,-1,-1,-1,-1,-1,-1,-1,-1,-1,-1,-1,-1,-1,-1,-1,-1,-1,-1,-1,-1,-1,-1,-1,-1],"split_conditions":[2.909091E0,3.1666667E0,3.1111112E0,3.142857E0,1.3793366E0,9.722034E-1,1E0,3.6666667E0,3.3333333E0,-2.1E2,5.1E1,4.7E1,1E0,6.6363635E0,4E0,3.6E0,1.7120783E0,1.867268E0,2.761857E-1,-7.130706E-3,-1.5679388E-1,-5E0,2.7777777E0,1.1378276E0,2.9166667E0,1.02E1,2E0,6.5833335E0,2.8E2,2.142857E0,1.3816067E0,-1.7930039E-3,1.19710796E-1,-1.6428897E-1,-3.7134472E-2,-3.315113E-2,1.4180255E-1,-9.514861E-3,-7.537964E-2,1.650918E-1,-4.5044985E-2,-1.7221634E-1,-4.260962E-2,2.0329896E-1,-4.0025707E-2,3.0513272E-2,1.255108E-1,9.244883E-2,3.566359E-1,3.16366E-2,3.1536812E-1,-3.5123948E-3,2.2761714E-1,-1.4982319E-2,-2.1914725E-1,2.8666044E-2,-6.1345067E-2],"split_indices":[3,2,3,2,6,6,30,1,1,12,13,13,37,11,0,1,4,4,0,0,0,12,3,4,3,9,0,11,12,2,4,0,0,0,0,0,0,0,0,0,0,0,0,0,0,0,0,0,0,0,0,0,0,0,0,0,0],"split_type":[0,0,0,0,0,0,0,0,0,0,0,0,0,0,0,0,0,0,0,0,0,0,0,0,0,0,0,0,0,0,0,0,0,0,0,0,0,0,0,0,0,0,0,0,0,0,0,0,0,0,0,0,0,0,0,0,0],"sum_hessian":[6.077E3,5.167E3,9.1E2,5.132E3,3.5E1,2.04E2,7.06E2,5.124E3,8E0,1E1,2.5E1,1.5E1,1.89E2,6.94E2,1.2E1,5.113E3,1.1E1,4E0,4E0,1E0,9E0,2E1,5E0,9E0,6E0,1.86E2,3E0,9.6E1,5.98E2,6E0,6E0,5.102E3,1.1E1,5E0,6E0,3E0,1E0,9E0,1.1E1,3E0,2E0,8E0,1E0,1E0,5E0,1.6E2,2.6E1,1E0,2E0,9.2E1,4E0,5.9E2,8E0,1E0,5E0,2E0,4E0],"tree_param":{"num_deleted":"0","num_feature":"160","num_nodes":"57","size_leaf_vector":"1"}},{"base_weights":[2.435248E-3,-2.930669E-3,4.0994242E-1,-3.8723878E-3,1.8808562E-1,5.8521694E-1,-1.218771E0,-2.2070534E-3,-1.1118147E0,-1.3947012E0,7.537885E-1,-4.745469E-1,-1.570396E-1,-8.146741E-3,3.962496E-1,-1.3749965E0,-1.271189E-1,-1.7079924E0,-5.120792E-2,