{"learner":{"attributes":{"scikit_learn":"{\"_estimator_type\": \"regressor\"}"},"feature_names":["rolling_saves_3","rolling_saves_5","rolling_saves_8","rolling_saves_12","rolling_clean_sheets_3","rolling_clean_sheets_5","rolling_clean_sheets_8","rolling_clean_sheets_12","rolling_expected_goals_conceded_3","rolling_expected_goals_conceded_5","rolling_expected_goals_conceded_8","rolling_expected_goals_conceded_12","rolling_total_points_3","rolling_total_points_5","rolling_total_points_8","rolling_total_points_12","rolling_minutes_3","rolling_minutes_5","rolling_minutes_8","rolling_minutes_12","rolling_bps_3","rolling_bps_5","rolling_bps_8","rolling_bps_12","avg_yellow_cards","avg_penalties_saved","def_atk_diff","value","was_home_0","was_home_1","unique_id_5","unique_id_14","unique_id_15","unique_id_39","unique_id_46","unique_id_47","unique_id_51","unique_id_55","unique_id_73","unique_id_75","unique_id_84","unique_id_91","unique_id_109","unique_id_142","unique_id_146","unique_id_152","unique_id_154","unique_id_155","unique_id_183","unique_id_185","unique_id_201","unique_id_204","unique_id_209","unique_id_227","unique_id_235","unique_id_242","unique_id_248","unique_id_280","unique_id_283","unique_id_293","unique_id_294","unique_id_304","unique_id_308","unique_id_310","unique_id_325","unique_id_344","unique_id_347","unique_id_358","unique_id_367","unique_id_374","unique_id_383","unique_id_396","unique_id_412","unique_id_413","unique_id_414","unique_id_427","unique_id_443","unique_id_445","unique_id_454","unique_id_465","unique_id_466","unique_id_469","unique_id_479","unique_id_488","unique_id_508","unique_id_510","unique_id_513","unique_id_521","unique_id_522","unique_id_536","unique_id_554","unique_id_556","unique_id_568","unique_id_581","unique_id_599","unique_id_615","unique_id_624","unique_id_639","unique_id_641","unique_id_660","unique_id_668","unique_id_669","unique_id_719","unique_id_734","unique_id_737","unique_id_754","unique_id_755","unique_id_758","unique_id_767","unique_id_771","unique_id_781","unique_id_789","unique_id_791","unique_id_801","unique_id_805","unique_id_825","unique_id_831","unique_id_839","unique_id_842","unique_id_854","unique_id_857","unique_id_867","unique_id_885","unique_id_887","unique_id_898","unique_id_915","unique_id_922","unique_id_930","unique_id_932","unique_id_942","unique_id_943","unique_id_952","unique_id_960","unique_id_961","unique_id_967","unique_id_979","unique_id_988","unique_id_990","unique_id_993","unique_id_1008","unique_id_1018","unique_id_1049","unique_id_1050","unique_id_1055","unique_id_1058","unique_id_1067","unique_id_1073","unique_id_1075","unique_id_1077","unique_id_1078","unique_id_1082","unique_id_1109","unique_id_1113","unique_id_1118","unique_id_1122","unique_id_1133","unique_id_1135","unique_id_1144","unique_id_1147","unique_id_1157","unique_id_1164","unique_id_1168","unique_id_1179","unique_id_1190","unique_id_1193","unique_id_1201","unique_id_1204","unique_id_1217","unique_id_1223","unique_id_1231","unique_id_1243","unique_id_1249","unique_id_1271"],"feature_types":["float","float","float","float","float","float","float","float","float","float","float","float","float","float","float","float","float","float","float","float","float","float","float","float","float","float","int","int","i","i","i","i","i","i","i","i","i","i","i","i","i","i","i","i","i","i","i","i","i","i","i","i","i","i","i","i","i","i","i","i","i","i","i","i","i","i","i","i","i","i","i","i","i","i","i","i","i","i","i","i","i","i","i","i","i","i","i","i","i","i","i","i","i","i","i","i","i","i","i","i","i","i","i","i","i","i","i","i","i","i","i","i","i","i","i","i","i","i","i","i","i","i","i","i","i","i","i","i","i","i","i","i","i","i","i","i","i","i","i","i","i","i","i","i","i","i","i","i","i","i","i","i","i","i","i","i","i","i","i","i","i","i","i","i","i","i","i","i","i","i","i","i","i"],"gradient_booster":{"model":{"gbtree_model_param":{"num_parallel_tree":"1","num_trees":"100"},"iteration_indptr":[0,1,2,3,4,5,6,7,8,9,10,11,12,13,14,15,16,17,18,19,20,21,22,23,24,25,26,27,28,29,30,31,32,33,34,35,36,37,38,39,40,41,42,43,44,45,46,47,48,49,50,51,52,53,54,55,56,57,58,59,60,61,62,63,64,65,66,67,68,69,70,71,72,73,74,75,76,77,78,79,80,81,82,83,84,85,86,87,88,89,90,91,92,93,94,95,96,97,98,99,100],"tree_info":[0,0,0,0,0,0,0,0,0,0,0,0,0,0,0,0,0,0,0,0,0,0,0,0,0,0,0,0,0,0,0,0,0,0,0,0,0,0,0,0,0,0,0,0,0,0,0,0,0,0,0,0,0,0,0,0,0,0,0,0,0,0,0,0,0,0,0,0,0,0,0,0,0,0,0,0,0,0,0,0,0,0,0,0,0,0,0,0,0,0,0,0,0,0,0,0,0,0,0,0],"trees":[{"base_weights":[3.397983E-8,2.5080464E0,-8.393137E-2,2.4886177E0,8.8705426E-1,2.1987555E0,2.7847905E0,2.3322623E0,1.4696829E0,7.6290566E-1,2.8334289E0,1.7413726E-1,2.5216684E-1,1.8704097E-1,9.222781E-2,5.5203307E-3,1.6406332E-1,3.3426625E-1,2.6555774E-1],"categories":[],"categories_nodes":[],"categories_segments":[],"categories_sizes":[],"default_left":[0,0,0,0,0,0,0,0,0,0,0,0,0,0,0,0,0,0,0],"id":0,"left_children":[1,3,-1,5,-1,7,9,11,13,15,17,-1,-1,-1,-1,-1,-1,-1,-1],"loss_changes":[1.2106071E4,1.5617871E2,0E0,1.17413086E2,0E0,6.782251E1,6.746387E1,6.46626E1,2.3720688E1,1.1090488E1,5.3706055E1,0E0,0E0,0E0,0E0,0E0,0E0,0E0,0E0],"parents":[2147483647,0,0,1,1,3,3,5,5,6,6,7,7,8,8,9,9,10,10],"right_children":[2,4,-1,6,-1,8,10,12,14,16,18,-1,-1,-1,-1,-1,-1,-1,-1],"split_conditions":[2.00001E0,5E-1,-8.393137E-2,4.6E1,8.8705426E-1,1.942E0,-2.3E2,7E0,4E0,3.3333333E0,2.7142856E0,1.7413726E-1,2.5216684E-1,1.8704097E-1,9.222781E-2,5.5203307E-3,1.6406332E-1,3.3426625E-1,2.6555774E-1],"split_indices":[24,25,0,27,0,9,26,20,2,0,14,0,0,0,0,0,0,0,0],"split_type":[0,0,0,0,0,0,0,0,0,0,0,0,0,0,0,0,0,0,0],"sum_hessian":[5.749E3,1.441E3,4.308E3,1.438E3,3E0,7.31E2,7.07E2,6.16E2,1.15E2,1.7E1,6.9E2,1.52E2,4.64E2,6.5E1,5E1,1E1,7E0,1.74E2,5.16E2],"tree_param":{"num_deleted":"0","num_feature":"173","num_nodes":"19","size_leaf_vector":"1"}},{"base_weights":[3.962322E-4,2.2588797E0,-7.554018E-2,2.2407808E0,8.2052517E-1,1.9622693E0,2.5048757E0,2.2131593E0,1.5052911E0,2.4546232E0,5.328041E0,7.450833E-2,2.2971706E-1,6.697043E-2,1.7503904E-1,2.4039507E-1,4.0364715E-1,6.113277E-1,9.345743E-2],"categories":[],"categories_nodes":[],"categories_segments":[],"categories_sizes":[],"default_left":[0,0,0,0,0,0,0,0,0,0,0,0,0,0,0,0,0,0,0],"id":1,"left_children":[1,3,-1,5,-1,7,9,11,13,15,17,-1,-1,-1,-1,-1,-1,-1,-1],"loss_changes":[9.816711E3,1.3680615E2,0E0,1.0092822E2,0E0,7.74978E1,9.1197266E1,5.4158936E1,5.064258E1,4.832959E1,3.5685608E1,0E0,0E0,0E0,0E0,0E0,0E0,0E0,0E0],"parents":[2147483647,0,0,1,1,3,3,5,5,6,6,7,7,8,8,9,9,10,10],"right_children":[2,4,-1,6,-1,8,10,12,14,16,18,-1,-1,-1,-1,-1,-1,-1,-1],"split_conditions":[2.00001E0,5E-1,-7.554018E-2,2E1,8.2052517E-1,1E0,1.1764706E-1,-2.75E2,6.55E-1,1E0,2.3636363E0,7.450833E-2,2.2971706E-1,6.697043E-2,1.7503904E-1,2.4039507E-1,4.0364715E-1,6.113277E-1,9.345743E-2],"split_indices":[24,25,0,26,0,28,25,26,11,128,3,0,0,0,0,0,0,0,0],"split_type":[0,0,0,0,0,0,0,0,0,0,0,0,0,0,0,0,0,0,0],"sum_hessian":[5.749E3,1.441E3,4.308E3,1.438E3,3E0,7.04E2,7.34E2,4.52E2,2.52E2,7.23E2,1.1E1,2.5E1,4.27E2,5.8E1,1.94E2,7.03E2,2E1,9E0,2E0],"tree_param":{"num_deleted":"0","num_feature":"173","num_nodes":"19","size_leaf_vector":"1"}},{"base_weights":[8.1575237E-4,2.034875E0,-6.798791E-2,2.0180197E0,7.589858E-1,1.7697612E0,2.2718432E0,1.7367811E0,4.537361E0,1.4332181E0,2.3659952E0,1.8526287E-1,1.1126106E-1,5.594029E-1,9.115717E-2,3.1196044E-4,1.859684E-1,2.1950439E-1,3.1446776E-1],"categories":[],"categories_nodes":[],"categories_segments":[],"categories_sizes":[],"default_left":[0,0,0,0,0,0,0,0,0,0,0,0,0,0,0,0,0,0,0],"id":2,"left_children":[1,3,-1,5,-1,7,9,11,13,15,17,-1,-1,-1,-1,-1,-1,-1,-1],"loss_changes":[7.962682E3,1.1969971E2,0E0,8.665625E1,0E0,5.8933594E1,5.2511475E1,5.0362305E1,2.555069E1,4.5125916E1,7.762598E1,0E0,0E0,0E0,0E0,0E0,0E0,0E0,0E0],"parents":[2147483647,0,0,1,1,3,3,5,5,6,6,7,7,8,8,9,9,10,10],"right_children":[2,4,-1,6,-1,8,10,12,14,16,18,-1,-1,-1,-1,-1,-1,-1,-1],"split_conditions":[2.00001E0,5E-1,-6.798791E-2,4.6E1,7.589858E-1,1.1764706E-1,-9E1,1.942E0,1.3636364E0,1.5E1,3.3898305E-2,1.8526287E-1,1.1126106E-1,5.594029E-1,9.115717E-2,3.1196044E-4,1.859684E-1,2.1950439E-1,3.1446776E-1],"split_indices":[24,25,0,27,0,25,26,9,3,22,25,0,0,0,0,0,0,0,0],"split_type":[0,0,0,0,0,0,0,0,0,0,0,0,0,0,0,0,0,0,0],"sum_hessian":[5.749E3,1.441E3,4.308E3,1.438E3,3E0,7.31E2,7.07E2,7.24E2,7E0,7.3E1,6.34E2,6.09E2,1.15E2,5E0,2E0,1.7E1,5.6E1,5.23E2,1.11E2],"tree_param":{"num_deleted":"0","num_feature":"173","num_nodes":"19","size_leaf_vector":"1"}},{"base_weights":[1.1443287E-3,1.83307E0,-6.1190695E-2,1.8173764E0,7.020619E-1,7.7490807E-1,1.8677193E0,6.44718E-1,3.3807876E0,1.6818213E0,2.1825526E0,5.510313E-2,3.3671767E-1,4.2467886E-1,8.243928E-2,1.9162957E-1,1.4456409E-1,3.8724896E-2,2.2556368E-1],"categories":[],"categories_nodes":[],"categories_segments":[],"categories_sizes":[],"default_left":[0,0,0,0,0,0,0,0,0,0,0,0,0,0,0,0,0,0,0],"id":3,"left_children":[1,3,-1,5,-1,7,9,11,13,15,17,-1,-1,-1,-1,-1,-1,-1,-1],"loss_changes":[6.4587427E3,1.0463672E2,0E0,7.4072754E1,0E0,2.0890003E1,7.662793E1,1.4978418E1,3.140499E0,4.5242676E1,6.551758E1,0E0,0E0,0E0,0E0,0E0,0E0,0E0,0E0],"parents":[2147483647,0,0,1,1,3,3,5,5,6,6,7,7,8,8,9,9,10,10],"right_children":[2,4,-1,6,-1,8,10,12,14,16,18,-1,-1,-1,-1,-1,-1,-1,-1],"split_conditions":[2.00001E0,5E-1,-6.1190695E-2,-2.3E2,7.020619E-1,1E0,1.3888889E-2,1E0,2.3333333E0,1E0,3.3333334E-1,5.510313E-2,3.3671767E-1,4.2467886E-1,8.243928E-2,1.9162957E-1,1.4456409E-1,3.8724896E-2,2.2556368E-1],"split_indices":[24,25,0,26,0,41,25,89,0,28,0,0,0,0,0,0,0,0,0],"split_type":[0,0,0,0,0,0,0,0,0,0,0,0,0,0,0,0,0,0,0],"sum_hessian":[5.749E3,1.441E3,4.308E3,1.438E3,3E0,6.7E1,1.371E3,6.5E1,2E0,8.66E2,5.05E2,6.4E1,1E0,1E0,1E0,4.31E2,4.35E2,2E1,4.85E2],"tree_param":{"num_deleted":"0","num_feature":"173","num_nodes":"19","size_leaf_vector":"1"}},{"base_weights":[1.4021435E-3,1.6512897E0,-5.507305E-2,1.6366807E0,6.494072E-1,1.4024265E0,1.8591467E0,1.6168388E0,1.0129752E0,1.8165289E0,4.275493E0,1.2905896E-1,1.8959628E-1,3.495475E-2,1.2500726E-1,1.7701887E-1,3.283527E-1,6.0056204E-1,2.181742E-1],"categories":[],"categories_nodes":[],"categories_segments":[],"categories_sizes":[],"default_left":[0,0,0,0,0,0,0,0,0,0,0,0,0,0,0,0,0,0,0],"id":4,"left_children":[1,3,-1,5,-1,7,9,11,13,15,17,-1,-1,-1,-1,-1,-1,-1,-1],"loss_changes":[5.2389106E3,9.139038E1,0E0,7.238403E1,0E0,5.7231934E1,6.792334E1,3.8805176E1,3.935919E1,4.3406006E1,3.0366745E1,0E0,0E0,0E0,0E0,0E0,0E0,0E0,0E0],"parents":[2147483647,0,0,1,1,3,3,5,5,6,6,7,7,8,8,9,9,10,10],"right_children":[2,4,-1,6,-1,8,10,12,14,16,18,-1,-1,-1,-1,-1,-1,-1,-1],"split_conditions":[2.00001E0,5E-1,-5.507305E-2,2E1,6.494072E-1,1E0,1.1764706E-1,1.24875E0,7.341667E-1,1E0,1.0866667E0,1.2905896E-1,1.8959628E-1,3.495475E-2,1.2500726E-1,1.7701887E-1,3.283527E-1,6.0056204E-1,2.181742E-1],"split_indices":[24,25,0,26,0,28,25,10,11,128,8,0,0,0,0,0,0,0,0],"split_type":[0,0,0,0,0,0,0,0,0,0,0,0,0,0,0,0,0,0,0],"sum_hessian":[5.749E3,1.441E3,4.308E3,1.438E3,3E0,7.04E2,7.34E2,4.52E2,2.52E2,7.23E2,1.1E1,2.11E2,2.41E2,6.7E1,1.85E2,7.03E2,2E1,5E0,6E0],"tree_param":{"num_deleted":"0","num_feature":"173","num_nodes":"19","size_leaf_vector":"1"}},{"base_weights":[1.6788105E-3,1.4878613E0,-4.9567018E-2,1.4742653E0,6.0070175E-1,1.2691709E0,1.68423E0,1.3825406E0,6.552201E-1,2.172043E0,1.5187653E0,1.2785871E-1,2.2030099E-1,5.8916565E-2,4.1257396E-1,1.6153379E-1,3.4101802E-1,1.832311E-1,1.2030627E-1],"categories":[],"categories_nodes":[],"categories_segments":[],"categories_sizes":[],"default_left":[0,0,0,0,0,0,0,0,0,0,0,0,0,0,0,0,0,0,0],"id":5,"left_children":[1,3,-1,5,-1,7,9,11,13,15,17,-1,-1,-1,-1,-1,-1,-1,-1],"loss_changes":[4.250858E3,7.9743164E1,0E0,5.9829346E1,0E0,5.0043823E1,5.3848022E1,4.9807617E1,2.416146E1,1.1649353E2,5.0456787E1,0E0,0E0,0E0,0E0,0E0,0E0,0E0,0E0],"parents":[2147483647,0,0,1,1,3,3,5,5,6,6,7,7,8,8,9,9,10,10],"right_children":[2,4,-1,6,-1,8,10,12,14,16,18,-1,-1,-1,-1,-1,-1,-1,-1],"split_conditions":[2.00001E0,5E-1,-4.9567018E-2,4.6E1,6.0070175E-1,1.942E0,2.7142856E0,1.9375E1,2.3076923E-1,1.3888889E-2,1E0,1.2785871E-1,2.2030099E-1,5.8916565E-2,4.1257396E-1,1.6153379E-1,3.4101802E-1,1.832311E-1,1.2030627E-1],"split_indices":[24,25,0,27,0,9,14,22,24,25,28,0,0,0,0,0,0,0,0],"split_type":[0,0,0,0,0,0,0,0,0,0,0,0,0,0,0,0,0,0,0],"sum_hessian":[5.749E3,1.441E3,4.308E3,1.438E3,3E0,7.31E2,7.07E2,6.16E2,1.15E2,1.76E2,5.31E2,5.49E2,6.7E1,1.14E2,1E0,1.23E2,5.3E1,2.64E2,2.67E2],"tree_param":{"num_deleted":"0","num_feature":"173","num_nodes":"19","size_leaf_vector":"1"}},{"base_weights":[1.8895083E-3,1.3406191E0,-4.4611465E-2,1.3279686E0,5.5564904E-1,1.119715E0,1.5259153E0,1.3067654E0,7.803728E-1,1.4865131E0,3.7760186E0,1.4022355E-1,3.1320855E-2,1.2344364E-2,9.751341E-2,1.5174107E-1,-1.8882552E-2,5.364335E-1,1.8751732E-1],"categories":[],"categories_nodes":[],"categories_segments":[],"categories_sizes":[],"default_left":[0,0,0,0,0,0,0,0,0,0,0,0,0,0,0,0,0,0,0],"id":6,"left_children":[1,3,-1,5,-1,7,9,11,13,15,17,-1,-1,-1,-1,-1,-1,-1,-1],"loss_changes":[3.4491978E3,6.952734E1,0E0,5.761133E1,0E0,4.3729492E1,5.955127E1,4.252997E1,3.2249557E1,3.776355E1,2.6170685E1,0E0,0E0,0E0,0E0,0E0,0E0,0E0,0E0],"parents":[2147483647,0,0,1,1,3,3,5,5,6,6,7,7,8,8,9,9,10,10],"right_children":[2,4,-1,6,-1,8,10,12,14,16,18,-1,-1,-1,-1,-1,-1,-1,-1],"split_conditions":[2.00001E0,5E-1,-4.4611465E-2,2E1,5.5564904E-1,1E0,1.1764706E-1,4.181818E0,6.55E-1,6.5E0,1.0866667E0,1.4022355E-1,3.1320855E-2,1.2344364E-2,9.751341E-2,1.5174107E-1,-1.8882552E-2,5.364335E-1,1.8751732E-1],"split_indices":[24,25,0,26,0,28,25,15,11,13,8,0,0,0,0,0,0,0,0],"split_type":[0,0,0,0,0,0,0,0,0,0,0,0,0,0,0,0,0,0,0],"sum_hessian":[5.749E3,1.441E3,4.308E3,1.438E3,3E0,7.04E2,7.34E2,4.52E2,2.52E2,7.23E2,1.1E1,4.12E2,4E1,5.8E1,1.94E2,7.1E2,1.3E1,5E0,6E0],"tree_param":{"num_deleted":"0","num_feature":"173","num_nodes":"19","size_leaf_vector":"1"}},{"base_weights":[1.987379E-3,1.2095193E0,-4.0099046E-1,1.1977292E0,5.139754E0,2.6278427E-1,-4.0151358E-2,3.8435185E-1,1.2429001E0,5.790892E-1,1.5931693E-1,1.9914179E-1,-9.772328E-2,2.7833608E-1,2.906629E0,1.0824499E0,1.5175797E0,1.9800985E-2,3.1112388E-1,3.8056096E-1,5.543339E-2,1.04157224E-1,2.1446382E-1,1.6120178E-1,2.9481212E-2],"categories":[],"categories_nodes":[],"categories_segments":[],"categories_sizes":[],"default_left":[0,0,0,0,0,0,0,0,0,0,0,0,0,0,0,0,0,0,0,0,0,0,0,0,0],"id":7,"left_children":[1,3,5,7,9,11,-1,13,15,-1,-1,-1,-1,17,19,21,23,-1,-1,-1,-1,-1,-1,-1,-1],"loss_changes":[2.7984841E3,6.052368E1,1.6027832E0,5.228247E1,1.1405945E-2,1.0520219E1,0E0,1.978087E1,5.8295654E1,0E0,0E0,0E0,0E0,1.6450674E1,4.2344265E0,3.5194153E1,5.7147217E1,0E0,0E0,0E0,0E0,0E0,0E0,0E0,0E0],"parents":[2147483647,0,0,1,1,2,2,3,3,4,4,5,5,7,7,8,8,13,13,14,14,15,15,16,16],"right_children":[2,4,6,8,10,12,-1,14,16,-1,-1,-1,-1,18,20,22,24,-1,-1,-1,-1,-1,-1,-1,-1],"split_conditions":[1E0,5E-1,2.00001E0,-2.2E2,5.3333335E0,3.3333334E-1,-4.0151358E-2,1E0,1.3888889E-2,5.790892E-1,1.5931693E-1,1.9914179E-1,-9.772328E-2,1E0,2.3333333E0,1E0,4.6363635E0,1.9800985E-2,3.1112388E-1,3.8056096E-1,5.543339E-2,1.04157224E-1,2.1446382E-1,1.6120178E-1,2.9481212E-2],"split_indices":[24,25,24,26,0,0,0,41,25,0,0,0,0,89,0,128,15,0,0,0,0,0,0,0,0],"split_type":[0,0,0,0,0,0,0,0,0,0,0,0,0,0,0,0,0,0,0,0,0,0,0,0,0],"sum_hessian":[5.749E3,1.438E3,4.311E3,1.435E3,3E0,3E0,4.308E3,7.6E1,1.359E3,2E0,1E0,1E0,2E0,7.4E1,2E0,8.61E2,4.98E2,7.3E1,1E0,1E0,1E0,8.31E2,3E1,4.62E2,3.6E1],"tree_param":{"num_deleted":"0","num_feature":"173","num_nodes":"25","size_leaf_vector":"1"}},{"base_weights":[2.1496755E-3,1.0899674E0,-3.608772E-1,1.0788451E0,4.81038E-1,2.6186046E-1,-3.6137152E-2,5.2992135E-1,1.1415087E0,1.891847E-1,-9.12084E-2,4.8702437E-1,3.439339E-1,1.5903821E0,1.0214525E0,6.8198903E-3,8.4217355E-2,1.2586595E-1,2.45199E-1,1.2534985E-1,8.075166E-2],"categories":[],"categories_nodes":[],"categories_segments":[],"categories_sizes":[],"default_left":[0,0,0,0,0,0,0,0,0,0,0,0,0,0,0,0,0,0,0,0,0],"id":8,"left_children":[1,3,5,7,-1,9,-1,11,13,-1,-1,15,-1,17,19,-1,-1,-1,-1,-1,-1],"loss_changes":[2.271109E3,5.435559E1,1.4219971E0,4.8789917E1,0E0,9.379578E0,0E0,1.6920948E1,6.778601E1,0E0,0E0,2.1956902E1,0E0,7.40838E1,4.9573853E1,0E0,0E0,0E0,0E0,0E0,0E0],"parents":[2147483647,0,0,1,1,2,2,3,3,5,5,7,7,8,8,11,11,13,13,14,14],"right_children":[2,4,6,8,-1,10,-1,12,14,-1,-1,16,-1,18,20,-1,-1,-1,-1,-1,-1],"split_conditions":[1E0,5E-1,2.00001E0,4.25E0,4.81038E-1,3.3333334E-1,-3.6137152E-2,1E0,2E0,1.891847E-1,-9.12084E-2,4.4E1,3.439339E-1,1.6666666E0,6.382979E-2,6.8198903E-3,8.4217355E-2,1.2586595E-1,2.45199E-1,1.2534985E-1,8.075166E-2],"split_indices":[24,25,24,21,0,0,0,96,0,0,0,27,0,0,24,0,0,0,0,0,0],"split_type":[0,0,0,0,0,0,0,0,0,0,0,0,0,0,0,0,0,0,0,0,0],"sum_hessian":[5.749E3,1.438E3,4.311E3,1.435E3,3E0,3E0,4.308E3,1.48E2,1.287E3,1E0,2E0,1.47E2,1E0,2.69E2,1.018E3,6.8E1,7.9E1,1.96E2,7.3E1,4.86E2,5.32E2],"tree_param":{"num_deleted":"0","num_feature":"173","num_nodes":"21","size_leaf_vector":"1"}},{"base_weights":[2.2051611E-3,9.80687E-1,-3.2524277E-2,9.7036296E-1,4.449601E0,1.0092065E0,1.8449427E-1,5.084141E-1,1.2729917E-1,7.5339556E-1,1.1538115E0,2.6348138E0,-4.8105918E-2,6.880059E-2,2.8130743E-1,2.002685E-1,1.05982296E-1,3.4983936E-1,6.051032E-2,3.182013E-1,-2.036261E-2],"categories":[],"categories_nodes":[],"categories_segments":[],"categories_sizes":[],"default_left":[0,0,0,0,0,0,0,0,0,0,0,0,0,0,0,0,0,0,0,0,0],"id":9,"left_children":[1,3,-1,5,7,9,11,-1,-1,13,15,17,19,-1,-1,-1,-1,-1,-1,-1,-1],"loss_changes":[1.8426295E3,4.7325073E1,0E0,4.37406E1,1.5906677E0,4.984619E1,3.9452938E1,0E0,0E0,6.513605E1,6.760901E1,8.400013E0,3.279826E1,0E0,0E0,0E0,0E0,0E0,0E0,0E0,0E0],"parents":[2147483647,0,0,1,1,3,3,4,4,5,5,6,6,9,9,10,10,11,11,12,12],"right_children":[2,4,-1,6,8,10,12,-1,-1,14,16,18,20,-1,-1,-1,-1,-1,-1,-1,-1],"split_conditions":[2.00001E0,5E-1,-3.2524277E-2,5E0,5.3333335E0,6.65E1,1.32E1,5.084141E-1,1.2729917E-1,1.1764706E-1,7.4416664E1,2.346E0,4.5333332E1,6.880059E-2,2.8130743E-1,2.002685E-1,1.05982296E-1,3.4983936E-1,6.051032E-2,3.182013E-1,-2.036261E-2],"split_indices":[24,25,0,1,0,19,21,0,0,25,19,9,19,0,0,0,0,0,0,0,0],"split_type":[0,0,0,0,0,0,0,0,0,0,0,0,0,0,0,0,0,0,0,0,0],"sum_hessian":[5.749E3,1.441E3,4.308E3,1.438E3,3E0,1.37E3,6.8E1,2E0,1E0,4.97E2,8.73E2,5E0,6.3E1,4.83E2,1.4E1,8.5E1,7.88E2,3E0,2E0,2E0,6.1E1],"tree_param":{"num_deleted":"0","num_feature":"173","num_nodes":"21","size_leaf_vector":"1"}},{"base_weights":[2.3268603E-3,8.852686E-1,-2.9232886E-1,8.7552035E-1,4.1635695E0,2.08568E-1,-2.9272601E-2,7.007238E-1,1.0417417E0,4.745198E-1,1.209342E-1,1.7628543E-1,-8.971455E-2,6.649102E-1,2.299049E0,1.0079762E0,2.9893007E0,7.384973E-2,-2.926421E-3,4.3594828E-1,1.15348354E-1,9.692266E-2,2.257167E-1,4.4730544E-1,1.2904692E-1],"categories":[],"categories_nodes":[],"categories_segments":[],"categories_sizes":[],"default_left":[0,0,0,0,0,0,0,0,0,0,0,0,0,0,0,0,0,0,0,0,0,0,0,0,0],"id":10,"left_children":[1,3,5,7,9,11,-1,13,15,-1,-1,-1,-1,17,19,21,23,-1,-1,-1,-1,-1,-1,-1,-1],"loss_changes":[1.4962008E3,4.2341797E1,9.1885376E-1,4.099292E1,1.134491E0,8.455917E0,0E0,3.871234E1,4.5254883E1,0E0,0E0,0E0,0E0,3.5217316E1,3.0376831E1,3.280963E1,2.4475426E1,0E0,0E0,0E0,0E0,0E0,0E0,0E0,0E0],"parents":[2147483647,0,0,1,1,2,2,3,3,4,4,5,5,7,7,8,8,13,13,14,14,15,15,16,16],"right_children":[2,4,6,8,10,12,-1,14,16,-1,-1,-1,-1,18,20,22,24,-1,-1,-1,-1,-1,-1,-1,-1],"split_conditions":[1E0,5E-1,2.00001E0,2E1,5.3333335E0,3.3333334E-1,-2.9272601E-2,1E0,1.1764706E-1,4.745198E-1,1.209342E-1,1.7628543E-1,-8.971455E-2,4.75E0,3.25E0,1E0,1.0866667E0,7.384973E-2,-2.926421E-3,4.3594828E-1,1.15348354E-1,9.692266E-2,2.257167E-1,4.4730544E-1,1.2904692E-1],"split_indices":[24,25,24,26,0,0,0,32,25,0,0,0,0,13,13,128,8,0,0,0,0,0,0,0,0],"split_type":[0,0,0,0,0,0,0,0,0,0,0,0,0,0,0,0,0,0,0,0,0,0,0,0,0],"sum_hessian":[5.749E3,1.438E3,4.311E3,1.435E3,3E0,3E0,4.308E3,7.02E2,7.33E2,2E0,1E0,1E0,2E0,6.88E2,1.4E1,7.22E2,1.1E1,6.22E2,6.6E1,4E0,1E1,7.02E2,2E1,5E0,6E0],"tree_param":{"num_deleted":"0","num_feature":"173","num_nodes":"25","size_leaf_vector":"1"}},{"base_weights":[2.4722742E-3,7.971328E-1,-2.6346019E-2,5.489229E-2,8.3326024E-1,-6.0385637E-2,2.5727093E0,6.8935215E-1,1.0767475E0,-1.49959E-1,2.8809413E-1,3.4627387E-1,3.9632536E-2,8.7761766E-1,5.0123274E-1,1.2191573E0,4.0920433E-1,-2.6297718E-2,1.6393127E-1,1.23451546E-1,6.344601E-2,4.5041036E-2,2.621227E-1,1.05402805E-1,2.5352266E-1,1.9296367E-1,5.9116934E-3],"categories":[],"categories_nodes":[],"categories_segments":[],"categories_sizes":[],"default_left":[0,0,0,0,0,0,0,0,0,0,0,0,0,0,0,0,0,0,0,0,0,0,0,0,0,0,0],"id":11,"left_children":[1,3,-1,5,7,9,11,13,15,17,-1,-1,-1,19,21,23,25,-1,-1,-1,-1,-1,-1,-1,-1,-1,-1],"loss_changes":[1.2153347E3,3.8621887E1,0E0,1.9892267E1,4.743744E1,1.7820684E1,4.4387646E0,3.0266083E1,4.7889038E1,1.35754175E1,0E0,0E0,0E0,3.6706757E1,4.579541E1,8.83855E1,4.8323795E1,0E0,0E0,0E0,0E0,0E0,0E0,0E0,0E0,0E0,0E0],"parents":[2147483647,0,0,1,1,3,3,4,4,5,5,6,6,7,7,8,8,9,9,13,13,14,14,15,15,16,16],"right_children":[2,4,-1,6,8,10,12,14,16,18,-1,-1,-1,20,22,24,26,-1,-1,-1,-1,-1,-1,-1,-1,-1,-1],"split_conditions":[2.00001E0,-2.3E2,-2.6346019E-2,1E0,1.3888889E-2,1E0,2.3333333E0,1E0,3.75E0,1E0,2.8809413E-1,3.4627387E-1,3.9632536E-2,1.9607844E-2,2.2333334E1,1.6575E0,1.25E-1,-2.6297718E-2,1.6393127E-1,1.23451546E-1,6.344601E-2,4.5041036E-2,2.621227E-1,1.05402805E-1,2.5352266E-1,1.9296367E-1,5.9116934E-3],"split_indices":[24,26,0,41,25,89,0,28,2,112,0,0,0,24,23,10,6,0,0,0,0,0,0,0,0,0,0],"split_type":[0,0,0,0,0,0,0,0,0,0,0,0,0,0,0,0,0,0,0,0,0,0,0,0,0,0,0],"sum_hessian":[5.749E3,1.441E3,4.308E3,6.7E1,1.374E3,6.5E1,2E0,8.66E2,5.08E2,6.4E1,1E0,1E0,1E0,4.31E2,4.35E2,4.18E2,9E1,6.1E1,3E0,1.73E2,2.58E2,4.26E2,9E0,3.73E2,4.5E1,1.6E1,7.4E1],"tree_param":{"num_deleted":"0","num_feature":"173","num_nodes":"27","size_leaf_vector":"1"}},{"base_weights":[2.544552E-3,7.1973497E-1,-2.367967E-1,7.106062E-1,3.8170238E0,1.7097184E-1,-2.371203E-2,2.5086066E-1,7.632393E-1,4.358583E-1,1.0961735E-1,1.6429885E-1,-8.6736314E-2,2.0844512E-1,3.2641798E-1,1.8278743E0,7.2411406E-1,1.6700385E-2,3.150157E-1,3.0579838E-1,7.214673E-2,1.0906079E-1,6.363247E-2],"categories":[],"categories_nodes":[],"categories_segments":[],"categories_sizes":[],"default_left":[0,0,0,0,0,0,0,0,0,0,0,0,0,0,0,0,0,0,0,0,0,0,0],"id":12,"left_children":[1,3,5,7,9,11,-1,13,15,-1,-1,-1,-1,17,-1,19,21,-1,-1,-1,-1,-1,-1],"loss_changes":[9.871767E2,3.7974365E1,6.094818E-1,3.455664E1,1.1162415E0,7.5388527E0,0E0,1.8363518E1,5.2326904E1,0E0,0E0,0E0,0E0,1.7516342E1,0E0,5.9038864E1,3.933081E1,0E0,0E0,0E0,0E0,0E0,0E0],"parents":[2147483647,0,0,1,1,2,2,3,3,4,4,5,5,7,7,8,8,13,13,15,15,16,16],"right_children":[2,4,6,8,10,12,-1,14,16,-1,-1,-1,-1,18,-1,20,22,-1,-1,-1,-1,-1,-1],"split_conditions":[1E0,5E-1,2.00001E0,4.25E0,5.3333335E0,3.3333334E-1,-2.371203E-2,1E0,4.02E-1,4.358583E-1,1.0961735E-1,1.6429885E-1,-8.6736314E-2,1E0,3.2641798E-1,1.4285715E-1,2E0,1.6700385E-2,3.150157E-1,3.0579838E-1,7.214673E-2,1.0906079E-1,6.363247E-2],"split_indices":[24,25,24,21,0,0,0,137,9,0,0,0,0,70,0,6,0,0,0,0,0,0,0],"split_type":[0,0,0,0,0,0,0,0,0,0,0,0,0,0,0,0,0,0,0,0,0,0,0],"sum_hessian":[5.749E3,1.438E3,4.311E3,1.435E3,3E0,3E0,4.308E3,1.48E2,1.287E3,2E0,1E0,1E0,2E0,1.47E2,1E0,4.4E1,1.243E3,1.46E2,1E0,2E1,2.4E1,2.38E2,1.005E3],"tree_param":{"num_deleted":"0","num_feature":"173","num_nodes":"23","size_leaf_vector":"1"}},{"base_weights":[2.6045463E-3,6.48111E-1,-2.1341376E-2,6.395339E-1,3.57169E0,4.9245694E-1,7.906932E-1,4.0680104E-1,1.0413649E-1,6.7642355E-1,1.9649453E-1,1.1309361E0,5.919096E-1,4.12538E-2,1.9730625E-1,1.2115054E-2,2.0416827E-1,1.0043466E-1,3.4588796E-1,4.3452755E-2,1.18165545E-1],"categories":[],"categories_nodes":[],"categories_segments":[],"categories_sizes":[],"default_left":[0,0,0,0,0,0,0,0,0,0,0,0,0,0,0,0,0,0,0,0,0],"id":13,"left_children":[1,3,-1,5,7,9,11,-1,-1,13,15,17,19,-1,-1,-1,-1,-1,-1,-1,-1],"loss_changes":[8.0192523E2,3.3875122E1,0E0,3.1602478E1,7.87117E-1,3.9722427E1,4.7215973E1,0E0,0E0,1.5350214E2,3.8957375E1,7.314633E1,4.1160645E1,0E0,0E0,0E0,0E0,0E0,0E0,0E0,0E0],"parents":[2147483647,0,0,1,1,3,3,4,4,5,5,6,6,9,9,10,10,11,11,12,12],"right_children":[2,4,-1,6,8,10,12,-1,-1,14,16,18,20,-1,-1,-1,-1,-1,-1,-1,-1],"split_conditions":[2.00001E0,5E-1,-2.1341376E-2,4.6E1,5.3333335E0,1.405E0,3E0,4.0680104E-1,1.0413649E-1,1.24875E0,1E0,1E0,2.3666666E1,4.12538E-2,1.9730625E-1,1.2115054E-2,2.0416827E-1,1.0043466E-1,3.4588796E-1,4.3452755E-2,1.18165545E-1],"split_indices":[24,25,0,27,0,10,12,0,0,10,112,70,20,0,0,0,0,0,0,0,0],"split_type":[0,0,0,0,0,0,0,0,0,0,0,0,0,0,0,0,0,0,0,0,0],"sum_hessian":[5.749E3,1.441E3,4.308E3,1.438E3,3E0,7.31E2,7.07E2,2E0,1E0,4.5E2,2.81E2,2.59E2,4.48E2,3.75E2,7.5E1,2.71E2,1E1,2.47E2,1.2E1,3.55E2,9.3E1],"tree_param":{"num_deleted":"0","num_feature":"173","num_nodes":"21","size_leaf_vector":"1"}},{"base_weights":[2.6140811E-3,5.852551E-1,-1.9182539E-1,7.339038E-1,4.3370885E-1,1.2752974E-1,-1.9207735E-2,1.1208857E0,5.364816E-1,4.6508592E-1,-9.661459E-1,1.5402122E-1,-8.567684E-2,1.2984426E0,-2.9521152E-1,2.084909E-1,8.529115E-1,-2.9126513E-1,5.300326E-1,-1.0774508E0,3.5171356E-2,7.4592136E-2,2.2541642E-1,-6.745065E-2,1.5844466E-1,8.046008E-3,1.5276447E-1,3.103279E-1,7.030915E-2,-3.73205E-2,2.1077132E-1,1.3954483E-2,6.596379E-2,-1.4060219E-2,-1.2107658E-1],"categories":[],"categories_nodes":[],"categories_segments":[],"categories_sizes":[],"default_left":[0,0,0,0,0,0,0,0,0,0,0,0,0,0,0,0,0,0,0,0,0,0,0,0,0,0,0,0,0,0,0,0,0,0,0],"id":14,"left_children":[1,3,5,7,9,11,-1,13,15,17,19,-1,-1,21,23,25,27,29,31,33,-1,-1,-1,-1,-1,-1,-1,-1,-1,-1,-1,-1,-1,-1,-1],"loss_changes":[6.515206E2,3.2098297E1,3.7142944E-1,5.478778E1,3.1854568E1,6.881608E0,0E0,6.17341E1,4.984706E1,3.4540085E1,2.7258997E0,0E0,0E0,1.1290683E2,2.1031176E1,4.007346E1,8.041989E1,1.1794637E1,3.2550934E1,1.7032032E0,0E0,0E0,0E0,0E0,0E0,0E0,0E0,0E0,0E0,0E0,0E0,0E0,0E0,0E0,0E0],"parents":[2147483647,0,0,1,1,2,2,3,3,4,4,5,5,7,7,8,8,9,9,10,10,13,13,14,14,15,15,16,16,17,17,18,18,19,19],"right_children":[2,4,6,8,10,12,-1,14,16,18,20,-1,-1,22,24,26,28,30,32,34,-1,-1,-1,-1,-1,-1,-1,-1,-1,-1,-1,-1,-1,-1,-1],"split_conditions":[1E0,1E0,2.00001E0,1.9607844E-2,2.23875E0,3.3333334E-1,-1.9207735E-2,3.25E0,8.2833336E1,4E-1,4.5233335E0,1.5402122E-1,-8.567684E-2,2.375E0,2.3363636E1,2.173913E-1,1.175E1,1E0,-1E1,1.875E0,3.5171356E-2,7.4592136E-2,2.2541642E-1,-6.745065E-2,1.5844466E-1,8.046008E-3,1.5276447E-1,3.103279E-1,7.030915E-2,-3.73205E-2,2.1077132E-1,1.3954483E-2,6.596379E-2,-1.4060219E-2,-1.2107658E-1],"split_indices":[24,28,24,24,10,0,0,3,19,3,8,0,0,2,23,24,21,110,26,14,0,0,0,0,0,0,0,0,0,0,0,0,0,0,0],"split_type":[0,0,0,0,0,0,0,0,0,0,0,0,0,0,0,0,0,0,0,0,0,0,0,0,0,0,0,0,0,0,0,0,0,0,0],"sum_hessian":[5.749E3,1.438E3,4.311E3,7.24E2,7.14E2,3E0,4.308E3,2.43E2,4.81E2,6.99E2,1.5E1,1E0,2E0,2.16E2,2.7E1,2.37E2,2.44E2,5.5E1,6.44E2,1.4E1,1E0,1.38E2,7.8E1,2.3E1,4E0,2.17E2,2E1,1.4E1,2.3E2,5.4E1,1E0,1.61E2,4.83E2,2E0,1.2E1],"tree_param":{"num_deleted":"0","num_feature":"173","num_nodes":"35","size_leaf_vector":"1"}},{"base_weights":[2.5500706E-3,5.2748424E-1,-1.7263146E-1,5.1942617E-1,3.2884529E0,1.3186285E-1,-1.7287407E-2,3.7558195E-1,6.564875E-1,3.7485093E-1,9.5414214E-2,1.4632015E-1,-7.9965055E-2,4.461459E-1,-2.7925396E-1,6.2558824E-1,2.4634645E0,2.7961522E-2,9.266543E-2,-5.052011E-2,1.5067433E-1,6.53104E-2,-8.1454E-2,3.82621E-1,9.434735E-2],"categories":[],"categories_nodes":[],"categories_segments":[],"categories_sizes":[],"default_left":[0,0,0,0,0,0,0,0,0,0,0,0,0,0,0,0,0,0,0,0,0,0,0,0,0],"id":15,"left_children":[1,3,5,7,9,11,-1,13,15,-1,-1,-1,-1,17,19,21,23,-1,-1,-1,-1,-1,-1,-1,-1],"loss_changes":[5.2885394E2,3.0306793E1,3.4132385E-1,2.806485E1,7.1904755E-1,6.130689E0,0E0,3.2608665E1,3.9441315E1,0E0,0E0,0E0,0E0,5.0553207E1,2.860554E1,2.9181763E1,2.1246399E1,0E0,0E0,0E0,0E0,0E0,0E0,0E0,0E0],"parents":[2147483647,0,0,1,1,2,2,3,3,4,4,5,5,7,7,8,8,13,13,14,14,15,15,16,16],"right_children":[2,4,6,8,10,12,-1,14,16,-1,-1,-1,-1,18,20,22,24,-1,-1,-1,-1,-1,-1,-1,-1],"split_conditions":[1E0,5E-1,2.00001E0,2E1,5.3333335E0,3.3333334E-1,-1.7287407E-2,4.181818E0,1.1764706E-1,3.7485093E-1,9.5414214E-2,1.4632015E-1,-7.9965055E-2,3.6E0,-5E0,6.5E0,1.0866667E0,2.7961522E-2,9.266543E-2,-5.052011E-2,1.5067433E-1,6.53104E-2,-8.1454E-2,3.82621E-1,9.434735E-2],"split_indices":[24,25,24,26,0,0,0,15,25,0,0,0,0,13,26,13,8,0,0,0,0,0,0,0,0],"split_type":[0,0,0,0,0,0,0,0,0,0,0,0,0,0,0,0,0,0,0,0,0,0,0,0,0],"sum_hessian":[5.749E3,1.438E3,4.311E3,1.435E3,3E0,3E0,4.308E3,7.02E2,7.33E2,2E0,1E0,1E0,2E0,6.34E2,6.8E1,7.22E2,1.1E1,4.72E2,1.62E2,6.1E1,7E0,7.09E2,1.3E1,5E0,6E0],"tree_param":{"num_deleted":"0","num_feature":"173","num_nodes":"25","size_leaf_vector":"1"}},{"base_weights":[2.5039138E-3,4.7492212E-1,-1.5559067E-2,6.1536056E-1,3.3205846E-1,9.5961726E-1,4.4017634E-1,-3.389484E-1,3.8722184E-1,-5.27223E-1,1.1167419E0,1.6144006E-1,7.360904E-1,5.8595E-2,-8.9459985E-1,6.5759194E-1,2.2090998E-1,-9.2132755E-2,1.1546397E-1,1.315871E-1,-3.0282194E-2,9.651362E-2,-5.9681935E-3,3.007201E-1,5.997817E-2,2.2201066E-1,-1.5247369E-2,-1.0766458E-1,1.5552047E-1,7.537117E-2,-1.0302804E-1,-2.0511799E-2,4.071769E-2],"categories":[],"categories_nodes":[],"categories_segments":[],"categories_sizes":[],"default_left":[0,0,0,0,0,0,0,0,0,0,0,0,0,0,0,0,0,0,0,0,0,0,0,0,0,0,0,0,0,0,0,0,0],"id":16,"left_children":[1,3,-1,5,7,9,11,13,15,17,19,21,23,25,27,29,31,-1,-1,-1,-1,-1,-1,-1,-1,-1,-1,-1,-1,-1,-1,-1,-1],"loss_changes":[4.2952277E2,2.8727325E1,0E0,4.336145E1,2.6671005E1,5.759189E1,3.9719963E1,1.2201677E1,2.966703E1,1.6971712E1,6.2869965E1,4.4486324E1,7.063619E1,1.53940115E1,1.19318695E1,4.166047E1,3.277775E1,0E0,0E0,0E0,0E0,0E0,0E0,0E0,0E0,0E0,0E0,0E0,0E0,0E0,0E0,0E0,0E0],"parents":[2147483647,0,0,1,1,3,3,4,4,5,5,6,6,7,7,8,8,9,9,10,10,11,11,12,12,13,13,14,14,15,15,16,16],"right_children":[2,4,-1,6,8,10,12,14,16,18,20,22,24,26,28,30,32,-1,-1,-1,-1,-1,-1,-1,-1,-1,-1,-1,-1,-1,-1,-1,-1],"split_conditions":[2.00001E0,1E0,-1.5559067E-2,1.9607844E-2,3.6363637E-1,-1.8E2,8.590909E1,8.3333336E-2,2.25E0,3.2E0,3.25E0,1.3333334E0,1.175E1,-2.6E2,1E0,1.67375E0,0E0,-9.2132755E-2,1.1546397E-1,1.315871E-1,-3.0282194E-2,9.651362E-2,-5.9681935E-3,3.007201E-1,5.997817E-2,2.2201066E-1,-1.5247369E-2,-1.0766458E-1,1.5552047E-1,7.537117E-2,-1.0302804E-1,-2.0511799E-2,4.071769E-2],"split_indices":[24,28,0,24,3,26,19,3,1,1,3,2,21,26,31,10,26,0,0,0,0,0,0,0,0,0,0,0,0,0,0,0,0],"split_type":[0,0,0,0,0,0,0,0,0,0,0,0,0,0,0,0,0,0,0,0,0,0,0,0,0,0,0,0,0,0,0,0,0],"sum_hessian":[5.749E3,1.441E3,4.308E3,7.25E2,7.16E2,2.43E2,4.82E2,5.4E1,6.62E2,2.3E1,2.2E2,2.49E2,2.33E2,3.2E1,2.2E1,2.51E2,4.11E2,1.9E1,4E0,1.93E2,2.7E1,5.3E1,1.96E2,1.2E1,2.21E2,2E0,3E1,2.1E1,1E0,2.38E2,1.3E1,1.25E2,2.86E2],"tree_param":{"num_deleted":"0","num_feature":"173","num_nodes":"33","size_leaf_vector":"1"}},{"base_weights":[2.3939519E-3,4.2800066E-1,-1.4003522E-2,3.2087E-1,6.117408E-1,3.9586708E-1,-4.000752E-2,4.216681E-1,5.832181E-1,2.914587E-1,9.155958E-1,1.3622326E0,-1.645905E-1,-6.6366696E-1,6.545136E-1,4.2893714E-3,4.5991924E-2,2.4349336E-1,4.1543886E-2,3.1836128E-1,-1.7408172E-2,-2.0836068E-2,3.091043E-1,-1.3251367E-1,2.5238324E-2,7.46604E-2,-5.506106E-2],"categories":[],"categories_nodes":[],"categories_segments":[],"categories_sizes":[],"default_left":[0,0,0,0,0,0,0,0,0,0,0,0,0,0,0,0,0,0,0,0,0,0,0,0,0,0,0],"id":17,"left_children":[1,3,-1,5,7,9,11,-1,13,15,17,19,21,23,25,-1,-1,-1,-1,-1,-1,-1,-1,-1,-1,-1,-1],"loss_changes":[3.486181E2,2.8188354E1,0E0,2.4725952E1,5.203688E1,4.0756752E1,2.782606E1,0E0,4.7283264E1,2.6402386E1,9.473675E1,3.6930973E1,2.1449001E1,1.7906687E1,5.5790283E1,0E0,0E0,0E0,0E0,0E0,0E0,0E0,0E0,0E0,0E0,0E0,0E0],"parents":[2147483647,0,0,1,1,3,3,4,4,5,5,6,6,8,8,9,9,10,10,11,11,12,12,13,13,14,14],"right_children":[2,4,-1,6,8,10,12,-1,14,16,18,20,22,24,26,-1,-1,-1,-1,-1,-1,-1,-1,-1,-1,-1,-1],"split_conditions":[2.00001E0,1.3888889E-2,-1.4003522E-2,1.9033333E0,1.4084507E-2,1.62E0,-1.9E2,4.216681E-1,-2.2E2,1E1,2.5E0,4.3333335E0,4.75E0,3.5E0,4.6363635E0,4.2893714E-3,4.5991924E-2,2.4349336E-1,4.1543886E-2,3.1836128E-1,-1.7408172E-2,-2.0836068E-2,3.091043E-1,-1.3251367E-1,2.5238324E-2,7.46604E-2,-5.506106E-2],"split_indices":[24,25,0,8,25,8,26,0,26,26,1,0,3,0,15,0,0,0,0,0,0,0,0,0,0,0,0],"split_type":[0,0,0,0,0,0,0,0,0,0,0,0,0,0,0,0,0,0,0,0,0,0,0,0,0,0,0],"sum_hessian":[5.749E3,1.441E3,4.308E3,9.12E2,5.29E2,7.55E2,1.57E2,3E0,5.26E2,6.3E2,1.25E2,1.2E1,1.45E2,2.8E1,4.98E2,2.55E2,3.75E2,3E1,9.5E1,5E0,7E0,1.44E2,1E0,1.6E1,1.2E1,4.63E2,3.5E1],"tree_param":{"num_deleted":"0","num_feature":"173","num_nodes":"27","size_leaf_vector":"1"}},{"base_weights":[2.3710015E-3,3.8661382E-1,-1.25859E-1,3.7918115E-1,2.9582925E0,9.514201E-2,-1.2603494E-2,4.087694E-1,-2.1293381E-1,3.3849797E-1,8.391159E-2,1.33964E-1,-7.662373E-2,2.1001986E-1,5.208658E-1,2.0915928E0,-4.2565608E-1,3.6992785E-2,-2.8729841E-2,1.2521116E-1,4.405008E-2,2.8547648E-1,3.7683263E-2,2.5256008E-1,-5.6159344E-2],"categories":[],"categories_nodes":[],"categories_segments":[],"categories_sizes":[],"default_left":[0,0,0,0,0,0,0,0,0,0,0,0,0,0,0,0,0,0,0,0,0,0,0,0,0],"id":18,"left_children":[1,3,5,7,9,11,-1,13,15,-1,-1,-1,-1,17,19,21,23,-1,-1,-1,-1,-1,-1,-1,-1],"loss_changes":[2.8335956E2,2.6383987E1,1.7966461E-1,2.5245255E1,7.7650833E-1,5.3144217E0,0E0,3.0368454E1,3.4715767E1,0E0,0E0,0E0,0E0,3.947123E1,5.081041E1,6.7761745E0,2.7094261E1,0E0,0E0,0E0,0E0,0E0,0E0,0E0,0E0],"parents":[2147483647,0,0,1,1,2,2,3,3,4,4,5,5,7,7,8,8,13,13,14,14,15,15,16,16],"right_children":[2,4,6,8,10,12,-1,14,16,-1,-1,-1,-1,18,20,22,24,-1,-1,-1,-1,-1,-1,-1,-1],"split_conditions":[1E0,5E-1,2.00001E0,5E0,5.3333335E0,3.3333334E-1,-1.2603494E-2,6.65E1,1.32E1,3.3849797E-1,8.391159E-2,1.33964E-1,-7.662373E-2,1.75E0,7.4416664E1,2.346E0,4.5333332E1,3.6992785E-2,-2.8729841E-2,1.2521116E-1,4.405008E-2,2.8547648E-1,3.7683263E-2,2.5256008E-1,-5.6159344E-2],"split_indices":[24,25,24,1,0,0,0,19,21,0,0,0,0,3,19,9,19,0,0,0,0,0,0,0,0],"split_type":[0,0,0,0,0,0,0,0,0,0,0,0,0,0,0,0,0,0,0,0,0,0,0,0,0],"sum_hessian":[5.749E3,1.438E3,4.311E3,1.435E3,3E0,3E0,4.308E3,1.367E3,6.8E1,2E0,1E0,1E0,2E0,4.94E2,8.73E2,5E0,6.3E1,3.74E2,1.2E2,8.5E1,7.88E2,3E0,2E0,2E0,6.1E1],"tree_param":{"num_deleted":"0","num_feature":"173","num_nodes":"25","size_leaf_vector":"1"}},{"base_weights":[2.3363854E-3,3.4828222E-1,-1.1343438E-2,2.2384705E-1,4.885615E-1,3.5115102E-1,-3.5802278E-1,1.0205685E0,3.3907926E-1,3.1834275E-1,2.350148E0,-4.2477426E-1,2.7873856E-1,1.2664725E0,-1.6304703E0,1.5542881E-2,7.0690876E-1,3.7608128E-2,-5.514564E-2,-1.0886294E-1,3.345921E-1,-4.7738664E-2,3.3389458E-1,9.8451465E-2,3.3196238E-1,-3.1446278E-1,-1.0692938E-1,8.22386E-2,-1.2455197E-2,1.418647E-1,2.7071333E-2],"categories":[],"categories_nodes":[],"categories_segments":[],"categories_sizes":[],"default_left":[0,0,0,0,0,0,0,0,0,0,0,0,0,0,0,0,0,0,0,0,0,0,0,0,0,0,0,0,0,0,0],"id":19,"left_children":[1,3,-1,5,7,9,11,13,15,17,19,21,-1,23,25,27,29,-1,-1,-1,-1,-1,-1,-1,-1,-1,-1,-1,-1,-1,-1],"loss_changes":[2.303294E2,2.5061737E1,0E0,5.6866653E1,5.3492783E1,4.0503944E1,3.0158583E1,9.8546265E1,6.3062313E1,3.134436E1,3.7884888E1,2.8524435E1,0E0,7.546245E1,7.6836967E0,3.2091213E1,7.660927E1,0E0,0E0,0E0,0E0,0E0,0E0,0E0,0E0,0E0,0E0,0E0,0E0,0E0,0E0],"parents":[2147483647,0,0,1,1,3,3,4,4,5,5,6,6,7,7,8,8,9,9,10,10,11,11,13,13,14,14,15,15,16,16],"right_children":[2,4,-1,6,8,10,12,14,16,18,20,22,-1,24,26,28,30,-1,-1,-1,-1,-1,-1,-1,-1,-1,-1,-1,-1,-1,-1],"split_conditions":[2.00001E0,1.24875E0,-1.1343438E-2,1.25E0,1.41125E0,1.1764706E-1,1E0,1.9266666E0,4.6E1,5.25E0,-1.5E1,1E0,2.7873856E-1,2.15E1,1.2725E0,2E0,3E0,3.7608128E-2,-5.514564E-2,-1.0886294E-1,3.345921E-1,-4.7738664E-2,3.3389458E-1,9.8451465E-2,3.3196238E-1,-3.1446278E-1,-1.0692938E-1,8.22386E-2,-1.2455197E-2,1.418647E-1,2.7071333E-2],"split_indices":[24,10,0,9,10,25,112,8,27,13,26,140,0,22,10,15,12,0,0,0,0,0,0,0,0,0,0,0,0,0,0],"split_type":[0,0,0,0,0,0,0,0,0,0,0,0,0,0,0,0,0,0,0,0,0,0,0,0,0,0,0,0,0,0,0],"sum_hessian":[5.749E3,1.441E3,4.308E3,7.65E2,6.76E2,6.28E2,1.37E2,1.47E2,5.29E2,6.19E2,9E0,1.35E2,2E0,1.35E2,1.2E1,2.82E2,2.47E2,5.81E2,3.8E1,2E0,7E0,1.34E2,1E0,1.2E2,1.5E1,2E0,1E1,4.1E1,2.41E2,9.3E1,1.54E2],"tree_param":{"num_deleted":"0","num_feature":"173","num_nodes":"31","size_leaf_vector":"1"}},{"base_weights":[2.2783063E-3,3.1461743E-1,-1.0195599E-1,2.902445E-1,1.0148783E0,-1.0173974E-1,-3.094174E-1,3.197121E-1,-3.066311E-1,-6.245816E-1,1.9340847E0,4.4030872E-1,-1.0209368E-1,-6.7923437E-3,-5.1694967E-2,2.9824647E-1,2.0599136E0,1.2715421E0,-7.9573184E-1,-8.4992504E-1,7.854438E-1,2.3582532E0,-2.2632663E-1,1.2538539E-1,-5.9339084E-2,-1.0186113E-2,-1.15492955E-1,3.158809E-2,-8.008918E-2,-1.19881965E-1,2.904146E-1,2.5783038E-1,-7.769095E-2,-1.288608E-1,4.7307793E-2,-1.17792904E-1,-1.0693005E-2,1.11688934E-1,6.1276318E-3,3.238936E-1,1.0608786E-1,-1.3298696E-1,6.579123E-2,-9.945932E-3,-1.3780976E-2],"categories":[],"categories_nodes":[],"categories_segments":[],"categories_sizes":[],"default_left":[0,0,0,0,0,0,0,0,0,0,0,0,0,0,0,0,0,0,0,0,0,0,0,0,0,0,0,0,0,0,0,0,0,0,0,0,0,0,0,0,0,0,0,0,0],"id":20,"left_children":[1,3,5,7,9,11,13,15,17,19,21,23,25,-1,-1,27,29,31,33,35,37,39,41,-1,-1,-1,43,-1,-1,-1,-1,-1,-1,-1,-1,-1,-1,-1,-1,-1,-1,-1,-1,-1,-1],"loss_changes":[1.8723166E2,2.4265457E1,1.6196823E-1,2.458123E1,7.35441E1,8.7163544E-1,1.6535816E-1,4.8955154E1,5.1956264E1,6.3868876E0,2.8941475E1,3.2669091E0,1.6555786E-3,0E0,0E0,2.5683037E1,4.7499588E1,4.4832523E1,3.2503277E1,3.7733297E0,6.516274E-1,2.6270844E1,6.729711E0,0E0,0E0,0E0,9.909511E-3,0E0,0E0,0E0,0E0,0E0,0E0,0E0,0E0,0E0,0E0,0E0,0E0,0E0,0E0,0E0,0E0,0E0,0E0],"parents":[2147483647,0,0,1,1,2,2,3,3,4,4,5,5,6,6,7,7,8,8,9,9,10,10,11,11,12,12,15,15,16,16,17,17,18,18,19,19,20,20,21,21,22,22,26,26],"right_children":[2,4,6,8,10,12,14,16,18,20,22,24,26,-1,-1,28,30,32,34,36,38,40,42,-1,-1,-1,44,-1,-1,-1,-1,-1,-1,-1,-1,-1,-1,-1,-1,-1,-1,-1,-1,-1,-1],"split_conditions":[1E0,2.173913E-1,1E0,1.7948718E-1,1.3633333E0,2.00001E0,2.5E0,1.724138E-1,2E-1,1.55E2,5.5E0,3.3333334E-1,1E0,-6.7923437E-3,-5.1694967E-2,5.75E0,2.5714285E0,1.6E1,2.0125E1,1E0,1.5E0,1.622E0,2.625E0,1.2538539E-1,-5.9339084E-2,-1.0186113E-2,1.25E2,3.158809E-2,-8.008918E-2,-1.19881965E-1,2.904146E-1,2.5783038E-1,-7.769095E-2,-1.288608E-1,4.7307793E-2,-1.17792904E-1,-1.0693005E-2,1.11688934E-1,6.1276318E-3,3.238936E-1,1.0608786E-1,-1.3298696E-1,6.579123E-2,-9.945932E-3,-1.3780976E-2],"split_indices":[24,24,84,24,8,24,0,24,5,26,12,0,47,0,0,14,2,21,22,38,0,9,2,0,0,0,26,0,0,0,0,0,0,0,0,0,0,0,0,0,0,0,0,0,0],"split_type":[0,0,0,0,0,0,0,0,0,0,0,0,0,0,0,0,0,0,0,0,0,0,0,0,0,0,0,0,0,0,0,0,0,0,0,0,0,0,0,0,0,0,0,0,0],"sum_hessian":[5.749E3,1.438E3,4.311E3,1.391E3,4.7E1,4.308E3,3E0,1.326E3,6.5E1,1.7E1,3E1,2E0,4.306E3,2E0,1E0,1.311E3,1.5E1,1.5E1,5E1,1.5E1,2E0,2.5E1,5E0,1E0,1E0,4.241E3,6.5E1,1.291E3,2E1,3E0,1.2E1,9E0,6E0,3.6E1,1.4E1,1E1,5E0,1E0,1E0,1.4E1,1.1E1,2E0,3E0,4.1E1,2.4E1],"tree_param":{"num_deleted":"0","num_feature":"173","num_nodes":"45","size_leaf_vector":"1"}},{"base_weights":[2.1455006E-3,2.8355372E-1,-9.17665E-2,4.079968E-1,1.5697356E-1,-9.1558315E-2,-2.930975E-1,7.2174835E-1,2.4634917E-1,1.4631833E-1,3.8823995E-1,4.1829333E-1,-9.189218E-2,-6.339521E-3,-4.9110215E-2,-5.770057E-1,8.58288E-1,-1.9075582E-2,5.010181E-1,-2.4771301E-1,2.2713706E-1,1.1911613E-1,-5.6372132E-2,-9.167743E-3,-1.0430316E-1,-9.40429E-2,9.920886E-2,1.0277269E-1,-3.5843752E-2,6.5469734E-2,-1.9912675E-2,2.3483753E-1,3.7889097E-2,1.7841989E-3,-1.3915299E-1,7.3606975E-2,1.2489166E-2,-8.97502E-3,-1.2458001E-2],"categories":[],"categories_nodes":[],"categories_segments":[],"categories_sizes":[],"default_left":[0,0,0,0,0,0,0,0,0,0,0,0,0,0,0,0,0,0,0,0,0,0,0,0,0,0,0,0,0,0,0,0,0,0,0,0,0,0,0],"id":21,"left_children":[1,3,5,7,9,11,13,15,17,19,-1,21,23,-1,-1,25,27,29,31,33,35,-1,-1,-1,37,-1,-1,-1,-1,-1,-1,-1,-1,-1,-1,-1,-1,-1,-1],"loss_changes":[1.5198476E2,2.2603127E1,1.5390396E-1,3.659217E1,2.7814024E1,7.7194214E-1,1.5079498E-1,4.4118774E1,3.2455376E1,2.2793676E1,0E0,2.948386E0,1.9187927E-3,0E0,0E0,1.46188755E1,4.6342194E1,2.8760374E1,5.4385277E1,3.7081875E1,3.0765434E1,0E0,0E0,0E0,8.294761E-3,0E0,0E0,0E0,0E0,0E0,0E0,0E0,0E0,0E0,0E0,0E0,0E0,0E0,0E0],"parents":[2147483647,0,0,1,1,2,2,3,3,4,4,5,5,6,6,7,7,8,8,9,9,11,11,12,12,15,15,16,16,17,17,18,18,19,19,20,20,24,24],"right_children":[2,4,6,8,10,12,14,16,18,20,-1,22,24,-1,-1,26,28,30,32,34,36,-1,-1,-1,38,-1,-1,-1,-1,-1,-1,-1,-1,-1,-1,-1,-1,-1,-1],"split_conditions":[1E0,1E0,1E0,2.0408163E-2,5.25E0,2.00001E0,2.5E0,-1.8E2,8.2833336E1,8E0,3.8823995E-1,3.3333334E-1,1E0,-6.339521E-3,-4.9110215E-2,3.2E0,3.25E0,1.3333334E0,1.175E1,8.85E-1,1.3333333E1,1.1911613E-1,-5.6372132E-2,-9.167743E-3,1.25E2,-9.40429E-2,9.920886E-2,1.0277269E-1,-3.5843752E-2,6.5469734E-2,-1.9912675E-2,2.3483753E-1,3.7889097E-2,1.7841989E-3,-1.3915299E-1,7.3606975E-2,1.2489166E-2,-8.97502E-3,-1.2458001E-2],"split_indices":[24,28,84,24,3,24,0,26,19,20,0,0,47,0,0,1,3,2,21,10,20,0,0,0,26,0,0,0,0,0,0,0,0,0,0,0,0,0,0],"split_type":[0,0,0,0,0,0,0,0,0,0,0,0,0,0,0,0,0,0,0,0,0,0,0,0,0,0,0,0,0,0,0,0,0,0,0,0,0,0,0],"sum_hessian":[5.749E3,1.438E3,4.311E3,7.24E2,7.14E2,4.308E3,3E0,2.45E2,4.79E2,7.13E2,1E0,2E0,4.306E3,2E0,1E0,2.3E1,2.22E2,2.35E2,2.44E2,1.21E2,5.92E2,1E0,1E0,4.241E3,6.5E1,1.9E1,4E0,1.95E2,2.7E1,4.9E1,1.86E2,1.4E1,2.3E2,9.9E1,2.2E1,9.8E1,4.94E2,4.1E1,2.4E1],"tree_param":{"num_deleted":"0","num_feature":"173","num_nodes":"39","size_leaf_vector":"1"}},{"base_weights":[2.0534077E-3,2.5570384E-1,-8.259525E-2,1.6017859E-1,4.1923642E-1,-8.239502E-2,-2.7765018E-1,1.7662777E-1,-1.0854867E0,3.787202E0,3.928776E-1,3.9737868E-1,-8.2710065E-2,-5.916886E-3,-4.665471E-2,2.439741E-1,-1.4076221E-1,-6.417671E-1,-1.3107482E0,1.161526E-1,4.275252E-1,-7.383863E-1,4.5783508E-1,1.1316033E-1,-5.355352E-2,-8.251185E-3,-9.4197586E-2,9.527105E-3,5.310118E-2,-6.7771845E-2,1.3672727E-2,-7.585737E-2,-2.8867007E-3,-1.5321715E-1,-5.0479323E-2,-1.3218836E-1,8.144773E-3,5.3978395E-2,-6.111125E-2,-8.098887E-3,-1.1262033E-2],"categories":[],"categories_nodes":[],"categories_segments":[],"categories_sizes":[],"default_left":[0,0,0,0,0,0,0,0,0,0,0,0,0,0,0,0,0,0,0,0,0,0,0,0,0,0,0,0,0,0,0,0,0,0,0,0,0,0,0,0,0],"id":22,"left_children":[1,3,5,7,9,11,13,15,17,19,21,23,25,-1,-1,27,29,31,33,-1,-1,35,37,-1,-1,-1,39,-1,-1,-1,-1,-1,-1,-1,-1,-1,-1,-1,-1,-1,-1],"loss_changes":[1.2348034E2,2.2412178E1,1.4553833E-1,1.8837774E1,4.556315E1,6.8418694E-1,1.3747671E-1,1.9250513E1,3.5824013E-1,1.6002655E-1,3.9064148E1,2.6609185E0,2.035141E-3,0E0,0E0,3.1620476E1,2.3634613E1,4.0764666E-1,4.7577095E-1,0E0,0E0,1.3980424E1,4.40418E1,0E0,0E0,0E0,6.9395304E-3,0E0,0E0,0E0,0E0,0E0,0E0,0E0,0E0,0E0,0E0,0E0,0E0,0E0,0E0],"parents":[2147483647,0,0,1,1,2,2,3,3,4,4,5,5,6,6,7,7,8,8,9,9,10,10,11,11,12,12,15,15,16,16,17,17,18,18,21,21,22,22,26,26],"right_children":[2,4,6,8,10,12,14,16,18,20,22,24,26,-1,-1,28,30,32,34,-1,-1,36,38,-1,-1,-1,40,-1,-1,-1,-1,-1,-1,-1,-1,-1,-1,-1,-1,-1,-1],"split_conditions":[1E0,1.3888889E-2,1E0,1E0,1.4084507E-2,2.00001E0,2.5E0,1.9033333E0,2.4285715E0,5E-1,-2.2E2,3.3333334E-1,1E0,-5.916886E-3,-4.665471E-2,1.33E0,1.62125E0,2.2E0,2.5E0,1.161526E-1,4.275252E-1,3.5E0,4.6363635E0,1.1316033E-1,-5.355352E-2,-8.251185E-3,1.25E2,9.527105E-3,5.310118E-2,-6.7771845E-2,1.3672727E-2,-7.585737E-2,-2.8867007E-3,-1.5321715E-1,-5.0479323E-2,-1.3218836E-1,8.144773E-3,5.3978395E-2,-6.111125E-2,-8.098887E-3,-1.1262033E-2],"split_indices":[24,25,84,78,25,24,0,8,2,4,26,0,47,0,0,8,10,1,0,0,0,0,15,0,0,0,26,0,0,0,0,0,0,0,0,0,0,0,0,0,0],"split_type":[0,0,0,0,0,0,0,0,0,0,0,0,0,0,0,0,0,0,0,0,0,0,0,0,0,0,0,0,0,0,0,0,0,0,0,0,0,0,0,0,0],"sum_hessian":[5.749E3,1.438E3,4.311E3,9.09E2,5.29E2,4.308E3,3E0,8.98E2,1.1E1,3E0,5.26E2,2E0,4.306E3,2E0,1E0,7.41E2,1.57E2,5E0,6E0,1E0,2E0,2.8E1,4.98E2,1E0,1E0,4.241E3,6.5E1,4.89E2,2.52E2,5.3E1,1.04E2,4E0,1E0,4E0,2E0,1.6E1,1.2E1,4.63E2,3.5E1,4.1E1,2.4E1],"tree_param":{"num_deleted":"0","num_feature":"173","num_nodes":"41","size_leaf_vector":"1"}},{"base_weights":[1.8685809E-3,2.299214E-1,-7.444937E-2,2.1520388E-1,1.2155594E0,-7.4266642E-3,-8.507118E-2,2.5050545E-1,-3.801114E-1,4.0194994E-1,3.193677E-1,-9.613633E-2,-6.1701476E-3,1.1989568E-1,4.2316392E-1,-5.957065E-1,6.78816E-1,1.7702182E-1,-1.1797296E-1,-7.3082815E-3,-5.3219207E-2,2.3151824E-2,-3.897455E-2,5.2698173E-2,-1.4561459E-2,5.7011414E-2,-8.3488755E-2,1.4680363E-1,-1.03538774E-1,-5.7893645E-2,4.2569574E-2],"categories":[],"categories_nodes":[],"categories_segments":[],"categories_sizes":[],"default_left":[0,0,0,0,0,0,0,0,0,0,0,0,0,0,0,0,0,0,0,0,0,0,0,0,0,0,0,0,0,0,0],"id":23,"left_children":[1,3,5,7,9,-1,11,13,15,-1,17,19,-1,21,23,25,27,-1,29,-1,-1,-1,-1,-1,-1,-1,-1,-1,-1,-1,-1],"loss_changes":[1.0009313E2,2.0656273E1,2.046585E-3,2.9979355E1,5.148652E1,0E0,1.1135131E-2,3.02351E1,1.866834E1,0E0,1.0995608E1,3.9336848E-1,0E0,4.366602E1,3.4207245E1,1.9158411E1,2.0460371E1,0E0,3.7550106E0,0E0,0E0,0E0,0E0,0E0,0E0,0E0,0E0,0E0,0E0,0E0,0E0],"parents":[2147483647,0,0,1,1,2,2,3,3,4,4,6,6,7,7,8,8,10,10,11,11,13,13,14,14,15,15,16,16,18,18],"right_children":[2,4,6,8,10,-1,12,14,16,-1,18,20,-1,22,24,26,28,-1,30,-1,-1,-1,-1,-1,-1,-1,-1,-1,-1,-1,-1],"split_conditions":[2.00001E0,2.6833334E0,1E0,2.128E0,3.7142856E0,-7.4266642E-3,1.5E2,1.24875E0,2.5E-1,4.0194994E-1,1.3791667E0,1.25E2,-6.1701476E-3,1.25E0,1.2E2,-1.25E2,2.7272728E-1,1.7702182E-1,-3.5E1,-7.3082815E-3,-5.3219207E-2,2.3151824E-2,-3.897455E-2,5.2698173E-2,-1.4561459E-2,5.7011414E-2,-8.3488755E-2,1.4680363E-1,-1.03538774E-1,-5.7893645E-2,4.2569574E-2],"split_indices":[24,8,47,9,2,0,26,10,7,0,11,26,0,9,26,26,7,0,26,0,0,0,0,0,0,0,0,0,0,0,0],"split_type":[0,0,0,0,0,0,0,0,0,0,0,0,0,0,0,0,0,0,0,0,0,0,0,0,0,0,0,0,0,0,0],"sum_hessian":[5.749E3,1.441E3,4.308E3,1.421E3,2E1,4.243E3,6.5E1,1.342E3,7.9E1,4E0,1.6E1,4.2E1,2.3E1,7.65E2,5.77E2,6.6E1,1.3E1,3E0,1.3E1,4.1E1,1E0,6.28E2,1.37E2,4.88E2,8.9E1,1.1E1,5.5E1,9E0,4E0,7E0,6E0],"tree_param":{"num_deleted":"0","num_feature":"173","num_nodes":"31","size_leaf_vector":"1"}},{"base_weights":[1.7736538E-3,-6.693608E-2,2.123204E-1,-6.901536E-2,2.2021732E0,4.5337513E-1,1.1148742E-1,-7.281727E-2,1.1090758E0,3.6349413E-1,5.129369E-1,5.674035E-1,-5.782446E-1,-6.1411932E-2,3.4610662E-1,-6.8266496E-2,-1.0478203E0,2.7820927E-1,3.99881E-1,1.0506404E-2,6.643414E-2,6.6251475E-1,-6.3835543E-1,-9.290821E-1,8.113909E-1,-1.0711991E-1,1.0422243E0,1.3063989E0,1.6222432E-1,-6.9603445E-3,2.8403082E-1,-1.4521892E-1,4.557242E-2,9.406721E-2,-7.816713E-2,5.583176E-2,2.1151221E-1,-8.62984E-2,1.5212105E-1,-1.0169943E-1,9.860089E-2,1.9275981E-1,-4.670945E-2,-6.6670566E-3,-1.5561551E-1,2.3490894E-1,3.4304557E-3,5.877741E-2,3.1287587E-1,3.8064733E-1,1.205881E-2],"categories":[],"categories_nodes":[],"categories_segments":[],"categories_sizes":[],"default_left":[1,1,0,0,0,0,1,1,0,0,0,0,0,0,0,0,0,0,0,0,0,0,0,0,0,1,0,0,0,0,0,0,0,0,0,0,0,0,0,0,0,0,0,0,0,0,0,0,0,0,0],"id":24,"left_children":[1,3,5,7,9,11,13,15,17,-1,19,21,23,25,27,29,31,-1,33,-1,-1,35,37,39,41,43,45,47,49,-1,-1,-1,-1,-1,-1,-1,-1,-1,-1,-1,-1,-1,-1,-1,-1,-1,-1,-1,-1,-1,-1],"loss_changes":[8.319723E1,2.060968E1,3.4342823E1,1.9488264E1,7.816639E0,4.938143E1,4.0546192E1,1.9096392E1,1.5498421E1,0E0,1.154629E-1,4.354309E1,2.123037E1,2.9167953E1,7.465831E1,1.692264E1,1.2821529E1,0E0,7.763998E0,0E0,0E0,5.1642883E1,1.4895583E1,6.7269955E0,1.3743863E1,3.2367588E1,3.0215364E1,8.721332E1,5.370957E1,0E0,0E0,0E0,0E0,0E0,0E0,0E0,0E0,0E0,0E0,0E0,0E0,0E0,0E0,0E0,0E0,0E0,0E0,0E0,0E0,0E0,0E0],"parents":[2147483647,0,0,1,1,2,2,3,3,4,4,5,5,6,6,7,7,8,8,10,10,11,11,12,12,13,13,14,14,15,15,16,16,18,18,21,21,22,22,23,23,24,24,25,25,26,26,27,27,28,28],"right_children":[2,4,6,8,10,12,14,16,18,-1,20,22,24,26,28,30,32,-1,34,-1,-1,36,38,40,42,44,46,48,50,-1,-1,-1,-1,-1,-1,-1,-1,-1,-1,-1,-1,-1,-1,-1,-1,-1,-1,-1,-1,-1,-1],"split_conditions":[7E0,2.1075E0,3.125E-2,1E0,1.5E0,5E0,9.756097E-2,8.1375E1,4.975E-1,3.6349413E-1,2E0,4.6363635E0,4.375E0,2.2333334E1,2E0,1E0,4.8780486E-2,2.7820927E-1,2.95E2,1.0506404E-2,6.643414E-2,2.3666666E1,1.5654546E0,5.5E1,1.3791667E0,9.52381E-2,4.7E1,2.2222223E-2,8E0,-6.9603445E-3,2.8403082E-1,-1.4521892E-1,4.557242E-2,9.406721E-2,-7.816713E-2,5.583176E-2,2.1151221E-1,-8.62984E-2,1.5212105E-1,-1.0169943E-1,9.860089E-2,1.9275981E-1,-4.670945E-2,-6.6670566E-3,-1.5561551E-1,2.3490894E-1,3.4304557E-3,5.877741E-2,3.1287587E-1,3.8064733E-1,1.205881E-2],"split_indices":[20,10,24,66,0,0,24,18,10,0,0,15,2,23,0,137,25,0,26,0,0,20,11,27,11,24,27,25,20,0,0,0,0,0,0,0,0,0,0,0,0,0,0,0,0,0,0,0,0,0,0],"split_type":[0,0,0,0,0,0,0,0,0,0,0,0,0,0,0,0,0,0,0,0,0,0,0,0,0,0,0,0,0,0,0,0,0,0,0,0,0,0,0,0,0,0,0,0,0,0,0,0,0,0,0],"sum_hessian":[5.749E3,4.335E3,1.414E3,4.332E3,3E0,4.16E2,9.98E2,4.319E3,1.3E1,1E0,2E0,3.75E2,4.1E1,5.75E2,4.23E2,4.3E3,1.9E1,3E0,1E1,1E0,1E0,3.48E2,2.7E1,3.3E1,8E0,5.53E2,2.2E1,6.7E1,3.56E2,4.299E3,1E0,1.5E1,4E0,7E0,3E0,3.26E2,2.2E1,2.5E1,2E0,3.2E1,1E0,4E0,4E0,5.39E2,1.4E1,9E0,1.3E1,4.9E1,1.8E1,3E0,3.53E2],"tree_param":{"num_deleted":"0","num_feature":"173","num_nodes":"51","size_leaf_vector":"1"}},{"base_weights":[1.983869E-3,-5.9693597E-2,1.9604188E-1,-6.1815012E-2,2.2681055E0,1.9454226E0,1.7549805E-1,-5.8491565E-2,-9.6068347E-1,-7.5349286E-2,3.5264692E-1,3.3227642E0,7.867413E-1,1.4602302E-1,1.0830866E0,-6.0665272E-2,1.8408551E0,4.7413737E-2,-1.7500273E0,4.004206E0,-3.8294315E-2,-6.861264E-1,1.2407241E0,3.662005E-2,3.4612924E-1,-3.7105057E-1,1.6579479E0,-6.2173E-3,1.2595682E-1,-6.013859E-2,3.6694777E-1,-8.872302E-2,3.0768147E-2,-2.1835771E-1,-6.621956E-2,4.8170844E-1,-3.0093198E-3,-9.990964E-2,-3.0093198E-3,1.5662175E-1,-5.1886536E-2,7.0514594E-4,1.16393805E-1,1.0237276E-1,2.1282671E-2,1.05516315E-1,-7.262861E-2,2.0406823E-1,-2.7689222E-2],"categories":[],"categories_nodes":[],"categories_segments":[],"categories_sizes":[],"default_left":[1,1,0,1,0,0,1,1,0,0,0,0,0,1,0,0,0,0,0,0,0,0,0,0,0,0,0,0,0,0,0,0,0,0,0,0,0,0,0,0,0,0,0,0,0,0,0,0,0],"id":25,"left_children":[1,3,5,7,9,11,13,15,17,-1,-1,19,21,23,25,27,29,31,33,35,-1,37,39,41,43,45,47,-1,-1,-1,-1,-1,-1,-1,-1,-1,-1,-1,-1,-1,-1,-1,-1,-1,-1,-1,-1,-1,-1],"loss_changes":[6.8833496E1,2.1690659E1,4.950595E1,1.2971615E1,1.786625E1,2.292025E1,3.6544506E1,1.8054684E1,1.281474E1,0E0,0E0,1.9209946E1,7.5378594E0,2.910397E1,3.656005E1,8.721263E0,2.453646E1,2.2190454E0,2.798708E0,1.9821335E1,0E0,5.858902E-1,5.394536E0,2.8691683E1,4.2235146E1,7.3526936E0,2.3521461E1,0E0,0E0,0E0,0E0,0E0,0E0,0E0,0E0,0E0,0E0,0E0,0E0,0E0,0E0,0E0,0E0,0E0,0E0,0E0,0E0,0E0,0E0],"parents":[2147483647,0,0,1,1,2,2,3,3,4,4,5,5,6,6,7,7,8,8,11,11,12,12,13,13,14,14,15,15,16,16,17,17,18,18,19,19,21,21,22,22,23,23,24,24,25,25,26,26],"right_children":[2,4,6,8,10,12,14,16,18,-1,-1,20,22,24,26,28,30,32,34,36,-1,38,40,42,44,46,48,-1,-1,-1,-1,-1,-1,-1,-1,-1,-1,-1,-1,-1,-1,-1,-1,-1,-1,-1,-1,-1,-1],"split_conditions":[6E1,1.25E-1,2.5714287E-1,5.263158E-2,3.3333334E-1,1E0,2.173913E-1,4.761905E-2,1.125E0,-7.5349286E-2,3.5264692E-1,1E0,4.2857143E-1,1.3888889E-2,1.3633333E0,1E0,8.3333336E-2,1.8867925E-2,7.12E-1,1.5584415E-1,-3.8294315E-2,6E-1,8.4E-1,1E0,2E0,1.5E0,5.5E0,-6.2173E-3,1.2595682E-1,-6.013859E-2,3.6694777E-1,-8.872302E-2,3.0768147E-2,-2.1835771E-1,-6.621956E-2,4.8170844E-1,-3.0093198E-3,-9.990964E-2,-3.0093198E-3,1.5662175E-1,-5.1886536E-2,7.0514594E-4,1.16393805E-1,1.0237276E-1,2.1282671E-2,1.05516315E-1,-7.262861E-2,2.0406823E-1,-2.7689222E-2],"split_indices":[16,25,10,25,0,28,24,25,14,0,0,48,2,25,8,32,7,24,9,24,0,1,8,112,0,0,12,0,0,0,0,0,0,0,0,0,0,0,0,0,0,0,0,0,0,0,0,0,0],"split_type":[0,0,0,0,0,0,0,0,0,0,0,0,0,0,0,0,0,0,0,0,0,0,0,0,0,0,0,0,0,0,0,0,0,0,0,0,0,0,0,0,0,0,0,0,0,0,0,0,0],"sum_hessian":[5.749E3,4.363E3,1.386E3,4.36E3,3E0,1.5E1,1.371E3,4.345E3,1.5E1,1E0,2E0,6E0,9E0,1.329E3,4.2E1,4.341E3,4E0,7E0,8E0,5E0,1E0,2E0,7E0,8.6E2,4.69E2,1.2E1,3E1,4.337E3,4E0,2E0,2E0,1E0,6E0,5E0,3E0,4E0,1E0,1E0,1E0,6E0,1E0,8.39E2,2.1E1,7.6E1,3.93E2,2E0,1E1,2.5E1,5E0],"tree_param":{"num_deleted":"0","num_feature":"173","num_nodes":"49","size_leaf_vector":"1"}},{"base_weights":[2.0034814E-3,-5.3641442E-2,1.7708094E-1,-5.5614248E-2,2.1106195E0,1.7785193E0,1.5827622E-1,-5.2544262E-2,-8.860234E-1,-7.158182E-2,3.2913715E-1,3.0534027E0,7.0824885E-1,1.3160169E-1,9.7964466E-1,-5.457117E-2,1.7181314E0,3.5427988E-2,-1.6066442E0,3.6835685E0,-3.63796E-2,2.6343244E-1,2.3557983E-1,1.9362329E-1,-1.8392172E-1,1.573769E-1,1.8335739E0,-5.5957134E-3,1.1588027E-1,-5.6129344E-2,3.424846E-1,-8.428687E-2,2.8130874E-2,-1.7881048E-1,-7.747996E-3,4.431718E-1,-2.8588537E-3,7.507171E-2,-9.6137576E-2,1.6880102E-2,1.9977055E-1,-7.026973E-2,-9.881853E-4,-3.0754084E-2,1.0675402E-1,2.716849E-1,3.540014E-2],"categories":[],"categories_nodes":[],"categories_segments":[],"categories_sizes":[],"default_left":[1,1,0,1,0,0,1,1,0,0,0,0,0,0,0,0,0,0,0,0,0,0,0,0,0,0,0,0,0,0,0,0,0,0,0,0,0,0,0,0,0,0,0,0,0,0,0],"id":26,"left_children":[1,3,5,7,9,11,13,15,17,-1,-1,19,21,23,25,27,29,31,33,35,-1,37,-1,39,41,43,45,-1,-1,-1,-1,-1,-1,-1,-1,-1,-1,-1,-1,-1,-1,-1,-1,-1,-1,-1,-1],"loss_changes":[5.6026993E1,1.8750196E1,4.1487484E1,1.10711355E1,1.5705313E1,1.9668953E1,2.9931068E1,1.569154E1,1.0681192E1,0E0,0E0,1.641388E1,6.707976E0,2.6062738E1,2.9904251E1,7.3667374E0,2.1373983E1,1.9647565E0,2.3588047E0,1.6790176E1,0E0,6.093193E0,0E0,4.9459732E1,1.9766048E1,1.0060786E1,2.6482498E1,0E0,0E0,0E0,0E0,0E0,0E0,0E0,0E0,0E0,0E0,0E0,0E0,0E0,0E0,0E0,0E0,0E0,0E0,0E0,0E0],"parents":[2147483647,0,0,1,1,2,2,3,3,4,4,5,5,6,6,7,7,8,8,11,11,12,12,13,13,14,14,15,15,16,16,17,17,18,18,19,19,21,21,23,23,24,24,25,25,26,26],"right_children":[2,4,6,8,10,12,14,16,18,-1,-1,20,22,24,26,28,30,32,34,36,-1,38,-1,40,42,44,46,-1,-1,-1,-1,-1,-1,-1,-1,-1,-1,-1,-1,-1,-1,-1,-1,-1,-1,-1,-1],"split_conditions":[6E1,1.25E-1,2.5714287E-1,5.263158E-2,3.3333334E-1,1E0,2.173913E-1,4.761905E-2,1.125E0,-7.158182E-2,3.2913715E-1,1E0,1E0,1.7948718E-1,1.61E0,1E0,8.3333336E-2,1.8867925E-2,1.45875E0,1.5584415E-1,-3.63796E-2,1.7666666E1,2.3557983E-1,1.724138E-1,3.076923E-2,3.3333334E-1,2.5E-1,-5.5957134E-3,1.1588027E-1,-5.6129344E-2,3.424846E-1,-8.428687E-2,2.8130874E-2,-1.7881048E-1,-7.747996E-3,4.431718E-1,-2.8588537E-3,7.507171E-2,-9.6137576E-2,1.6880102E-2,1.9977055E-1,-7.026973E-2,-9.881853E-4,-3.0754084E-2,1.0675402E-1,2.716849E-1,3.540014E-2],"split_indices":[16,25,10,25,0,28,24,25,14,0,0,48,49,24,8,32,7,24,10,24,0,20,0,24,25,24,5,0,0,0,0,0,0,0,0,0,0,0,0,0,0,0,0,0,0,0,0],"split_type":[0,0,0,0,0,0,0,0,0,0,0,0,0,0,0,0,0,0,0,0,0,0,0,0,0,0,0,0,0,0,0,0,0,0,0,0,0,0,0,0,0,0,0,0,0,0,0],"sum_hessian":[5.749E3,4.363E3,1.386E3,4.36E3,3E0,1.5E1,1.371E3,4.345E3,1.5E1,1E0,2E0,6E0,9E0,1.329E3,4.2E1,4.341E3,4E0,7E0,8E0,5E0,1E0,8E0,1E0,1.111E3,2.18E2,2.2E1,2E1,4.337E3,4E0,2E0,2E0,1E0,6E0,7E0,1E0,4E0,1E0,6E0,2E0,1.097E3,1.4E1,5.4E1,1.64E2,1.5E1,7E0,1.2E1,8E0],"tree_param":{"num_deleted":"0","num_feature":"173","num_nodes":"47","size_leaf_vector":"1"}},{"base_weights":[2.0741737E-3,-4.1035417E-2,1.8830888E-1,-4.6375155E-2,1.5150586E0,5.4814726E-1,8.933284E-2,-3.995386E-2,-8.053682E-1,-6.57268E-1,2.2939398E0,2.5393317E0,3.8962984E-1,2.0391095E-1,-2.739357E-1,-4.359588E-2,1.1606036E0,-9.503375E-1,2.3517333E-1,-1.10341966E-1,7.972956E-3,3.169278E-1,1.2159445E0,3.550645E0,-1.635098E0,1.4889703E0,1.8437332E-1,-1.1574526E-1,3.9821905E-1,2.5441203E-1,-7.459338E-1,-4.561428E-3,1.8220496E-1,1.9128954E-1,-1.19834974E-1,-1.435612E-1,-4.8913386E-2,-6.0001615E-4,1.7959595E-3,8.719397E-3,1.3895373E-1,4.1947746E-1,8.91627E-2,-1.937856E-1,-3.63412E-2,2.7680597E-1,-1.2300903E-2,-4.2634577E-2,4.688817E-2,-2.9280338E-2,5.8063745E-2,8.843618E-3,7.7597365E-2,8.883496E-2,-2.0604152E-2,4.9337298E-2,-9.5112704E-2],"categories":[],"categories_nodes":[],"categories_segments":[],"categories_sizes":[],"default_left":[1,1,0,1,0,0,0,0,0,0,0,0,0,0,0,0,0,0,0,0,0,0,0,0,0,0,0,1,0,0,0,0,0,0,0,0,0,0,0,0,0,0,0,0,0,0,0,0,0,0,0,0,0,0,0,0,0],"id":27,"left_children":[1,3,5,7,9,11,13,15,17,19,21,23,25,27,29,31,33,35,-1,-1,37,-1,39,41,43,45,47,49,51,53,55,-1,-1,-1,-1,-1,-1,-1,-1,-1,-1,-1,-1,-1,-1,-1,-1,-1,-1,-1,-1,-1,-1,-1,-1,-1,-1],"loss_changes":[4.6171616E1,3.8873905E1,3.845126E1,2.2654968E1,2.857948E1,7.255411E1,3.5393463E1,2.0238207E1,2.008457E1,1.4927895E0,7.469658E0,7.757382E1,4.8690826E1,4.0170307E1,5.106311E1,1.7420006E1,2.7137014E1,7.8025894E0,0E0,0E0,5.263939E-4,0E0,1.2504396E0,2.0238342E1,8.3581257E-1,7.044393E1,3.217077E1,3.0378567E1,4.697418E1,2.8497217E1,2.7933384E1,0E0,0E0,0E0,0E0,0E0,0E0,0E0,0E0,0E0,0E0,0E0,0E0,0E0,0E0,0E0,0E0,0E0,0E0,0E0,0E0,0E0,0E0,0E0,0E0,0E0,0E0],"parents":[2147483647,0,0,1,1,2,2,3,3,4,4,5,5,6,6,7,7,8,8,9,9,10,10,11,11,12,12,13,13,14,14,15,15,16,16,17,17,20,20,22,22,23,23,24,24,25,25,26,26,27,27,28,28,29,29,30,30],"right_children":[2,4,6,8,10,12,14,16,18,20,22,24,26,28,30,32,34,36,-1,-1,38,-1,40,42,44,46,48,50,52,54,56,-1,-1,-1,-1,-1,-1,-1,-1,-1,-1,-1,-1,-1,-1,-1,-1,-1,-1,-1,-1,-1,-1,-1,-1,-1,-1],"split_conditions":[6.75E1,1.25E-1,3.125E-2,6.666667E-1,-1.5E1,2.375E0,1.2E2,1E0,1E0,2.8E0,1.0866667E0,3.25E0,7.4416664E1,8.625E1,1.06E0,1E0,1.2E-1,2.25E1,2.3517333E-1,-1.10341966E-1,4E0,3.169278E-1,1.5E0,1.8867925E-2,3.5E0,1.1433333E0,4.8E1,1.5584415E-1,-5E0,1.8571428E0,2.5E0,-4.561428E-3,1.8220496E-1,1.9128954E-1,-1.19834974E-1,-1.435612E-1,-4.8913386E-2,-6.0001615E-4,1.7959595E-3,8.719397E-3,1.3895373E-1,4.1947746E-1,8.91627E-2,-1.937856E-1,-3.63412E-2,2.7680597E-1,-1.2300903E-2,-4.2634577E-2,4.688817E-2,-2.9280338E-2,5.8063745E-2,8.843618E-3,7.7597365E-2,8.883496E-2,-2.0604152E-2,4.9337298E-2,-9.5112704E-2],"split_indices":[19,25,24,4,26,14,26,66,45,1,8,3,19,19,8,84,24,20,0,0,0,0,1,24,0,11,27,24,26,2,14,0,0,0,0,0,0,0,0,0,0,0,0,0,0,0,0,0,0,0,0,0,0,0,0,0,0],"split_type":[0,0,0,0,0,0,0,0,0,0,0,0,0,0,0,0,0,0,0,0,0,0,0,0,0,0,0,0,0,0,0,0,0,0,0,0,0,0,0,0,0,0,0,0,0,0,0,0,0,0,0,0,0,0,0,0,0],"sum_hessian":[5.749E3,4.669E3,1.08E3,4.654E3,1.5E1,2.32E2,8.48E2,4.616E3,3.8E1,4E0,1.1E1,1.6E1,2.16E2,6.45E2,2.03E2,4.603E3,1.3E1,3.7E1,1E0,2E0,2E0,5E0,6E0,1.3E1,3E0,3.3E1,1.83E2,2.44E2,4.01E2,9.6E1,1.07E2,4.599E3,4E0,1E1,3E0,1.7E1,2E1,1E0,1E0,1E0,5E0,1E1,3E0,2E0,1E0,1.8E1,1.5E1,5.8E1,1.25E2,1.95E2,4.9E1,2.21E2,1.8E2,4E1,5.6E1,1.5E1,9.2E1],"tree_param":{"num_deleted":"0","num_feature":"173","num_nodes":"57","size_leaf_vector":"1"}},{"base_weights":[2.0984446E-3,-2.4682967E-2,2.6591668E-1,1.7891611E-1,-4.6618406E-2,3.4229536E0,2.4144974E-1,1.2555724E-1,1.8118539E0,-3.976776E-2,-5.437391E-1,1.0225542E-1,3.8822356E-1,-7.5765604E-1,2.9903015E-1,-1.870746E-2,6.5882784E-1,2.6797261E0,-1.4616941E-1,-4.9177412E-2,4.4870284E-1,3.2168546E-1,-6.912028E-1,-1.2641671E0,-3.7014283E-2,3.7056798E-1,-6.313195E-1,-7.73371E-3,1.3529296E-1,2.3908381E-1,3.2059185E-2,3.7344854E-2,4.6031857E-1,-4.241086E-2,-4.2052786E-3,1.3844037E-1,-3.468239E-3,-2.4343256E-3,1.717972E-1,-2.8305067E-2,-9.980609E-2,-4.206588E-2,-1.6860208E-1,1.5024893E-1,-4.5351397E-2,2.9797468E-2,1.4903077E-1,-1.1491012E-1,-1.0756216E-2],"categories":[],"categories_nodes":[],"categories_segments":[],"categories_sizes":[],"default_left":[1,0,0,0,1,0,0,0,0,1,0,0,0,0,0,0,0,0,0,0,0,0,0,0,0,0,0,0,0,0,0,0,0,0,0,0,0,0,0,0,0,0,0,0,0,0,0,0,0],"id":28,"left_children":[1,3,5,7,9,11,13,15,17,19,21,-1,-1,23,25,27,29,31,-1,33,35,37,39,41,43,45,47,-1,-1,-1,-1,-1,-1,-1,-1,-1,-1,-1,-1,-1,-1,-1,-1,-1,-1,-1,-1,-1,-1],"loss_changes":[4.0632755E1,2.3325504E1,4.01123E1,4.4035416E1,1.603236E1,4.400406E-1,3.0544298E1,3.7939865E1,4.937327E1,2.1399632E1,8.38995E0,0E0,0E0,1.0538586E1,3.3444992E1,3.1387459E1,6.0745483E1,5.594935E1,0E0,1.2173729E1,3.985076E1,4.873374E0,6.6059647E0,5.3399906E0,9.017036E0,3.7272457E1,9.639307E0,0E0,0E0,0E0,0E0,0E0,0E0,0E0,0E0,0E0,0E0,0E0,0E0,0E0,0E0,0E0,0E0,0E0,0E0,0E0,0E0,0E0,0E0],"parents":[2147483647,0,0,1,1,2,2,3,3,4,4,5,5,6,6,7,7,8,8,9,9,10,10,13,13,14,14,15,15,16,16,17,17,19,19,20,20,21,21,22,22,23,23,24,24,25,25,26,26],"right_children":[2,4,6,8,10,12,14,16,18,20,22,-1,-1,24,26,28,30,32,-1,34,36,38,40,42,44,46,48,-1,-1,-1,-1,-1,-1,-1,-1,-1,-1,-1,-1,-1,-1,-1,-1,-1,-1,-1,-1,-1,-1],"split_conditions":[1.3888889E-2,6.896552E-2,1.4084507E-2,1E0,2.16E0,5E-1,-2.2E2,2.909091E0,4.125E0,4E0,4.5E1,1.0225542E-1,3.8822356E-1,3.5E0,4.6363635E0,1.77125E0,1.105E0,6.3333335E0,-1.4616941E-1,9.375E-2,9.090909E-2,3E0,9.090909E-2,1.125E1,1.1466666E0,2.1875E1,1.465E0,-7.73371E-3,1.3529296E-1,2.3908381E-1,3.2059185E-2,3.7344854E-2,4.6031857E-1,-4.241086E-2,-4.2052786E-3,1.3844037E-1,-3.468239E-3,-2.4343256E-3,1.717972E-1,-2.8305067E-2,-9.980609E-2,-4.206588E-2,-1.6860208E-1,1.5024893E-1,-4.5351397E-2,2.9797468E-2,1.4903077E-1,-1.1491012E-1,-1.0756216E-2],"split_indices":[25,24,25,51,8,4,26,3,14,0,27,0,0,0,15,10,11,20,0,24,7,2,7,21,8,22,10,0,0,0,0,0,0,0,0,0,0,0,0,0,0,0,0,0,0,0,0,0,0],"split_type":[0,0,0,0,0,0,0,0,0,0,0,0,0,0,0,0,0,0,0,0,0,0,0,0,0,0,0,0,0,0,0,0,0,0,0,0,0,0,0,0,0,0,0,0,0,0,0,0,0],"sum_hessian":[5.749E3,5.22E3,5.29E2,5.07E2,4.713E3,3E0,5.26E2,4.92E2,1.5E1,4.65E3,6.3E1,1E0,2E0,2.8E1,4.98E2,3.88E2,1.04E2,1.2E1,3E0,4.563E3,8.7E1,9E0,5.4E1,1.6E1,1.2E1,4.63E2,3.5E1,3.73E2,1.5E1,1.6E1,8.8E1,6E0,6E0,8.4E1,4.479E3,2.9E1,5.8E1,8E0,1E0,2.4E1,3E1,6E0,1E1,2E0,1E1,4.36E2,2.7E1,1.7E1,1.8E1],"tree_param":{"num_deleted":"0","num_feature":"173","num_nodes":"49","size_leaf_vector":"1"}},{"base_weights":[2.1177602E-3,2.408574E-1,-2.3027623E-2,3.0899513E-1,-5.8739734E-1,-4.459018E-2,2.4172248E-1,1.3630068E-1,8.5877824E-1,-8.96957E-1,6.473165E-1,-4.93469E-2,8.682011E-1,-1.0541251E0,2.960775E-1,-2.6898996E-3,8.0017644E-1,2.1060095E0,5.120409E-1,-9.7222114E-1,7.933798E-2,1.6477624E0,-4.8259267E-1,-4.196626E-2,-9.959269E-1,1.84364E0,-3.4216115E-1,-1.7574149E0,-6.732439E-1,3.579733E-1,-9.582879E-1,-1.2908901E-2,7.015886E-2,2.3899084E-2,1.6227111E-1,3.4266338E-1,7.29286E-2,1.4461231E-1,8.615274E-3,1.4191342E-3,-1.1087674E-1,1.2590587E-2,1.9967501E-1,-6.487879E-2,9.109414E-3,-3.3277457E-3,-5.363984E-2,1.7243102E-1,-1.11938655E-1,3.4830976E-1,-2.9340306E-2,1.5841737E-1,-1.160292E-1,-1.9400156E-1,-5.135063E-2,5.539227E-3,-9.222773E-2,1.5995659E-2,9.967338E-2,-1.1799617E-1,5.4340124E-2],"categories":[],"categories_nodes":[],"categories_segments":[],"categories_sizes":[],"default_left":[0,0,1,0,0,1,0,0,0,0,0,1,0,0,0,0,0,0,0,0,0,0,0,1,0,0,0,0,0,0,0,0,0,0,0,0,0,0,0,0,0,0,0,0,0,0,0,0,0,0,0,0,0,0,0,0,0,0,0,0,0],"id":29,"left_children":[1,3,5,7,9,11,13,15,17,19,21,23,25,27,29,31,33,35,37,39,-1,41,43,45,47,49,51,53,55,57,59,-1,-1,-1,-1,-1,-1,-1,-1,-1,-1,-1,-1,-1,-1,-1,-1,-1,-1,-1,-1,-1,-1,-1,-1,-1,-1,-1,-1,-1,-1],"loss_changes":[3.4523945E1,3.110811E1,2.9713085E1,4.801981E1,1.663375E1,2.0936043E1,2.7922935E1,3.57116E1,5.124948E1,5.096878E0,1.0968916E1,3.3408936E1,3.0146687E1,3.1027508E0,2.9613316E1,2.8666044E1,3.0539024E1,4.4772507E1,3.806561E1,4.460535E0,0E0,2.4041433E0,5.3582084E-1,2.0396856E1,1.4356228E1,5.0072235E1,2.0750034E1,1.3948154E-1,2.2285442E0,4.537527E1,6.6331215E0,0E0,0E0,0E0,0E0,0E0,0E0,0E0,0E0,0E0,0E0,0E0,0E0,0E0,0E0,0E0,0E0,0E0,0E0,0E0,0E0,0E0,0E0,0E0,0E0,0E0,0E0,0E0,0E0,0E0,0E0],"parents":[2147483647,0,0,1,1,2,2,3,3,4,4,5,5,6,6,7,7,8,8,9,9,10,10,11,11,12,12,13,13,14,14,15,15,16,16,17,17,18,18,19,19,21,21,22,22,23,23,24,24,25,25,26,26,27,27,28,28,29,29,30,30],"right_children":[2,4,6,8,10,12,14,16,18,20,22,24,26,28,30,32,34,36,38,40,-1,42,44,46,48,50,52,54,56,58,60,-1,-1,-1,-1,-1,-1,-1,-1,-1,-1,-1,-1,-1,-1,-1,-1,-1,-1,-1,-1,-1,-1,-1,-1,-1,-1,-1,-1,-1,-1],"split_conditions":[3.125E-2,5E0,1.1111111E-1,3.3333333E0,4.375E0,2.2333334E1,-2.45E2,1.9E2,2.5E0,5.5E1,1.3791667E0,2.0875E1,5.3333335E0,7.633333E-1,5E0,2.8181818E0,7.12E-1,1.74E0,9.35E-1,1.025E1,7.933798E-2,5E0,1.4285715E-1,1.80125E0,4.7333333E-1,4.7E1,1.0066667E0,1.7633333E0,2.8181818E0,4E0,4.5E0,-1.2908901E-2,7.015886E-2,2.3899084E-2,1.6227111E-1,3.4266338E-1,7.29286E-2,1.4461231E-1,8.615274E-3,1.4191342E-3,-1.1087674E-1,1.2590587E-2,1.9967501E-1,-6.487879E-2,9.109414E-3,-3.3277457E-3,-5.363984E-2,1.7243102E-1,-1.11938655E-1,3.4830976E-1,-2.9340306E-2,1.5841737E-1,-1.160292E-1,-1.9400156E-1,-5.135063E-2,5.539227E-3,-9.222773E-2,1.5995659E-2,9.967338E-2,-1.1799617E-1,5.4340124E-2],"split_indices":[24,0,24,0,2,23,26,26,12,27,11,22,12,11,1,3,9,8,10,21,0,1,6,10,8,27,8,8,3,0,12,0,0,0,0,0,0,0,0,0,0,0,0,0,0,0,0,0,0,0,0,0,0,0,0,0,0,0,0,0,0],"split_type":[0,0,0,0,0,0,0,0,0,0,0,0,0,0,0,0,0,0,0,0,0,0,0,0,0,0,0,0,0,0,0,0,0,0,0,0,0,0,0,0,0,0,0,0,0,0,0,0,0,0,0,0,0,0,0,0,0,0,0,0,0],"sum_hessian":[5.749E3,5.47E2,5.202E3,5.06E2,4.1E1,4.811E3,3.91E2,3.86E2,1.2E2,3.3E1,8E0,4.787E3,2.4E1,1.5E1,3.76E2,3.2E2,6.6E1,2.5E1,9.5E1,3.2E1,1E0,4E0,4E0,4.751E3,3.6E1,1.3E1,1.1E1,4E0,1.1E1,3.59E2,1.7E1,2.72E2,4.8E1,4E1,2.6E1,1.2E1,1.3E1,2.9E1,6.6E1,4E0,2.8E1,1E0,3E0,3E0,1E0,4.67E3,8.1E1,1E0,3.5E1,7E0,6E0,3E0,8E0,3E0,1E0,3E0,8E0,2.75E2,8.4E1,1.5E1,2E0],"tree_param":{"num_deleted":"0","num_feature":"173","num_nodes":"61","size_leaf_vector":"1"}},{"base_weights":[2.0839872E-3,-2.0977959E-2,2.29262E-1,1.4859204E-1,-3.924707E-2,3.1800237E0,2.0643029E-1,9.9657215E-2,1.6471093E0,-4.231286E-2,9.239837E-1,9.7309045E-2,3.5913047E-1,-4.7774017E-2,4.2244858E-1,-2.6703998E-2,5.668463E-1,2.442464E0,-1.3495712E-1,-3.621525E-2,-4.8344275E-1,2.329116E0,-2.7156195E-1,2.8124544E-1,-8.9865124E-1,1.3244089E0,2.0586734E-1,7.126437E-3,-7.241723E-2,3.3635554E-1,3.933753E-2,3.44291E-2,4.191714E-1,-4.068472E-3,7.5799316E-2,2.8357908E-2,-6.1411142E-2,2.8461668E-1,-3.865936E-2,-6.3653074E-2,1.3240944E-1,4.8272673E-2,-8.009672E-2,-2.1640718E-1,-6.164811E-2,-1.4847676E-1,2.1428946E-1,-5.3723063E-3,8.161191E-2],"categories":[],"categories_nodes":[],"categories_segments":[],"categories_sizes":[],"default_left":[1,0,0,0,0,0,0,0,0,1,0,0,0,0,0,0,0,0,0,1,0,0,0,0,0,0,0,0,0,0,0,0,0,0,0,0,0,0,0,0,0,0,0,0,0,0,0,0,0],"id":30,"left_children":[1,3,5,7,9,11,13,15,17,19,21,-1,-1,23,25,27,29,31,-1,33,35,37,39,41,43,45,47,-1,-1,-1,-1,-1,-1,-1,-1,-1,-1,-1,-1,-1,-1,-1,-1,-1,-1,-1,-1,-1,-1],"loss_changes":[3.0130018E1,1.6179932E1,3.5050137E1,3.708733E1,1.3959837E1,1.3601303E-1,2.8959217E1,2.9119186E1,4.1431065E1,1.2624736E1,2.5830997E1,0E0,0E0,6.8281845E1,5.5401436E1,2.6631912E1,4.9617397E1,4.6269806E1,0E0,1.649076E1,6.5885944E0,1.0929424E1,6.08411E0,3.8762672E1,2.294624E1,1.296416E2,3.6637817E1,0E0,0E0,0E0,0E0,0E0,0E0,0E0,0E0,0E0,0E0,0E0,0E0,0E0,0E0,0E0,0E0,0E0,0E0,0E0,0E0,0E0,0E0],"parents":[2147483647,0,0,1,1,2,2,3,3,4,4,5,5,6,6,7,7,8,8,9,9,10,10,13,13,14,14,15,15,16,16,17,17,19,19,20,20,21,21,22,22,23,23,24,24,25,25,26,26],"right_children":[2,4,6,8,10,12,14,16,18,20,22,-1,-1,24,26,28,30,32,-1,34,36,38,40,42,44,46,48,-1,-1,-1,-1,-1,-1,-1,-1,-1,-1,-1,-1,-1,-1,-1,-1,-1,-1,-1,-1,-1,-1],"split_conditions":[1.3888889E-2,6.896552E-2,1.4084507E-2,1E0,1E0,5E-1,1.2725E0,2.909091E0,4.125E0,2.16E0,1.105E0,9.7309045E-2,3.5913047E-1,1.198E0,2.75E0,2.875E0,2.5714285E0,6.3333335E0,-1.3495712E-1,2.0333333E0,4.5E1,5E-1,2.7272727E0,4.75E0,2.125E0,1.175E1,3.75E-1,7.126437E-3,-7.241723E-2,3.3635554E-1,3.933753E-2,3.44291E-2,4.191714E-1,-4.068472E-3,7.5799316E-2,2.8357908E-2,-6.1411142E-2,2.8461668E-1,-3.865936E-2,-6.3653074E-2,1.3240944E-1,4.8272673E-2,-8.009672E-2,-2.1640718E-1,-6.164811E-2,-1.4847676E-1,2.1428946E-1,-5.3723063E-3,8.161191E-2],"split_indices":[25,24,25,51,76,4,10,3,14,8,10,0,0,9,14,2,2,20,0,8,27,4,3,13,14,23,6,0,0,0,0,0,0,0,0,0,0,0,0,0,0,0,0,0,0,0,0,0,0],"split_type":[0,0,0,0,0,0,0,0,0,0,0,0,0,0,0,0,0,0,0,0,0,0,0,0,0,0,0,0,0,0,0,0,0,0,0,0,0,0,0,0,0,0,0,0,0,0,0,0,0],"sum_hessian":[5.749E3,5.22E3,5.29E2,5.07E2,4.713E3,3E0,5.26E2,4.92E2,1.5E1,4.699E3,1.4E1,1E0,2E0,2.42E2,2.84E2,3.88E2,1.04E2,1.2E1,3E0,4.636E3,6.3E1,6E0,8E0,1.75E2,6.7E1,5.4E1,2.3E2,3.41E2,4.7E1,5E0,9.9E1,6E0,6E0,4.611E3,2.5E1,9E0,5.4E1,5E0,1E0,7E0,1E0,1.48E2,2.7E1,1.1E1,5.6E1,1.2E1,4.2E1,1.62E2,6.8E1],"tree_param":{"num_deleted":"0","num_feature":"173","num_nodes":"49","size_leaf_vector":"1"}},{"base_weights":[2.0966392E-3,-2.4286449E-2,1.6826056E-1,-1.6884485E-2,-6.8450373E-1,3.77145E-1,-1.5659943E-2,-1.868885E-2,2.2003908E-1,-8.268661E-1,9.044932E-1,3.0077872E-1,2.0431771E0,-4.121859E-2,1.7547563E0,-2.3107534E-2,7.252085E-1,-1.051914E0,2.0102157E-1,2.0796132E-1,-5.7212453E-2,2.2084707E-1,1.6984762E0,-1.1229352E-1,3.3476887E0,-7.0745856E-2,1.4698244E0,-5.716437E-2,2.3343651E-1,-2.451551E-3,2.2730258E-1,1.4912064E-1,-8.793081E-2,-1.4348494E-1,-1.8355405E-2,-2.9038114E-2,7.505005E-2,1.9578818E-2,4.3077898E-1,4.4807893E-1,3.847366E-2,3.0537337E-2,-5.01887E-2,4.042268E-4,4.7801027E-1,3.0320147E-2,-1.9314175E-2,3.5321793E-1,1.9367643E-2],"categories":[],"categories_nodes":[],"categories_segments":[],"categories_sizes":[],"default_left":[1,1,0,1,0,0,0,1,0,0,0,0,1,0,0,1,0,0,0,0,0,1,0,1,0,0,0,0,0,0,0,0,0,0,0,0,0,0,0,0,0,0,0,0,0,0,0,0,0],"id":31,"left_children":[1,3,5,7,9,11,13,15,-1,17,19,21,23,25,27,29,31,33,35,-1,-1,37,39,41,43,45,47,-1,-1,-1,-1,-1,-1,-1,-1,-1,-1,-1,-1,-1,-1,-1,-1,-1,-1,-1,-1,-1,-1],"loss_changes":[2.521161E1,2.4242147E1,3.027939E1,1.9680925E1,1.31896305E1,4.6332825E1,1.9077095E1,1.6143007E1,0E0,1.200898E1,9.865813E0,3.9173862E1,4.536532E1,1.8620028E1,9.424835E0,1.5825818E1,3.6953865E1,1.3702709E1,2.9180858E0,0E0,0E0,3.3567787E1,6.772555E1,1.292305E0,4.787552E1,1.8732565E1,2.037086E1,0E0,0E0,0E0,0E0,0E0,0E0,0E0,0E0,0E0,0E0,0E0,0E0,0E0,0E0,0E0,0E0,0E0,0E0,0E0,0E0,0E0,0E0],"parents":[2147483647,0,0,1,1,2,2,3,3,4,4,5,5,6,6,7,7,9,9,10,10,11,11,12,12,13,13,14,14,15,15,16,16,17,17,18,18,21,21,22,22,23,23,24,24,25,25,26,26],"right_children":[2,4,6,8,10,12,14,16,-1,18,20,22,24,26,28,30,32,34,36,-1,-1,38,40,42,44,46,48,-1,-1,-1,-1,-1,-1,-1,-1,-1,-1,-1,-1,-1,-1,-1,-1,-1,-1,-1,-1,-1,-1],"split_conditions":[1.24875E0,5.4E0,1.505E0,6.666667E-1,4.4166665E0,1E0,5.4E1,6E0,2.2003908E-1,6.382979E-2,4.3333335E0,2.4333334E1,1.6949153E-2,1E0,2.5E0,3.3333334E-1,1.1764706E-1,5.714286E-1,1.2466667E0,2.0796132E-1,-5.7212453E-2,2E-1,3.5E0,1.5E-1,1.08E0,1.25E-1,4E0,-5.716437E-2,2.3343651E-1,-2.451551E-3,2.2730258E-1,1.4912064E-1,-8.793081E-2,-1.4348494E-1,-1.8355405E-2,-2.9038114E-2,7.505005E-2,1.9578818E-2,4.3077898E-1,4.4807893E-1,3.847366E-2,3.0537337E-2,-5.01887E-2,4.042268E-4,4.7801027E-1,3.0320147E-2,-1.9314175E-2,3.5321793E-1,1.9367643E-2],"split_indices":[10,13,11,7,3,54,27,12,0,25,0,20,25,35,1,25,24,6,8,0,0,25,15,24,8,6,12,0,0,0,0,0,0,0,0,0,0,0,0,0,0,0,0,0,0,0,0,0,0],"split_type":[0,0,0,0,0,0,0,0,0,0,0,0,0,0,0,0,0,0,0,0,0,0,0,0,0,0,0,0,0,0,0,0,0,0,0,0,0,0,0,0,0,0,0,0,0,0,0,0,0],"sum_hessian":[5.749E3,4.962E3,7.87E2,4.908E3,5.4E1,3.68E2,4.19E2,4.905E3,3E0,5E1,4E0,3.53E2,1.5E1,4.14E2,5E0,4.877E3,2.8E1,4.1E1,9E0,2E0,2E0,3.35E2,1.8E1,6E0,9E0,4.07E2,7E0,1E0,4E0,4.875E3,2E0,1.9E1,9E0,2.8E1,1.3E1,5E0,4E0,3.34E2,1E0,5E0,1.3E1,3E0,3E0,3E0,6E0,1E2,3.07E2,2E0,5E0],"tree_param":{"num_deleted":"0","num_feature":"173","num_nodes":"49","size_leaf_vector":"1"}},{"base_weights":[2.3211658E-3,1.9736055E-1,-1.822158E-2,1.8103226E-1,3.103322E-1,-3.8010042E-2,1.8589732E-1,-2.7531756E-3,4.513174E-1,-3.3941004E-2,-1.1674457E0,7.1167344E-1,4.8917457E-2,-9.672451E-2,7.813149E-1,3.6574274E-2,1.0896968E0,-7.9303354E-1,-2.8599437E-2,-1.3726565E0,1.0579634E-1,-3.8684496E-1,1.3885126E0,-1.9502273E-1,5.0401735E-1,6.989056E-3,-5.5474397E-2,1.6291401E-1,-7.787844E-2,-1.5930851E-1,2.382959E-2,1.9780333E-1,3.2671433E-2,-1.097004E-1,1.1286012E-1,-3.2247961E-3,7.851667E-2,-6.307421E-2,-1.65255E-1,-7.095311E-2,8.715836E-2,8.140407E-2,2.6518074E-1,8.933798E-2,-3.039669E-2,1.869296E-1,2.338797E-2],"categories":[],"categories_nodes":[],"categories_segments":[],"categories_sizes":[],"default_left":[0,0,1,0,0,1,0,0,0,0,0,0,0,0,0,0,0,0,1,0,0,0,0,0,0,0,0,0,0,0,0,0,0,0,0,0,0,0,0,0,0,0,0,0,0,0,0],"id":32,"left_children":[1,3,5,7,-1,9,11,13,15,17,19,21,23,25,27,29,31,33,35,37,-1,39,41,43,45,-1,-1,-1,-1,-1,-1,-1,-1,-1,-1,-1,-1,-1,-1,-1,-1,-1,-1,-1,-1,-1,-1],"loss_changes":[2.3041801E1,2.5440456E1,2.102302E1,2.7123508E1,0E0,2.1762459E1,3.3094727E1,2.4095226E1,5.8472874E1,1.9148144E1,9.215746E0,7.1171555E1,4.0730576E1,2.2322151E1,4.7562943E1,4.4759193E1,5.832106E1,2.0514038E1,1.396795E1,2.28018E0,0E0,1.5643278E1,4.065924E1,2.8611017E1,4.6770897E1,0E0,0E0,0E0,0E0,0E0,0E0,0E0,0E0,0E0,0E0,0E0,0E0,0E0,0E0,0E0,0E0,0E0,0E0,0E0,0E0,0E0,0E0],"parents":[2147483647,0,0,1,1,2,2,3,3,5,5,6,6,7,7,8,8,9,9,10,10,11,11,12,12,13,13,14,14,15,15,16,16,17,17,18,18,19,19,21,21,22,22,23,23,24,24],"right_children":[2,4,6,8,-1,10,12,14,16,18,20,22,24,26,28,30,32,34,36,38,-1,40,42,44,46,-1,-1,-1,-1,-1,-1,-1,-1,-1,-1,-1,-1,-1,-1,-1,-1,-1,-1,-1,-1,-1,-1],"split_conditions":[3.125E-2,1E0,9.756097E-2,4.8E1,3.103322E-1,9.52381E-2,2E0,5E-1,1.1966667E0,3.7037037E-2,4.4E0,1.05E1,4E0,3E0,5.2E0,-7.5E1,1.7916666E1,2.25E2,2.2333334E1,1.1066667E0,1.0579634E-1,5.1282052E-2,2.2222223E-2,1E1,2.2E0,6.989056E-3,-5.5474397E-2,1.6291401E-1,-7.787844E-2,-1.5930851E-1,2.382959E-2,1.9780333E-1,3.2671433E-2,-1.097004E-1,1.1286012E-1,-3.2247961E-3,7.851667E-2,-6.307421E-2,-1.65255E-1,-7.095311E-2,8.715836E-2,8.140407E-2,2.6518074E-1,8.933798E-2,-3.039669E-2,1.869296E-1,2.338797E-2],"split_indices":[24,51,24,27,0,24,0,4,8,24,1,21,0,12,13,26,23,26,23,8,0,25,25,20,13,0,0,0,0,0,0,0,0,0,0,0,0,0,0,0,0,0,0,0,0,0,0],"split_type":[0,0,0,0,0,0,0,0,0,0,0,0,0,0,0,0,0,0,0,0,0,0,0,0,0,0,0,0,0,0,0,0,0,0,0,0,0,0,0,0,0,0,0,0,0,0,0],"sum_hessian":[5.749E3,5.47E2,5.202E3,5.45E2,2E0,4.743E3,4.59E2,3.25E2,2.2E2,4.727E3,1.6E1,9.4E1,3.65E2,2.91E2,3.4E1,1.34E2,8.6E1,3.2E1,4.695E3,1.5E1,1E0,3.6E1,5.8E1,2.38E2,1.27E2,2.14E2,7.7E1,2.2E1,1.2E1,1.4E1,1.2E2,3.9E1,4.7E1,2.8E1,4E0,4.675E3,2E1,5E0,1E1,2.9E1,7E0,4.1E1,1.7E1,2.1E1,2.17E2,2E1,1.07E2],"tree_param":{"num_deleted":"0","num_feature":"173","num_nodes":"47","size_leaf_vector":"1"}},{"base_weights":[2.2681558E-3,-2.1323256E-2,1.4933327E-1,-1.571963E-2,-9.7281796E-1,1.06578566E-1,8.595434E-1,-1.9550487E-2,1.5552839E0,1.6826089E-1,-1.1277478E0,4.2014593E-1,-1.120565E-3,2.0999665E0,1.6933285E-1,-2.1266928E-2,2.0939846E0,3.996944E-1,-1.651642E-1,-1.7191831E0,-1.9590214E-1,3.4857213E-1,3.6969718E-1,2.8742924E-1,-2.6130065E-1,-9.724818E-2,2.8837996E0,2.5835654E-1,-9.538251E-2,-1.4709499E-3,-5.700285E-2,2.9684266E-1,-2.6467038E-2,-1.03775404E-1,2.9714823E-1,-2.0000422E-2,-1.8016315E-1,1.9951797E-1,-5.7647135E-2,2.6929686E-2,2.7215847E-1,1.9138684E-2,1.8817799E-1,-7.975894E-2,-5.1097535E-3,1.6763864E-1,4.480383E-1,-1.362007E-1,2.3918832E-2],"categories":[],"categories_nodes":[],"categories_segments":[],"categories_sizes":[],"default_left":[1,1,0,0,0,0,0,1,0,0,0,0,0,0,0,1,0,0,0,0,0,0,0,0,0,0,0,0,0,0,0,0,0,0,0,0,0,0,0,0,0,0,0,0,0,0,0,0,0],"id":33,"left_children":[1,3,5,7,9,11,13,15,17,-1,19,21,23,25,27,29,31,-1,33,35,37,39,-1,41,43,-1,45,-1,47,-1,-1,-1,-1,-1,-1,-1,-1,-1,-1,-1,-1,-1,-1,-1,-1,-1,-1,-1,-1],"loss_changes":[1.995266E1,2.640921E1,2.4048428E1,2.9688536E1,1.3828299E1,2.5362442E1,3.8171295E1,1.788222E1,5.1069153E1,0E0,1.5094749E1,4.3742035E1,4.211706E1,4.133702E1,1.9418959E1,1.7674475E1,9.035683E0,0E0,2.4979715E1,1.7689819E0,1.1156463E1,3.4821995E1,0E0,4.0371178E1,3.321447E1,0E0,1.7549706E1,0E0,1.2191493E1,0E0,0E0,0E0,0E0,0E0,0E0,0E0,0E0,0E0,0E0,0E0,0E0,0E0,0E0,0E0,0E0,0E0,0E0,0E0,0E0],"parents":[2147483647,0,0,1,1,2,2,3,3,4,4,5,5,6,6,7,7,8,8,10,10,11,11,12,12,13,13,14,14,15,15,16,16,18,18,19,19,20,20,21,21,23,23,24,24,26,26,28,28],"right_children":[2,4,6,8,10,12,14,16,18,-1,20,22,24,26,28,30,32,-1,34,36,38,40,-1,42,44,-1,46,-1,48,-1,-1,-1,-1,-1,-1,-1,-1,-1,-1,-1,-1,-1,-1,-1,-1,-1,-1,-1,-1],"split_conditions":[1.6333334E1,1.6E1,1E0,1E0,1.2E0,3.3333333E0,3.3333334E-1,2.86E0,1.7666666E1,1.6826089E-1,3.25E0,1E0,4.7E1,6.3625E-1,2.25E0,1.8625E1,3.5E0,3.996944E-1,1.4333333E1,1.25E0,2.0833333E0,4.571429E0,3.6969718E-1,1E0,1.5833333E1,-9.724818E-2,3.5E0,2.5835654E-1,3.5E0,-1.4709499E-3,-5.700285E-2,2.9684266E-1,-2.6467038E-2,-1.03775404E-1,2.9714823E-1,-2.0000422E-2,-1.8016315E-1,1.9951797E-1,-5.7647135E-2,2.6929686E-2,2.7215847E-1,1.9138684E-2,1.8817799E-1,-7.975894E-2,-5.1097535E-3,1.6763864E-1,4.480383E-1,-1.362007E-1,2.3918832E-2],"split_indices":[20,20,63,70,13,12,7,8,23,0,13,73,27,10,13,22,0,0,20,13,3,14,0,56,23,0,0,0,13,0,0,0,0,0,0,0,0,0,0,0,0,0,0,0,0,0,0,0,0],"split_type":[0,0,0,0,0,0,0,0,0,0,0,0,0,0,0,0,0,0,0,0,0,0,0,0,0,0,0,0,0,0,0,0,0,0,0,0,0,0,0,0,0,0,0,0,0,0,0,0,0],"sum_hessian":[5.749E3,4.955E3,7.94E2,4.927E3,2.8E1,7.5E2,4.4E1,4.916E3,1.1E1,1E0,2.7E1,1.91E2,5.59E2,1.5E1,2.9E1,4.913E3,3E0,4E0,7E0,1.6E1,1.1E1,1.88E2,3E0,2.65E2,2.94E2,3E0,1.2E1,2E0,2.7E1,4.856E3,5.7E1,2E0,1E0,6E0,1E0,1E0,1.5E1,1E0,1E1,1.83E2,5E0,2.51E2,1.4E1,8.2E1,2.12E2,8E0,4E0,5E0,2.2E1],"tree_param":{"num_deleted":"0","num_feature":"173","num_nodes":"49","size_leaf_vector":"1"}},{"base_weights":[2.453646E-3,1.9128835E-1,-1.4664778E-2,4.332347E-1,-6.4978115E-2,-3.5355493E-2,1.6825925E-1,5.175809E-1,-1.1183228E0,-9.4134696E-2,3.3496743E-1,-1.904812E-2,-3.3052102E-1,2.9319042E-1,-3.0731222E-1,6.544393E-1,-5.126784E-1,-8.378415E-2,-1.5688086E0,-1.1897797E-1,2.8223315E-1,-2.2144288E-2,1.5253026E0,-5.374643E-1,1.2739983E-1,1.5009379E-2,6.306965E-1,1.7168252E0,-5.447611E-1,2.8322516E-2,1.498433E-1,-1.09651186E-1,3.5714224E-2,-6.645179E-2,1.1195754E-1,-1.9524555E-1,-6.0113586E-2,-1.7212143E-2,1.0727042E-1,-2.4463465E-3,2.5808698E-1,2.0586316E-1,3.4398347E-2,-6.5652244E-2,7.445084E-2,1.364306E-1,-3.3450958E-3,1.1171079E-1,-1.3413926E-2,4.835583E-2,2.3346901E-1,2.7875397E-1,1.8152075E-2,4.1725032E-2,-8.025047E-2],"categories":[],"categories_nodes":[],"categories_segments":[],"categories_sizes":[],"default_left":[0,0,1,0,0,1,0,0,0,0,0,1,0,0,0,0,0,0,0,0,0,1,0,0,0,0,0,0,0,0,0,0,0,0,0,0,0,0,0,0,0,0,0,0,0,0,0,0,0,0,0,0,0,0,0],"id":34,"left_children":[1,3,5,7,9,11,13,15,17,19,-1,21,23,25,27,29,31,33,35,37,-1,39,41,43,45,47,49,51,53,-1,-1,-1,-1,-1,-1,-1,-1,-1,-1,-1,-1,-1,-1,-1,-1,-1,-1,-1,-1,-1,-1,-1,-1,-1,-1],"loss_changes":[1.8589983E1,2.9665453E1,1.996335E1,3.2772354E1,2.3512705E1,2.2799467E1,3.193584E1,3.332942E1,5.927141E0,1.7145258E1,0E0,2.1507786E1,2.3569862E1,3.989285E1,5.476573E1,6.442921E1,1.4610861E1,4.2381353E0,2.167513E0,1.4813886E1,0E0,2.712633E1,4.9621525E0,2.658839E1,1.5564309E1,3.8613945E1,4.7009773E1,1.9220478E1,2.5378029E1,0E0,0E0,0E0,0E0,0E0,0E0,0E0,0E0,0E0,0E0,0E0,0E0,0E0,0E0,0E0,0E0,0E0,0E0,0E0,0E0,0E0,0E0,0E0,0E0,0E0,0E0],"parents":[2147483647,0,0,1,1,2,2,3,3,4,4,5,5,6,6,7,7,8,8,9,9,11,11,12,12,13,13,14,14,15,15,16,16,17,17,18,18,19,19,21,21,22,22,23,23,24,24,25,25,26,26,27,27,28,28],"right_children":[2,4,6,8,10,12,14,16,18,20,-1,22,24,26,28,30,32,34,36,38,-1,40,42,44,46,48,50,52,54,-1,-1,-1,-1,-1,-1,-1,-1,-1,-1,-1,-1,-1,-1,-1,-1,-1,-1,-1,-1,-1,-1,-1,-1,-1,-1],"split_conditions":[2.0408163E-2,1E0,8.3083336E1,1E0,4.9166665E0,2.75E0,1.2E2,3.25E0,1.2836363E0,3.4E2,3.3496743E-1,9.090909E-2,2.173913E-1,-5E0,2.2857144E0,1.0191667E0,3.9166667E0,1.5833334E0,1.395E0,1E0,2.8223315E-1,4.3333335E0,4.1E1,5.1E1,2.5E-1,5.882353E-2,1E0,1.6725E0,9.44E-1,2.8322516E-2,1.498433E-1,-1.09651186E-1,3.5714224E-2,-6.645179E-2,1.1195754E-1,-1.9524555E-1,-6.0113586E-2,-1.7212143E-2,1.0727042E-1,-2.4463465E-3,2.5808698E-1,2.0586316E-1,3.4398347E-2,-6.5652244E-2,7.445084E-2,1.364306E-1,-3.3450958E-3,1.1171079E-1,-1.3413926E-2,4.835583E-2,2.3346901E-1,2.7875397E-1,1.8152075E-2,4.1725032E-2,-8.025047E-2],"split_indices":[24,28,19,78,3,1,26,3,11,26,0,25,24,26,14,11,3,3,11,31,0,0,27,27,24,24,70,9,9,0,0,0,0,0,0,0,0,0,0,0,0,0,0,0,0,0,0,0,0,0,0,0,0,0,0],"split_type":[0,0,0,0,0,0,0,0,0,0,0,0,0,0,0,0,0,0,0,0,0,0,0,0,0,0,0,0,0,0,0,0,0,0,0,0,0,0,0,0,0,0,0,0,0,0,0,0,0,0,0,0,0,0,0],"sum_hessian":[5.749E3,4.77E2,5.272E3,2.45E2,2.32E2,4.737E3,5.35E2,2.33E2,1.2E1,2.31E2,1E0,4.49E3,2.47E2,4.24E2,1.11E2,2.06E2,2.7E1,4E0,8E0,2.3E2,1E0,4.482E3,8E0,1.7E2,7.7E1,2.33E2,1.91E2,1.1E1,1E2,1.44E2,6.2E1,1.6E1,1.1E1,3E0,1E0,5E0,3E0,2.21E2,9E0,4.479E3,3E0,5E0,3E0,1.56E2,1.4E1,8E0,6.9E1,2.7E1,2.06E2,1.77E2,1.4E1,6E0,5E0,2.1E1,7.9E1],"tree_param":{"num_deleted":"0","num_feature":"173","num_nodes":"55","size_leaf_vector":"1"}},{"base_weights":[2.5348768E-3,-1.4447514E-2,1.6982266E-1,-1.7971199E-2,5.7606506E-1,2.8970866E0,1.4880013E-1,-2.1026542E-2,6.4069504E-1,-8.563499E-2,1.9741987E0,8.946357E-2,3.2663584E-1,2.0756072E-1,-6.12818E-1,-1.8144505E-2,-1.2578299E0,-3.4214097E-1,1.6520427E0,-1.7444877E-1,8.047954E-1,-8.581441E-1,2.7895525E-1,-8.3925235E-1,2.5856316E-1,-1.1273086E0,-1.4264421E-1,-8.9148566E-4,-2.8084848E-2,-1.3153303E-1,-3.1266343E-2,1.1853521E-1,-5.6821145E-2,3.351337E-1,3.834785E-2,1.6163073E-1,-1.14149E-1,1.19526265E-2,-1.4067425E-1,-1.027205E-1,1.6478527E-1,2.4046409E-1,2.0645525E-2,-6.8236515E-2,-1.4964338E-1,1.5106796E-1,-5.0212484E-2],"categories":[],"categories_nodes":[],"categories_segments":[],"categories_sizes":[],"default_left":[1,0,0,1,0,0,0,1,1,0,0,0,0,0,0,1,0,0,0,0,0,0,0,0,0,0,0,0,0,0,0,0,0,0,0,0,0,0,0,0,0,0,0,0,0,0,0],"id":35,"left_children":[1,3,5,7,9,11,13,15,17,19,21,-1,-1,23,25,27,29,31,33,-1,35,37,-1,39,41,43,45,-1,-1,-1,-1,-1,-1,-1,-1,-1,-1,-1,-1,-1,-1,-1,-1,-1,-1,-1,-1],"loss_changes":[1.6337896E1,1.0874104E1,2.9955944E1,1.046011E1,2.884856E1,3.5591125E-2,2.3712093E1,1.8398584E1,2.4420965E1,3.3899998E1,2.5487453E1,0E0,0E0,2.6378103E1,9.031395E0,1.25014925E1,2.4091148E-1,5.162704E0,2.4582802E1,0E0,2.5536507E1,1.7771876E0,0E0,1.2444216E1,5.1838867E1,1.9352036E0,1.3239645E1,0E0,0E0,0E0,0E0,0E0,0E0,0E0,0E0,0E0,0E0,0E0,0E0,0E0,0E0,0E0,0E0,0E0,0E0,0E0,0E0],"parents":[2147483647,0,0,1,1,2,2,3,3,4,4,5,5,6,6,7,7,8,8,9,9,10,10,13,13,14,14,15,15,16,16,17,17,18,18,20,20,21,21,23,23,24,24,25,25,26,26],"right_children":[2,4,6,8,10,12,14,16,18,20,22,-1,-1,24,26,28,30,32,34,-1,36,38,-1,40,42,44,46,-1,-1,-1,-1,-1,-1,-1,-1,-1,-1,-1,-1,-1,-1,-1,-1,-1,-1,-1,-1],"split_conditions":[1.3888889E-2,1E0,1.4084507E-2,2.2333334E1,9.5E1,5E-1,4.6363635E0,2.175E1,4.5454547E-2,1.0191667E0,8.7E-1,8.946357E-2,3.2663584E-1,3.3333334E-1,3.2E0,3.3333334E-1,5E0,3E0,1.34375E0,-1.7444877E-1,1E0,2.3333333E0,2.7895525E-1,1.1783333E0,8E-1,2E1,3.25E0,-8.9148566E-4,-2.8084848E-2,-1.3153303E-1,-3.1266343E-2,1.1853521E-1,-5.6821145E-2,3.351337E-1,3.834785E-2,1.6163073E-1,-1.14149E-1,1.19526265E-2,-1.4067425E-1,-1.027205E-1,1.6478527E-1,2.4046409E-1,2.0645525E-2,-6.8236515E-2,-1.4964338E-1,1.5106796E-1,-5.0212484E-2],"split_indices":[25,128,25,23,26,4,15,23,24,11,9,0,0,0,1,7,0,12,10,0,28,0,0,11,1,21,1,0,0,0,0,0,0,0,0,0,0,0,0,0,0,0,0,0,0,0,0],"split_type":[0,0,0,0,0,0,0,0,0,0,0,0,0,0,0,0,0,0,0,0,0,0,0,0,0,0,0,0,0,0,0,0,0,0,0,0,0,0,0,0,0,0,0,0,0,0,0],"sum_hessian":[5.749E3,5.22E3,5.29E2,5.19E3,3E1,3E0,5.26E2,5.167E3,2.3E1,2.1E1,9E0,1E0,2E0,4.89E2,3.7E1,5.156E3,1.1E1,1.2E1,1.1E1,7E0,1.4E1,2E0,7E0,2.2E1,4.67E2,1.7E1,2E1,4.982E3,1.74E2,1E1,1E0,1E0,1.1E1,4E0,7E0,1E1,4E0,1E0,1E0,2.1E1,1E0,1E1,4.57E2,9E0,8E0,3E0,1.7E1],"tree_param":{"num_deleted":"0","num_feature":"173","num_nodes":"47","size_leaf_vector":"1"}},{"base_weights":[2.4359743E-3,1.7172597E-1,-1.2910708E-2,3.85509E-1,-5.4721903E-2,-2.8628388E-2,1.828715E-1,1.580631E-1,9.019782E-1,-1.0353437E-1,1.809272E0,-2.4998263E-2,-1.1310778E0,2.92302E-1,-3.6207774E-1,3.466818E-1,-5.901496E-1,2.5886607E-1,2.035701E0,-4.70425E-1,1.21979855E-1,3.4097347E-1,1.5660709E-1,-1.6460402E-2,-4.3183354E-1,-1.5173481E-1,-1.5624397E-1,1.5344799E-1,1.2308723E0,-8.2795537E-1,5.4490894E-1,1.8526405E-2,3.8669953E-1,-1.1541809E-1,3.3833887E-2,6.608897E-2,-1.6013376E-1,3.2709435E-1,-5.8373734E-3,1.4238355E-1,-6.8027206E-2,-5.7068653E-2,3.6260888E-2,-4.9971726E-2,5.419543E-2,-2.4256995E-3,1.0090325E-1,-8.1654154E-2,-1.4759091E-3,-3.4629982E-2,4.1054513E-2,3.711426E-2,-3.7447404E-2,-5.6986064E-2,1.8114094E-1,-1.01482645E-1,1.398176E-2,2.2881007E-1,-2.0492941E-2],"categories":[],"categories_nodes":[],"categories_segments":[],"categories_sizes":[],"default_left":[0,0,1,0,0,1,0,0,0,0,0,1,0,0,0,0,0,0,0,0,0,0,0,1,0,0,0,0,0,0,0,0,0,0,0,0,0,0,0,0,0,0,0,0,0,0,0,0,0,0,0,0,0,0,0,0,0,0,0],"id":36,"left_children":[1,3,5,7,9,11,13,15,17,19,21,23,25,27,29,31,33,35,37,39,41,-1,43,45,47,49,-1,51,53,55,57,-1,-1,-1,-1,-1,-1,-1,-1,-1,-1,-1,-1,-1,-1,-1,-1,-1,-1,-1,-1,-1,-1,-1,-1,-1,-1,-1,-1],"loss_changes":[1.4940947E1,2.3161419E1,1.6231535E1,2.8754757E1,2.138709E1,1.9509632E1,2.3482395E1,2.4478424E1,5.415634E1,1.8921886E1,1.5336184E1,1.6898432E1,6.5221424E0,4.2427162E1,2.8339119E1,7.770084E1,1.8719883E1,3.770275E1,7.0031555E1,3.555153E1,2.3874874E1,0E0,1.2824748E0,3.8146313E1,1.6033133E1,7.9857165E-1,0E0,3.3007755E1,4.4938736E1,8.099232E0,3.0532475E1,0E0,0E0,0E0,0E0,0E0,0E0,0E0,0E0,0E0,0E0,0E0,0E0,0E0,0E0,0E0,0E0,0E0,0E0,0E0,0E0,0E0,0E0,0E0,0E0,0E0,0E0,0E0,0E0],"parents":[2147483647,0,0,1,1,2,2,3,3,4,4,5,5,6,6,7,7,8,8,9,9,10,10,11,11,12,12,13,13,14,14,15,15,16,16,17,17,18,18,19,19,20,20,22,22,23,23,24,24,25,25,27,27,28,28,29,29,30,30],"right_children":[2,4,6,8,10,12,14,16,18,20,22,24,26,28,30,32,34,36,38,40,42,-1,44,46,48,50,-1,52,54,56,58,-1,-1,-1,-1,-1,-1,-1,-1,-1,-1,-1,-1,-1,-1,-1,-1,-1,-1,-1,-1,-1,-1,-1,-1,-1,-1,-1,-1],"split_conditions":[2.0408163E-2,1E0,1.1111111E-1,5.5E1,4.571429E0,1.0638298E-1,3.875E0,1.7666666E1,1.202E0,2E1,1.4333333E0,1.80125E0,1.475E1,2.0125E1,1.9158334E0,1E0,3.5E0,1.002E0,3.125E0,4E1,5.4545456E-1,3.4097347E-1,5.3333335E0,2.0333333E0,2.3809524E-2,5E-1,-1.5624397E-1,3.25E0,1.1975E0,5.5E0,1.844E0,1.8526405E-2,3.8669953E-1,-1.1541809E-1,3.3833887E-2,6.608897E-2,-1.6013376E-1,3.2709435E-1,-5.8373734E-3,1.4238355E-1,-6.8027206E-2,-5.7068653E-2,3.6260888E-2,-4.9971726E-2,5.419543E-2,-2.4256995E-3,1.0090325E-1,-8.1654154E-2,-1.4759091E-3,-3.4629982E-2,4.1054513E-2,3.711426E-2,-3.7447404E-2,-5.6986064E-2,1.8114094E-1,-1.01482645E-1,1.398176E-2,2.2881007E-1,-2.0492941E-2],"split_indices":[24,28,24,26,2,24,2,23,9,26,8,10,23,22,11,90,1,9,2,27,3,0,0,8,25,4,0,15,10,12,9,0,0,0,0,0,0,0,0,0,0,0,0,0,0,0,0,0,0,0,0,0,0,0,0,0,0,0,0],"split_type":[0,0,0,0,0,0,0,0,0,0,0,0,0,0,0,0,0,0,0,0,0,0,0,0,0,0,0,0,0,0,0,0,0,0,0,0,0,0,0,0,0,0,0,0,0,0,0,0,0,0,0,0,0,0,0,0,0,0,0],"sum_hessian":[5.749E3,4.77E2,5.272E3,2.45E2,2.32E2,4.881E3,3.91E2,1.71E2,7.4E1,2.27E2,5E0,4.866E3,1.5E1,3.26E2,6.5E1,1.37E2,3.4E1,4.8E1,2.6E1,8.6E1,1.41E2,2E0,3E0,4.767E3,9.9E1,5E0,1E1,2.85E2,4.1E1,4.3E1,2.2E1,1.32E2,5E0,2.1E1,1.3E1,4E1,8E0,1.6E1,1E1,8E0,7.8E1,3.6E1,1.05E2,1E0,2E0,4.732E3,3.5E1,5.1E1,4.8E1,4E0,1E0,2.02E2,8.3E1,1E1,3.1E1,3.6E1,7E0,6E0,1.6E1],"tree_param":{"num_deleted":"0","num_feature":"173","num_nodes":"59","size_leaf_vector":"1"}},{"base_weights":[2.3766868E-3,-7.067976E-4,8.05236E-1,-1.9273074E-2,1.4046487E-1,3.045773E0,1.3812928E-1,-2.3757959E-2,1.6001861E0,7.6641786E-1,5.248434E-2,3.4199834E-1,7.74466E-2,3.6754656E-1,-1.1314726E-1,-1.1425091E-2,-4.409554E-1,5.8879817E-1,5.112342E-1,2.2626774E-1,1.6033316E0,-4.9261096E-1,1.6998938E-1,1.1273022E-1,1.0550277E-1,-1.3748667E-3,2.2693582E-1,-4.9491752E-2,2.2782247E-1,3.194304E-1,-2.517334E-2,1.0478611E-1,-3.375945E-2,3.417234E-1,7.4496835E-2,-1.0426103E-1,-7.1901293E-3,3.110128E-2,-2.986685E-2,-2.4075642E-2,4.3669015E-2],"categories":[],"categories_nodes":[],"categories_segments":[],"categories_sizes":[],"default_left":[1,1,0,1,0,0,0,1,1,0,0,0,0,0,0,1,0,0,0,0,0,0,0,0,0,0,0,0,0,0,0,0,0,0,0,0,0,0,0,0,0],"id":37,"left_children":[1,3,5,7,9,11,13,15,17,19,21,-1,-1,23,-1,25,27,29,-1,31,33,35,37,-1,39,-1,-1,-1,-1,-1,-1,-1,-1,-1,-1,-1,-1,-1,-1,-1,-1],"loss_changes":[1.4235293E1,1.5018601E1,3.246219E1,3.6818295E1,3.6637512E1,1.6010704E0,5.658704E0,2.5983574E1,4.672E1,3.6706066E1,3.7553833E1,0E0,0E0,3.0664942E0,0E0,2.6036203E1,2.2403784E1,2.7084232E1,0E0,2.3980293E1,4.7277855E1,2.3989601E1,3.1949108E1,0E0,1.5959326E0,0E0,0E0,0E0,0E0,0E0,0E0,0E0,0E0,0E0,0E0,0E0,0E0,0E0,0E0,0E0,0E0],"parents":[2147483647,0,0,1,1,2,2,3,3,4,4,5,5,6,6,7,7,8,8,9,9,10,10,13,13,15,15,16,16,17,17,19,19,20,20,21,21,22,22,24,24],"right_children":[2,4,6,8,10,12,14,16,18,20,22,-1,-1,24,-1,26,28,30,-1,32,34,36,38,-1,40,-1,-1,-1,-1,-1,-1,-1,-1,-1,-1,-1,-1,-1,-1,-1,-1],"split_conditions":[2.6833334E0,8.3083336E1,3.7142856E0,2.1875E1,1.4916667E1,3.3333334E-1,3.3333334E-1,1.656E0,1E-1,1.4181818E1,1.4333333E1,3.4199834E-1,7.74466E-2,1.3791667E0,-1.1314726E-1,1.648E0,1E0,2.5E0,5.112342E-1,2.25E0,1.2E1,-1.5E1,1.2E2,1.1273022E-1,5.6E0,-1.3748667E-3,2.2693582E-1,-4.9491752E-2,2.2782247E-1,3.194304E-1,-2.517334E-2,1.0478611E-1,-3.375945E-2,3.417234E-1,7.4496835E-2,-1.0426103E-1,-7.1901293E-3,3.110128E-2,-2.986685E-2,-2.4075642E-2,4.3669015E-2],"split_indices":[8,19,2,22,23,4,4,9,25,23,20,0,0,11,0,9,112,0,0,1,20,26,26,0,1,0,0,0,0,0,0,0,0,0,0,0,0,0,0,0,0],"split_type":[0,0,0,0,0,0,0,0,0,0,0,0,0,0,0,0,0,0,0,0,0,0,0,0,0,0,0,0,0,0,0,0,0,0,0,0,0,0,0,0,0],"sum_hessian":[5.749E3,5.728E3,2.1E1,5.063E3,6.65E2,4E0,1.7E1,5.05E3,1.3E1,8.1E1,5.84E2,3E0,1E0,1.5E1,2E0,4.906E3,1.44E2,1.1E1,2E0,5E1,3.1E1,1.03E2,4.81E2,3E0,1.2E1,4.902E3,4E0,1.42E2,2E0,2E0,9E0,2E1,3E1,9E0,2.2E1,4.4E1,5.9E1,3.7E2,1.11E2,6E0,6E0],"tree_param":{"num_deleted":"0","num_feature":"173","num_nodes":"41","size_leaf_vector":"1"}},{"base_weights":[2.491209E-3,1.4537258E-1,-1.2558086E-2,1.3013536E-1,2.8700894E-1,-6.9579905E-1,-8.195388E-3,1.7533742E-1,-6.8175435E-1,-9.56275E-1,9.541209E-1,-2.4254516E-2,1.3830127E-1,-1.4569744E-3,4.6818894E-1,-1.3159846E0,-2.2105895E-1,-1.1238736E0,3.7218493E-1,1.4068706E-1,-4.2843904E-2,-1.0335014E-2,-2.986393E-1,9.335255E-1,6.87843E-2,-1.2487439E-2,5.5499204E-2,7.7206485E-2,-2.2839967E-2,-4.5769986E-2,-1.4418717E-1,1.2958853E-1,-6.1084013E-2,9.3320705E-2,-1.24348514E-1,1.279365E-1,-3.566634E-2,1.530721E-1,-1.4161824E-3,-2.3929236E-2,-1.878513E-1,-1.9418692E-2,1.4640415E-1,-6.952533E-2,1.7355865E-2],"categories":[],"categories_nodes":[],"categories_segments":[],"categories_sizes":[],"default_left":[0,0,0,0,0,0,1,0,0,0,0,1,0,0,0,0,0,0,0,0,0,0,0,0,0,0,0,0,0,0,0,0,0,0,0,0,0,0,0,0,0,0,0,0,0],"id":38,"left_children":[1,3,5,7,-1,9,11,13,15,17,19,21,23,25,27,29,31,33,35,-1,-1,37,39,41,43,-1,-1,-1,-1,-1,-1,-1,-1,-1,-1,-1,-1,-1,-1,-1,-1,-1,-1,-1,-1],"loss_changes":[1.2365842E1,2.237788E1,1.5503265E1,2.0157238E1,0E0,1.5094625E1,1.2168694E1,2.6819876E1,8.18251E0,6.875082E0,3.7325263E0,1.7798668E1,2.8184677E1,2.2320166E1,4.1453255E1,6.3661766E-1,1.1434552E1,7.557743E0,3.1010892E0,0E0,0E0,2.6188116E1,2.0646631E1,2.4813343E1,3.7824944E1,0E0,0E0,0E0,0E0,0E0,0E0,0E0,0E0,0E0,0E0,0E0,0E0,0E0,0E0,0E0,0E0,0E0,0E0,0E0,0E0],"parents":[2147483647,0,0,1,1,2,2,3,3,5,5,6,6,7,7,8,8,9,9,10,10,11,11,12,12,13,13,14,14,15,15,16,16,17,17,18,18,21,21,22,22,23,23,24,24],"right_children":[2,4,6,8,-1,10,12,14,16,18,20,22,24,26,28,30,32,34,36,-1,-1,38,40,42,44,-1,-1,-1,-1,-1,-1,-1,-1,-1,-1,-1,-1,-1,-1,-1,-1,-1,-1,-1,-1],"split_conditions":[3.125E-2,1E0,3.7037037E-2,4.6363635E0,2.8700894E-1,2.25E2,8.3083336E1,9.8E-1,1.388E0,2.1666667E0,1E0,2.75E0,1.3E1,1.85E2,3.090909E0,4.142857E0,2.0875E1,1.65E-1,3E0,1.4068706E-1,-4.2843904E-2,3.9215688E-2,1E0,2E0,1.4E1,-1.2487439E-2,5.5499204E-2,7.7206485E-2,-2.2839967E-2,-4.5769986E-2,-1.4418717E-1,1.2958853E-1,-6.1084013E-2,9.3320705E-2,-1.24348514E-1,1.279365E-1,-3.566634E-2,1.530721E-1,-1.4161824E-3,-2.3929236E-2,-1.878513E-1,-1.9418692E-2,1.4640415E-1,-6.952533E-2,1.7355865E-2],"split_indices":[24,51,24,15,0,26,19,11,9,8,0,1,22,26,3,14,22,11,0,0,0,24,50,12,21,0,0,0,0,0,0,0,0,0,0,0,0,0,0,0,0,0,0,0,0],"split_type":[0,0,0,0,0,0,0,0,0,0,0,0,0,0,0,0,0,0,0,0,0,0,0,0,0,0,0,0,0,0,0,0,0,0,0,0,0,0,0,0,0,0,0,0,0],"sum_hessian":[5.749E3,5.47E2,5.202E3,5.45E2,2E0,3.2E1,5.17E3,5.17E2,2.8E1,2.8E1,4E0,4.66E3,5.1E2,3.23E2,1.94E2,1.1E1,1.7E1,2.5E1,3E0,3E0,1E0,4.436E3,2.24E2,4E1,4.7E2,2.65E2,5.8E1,1.35E2,5.9E1,2E0,9E0,3E0,1.4E1,1E0,2.4E1,1E0,2E0,1E1,4.426E3,2.17E2,7E0,1.3E1,2.7E1,5.6E1,4.14E2],"tree_param":{"num_deleted":"0","num_feature":"173","num_nodes":"45","size_leaf_vector":"1"}},{"base_weights":[2.3180295E-3,-5.2395754E-4,7.422919E-1,5.201745E-3,-3.6761358E-1,2.8240008E0,1.22800976E-1,3.3786478E-3,1.7171342E0,-5.060425E-1,4.0022776E-1,3.1561476E-1,7.477074E-2,3.3581606E-1,-1.05421305E-1,2.3503853E-3,2.899333E-1,2.1656919E-1,5.466795E-2,2.0124632E-1,-7.668974E-1,1.0608138E0,-1.0009899E-1,1.0098612E-1,1.025855E-1,-1.3216226E-3,1.6298186E-2,1.05225086E-1,-8.400837E-2,6.295872E-2,-8.595713E-2,-2.633576E-2,1.9874877E-1,-2.1730302E-2,4.0781897E-2],"categories":[],"categories_nodes":[],"categories_segments":[],"categories_sizes":[],"default_left":[1,1,0,1,0,0,0,1,0,0,0,0,0,0,0,1,0,0,0,0,0,0,0,0,0,0,0,0,0,0,0,0,0,0,0],"id":39,"left_children":[1,3,5,7,9,11,13,15,17,19,21,-1,-1,23,-1,25,-1,-1,-1,27,29,31,-1,-1,33,-1,-1,-1,-1,-1,-1,-1,-1,-1,-1],"loss_changes":[1.2092616E1,1.2043387E1,2.8024406E1,1.7602985E1,9.556177E0,1.088295E0,4.8670125E0,1.677905E1,1.9661598E0,1.3991819E1,1.4020613E1,0E0,0E0,2.4117303E0,0E0,1.4094902E1,0E0,0E0,0E0,1.9493687E1,7.6591454E0,1.279417E1,0E0,0E0,1.3579489E0,0E0,0E0,0E0,0E0,0E0,0E0,0E0,0E0,0E0,0E0],"parents":[2147483647,0,0,1,1,2,2,3,3,4,4,5,5,6,6,7,7,8,8,9,9,10,10,13,13,15,15,19,19,20,20,21,21,24,24],"right_children":[2,4,6,8,10,12,14,16,18,20,22,-1,-1,24,-1,26,-1,-1,-1,28,30,32,-1,-1,34,-1,-1,-1,-1,-1,-1,-1,-1,-1,-1],"split_conditions":[2.6833334E0,2.128E0,3.7142856E0,3.3333334E-1,2.5E-1,3.3333334E-1,3.3333334E-1,5.25E0,5.3333335E0,-9.5E1,2.7272728E-1,3.1561476E-1,7.477074E-2,1.3791667E0,-1.05421305E-1,2.909091E0,2.899333E-1,2.1656919E-1,5.466795E-2,9.090909E-2,1.6033334E0,3.5E0,-1.0009899E-1,1.0098612E-1,5.6E0,-1.3216226E-3,1.6298186E-2,1.05225086E-1,-8.400837E-2,6.295872E-2,-8.595713E-2,-2.633576E-2,1.9874877E-1,-2.1730302E-2,4.0781897E-2],"split_indices":[8,9,2,25,7,4,4,3,0,26,7,0,0,11,0,3,0,0,0,7,8,13,0,0,1,0,0,0,0,0,0,0,0,0,0],"split_type":[0,0,0,0,0,0,0,0,0,0,0,0,0,0,0,0,0,0,0,0,0,0,0,0,0,0,0,0,0,0,0,0,0,0,0],"sum_hessian":[5.749E3,5.728E3,2.1E1,5.641E3,8.7E1,4E0,1.7E1,5.636E3,5E0,7.4E1,1.3E1,3E0,1E0,1.5E1,2E0,5.635E3,1E0,3E0,2E0,2E1,5.4E1,9E0,4E0,3E0,1.2E1,5.138E3,4.97E2,1.1E1,9E0,3E0,5.1E1,4E0,5E0,6E0,6E0],"tree_param":{"num_deleted":"0","num_feature":"173","num_nodes":"35","size_leaf_vector":"1"}},{"base_weights":[2.2691134E-3,7.2573493E-3,-4.2094582E-1,3.0940326E-3,9.8897725E-1,-9.051933E-1,2.1189347E-2,7.120395E-3,-1.0786109E0,-5.2045226E-1,1.6411219E0,-5.524052E-2,-1.2353818E0,-2.4571364E-1,2.2178416E0,-8.557811E-3,2.0355086E-1,8.6680576E-2,-1.329013E0,7.8709535E-2,-8.1968695E-1,2.6086173E0,2.2661236E-1,6.280345E-1,-8.6412245E-1,-1.3528645E0,6.7461826E-2,8.5606337E-1,-4.7303322E-1,-7.419312E-3,3.0065843E-1,-2.8268594E-4,-6.26606E-2,1.0492812E-2,1.311421E-1,-1.4791471E-1,-6.1280828E-2,-9.3120866E-2,-7.527849E-3,3.2106808E-1,1.3357584E-2,1.7323552E-1,-5.6402784E-2,9.79601E-2,-5.6489896E-2,-1.21950306E-1,-2.2070106E-2,-1.4621025E-1,-1.7365582E-2,-6.0937595E-2,1.2710264E-1,-6.1760712E-2,9.376185E-2],"categories":[],"categories_nodes":[],"categories_segments":[],"categories_sizes":[],"default_left":[1,1,0,1,0,0,0,1,0,0,0,0,0,0,0,1,0,0,0,0,0,0,0,0,0,0,0,0,0,0,0,0,0,0,0,0,0,0,0,0,0,0,0,0,0,0,0,0,0,0,0,0,0],"id":40,"left_children":[1,3,5,7,9,11,13,15,17,19,21,23,25,27,29,31,33,-1,35,-1,37,39,41,43,45,47,-1,49,51,-1,-1,-1,-1,-1,-1,-1,-1,-1,-1,-1,-1,-1,-1,-1,-1,-1,-1,-1,-1,-1,-1,-1,-1],"loss_changes":[1.2141857E1,2.3228647E1,1.4364071E1,2.466324E1,2.4478922E1,8.912386E0,2.1651505E1,1.73742E1,1.1381855E1,3.7752802E0,2.267389E1,6.069587E0,6.073681E0,8.669978E0,7.4543686E0,1.8505201E1,4.5424313E1,0E0,1.1365738E0,0E0,5.110235E-1,1.447245E1,1.0501102E1,3.0697482E0,8.7415123E-1,2.5800133E0,0E0,4.423151E0,6.2894964E0,0E0,0E0,0E0,0E0,0E0,0E0,0E0,0E0,0E0,0E0,0E0,0E0,0E0,0E0,0E0,0E0,0E0,0E0,0E0,0E0,0E0,0E0,0E0,0E0],"parents":[2147483647,0,0,1,1,2,2,3,3,4,4,5,5,6,6,7,7,8,8,9,9,10,10,11,11,12,12,13,13,14,14,15,15,16,16,18,18,20,20,21,21,22,22,23,23,24,24,25,25,27,27,28,28],"right_children":[2,4,6,8,10,12,14,16,18,20,22,24,26,28,30,32,34,-1,36,-1,38,40,42,44,46,48,-1,50,52,-1,-1,-1,-1,-1,-1,-1,-1,-1,-1,-1,-1,-1,-1,-1,-1,-1,-1,-1,-1,-1,-1,-1,-1],"split_conditions":[5.125E0,2.2333334E1,2.5E1,2.175E1,3E0,9.65E-1,1E0,1.8518519E-2,2E0,4.3636365E0,5E0,-4.5E1,2.0625E0,2.090909E0,4E0,2.26E1,2.0375E1,8.6680576E-2,4.4E0,7.8709535E-2,3.3333333E0,5.090909E0,1.44125E0,7E0,2.5714285E0,5.125E0,6.7461826E-2,4.3333335E0,1.96E0,-7.419312E-3,3.0065843E-1,-2.8268594E-4,-6.26606E-2,1.0492812E-2,1.311421E-1,-1.4791471E-1,-6.1280828E-2,-9.3120866E-2,-7.527849E-3,3.2106808E-1,1.3357584E-2,1.7323552E-1,-5.6402784E-2,9.79601E-2,-5.6489896E-2,-1.21950306E-1,-2.2070106E-2,-1.4621025E-1,-1.7365582E-2,-6.0937595E-2,1.2710264E-1,-6.1760712E-2,9.376185E-2],"split_indices":[14,23,26,23,1,8,54,25,0,15,12,26,11,3,1,21,22,0,1,0,0,15,10,13,2,2,0,12,8,0,0,0,0,0,0,0,0,0,0,0,0,0,0,0,0,0,0,0,0,0,0,0,0],"split_type":[0,0,0,0,0,0,0,0,0,0,0,0,0,0,0,0,0,0,0,0,0,0,0,0,0,0,0,0,0,0,0,0,0,0,0,0,0,0,0,0,0,0,0,0,0,0,0,0,0,0,0,0,0],"sum_hessian":[5.749E3,5.683E3,6.6E1,5.66E3,2.3E1,3.1E1,3.5E1,5.64E3,2E1,7E0,1.6E1,9E0,2.2E1,3.2E1,3E0,5.224E3,4.16E2,2E0,1.8E1,1E0,6E0,9E0,7E0,5E0,4E0,2.1E1,1E0,5E0,2.7E1,1E0,2E0,5.177E3,4.7E1,3.83E2,3.3E1,1.4E1,4E0,5E0,1E0,7E0,2E0,2E0,5E0,4E0,1E0,2E0,2E0,1.9E1,2E0,1E0,4E0,2.5E1,2E0],"tree_param":{"num_deleted":"0","num_feature":"173","num_nodes":"53","size_leaf_vector":"1"}},{"base_weights":[2.1427772E-3,5.3302245E-3,-5.6758076E-1,-7.234802E-3,2.1120477E-1,-7.6100343E-1,9.7662884E-1,-1.07034715E-2,1.4285505E0,7.7226037E-1,-8.19311E-2,2.6384532E-1,-9.8550713E-1,1.483305E-1,-2.7169956E-2,-1.2194114E-2,1.9953951E-1,-1.0033867E0,2.2584703E0,-7.258317E-1,9.088821E-1,-3.736355E-1,4.028705E-1,-5.049986E-1,7.74517E-2,-1.3267443E0,-2.6936257E-1,-1.4827555E-3,9.97473E-2,-1.3654448E-1,4.139367E-3,3.6527148E-1,1.3368303E-2,-1.09383024E-1,-1.3906716E-2,2.7474552E-1,7.057809E-2,-5.4476388E-2,2.101705E-1,2.613823E-1,1.2852666E-2,-8.755458E-3,-6.699433E-2,-3.7281872E-3,-1.4102231E-1,3.4467842E-2,-8.295311E-2],"categories":[],"categories_nodes":[],"categories_segments":[],"categories_sizes":[],"default_left":[1,1,0,1,0,0,0,1,0,0,0,0,0,0,0,1,0,0,0,0,0,1,0,0,0,0,0,0,0,0,0,0,0,0,0,0,0,0,0,0,0,0,0,0,0,0,0],"id":41,"left_children":[1,3,5,7,9,11,13,15,17,19,21,23,25,-1,-1,27,-1,29,31,33,35,37,39,41,-1,43,45,-1,-1,-1,-1,-1,-1,-1,-1,-1,-1,-1,-1,-1,-1,-1,-1,-1,-1,-1,-1],"loss_changes":[1.0444817E1,1.4795547E1,1.0301143E1,2.68639E1,5.417243E1,6.932411E0,2.9330053E0,1.6109556E1,2.8504185E1,2.378762E1,3.0838398E1,2.7468903E0,5.5076275E0,0E0,0E0,1.43090315E1,0E0,1.5696058E0,2.9136425E1,2.0071688E0,3.6896202E1,5.875466E1,4.940207E1,1.4790905E-1,0E0,1.6697044E0,3.3816192E0,0E0,0E0,0E0,0E0,0E0,0E0,0E0,0E0,0E0,0E0,0E0,0E0,0E0,0E0,0E0,0E0,0E0,0E0,0E0,0E0],"parents":[2147483647,0,0,1,1,2,2,3,3,4,4,5,5,6,6,7,7,8,8,9,9,10,10,11,11,12,12,15,15,17,17,18,18,19,19,20,20,21,21,22,22,23,23,25,25,26,26],"right_children":[2,4,6,8,10,12,14,16,18,20,22,24,26,-1,-1,28,-1,30,32,34,36,38,40,42,-1,44,46,-1,-1,-1,-1,-1,-1,-1,-1,-1,-1,-1,-1,-1,-1,-1,-1,-1,-1,-1,-1],"split_conditions":[5E0,4.2E0,4.4166665E0,6E0,4.6E0,2.0875E1,4.3333335E0,3.3333334E-1,1.2857143E0,1.5E0,1.4366666E0,5.0833335E0,4E0,1.483305E-1,-2.7169956E-2,2.6833334E0,1.9953951E-1,2.3333333E0,3.2E0,4.125E0,7.8E-1,9.090909E-2,2.3333333E0,3E0,7.74517E-2,1.5E0,4.2857143E-1,-1.4827555E-3,9.97473E-2,-1.3654448E-1,4.139367E-3,3.6527148E-1,1.3368303E-2,-1.09383024E-1,-1.3906716E-2,2.7474552E-1,7.057809E-2,-5.4476388E-2,2.101705E-1,2.613823E-1,1.2852666E-2,-8.755458E-3,-6.699433E-2,-3.7281872E-3,-1.4102231E-1,3.4467842E-2,-8.295311E-2],"split_indices":[15,13,3,12,13,22,0,25,2,1,11,15,1,0,0,8,0,0,1,14,10,25,0,0,0,0,6,0,0,0,0,0,0,0,0,0,0,0,0,0,0,0,0,0,0,0,0],"split_type":[0,0,0,0,0,0,0,0,0,0,0,0,0,0,0,0,0,0,0,0,0,0,0,0,0,0,0,0,0,0,0,0,0,0,0,0,0,0,0,0,0,0,0,0,0,0,0],"sum_hessian":[5.749E3,5.718E3,3.1E1,5.39E3,3.28E2,2.8E1,3E0,5.378E3,1.2E1,1.12E2,2.16E2,5E0,2.3E1,2E0,1E0,5.375E3,3E0,3E0,9E0,9E0,1.03E2,1.35E2,8.1E1,2E0,3E0,1.5E1,8E0,5.362E3,1.3E1,2E0,1E0,5E0,4E0,5E0,4E0,9E0,9.4E1,1.27E2,8E0,8E0,7.3E1,1E0,1E0,1E0,1.4E1,4E0,4E0],"tree_param":{"num_deleted":"0","num_feature":"173","num_nodes":"47","size_leaf_vector":"1"}},{"base_weights":[2.124262E-3,-1.8268316E-3,4.4367543E-1,2.7909426E-3,-3.9605913E-1,-5.455264E-1,1.0994678E0,-9.20259E-4,1.3061761E0,1.4199243E0,-7.077043E-1,7.796333E-1,-7.260502E-1,1.6898407E0,1.5204054E-1,3.837316E-3,-4.5722148E-1,-1.4173107E-1,2.0436969E0,-4.23131E-2,2.8906243E0,-1.6903951E0,-3.484469E-1,1.09474234E-1,7.470763E-3,-1.4800753E-1,-2.641867E-1,6.268003E-1,3.0731711E0,-1.0911666E0,1.3735275E0,-7.129812E-5,1.3316037E-1,9.982891E-2,-8.998865E-2,3.0784747E-1,-2.2764279E-2,4.339386E-2,-1.2117858E-1,7.3818125E-2,3.24419E-1,-1.9109964E-1,-1.709911E-2,7.501182E-2,-9.046548E-2,7.5645156E-2,-5.1852565E-2,2.0289926E-1,-6.646218E-2,3.711918E-1,-6.990273E-2,-1.9144258E-1,-3.7897773E-2,2.3496269E-1,5.131625E-2],"categories":[],"categories_nodes":[],"categories_segments":[],"categories_sizes":[],"default_left":[1,1,0,1,0,0,0,1,0,0,0,0,0,0,0,1,0,0,0,0,0,0,0,0,0,0,0,0,0,0,0,0,0,0,0,0,0,0,0,0,0,0,0,0,0,0,0,0,0,0,0,0,0,0,0],"id":42,"left_children":[1,3,5,7,9,11,13,15,17,19,21,23,25,27,29,31,33,-1,35,37,39,41,43,-1,-1,-1,45,47,49,51,53,-1,-1,-1,-1,-1,-1,-1,-1,-1,-1,-1,-1,-1,-1,-1,-1,-1,-1,-1,-1,-1,-1,-1,-1],"loss_changes":[1.0032318E1,1.0377816E1,3.368405E1,2.72584E1,3.835709E1,5.589734E0,1.708247E1,1.2202141E1,3.5034603E1,2.1627434E1,1.9534204E1,5.8459985E-1,6.2258587E0,2.6013927E1,