{"learner":{"attributes":{"scikit_learn":"{\"_estimator_type\": \"regressor\"}"},"feature_names":["rolling_saves_3","rolling_saves_5","rolling_saves_8","rolling_saves_12","rolling_opponent_xg_3","rolling_opponent_xg_5","rolling_opponent_xg_8","rolling_opponent_xg_12","rolling_opponent_deep_3","rolling_opponent_deep_5","rolling_opponent_deep_8","rolling_opponent_deep_12","def_atk_diff","value","was_home_0","was_home_1","unique_id_5","unique_id_14","unique_id_15","unique_id_39","unique_id_46","unique_id_47","unique_id_51","unique_id_55","unique_id_73","unique_id_75","unique_id_84","unique_id_91","unique_id_109","unique_id_142","unique_id_146","unique_id_152","unique_id_154","unique_id_155","unique_id_183","unique_id_185","unique_id_201","unique_id_204","unique_id_209","unique_id_227","unique_id_235","unique_id_242","unique_id_248","unique_id_280","unique_id_283","unique_id_293","unique_id_294","unique_id_304","unique_id_308","unique_id_310","unique_id_325","unique_id_344","unique_id_347","unique_id_358","unique_id_367","unique_id_374","unique_id_383","unique_id_396","unique_id_412","unique_id_413","unique_id_414","unique_id_427","unique_id_443","unique_id_445","unique_id_454","unique_id_465","unique_id_466","unique_id_469","unique_id_479","unique_id_488","unique_id_508","unique_id_510","unique_id_513","unique_id_521","unique_id_522","unique_id_536","unique_id_554","unique_id_556","unique_id_568","unique_id_581","unique_id_599","unique_id_615","unique_id_624","unique_id_639","unique_id_641","unique_id_660","unique_id_668","unique_id_669","unique_id_704","unique_id_716","unique_id_721","unique_id_752","unique_id_767","unique_id_770","unique_id_785","unique_id_786","unique_id_789","unique_id_798","unique_id_802","unique_id_812","unique_id_820","unique_id_822","unique_id_832","unique_id_836","unique_id_855","unique_id_861","unique_id_869","unique_id_872","unique_id_884","unique_id_887","unique_id_897","unique_id_915","unique_id_917","unique_id_928","unique_id_945","unique_id_952","unique_id_960","unique_id_962","unique_id_972","unique_id_973","unique_id_982","unique_id_990","unique_id_991","unique_id_997","unique_id_1017","unique_id_1019","unique_id_1022","unique_id_1037","unique_id_1047","unique_id_1077","unique_id_1078","unique_id_1083","unique_id_1086","unique_id_1095","unique_id_1101","unique_id_1103","unique_id_1105","unique_id_1106","unique_id_1110","unique_id_1136","unique_id_1140","unique_id_1145","unique_id_1149","unique_id_1160","unique_id_1162","unique_id_1170","unique_id_1172","unique_id_1182","unique_id_1189","unique_id_1193","unique_id_1203","unique_id_1214","unique_id_1217","unique_id_1225","unique_id_1228","unique_id_1241","unique_id_1247","unique_id_1255","unique_id_1267","unique_id_1273","unique_id_1295"],"feature_types":["float","float","float","float","float","float","float","float","float","float","float","float","int","int","i","i","i","i","i","i","i","i","i","i","i","i","i","i","i","i","i","i","i","i","i","i","i","i","i","i","i","i","i","i","i","i","i","i","i","i","i","i","i","i","i","i","i","i","i","i","i","i","i","i","i","i","i","i","i","i","i","i","i","i","i","i","i","i","i","i","i","i","i","i","i","i","i","i","i","i","i","i","i","i","i","i","i","i","i","i","i","i","i","i","i","i","i","i","i","i","i","i","i","i","i","i","i","i","i","i","i","i","i","i","i","i","i","i","i","i","i","i","i","i","i","i","i","i","i","i","i","i","i","i","i","i","i","i","i","i","i","i","i","i","i","i","i","i","i","i","i"],"gradient_booster":{"model":{"gbtree_model_param":{"num_parallel_tree":"1","num_trees":"100"},"iteration_indptr":[0,1,2,3,4,5,6,7,8,9,10,11,12,13,14,15,16,17,18,19,20,21,22,23,24,25,26,27,28,29,30,31,32,33,34,35,36,37,38,39,40,41,42,43,44,45,46,47,48,49,50,51,52,53,54,55,56,57,58,59,60,61,62,63,64,65,66,67,68,69,70,71,72,73,74,75,76,77,78,79,80,81,82,83,84,85,86,87,88,89,90,91,92,93,94,95,96,97,98,99,100],"tree_info":[0,0,0,0,0,0,0,0,0,0,0,0,0,0,0,0,0,0,0,0,0,0,0,0,0,0,0,0,0,0,0,0,0,0,0,0,0,0,0,0,0,0,0,0,0,0,0,0,0,0,0,0,0,0,0,0,0,0,0,0,0,0,0,0,0,0,0,0,0,0,0,0,0,0,0,0,0,0,0,0,0,0,0,0,0,0,0,0,0,0,0,0,0,0,0,0,0,0,0,0],"trees":[{"base_weights":[9.2414805E-9,-8.542802E-1,2.535301E0,-8.544975E-2,7.2984397E-3,2.754451E0,2.011162E0,2.4000924E0,2.9466147E0,1.6887282E0,2.7536068E0,2.7223306E0,1.7371536E0,2.324104E0,3.0319104E0,1.5811306E0,3.0938792E0,3.011419E0,9.803915E-1,2.4754141E-1,3.6623925E-1,1.6130643E-1,4.5167753E-1,6.5536875E-1,1.9393909E-1,2.9277232E-1,4.5368645E-1,1.4069563E-1,2.173641E-1,6.965447E-2,3.9493456E-1,2.7995443E-1,5.627723E-1,5.1935583E-2,1.6965447E-1],"categories":[],"categories_nodes":[],"categories_segments":[],"categories_sizes":[],"default_left":[0,0,0,0,0,0,0,0,0,0,0,0,0,0,0,0,0,0,0,0,0,0,0,0,0,0,0,0,0,0,0,0,0,0,0],"id":0,"left_children":[1,3,5,-1,-1,7,9,11,13,15,17,19,21,23,25,27,29,31,33,-1,-1,-1,-1,-1,-1,-1,-1,-1,-1,-1,-1,-1,-1,-1,-1],"loss_changes":[1.3328686E4,9.902344E-1,1.7261523E2,0E0,0E0,6.721973E1,1.05708374E2,7.837085E1,3.0280762E1,4.4094055E1,6.0135376E1,5.1284424E1,3.7553925E1,1.3210849E2,8.314746E1,2.8211365E1,4.236757E1,5.0764282E1,5.3921623E0,0E0,0E0,0E0,0E0,0E0,0E0,0E0,0E0,0E0,0E0,0E0,0E0,0E0,0E0,0E0,0E0],"parents":[2147483647,0,0,1,1,2,2,5,5,6,6,7,7,8,8,9,9,10,10,11,11,12,12,13,13,14,14,15,15,16,16,17,17,18,18],"right_children":[2,4,6,-1,-1,8,10,12,14,16,18,20,22,24,26,28,30,32,34,-1,-1,-1,-1,-1,-1,-1,-1,-1,-1,-1,-1,-1,-1,-1,-1],"split_conditions":[3.3333334E-1,4E-1,1.8552496E0,-8.544975E-2,7.2984397E-3,-1E1,4.6E1,1E0,4.4E1,1E0,5E0,4E0,1.1E1,7.136154E-1,1.8884465E0,2.6486967E0,1.7637231E0,1E0,5.6666665E0,2.4754141E-1,3.6623925E-1,1.6130643E-1,4.5167753E-1,6.5536875E-1,1.9393909E-1,2.9277232E-1,4.5368645E-1,1.4069563E-1,2.173641E-1,6.965447E-2,3.9493456E-1,2.7995443E-1,5.627723E-1,5.1935583E-2,1.6965447E-1],"split_indices":[0,1,5,0,0,12,13,14,13,24,0,0,9,5,7,4,7,40,0,0,0,0,0,0,0,0,0,0,0,0,0,0,0,0,0],"split_type":[0,0,0,0,0,0,0,0,0,0,0,0,0,0,0,0,0,0,0,0,0,0,0,0,0,0,0,0,0,0,0,0,0,0,0],"sum_hessian":[6.152E3,4.602E3,1.55E3,4.601E3,1E0,1.09E3,4.6E2,3.88E2,7.02E2,3.23E2,1.37E2,2.59E2,1.29E2,8.8E1,6.14E2,3.02E2,2.1E1,1.19E2,1.8E1,2.08E2,5.1E1,1.25E2,4E0,6E0,8.2E1,5.77E2,3.7E1,2.36E2,6.6E1,6E0,1.5E1,1.12E2,7E0,1.2E1,6E0],"tree_param":{"num_deleted":"0","num_feature":"161","num_nodes":"35","size_leaf_vector":"1"}},{"base_weights":[7.5271016E-4,-7.688691E-1,2.2848072E0,-7.690664E-2,6.9335164E-3,2.481593E0,1.8141389E0,1.253635E0,2.5307806E0,1.5223943E0,2.4859586E0,5.330852E-1,1.8318814E0,2.4969559E0,3.7643151E0,1.4241992E0,2.805609E0,2.7173E0,8.94015E-1,1.122446E-1,-8.059855E-2,1.1599487E-1,4.153236E-1,2.1830884E-1,2.6452672E-1,5.3383136E-1,1.4831242E-1,1.5898478E-1,8.706623E-2,3.9692864E-2,3.4906957E-1,1.7739664E-1,3.1844229E-1,1.7784936E-2,1.2969576E-1],"categories":[],"categories_nodes":[],"categories_segments":[],"categories_sizes":[],"default_left":[0,0,0,0,0,0,0,0,0,0,0,0,0,0,0,0,0,0,0,0,0,0,0,0,0,0,0,0,0,0,0,0,0,0,0],"id":1,"left_children":[1,3,5,-1,-1,7,9,11,13,15,17,19,21,23,25,27,29,31,33,-1,-1,-1,-1,-1,-1,-1,-1,-1,-1,-1,-1,-1,-1,-1,-1],"loss_changes":[1.0817858E4,8.14209E-1,1.3915234E2,0E0,0E0,6.2723633E1,8.657129E1,1.7356285E1,3.4327637E1,3.6830017E1,4.8393555E1,1.7477783E1,3.2617516E1,4.1845703E1,8.543796E1,2.6398682E1,3.491783E1,4.722931E1,5.2522354E0,0E0,0E0,0E0,0E0,0E0,0E0,0E0,0E0,0E0,0E0,0E0,0E0,0E0,0E0,0E0,0E0],"parents":[2147483647,0,0,1,1,2,2,5,5,6,6,7,7,8,8,9,9,10,10,11,11,12,12,13,13,14,14,15,15,16,16,17,17,18,18],"right_children":[2,4,6,-1,-1,8,10,12,14,16,18,20,22,24,26,28,30,32,34,-1,-1,-1,-1,-1,-1,-1,-1,-1,-1,-1,-1,-1,-1,-1,-1],"split_conditions":[3.3333334E-1,4E-1,1.8552496E0,-7.690664E-2,6.9335164E-3,-2.25E2,4.6E1,3.090909E0,1.3E1,1E0,5E0,2.8888888E0,1.7031125E0,-1E1,1.7939883E0,1.175E1,1.7540249E0,1.730347E0,0E0,1.122446E-1,-8.059855E-2,1.1599487E-1,4.153236E-1,2.1830884E-1,2.6452672E-1,5.3383136E-1,1.4831242E-1,1.5898478E-1,8.706623E-2,3.9692864E-2,3.4906957E-1,1.7739664E-1,3.1844229E-1,1.7784936E-2,1.2969576E-1],"split_indices":[0,1,5,0,0,12,13,3,8,24,0,3,5,12,4,9,7,7,12,0,0,0,0,0,0,0,0,0,0,0,0,0,0,0,0],"split_type":[0,0,0,0,0,0,0,0,0,0,0,0,0,0,0,0,0,0,0,0,0,0,0,0,0,0,0,0,0,0,0,0,0,0,0],"sum_hessian":[6.152E3,4.602E3,1.55E3,4.601E3,1E0,1.09E3,4.6E2,4.3E1,1.047E3,3.23E2,1.37E2,2E1,2.3E1,1.022E3,2.5E1,3.02E2,2.1E1,1.19E2,1.8E1,1.4E1,6E0,1.9E1,4E0,3.33E2,6.89E2,1.4E1,1.1E1,2.31E2,7.1E1,5E0,1.6E1,4.1E1,7.8E1,7E0,1.1E1],"tree_param":{"num_deleted":"0","num_feature":"161","num_nodes":"35","size_leaf_vector":"1"}},{"base_weights":[1.1546102E-3,-6.919974E-1,2.0582647E0,-6.9217645E-2,6.586841E-3,2.3126247E0,1.7383482E0,2.2802804E0,6.541649E0,1.7037827E0,4.8724985E0,1.6973028E0,2.3832772E0,7.309002E-1,1.352442E-1,2.8711858E-1,1.7637211E0,6.9201225E-1,-1.6437443E-1,1.4032702E-1,3.0297497E-1,2.2661129E-1,3.0177307E-1,6.169569E-2,-8.376528E-2,3.4002492E-1,1.7070009E-1,-2.0566512E-2,-4.0896535E-3],"categories":[],"categories_nodes":[],"categories_segments":[],"categories_sizes":[],"default_left":[0,0,0,0,0,0,0,0,0,0,0,0,0,0,0,0,0,0,0,0,0,0,0,0,0,0,0,0,0],"id":2,"left_children":[1,3,5,-1,-1,7,9,11,13,15,17,19,21,-1,-1,23,25,-1,27,-1,-1,-1,-1,-1,-1,-1,-1,-1,-1],"loss_changes":[8.774926E3,6.70166E-1,1.2219141E2,0E0,0E0,1.0285498E2,6.6556885E1,4.7353516E1,1.4006714E1,5.765869E1,7.333284E1,4.7463745E1,4.7054688E1,0E0,0E0,1.1275584E1,5.5181396E1,0E0,6.884463E-3,0E0,0E0,0E0,0E0,0E0,0E0,0E0,0E0,0E0,0E0],"parents":[2147483647,0,0,1,1,2,2,5,5,6,6,7,7,8,8,9,9,10,10,11,11,12,12,15,15,16,16,18,18],"right_children":[2,4,6,-1,-1,8,10,12,14,16,18,20,22,-1,-1,24,26,-1,28,-1,-1,-1,-1,-1,-1,-1,-1,-1,-1],"split_conditions":[3.3333334E-1,4E-1,7.857143E0,-6.9217645E-2,6.586841E-3,1.2333333E1,2.75E2,-6.5E1,1.5333333E1,-2.7E2,4E0,8.2E0,1.7475386E0,7.309002E-1,1.352442E-1,1E0,9.19273E-1,6.9201225E-1,4.5E0,1.4032702E-1,3.0297497E-1,2.2661129E-1,3.0177307E-1,6.169569E-2,-8.376528E-2,3.4002492E-1,1.7070009E-1,-2.0566512E-2,-4.0896535E-3],"split_indices":[0,1,10,0,0,8,12,12,8,12,1,9,7,0,0,14,4,0,0,0,0,0,0,0,0,0,0,0,0],"split_type":[0,0,0,0,0,0,0,0,0,0,0,0,0,0,0,0,0,0,0,0,0,0,0,0,0,0,0,0,0],"sum_hessian":[6.152E3,4.602E3,1.55E3,4.601E3,1E0,8.6E2,6.9E2,8.55E2,5E0,6.84E2,6E0,1.31E2,7.24E2,4E0,1E0,2.8E1,6.56E2,4E0,2E0,1.09E2,2.2E1,6.15E2,1.09E2,2.2E1,6E0,2E1,6.36E2,1E0,1E0],"tree_param":{"num_deleted":"0","num_feature":"161","num_nodes":"29","size_leaf_vector":"1"}},{"base_weights":[1.5155309E-3,-6.228113E-1,1.8543684E0,-6.2297385E-2,6.257498E-3,2.0256257E0,1.4450495E0,8.206551E-1,2.058923E0,1.1898478E0,2.0337472E0,5.699177E-1,4.1713887E-1,2.0443504E0,4.727827E-1,1.099708E0,2.3772366E0,3.455021E-1,2.2065606E0,3.5860565E-2,3.3489838E-1,2.235183E-1,1.8630199E-1,1.0465306E-1,2.9298064E-1,3.193781E-2,3.1289726E-1,-3.263929E-2,2.9179147E-1,2.5399327E-1,9.02472E-2],"categories":[],"categories_nodes":[],"categories_segments":[],"categories_sizes":[],"default_left":[0,0,0,0,0,0,0,0,0,0,0,0,0,0,0,0,0,0,0,0,0,0,0,0,0,0,0,0,0,0,0],"id":3,"left_children":[1,3,5,-1,-1,7,9,11,13,15,17,19,-1,21,-1,23,25,27,29,-1,-1,-1,-1,-1,-1,-1,-1,-1,-1,-1,-1],"loss_changes":[7.118858E3,5.5163574E-1,1.0579639E2,0E0,0E0,4.2083496E1,6.683917E1,2.366743E1,3.1601074E1,3.2063812E1,3.949939E1,1.6416542E1,0E0,3.241162E1,0E0,2.6421783E1,3.3033936E1,2.5149862E1,5.2051086E1,0E0,0E0,0E0,0E0,0E0,0E0,0E0,0E0,0E0,0E0,0E0,0E0],"parents":[2147483647,0,0,1,1,2,2,5,5,6,6,7,7,8,8,9,9,10,10,11,11,13,13,15,15,16,16,17,17,18,18],"right_children":[2,4,6,-1,-1,8,10,12,14,16,18,20,-1,22,-1,24,26,28,30,-1,-1,-1,-1,-1,-1,-1,-1,-1,-1,-1,-1],"split_conditions":[3.3333334E-1,4E-1,1.8552496E0,-6.2297385E-2,6.257498E-3,-2.45E2,4.6E1,1.8252387E0,1E0,1E0,-1.25E2,5E0,4.1713887E-1,1E0,4.727827E-1,1E0,1.969364E0,1.2666667E1,1.65E2,3.5860565E-2,3.3489838E-1,2.235183E-1,1.8630199E-1,1.0465306E-1,2.9298064E-1,3.193781E-2,3.1289726E-1,-3.263929E-2,2.9179147E-1,2.5399327E-1,9.02472E-2],"split_indices":[0,1,5,0,0,12,13,6,78,24,12,2,0,14,0,17,5,8,12,0,0,0,0,0,0,0,0,0,0,0,0],"split_type":[0,0,0,0,0,0,0,0,0,0,0,0,0,0,0,0,0,0,0,0,0,0,0,0,0,0,0,0,0,0,0],"sum_hessian":[6.152E3,4.602E3,1.55E3,4.601E3,1E0,1.09E3,4.6E2,3E1,1.06E3,3.23E2,1.37E2,2.9E1,1E0,1.056E3,4E0,3.02E2,2.1E1,1.3E1,1.24E2,2.8E1,1E0,5.09E2,5.47E2,2.95E2,7E0,6E0,1.5E1,1.1E1,2E0,9.8E1,2.6E1],"tree_param":{"num_deleted":"0","num_feature":"161","num_nodes":"31","size_leaf_vector":"1"}},{"base_weights":[1.8451092E-3,-5.6007755E-1,1.6723757E0,-5.60561E-1,8.3292864E-2,1.8900161E0,1.3986901E0,-5.6068998E-2,-1.7588903E-1,1.8600394E0,5.8466997E0,1.3663815E0,4.3558903E0,5.9446245E-3,-3.232798E-2,1.3406509E0,1.9521654E0,6.539372E-1,1.191669E-1,1.1878715E0,1.7555381E0,6.2501307E0,-2.5314078E-2,1.0695013E-1,2.5791645E-1,1.8438302E-1,2.540111E-1,1.1519889E-1,4.308915E-1,1.2408217E-1,2.2086231E-1,6.952401E-1,1.7205255E-1],"categories":[],"categories_nodes":[],"categories_segments":[],"categories_sizes":[],"default_left":[0,0,0,0,0,0,0,0,0,0,0,0,0,0,0,0,0,0,0,0,0,0,0,0,0,0,0,0,0,0,0,0,0],"id":4,"left_children":[1,3,5,7,-1,9,11,-1,13,15,17,19,21,-1,-1,23,25,-1,-1,27,29,31,-1,-1,-1,-1,-1,-1,-1,-1,-1,-1,-1],"loss_changes":[5.776813E3,3.5683594E0,8.962256E1,1.2963867E-1,0E0,9.112793E1,5.99729E1,0E0,1.2327651E-1,3.829419E1,1.1553696E1,4.543091E1,6.2696457E1,0E0,0E0,4.1570175E1,4.143164E1,0E0,0E0,4.7896057E1,4.693335E1,3.9432373E0,0E0,0E0,0E0,0E0,0E0,0E0,0E0,0E0,0E0,0E0,0E0],"parents":[2147483647,0,0,1,1,2,2,3,3,5,5,6,6,8,8,9,9,10,10,11,11,12,12,15,15,16,16,19,19,20,20,21,21],"right_children":[2,4,6,8,-1,10,12,-1,14,16,18,20,22,-1,-1,24,26,-1,-1,28,30,32,-1,-1,-1,-1,-1,-1,-1,-1,-1,-1,-1],"split_conditions":[6E-1,5E-1,7.857143E0,4E-1,8.3292864E-2,1.2333333E1,2.75E2,-5.6068998E-2,3.3333334E-1,-6.5E1,1.5333333E1,4.6E1,4E0,5.9446245E-3,-3.232798E-2,8.2E0,1.7475386E0,6.539372E-1,1.191669E-1,6.125E0,9.333333E0,3.6666667E0,-2.5314078E-2,1.0695013E-1,2.5791645E-1,1.8438302E-1,2.540111E-1,1.1519889E-1,4.308915E-1,1.2408217E-1,2.2086231E-1,6.952401E-1,1.7205255E-1],"split_indices":[1,0,10,1,0,8,12,0,0,12,8,13,1,0,0,9,7,0,0,2,8,1,0,0,0,0,0,0,0,0,0,0,0],"split_type":[0,0,0,0,0,0,0,0,0,0,0,0,0,0,0,0,0,0,0,0,0,0,0,0,0,0,0,0,0,0,0,0,0],"sum_hessian":[6.152E3,4.604E3,1.548E3,4.603E3,1E0,8.59E2,6.89E2,4.601E3,2E0,8.54E2,5E0,6.83E2,6E0,1E0,1E0,1.31E2,7.23E2,4E0,1E0,4.71E2,2.12E2,4E0,2E0,1.09E2,2.2E1,6.14E2,1.09E2,4.67E2,4E0,1.01E2,1.11E2,3E0,1E0],"tree_param":{"num_deleted":"0","num_feature":"161","num_nodes":"33","size_leaf_vector":"1"}},{"base_weights":[2.1986028E-3,-5.0406957E-1,1.5072746E0,-5.045228E-1,7.912822E-2,1.6584723E0,1.1468375E0,-5.0463315E-2,-1.6709457E-1,7.721421E-1,1.6932896E0,9.360764E-1,1.6333575E0,5.6473943E-3,-3.071158E-2,5.770426E-1,3.1811213E0,5.689606E-1,1.6801965E0,8.526832E-1,2.0420802E0,1.4753313E0,3.7344737E0,1.3971673E-1,-6.209435E-3,3.9868432E-1,7.848387E-2,1.6488932E-1,2.799377E-1,6.958306E-2,1.3947932E-1,5.4448634E-2,3.0369923E-1,1.9594894E-1,8.4052294E-2,5.826852E-1,-3.3771165E-2],"categories":[],"categories_nodes":[],"categories_segments":[],"categories_sizes":[],"default_left":[0,0,0,0,0,0,0,0,0,0,0,0,0,0,0,0,0,0,0,0,0,0,0,0,0,0,0,0,0,0,0,0,0,0,0,0,0],"id":5,"left_children":[1,3,5,7,-1,9,11,-1,13,15,17,19,21,-1,-1,23,25,-1,27,29,31,33,35,-1,-1,-1,-1,-1,-1,-1,-1,-1,-1,-1,-1,-1,-1],"loss_changes":[4.6891743E3,3.1026611E0,8.2514404E1,8.703613E-2,0E0,3.2298584E1,4.57417E1,0E0,1.1125705E-1,1.8373953E1,4.5223633E1,2.8142303E1,4.031073E1,0E0,0E0,2.1577808E1,2.6631851E0,0E0,3.1994629E1,2.479396E1,3.112584E1,3.8308197E1,7.865276E1,0E0,0E0,0E0,0E0,0E0,0E0,0E0,0E0,0E0,0E0,0E0,0E0,0E0,0E0],"parents":[2147483647,0,0,1,1,2,2,3,3,5,5,6,6,8,8,9,9,10,10,11,11,12,12,15,15,16,16,18,18,19,19,20,20,21,21,22,22],"right_children":[2,4,6,8,-1,10,12,-1,14,16,18,20,22,-1,-1,24,26,-1,28,30,32,34,36,-1,-1,-1,-1,-1,-1,-1,-1,-1,-1,-1,-1,-1,-1],"split_conditions":[6E-1,5E-1,1.8552496E0,4E-1,7.912822E-2,-2.25E2,4.6E1,-5.0463315E-2,3.3333334E-1,1E0,-2.15E2,1E0,1E0,5.6473943E-3,-3.071158E-2,7.5E0,3.125E0,5.689606E-1,1.8303123E0,2.6486967E0,1.8227296E0,3.5E0,2.3189166E0,1.3971673E-1,-6.209435E-3,3.9868432E-1,7.848387E-2,1.6488932E-1,2.799377E-1,6.958306E-2,1.3947932E-1,5.4448634E-2,3.0369923E-1,1.9594894E-1,8.4052294E-2,5.826852E-1,-3.3771165E-2],"split_indices":[1,0,5,1,0,12,13,0,0,101,12,24,40,0,0,8,2,0,5,4,7,1,4,0,0,0,0,0,0,0,0,0,0,0,0,0,0],"split_type":[0,0,0,0,0,0,0,0,0,0,0,0,0,0,0,0,0,0,0,0,0,0,0,0,0,0,0,0,0,0,0,0,0,0,0,0,0],"sum_hessian":[6.152E3,4.604E3,1.548E3,4.603E3,1E0,1.088E3,4.6E2,4.601E3,2E0,4.2E1,1.046E3,3.23E2,1.37E2,1E0,1E0,4E1,2E0,2E0,1.044E3,3.02E2,2.1E1,1.29E2,8E0,1.7E1,2.3E1,1E0,1E0,1.018E3,2.6E1,2.36E2,6.6E1,9E0,1.2E1,7.2E1,5.7E1,5E0,3E0],"tree_param":{"num_deleted":"0","num_feature":"161","num_nodes":"37","size_leaf_vector":"1"}},{"base_weights":[2.4702467E-3,-4.540588E-1,1.3573385E0,-4.541808E-2,5.365023E-3,1.492221E0,1.0351822E0,1.4773687E0,3.931776E0,8.4421945E-1,1.4760283E0,1.2173967E0,1.6178415E0,3.907254E-2,4.5618412E-1,9.2826957E-1,-4.278237E-2,7.554543E-1,1.8398913E0,1.510135E-1,6.178354E-2,1.5953851E-1,3.9568776E-1,7.0682645E-2,1.8058152E-1,5.8694866E-2,-5.911231E-2,3.9448842E-1,3.7584968E-2,3.658373E-1,1.1338923E-1],"categories":[],"categories_nodes":[],"categories_segments":[],"categories_sizes":[],"default_left":[0,0,0,0,0,0,0,0,0,0,0,0,0,0,0,0,0,0,0,0,0,0,0,0,0,0,0,0,0,0,0],"id":6,"left_children":[1,3,5,-1,-1,7,9,11,13,15,17,19,21,-1,-1,23,25,27,29,-1,-1,-1,-1,-1,-1,-1,-1,-1,-1,-1,-1],"loss_changes":[3.8064727E3,3.093872E-1,6.585156E1,0E0,0E0,3.372119E1,3.7563263E1,3.768994E1,1.1604134E1,2.4194763E1,3.4792297E1,6.664014E1,3.0560669E1,0E0,0E0,5.6244232E1,1.0360867E1,5.6631996E1,1.12681854E2,0E0,0E0,0E0,0E0,0E0,0E0,0E0,0E0,0E0,0E0,0E0,0E0],"parents":[2147483647,0,0,1,1,2,2,5,5,6,6,7,7,8,8,9,9,10,10,11,11,12,12,15,15,16,16,17,17,18,18],"right_children":[2,4,6,-1,-1,8,10,12,14,16,18,20,22,-1,-1,24,26,28,30,-1,-1,-1,-1,-1,-1,-1,-1,-1,-1,-1,-1],"split_conditions":[3.3333334E-1,4E-1,1.8552496E0,-4.541808E-2,5.365023E-3,5.285714E0,4.6E1,-1E1,5.5E0,5.25E0,1.730347E0,1E0,1.2166667E1,3.907254E-2,4.5618412E-1,4.285714E0,4.5E1,1.4239705E0,1.8175899E0,1.510135E-1,6.178354E-2,1.5953851E-1,3.9568776E-1,7.0682645E-2,1.8058152E-1,5.8694866E-2,-5.911231E-2,3.9448842E-1,3.7584968E-2,3.658373E-1,1.1338923E-1],"split_indices":[0,1,5,0,0,2,13,12,0,1,7,14,11,0,0,2,13,7,7,0,0,0,0,0,0,0,0,0,0,0,0],"split_type":[0,0,0,0,0,0,0,0,0,0,0,0,0,0,0,0,0,0,0,0,0,0,0,0,0,0,0,0,0,0,0],"sum_hessian":[6.152E3,4.602E3,1.55E3,4.601E3,1E0,1.09E3,4.6E2,1.085E3,5E0,3.23E2,1.37E2,3.84E2,7.01E2,1E0,4E0,2.95E2,2.8E1,4.7E1,9E1,2.57E2,1.27E2,6.96E2,5E0,2.37E2,5.8E1,1.3E1,1.5E1,4E0,4.3E1,2.4E1,6.6E1],"tree_param":{"num_deleted":"0","num_feature":"161","num_nodes":"31","size_leaf_vector":"1"}},{"base_weights":[2.610898E-3,-4.083112E-1,1.2242336E0,-4.0871304E-2,7.208263E-2,1.3981278E0,1.0057218E0,1.3705208E0,5.099101E0,9.752136E-1,3.8431418E0,1.3334541E0,2.5010889E0,5.730973E-1,9.698715E-2,2.307809E0,9.295238E-1,6.27973E-1,4.4576767E-1,7.949481E-2,1.4251249E-1,4.06E-1,3.4402605E-2,3.087915E-1,1.950229E-2,9.0711795E-2,3.6967054E-1,1.4722852E-1,-3.8716663E-2],"categories":[],"categories_nodes":[],"categories_segments":[],"categories_sizes":[],"default_left":[0,0,0,0,0,0,0,0,0,0,0,0,0,0,0,0,0,0,0,0,0,0,0,0,0,0,0,0,0],"id":7,"left_children":[1,3,5,-1,-1,7,9,11,13,15,17,19,21,-1,-1,23,25,-1,27,-1,-1,-1,-1,-1,-1,-1,-1,-1,-1],"loss_changes":[3.0892554E3,2.3839111E0,5.7452637E1,0E0,0E0,8.088013E1,5.598181E1,3.2494873E1,1.0096558E1,3.9500793E1,5.5146706E1,3.984021E1,8.603262E1,0E0,0E0,3.565811E1,3.7753296E1,0E0,3.9901068E0,0E0,0E0,0E0,0E0,0E0,0E0,0E0,0E0,0E0,0E0],"parents":[2147483647,0,0,1,1,2,2,5,5,6,6,7,7,8,8,9,9,10,10,11,11,12,12,15,15,16,16,18,18],"right_children":[2,4,6,-1,-1,8,10,12,14,16,18,20,22,-1,-1,24,26,-1,28,-1,-1,-1,-1,-1,-1,-1,-1,-1,-1],"split_conditions":[6E-1,5E-1,7.857143E0,-4.0871304E-2,7.208263E-2,1.2333333E1,2.75E2,1E0,1.5333333E1,9.19273E-1,3.6666667E0,-6.5E1,1E0,5.730973E-1,9.698715E-2,8.666667E0,6.125E0,6.27973E-1,4E0,7.949481E-2,1.4251249E-1,4.06E-1,3.4402605E-2,3.087915E-1,1.950229E-2,9.0711795E-2,3.6967054E-1,1.4722852E-1,-3.8716663E-2],"split_indices":[1,0,10,0,0,8,12,76,8,4,1,12,14,0,0,9,2,0,0,0,0,0,0,0,0,0,0,0,0],"split_type":[0,0,0,0,0,0,0,0,0,0,0,0,0,0,0,0,0,0,0,0,0,0,0,0,0,0,0,0,0],"sum_hessian":[6.152E3,4.604E3,1.548E3,4.603E3,1E0,8.59E2,6.89E2,8.54E2,5E0,6.83E2,6E0,8.29E2,2.5E1,4E0,1E0,2.1E1,6.62E2,3E0,3E0,1.22E2,7.07E2,1.4E1,1.1E1,1.5E1,6E0,6.58E2,4E0,1E0,2E0],"tree_param":{"num_deleted":"0","num_feature":"161","num_nodes":"29","size_leaf_vector":"1"}},{"base_weights":[2.8193004E-3,-3.677992E-1,1.1027253E0,-3.6791015E-2,7.1403384E-3,2.6888052E-1,1.1419557E0,6.176508E-1,-3.9756286E-1,1.2045876E0,7.126379E-1,2.8804296E-1,2.4599752E0,-1.036406E0,2.6561841E-2,1.1724107E0,2.4746E0,6.1282086E-1,2.9193497E0,1.0903244E-2,3.7242317E-1,4.2239872E-1,8.096966E-3,-1.3559921E-1,1.6129201E-2,6.1399307E-2,-8.164202E-2,3.0801356E-1,1.1577723E-1,5.3574485E-1,1.238938E-1,1.13472275E-1,3.3170898E-2,5.600307E-2,5.138661E-1],"categories":[],"categories_nodes":[],"categories_segments":[],"categories_sizes":[],"default_left":[0,0,0,0,0,0,0,0,0,0,0,0,0,0,0,0,0,0,0,0,0,0,0,0,0,0,0,0,0,0,0,0,0,0,0],"id":8,"left_children":[1,3,5,-1,-1,7,9,11,13,15,17,19,21,23,25,27,29,31,33,-1,-1,-1,-1,-1,-1,-1,-1,-1,-1,-1,-1,-1,-1,-1,-1],"loss_changes":[2.5086484E3,2.5054932E-1,5.0429443E1,0E0,0E0,1.6748486E1,3.8964233E1,2.7831919E1,6.801259E0,4.9855347E1,4.0282043E1,2.4813608E1,2.9034138E1,4.046386E0,8.424378E0,3.1648682E1,1.0379149E2,2.661876E1,3.901069E1,0E0,0E0,0E0,0E0,0E0,0E0,0E0,0E0,0E0,0E0,0E0,0E0,0E0,0E0,0E0,0E0],"parents":[2147483647,0,0,1,1,2,2,5,5,6,6,7,7,8,8,9,9,10,10,11,11,12,12,13,13,14,14,15,15,16,16,17,17,18,18],"right_children":[2,4,6,-1,-1,8,10,12,14,16,18,20,22,24,26,28,30,32,34,-1,-1,-1,-1,-1,-1,-1,-1,-1,-1,-1,-1,-1,-1,-1,-1],"split_conditions":[3.3333334E-1,4E-1,-2.2E2,-3.6791015E-2,7.1403384E-3,1.914881E0,2.087461E0,9.75E0,3.5E0,1.4333333E1,1E0,1.8252387E0,1.526506E0,3.8333333E0,4.125E0,1.6666666E0,1.25E1,3.3333333E0,4.5E0,1.0903244E-2,3.7242317E-1,4.2239872E-1,8.096966E-3,-1.3559921E-1,1.6129201E-2,6.1399307E-2,-8.164202E-2,3.0801356E-1,1.1577723E-1,5.3574485E-1,1.238938E-1,1.13472275E-1,3.3170898E-2,5.600307E-2,5.138661E-1],"split_indices":[0,1,12,0,0,5,7,9,0,8,42,6,6,2,2,8,9,0,1,0,0,0,0,0,0,0,0,0,0,0,0,0,0,0,0],"split_type":[0,0,0,0,0,0,0,0,0,0,0,0,0,0,0,0,0,0,0,0,0,0,0,0,0,0,0,0,0,0,0,0,0,0,0],"sum_hessian":[6.152E3,4.602E3,1.55E3,4.601E3,1E0,7E1,1.48E3,4.6E1,2.4E1,1.29E3,1.9E2,4E1,6E0,9E0,1.5E1,1.26E3,3E1,1.83E2,7E0,3.9E1,1E0,3E0,3E0,7E0,2E0,9E0,6E0,8E0,1.252E3,8E0,2.2E1,6.3E1,1.2E2,4E0,3E0],"tree_param":{"num_deleted":"0","num_feature":"161","num_nodes":"35","size_leaf_vector":"1"}},{"base_weights":[2.934647E-3,-3.307433E-1,9.949192E-1,-3.3111025E-2,6.7933336E-2,1.1034052E0,7.3648906E-1,1.0896124E0,3.4114194E0,5.712372E-1,1.1191349E0,1.0550026E0,1.9899263E0,2.6794458E-2,3.9865255E-1,5.27058E-1,2.2504332E0,9.771324E-1,3.0459332E0,1.1193003E-1,3.423151E-2,4.061083E-1,1.135697E-1,4.4872563E-2,1.5570275E-1,5.501271E-2,4.9009013E-1,5.590656E-2,1.5195946E-1,4.9312243E-1,-5.4348685E-2],"categories":[],"categories_nodes":[],"categories_segments":[],"categories_sizes":[],"default_left":[0,0,0,0,0,0,0,0,0,0,0,0,0,0,0,0,0,0,0,0,0,0,0,0,0,0,0,0,0,0,0],"id":9,"left_children":[1,3,5,-1,-1,7,9,11,13,15,17,19,21,-1,-1,23,25,27,29,-1,-1,-1,-1,-1,-1,-1,-1,-1,-1,-1,-1],"loss_changes":[2.0369927E3,1.9317627E0,4.2615234E1,0E0,0E0,3.0950195E1,2.8511108E1,3.1677856E1,9.778816E0,2.2850006E1,3.4781906E1,4.754895E1,6.4388306E1,0E0,0E0,2.4876877E1,3.335674E1,2.863256E1,6.3583977E1,0E0,0E0,0E0,0E0,0E0,0E0,0E0,0E0,0E0,0E0,0E0,0E0],"parents":[2147483647,0,0,1,1,2,2,5,5,6,6,7,7,8,8,9,9,10,10,11,11,12,12,15,15,16,16,17,17,18,18],"right_children":[2,4,6,-1,-1,8,10,12,14,16,18,20,22,-1,-1,24,26,28,30,-1,-1,-1,-1,-1,-1,-1,-1,-1,-1,-1,-1],"split_conditions":[6E-1,5E-1,1.8552496E0,-3.3111025E-2,6.7933336E-2,5.285714E0,4.6E1,1.125E1,5.5E0,1E0,1E0,9.6E0,2.6666667E0,2.6794458E-2,3.9865255E-1,1E0,1.2E1,9.666667E0,2.3189166E0,1.1193003E-1,3.423151E-2,4.061083E-1,1.135697E-1,4.4872563E-2,1.5570275E-1,5.501271E-2,4.9009013E-1,5.590656E-2,1.5195946E-1,4.9312243E-1,-5.4348685E-2],"split_indices":[1,0,5,0,0,2,13,9,0,17,40,9,1,0,0,24,8,8,4,0,0,0,0,0,0,0,0,0,0,0,0],"split_type":[0,0,0,0,0,0,0,0,0,0,0,0,0,0,0,0,0,0,0,0,0,0,0,0,0,0,0,0,0,0,0],"sum_hessian":[6.152E3,4.604E3,1.548E3,4.603E3,1E0,1.088E3,4.6E2,1.083E3,5E0,3.23E2,1.37E2,1.045E3,3.8E1,1E0,4E0,3.16E2,7E0,1.29E2,8E0,9.58E2,8.7E1,1E1,2.8E1,2.95E2,2.1E1,5E0,2E0,7.4E1,5.5E1,5E0,3E0],"tree_param":{"num_deleted":"0","num_feature":"161","num_nodes":"31","size_leaf_vector":"1"}},{"base_weights":[3.050475E-3,-2.9792187E-1,8.96263E-1,-2.9802328E-2,8.438873E-3,1.6463467E-1,9.3073255E-1,4.7434053E-1,-4.241977E-1,3.8036355E-1,9.7116566E-1,1.6078869E-1,2.2430954E0,-9.850977E-1,-4.712282E-2,4.2277937E0,1.4092535E-1,2.6979647E0,9.540336E-1,-9.294349E-4,3.482055E-1,3.8788542E-1,4.656309E-3,-1.2766062E-1,1.2062415E-2,8.0788136E-2,-5.0920483E-2,5.1246256E-1,1.622753E-1,3.5726088E-1,3.2217265E-3,4.7097507E-1,8.518795E-2,1.08575754E-1,7.766237E-2],"categories":[],"categories_nodes":[],"categories_segments":[],"categories_sizes":[],"default_left":[0,0,0,0,0,0,0,0,0,0,0,0,0,0,0,0,0,0,0,0,0,0,0,0,0,0,0,0,0,0,0,0,0,0,0],"id":10,"left_children":[1,3,5,-1,-1,7,9,11,13,15,17,19,21,23,25,27,29,31,33,-1,-1,-1,-1,-1,-1,-1,-1,-1,-1,-1,-1,-1,-1,-1,-1],"loss_changes":[1.6543921E3,2.036438E-1,3.896118E1,0E0,0E0,1.31491165E1,3.2587524E1,2.5705366E1,5.241112E0,9.429003E1,3.8221924E1,2.3192896E1,2.4970364E1,3.377263E0,6.73269E0,5.701706E0,3.644397E1,4.4268936E1,3.1102295E1,0E0,0E0,0E0,0E0,0E0,0E0,0E0,0E0,0E0,0E0,0E0,0E0,0E0,0E0,0E0,0E0],"parents":[2147483647,0,0,1,1,2,2,5,5,6,6,7,7,8,8,9,9,10,10,11,11,12,12,13,13,14,14,15,15,16,16,17,17,18,18],"right_children":[2,4,6,-1,-1,8,10,12,14,16,18,20,22,24,26,28,30,32,34,-1,-1,-1,-1,-1,-1,-1,-1,-1,-1,-1,-1,-1,-1,-1,-1],"split_conditions":[3.3333334E-1,4E-1,-2.2E2,-2.9802328E-2,8.438873E-3,1.914881E0,4.1E1,9.75E0,3.5E0,7.136154E-1,-2.05E2,1.8252387E0,1.526506E0,3.8333333E0,4E0,6.195775E-1,8.9407915E-1,1.4175034E0,7.857143E0,-9.294349E-4,3.482055E-1,3.8788542E-1,4.656309E-3,-1.2766062E-1,1.2062415E-2,8.0788136E-2,-5.0920483E-2,5.1246256E-1,1.622753E-1,3.5726088E-1,3.2217265E-3,4.7097507E-1,8.518795E-2,1.08575754E-1,7.766237E-2],"split_indices":[0,1,12,0,0,5,13,9,0,5,12,6,6,2,1,4,7,4,10,0,0,0,0,0,0,0,0,0,0,0,0,0,0,0,0],"split_type":[0,0,0,0,0,0,0,0,0,0,0,0,0,0,0,0,0,0,0,0,0,0,0,0,0,0,0,0,0,0,0,0,0,0,0],"sum_hessian":[6.152E3,4.602E3,1.55E3,4.601E3,1E0,7E1,1.48E3,4.6E1,2.4E1,1.02E2,1.378E3,4E1,6E0,9E0,1.5E1,5E0,9.7E1,1.2E1,1.366E3,3.9E1,1E0,3E0,3E0,7E0,2E0,5E0,1E1,3E0,2E0,2E0,9.5E1,5E0,7E0,7.81E2,5.85E2],"tree_param":{"num_deleted":"0","num_feature":"161","num_nodes":"35","size_leaf_vector":"1"}},{"base_weights":[3.1371415E-3,-2.6791018E-1,8.0892783E-1,-2.6824892E-2,6.4583145E-2,1.4117971E-1,8.399639E-1,2.5932795E-1,-1.446613E0,8.302891E-1,3.0783525E0,5.894984E-1,-3.4303278E-1,-3.981203E-2,-1.609206E-1,1.0361433E0,7.268326E-1,3.811674E0,-2.9412854E-2,1.6893845E-2,2.1595097E-1,-8.9814775E-2,4.991275E-3,6.5118834E-2,1.2491621E-1,2.0960244E-4,8.273717E-2,4.6806154E-1,1.672175E-1],"categories":[],"categories_nodes":[],"categories_segments":[],"categories_sizes":[],"default_left":[0,0,0,0,0,0,0,0,0,0,1,0,0,0,0,0,0,0,0,0,0,0,0,0,0,0,0,0,0],"id":11,"left_children":[1,3,5,-1,-1,7,9,11,13,15,17,19,21,-1,-1,23,25,27,-1,-1,-1,-1,-1,-1,-1,-1,-1,-1,-1],"loss_changes":[1.3440775E3,1.5985718E0,3.198346E1,0E0,0E0,1.350679E1,2.9494751E1,1.3328411E1,2.1173096E-1,3.0659912E1,1.5959805E1,2.8027378E1,5.2799473E0,0E0,0E0,3.944989E1,7.176965E1,1.4686813E0,0E0,0E0,0E0,0E0,0E0,0E0,0E0,0E0,0E0,0E0,0E0],"parents":[2147483647,0,0,1,1,2,2,5,5,6,6,7,7,8,8,9,9,10,10,11,11,12,12,15,15,16,16,17,17],"right_children":[2,4,6,-1,-1,8,10,12,14,16,18,20,22,-1,-1,24,26,28,-1,-1,-1,-1,-1,-1,-1,-1,-1,-1,-1],"split_conditions":[6E-1,5E-1,-2.2E2,-2.6824892E-2,6.4583145E-2,1E0,6.125E0,1.914881E0,3.0833333E0,2.6E0,8.2E0,1.7568938E0,3.5E0,-3.981203E-2,-1.609206E-1,2.3333333E0,2.6363637E0,6.2E0,-2.9412854E-2,1.6893845E-2,2.1595097E-1,-8.9814775E-2,4.991275E-3,6.5118834E-2,1.2491621E-1,2.0960244E-4,8.273717E-2,4.6806154E-1,1.672175E-1],"split_indices":[1,0,12,0,0,36,2,5,3,1,1,5,0,0,0,3,3,1,0,0,0,0,0,0,0,0,0,0,0],"split_type":[0,0,0,0,0,0,0,0,0,0,0,0,0,0,0,0,0,0,0,0,0,0,0,0,0,0,0,0,0],"sum_hessian":[6.152E3,4.604E3,1.548E3,4.603E3,1E0,6.9E1,1.479E3,6.5E1,4E0,1.474E3,5E0,4.2E1,2.3E1,1E0,3E0,4.9E2,9.84E2,4E0,1E0,3.4E1,8E0,9E0,1.4E1,1.76E2,3.14E2,1.2E2,8.64E2,2E0,2E0],"tree_param":{"num_deleted":"0","num_feature":"161","num_nodes":"29","size_leaf_vector":"1"}},{"base_weights":[2.9638181E-3,-2.4111097E-1,7.285683E-1,-2.4142986E-2,6.135398E-2,1.0515411E0,6.658977E-1,8.842154E-1,2.0216377E0,6.260021E-1,1.3376462E0,1.1211725E0,-6.216741E-2,3.125599E0,6.0394025E-1,3.6178246E-1,7.5542825E-1,3.0677242E0,8.285428E-1,1.02335595E-1,4.1835767E-1,1.8560542E-1,-3.5568442E-2,5.057263E-1,2.326604E-1,3.2390854E-1,3.664849E-3,-2.003754E-3,6.84685E-2,1.0704298E-1,5.3193446E-2,-1.3095742E-1,3.4468493E-1,3.432299E-2,2.0507054E-1],"categories":[],"categories_nodes":[],"categories_segments":[],"categories_sizes":[],"default_left":[0,0,0,0,0,0,0,0,0,0,0,0,0,0,0,0,0,0,0,0,0,0,0,0,0,0,0,0,0,0,0,0,0,0,0],"id":12,"left_children":[1,3,5,-1,-1,7,9,11,13,15,17,19,21,23,25,27,29,31,33,-1,-1,-1,-1,-1,-1,-1,-1,-1,-1,-1,-1,-1,-1,-1,-1],"loss_changes":[1.0898827E3,1.4031677E0,3.0652893E1,0E0,0E0,3.879294E1,3.4002502E1,4.828392E1,5.4455307E1,4.175473E1,6.087503E1,4.7242004E1,2.5433514E1,1.9101547E1,2.5294525E1,5.0069725E1,5.744098E1,3.1066574E1,3.310463E1,0E0,0E0,0E0,0E0,0E0,0E0,0E0,0E0,0E0,0E0,0E0,0E0,0E0,0E0,0E0,0E0],"parents":[2147483647,0,0,1,1,2,2,5,5,6,6,7,7,8,8,9,9,10,10,11,11,12,12,13,13,14,14,15,15,16,16,17,17,18,18],"right_children":[2,4,6,-1,-1,8,10,12,14,16,18,20,22,24,26,28,30,32,34,-1,-1,-1,-1,-1,-1,-1,-1,-1,-1,-1,-1,-1,-1,-1,-1],"split_conditions":[6E-1,5E-1,9.93605E-1,-2.4142986E-2,6.135398E-2,8.25E0,1E0,6.6363635E0,1.154055E0,2.8333333E0,7.5833335E0,7.3333335E0,5E0,7.571429E0,1.2801982E0,2.5E1,7.857143E0,1.0086644E0,1E1,1.02335595E-1,4.1835767E-1,1.8560542E-1,-3.5568442E-2,5.057263E-1,2.326604E-1,3.2390854E-1,3.664849E-3,-2.003754E-3,6.84685E-2,1.0704298E-1,5.3193446E-2,-1.3095742E-1,3.4468493E-1,3.432299E-2,2.0507054E-1],"split_indices":[1,0,4,0,0,11,40,11,5,3,11,8,10,10,7,12,10,4,12,0,0,0,0,0,0,0,0,0,0,0,0,0,0,0,0],"split_type":[0,0,0,0,0,0,0,0,0,0,0,0,0,0,0,0,0,0,0,0,0,0,0,0,0,0,0,0,0,0,0,0,0,0,0],"sum_hessian":[6.152E3,4.604E3,1.548E3,4.603E3,1E0,2.49E2,1.299E3,2.14E2,3.5E1,1.228E3,7.1E1,1.71E2,4.3E1,1.9E1,1.6E1,4.05E2,8.23E2,1.5E1,5.6E1,1.67E2,4E0,5E0,3.8E1,4E0,1.5E1,2E0,1.4E1,1.86E2,2.19E2,3.4E2,4.83E2,1E0,1.4E1,4.1E1,1.5E1],"tree_param":{"num_deleted":"0","num_feature":"161","num_nodes":"35","size_leaf_vector":"1"}},{"base_weights":[3.0662194E-3,-2.1699178E-1,6.5727156E-1,-2.1729212E-1,5.8286287E-2,6.4844847E-1,2.818192E0,-2.1717754E-1,-3.723532E-2,7.047716E-1,2.7920052E-1,3.5042381E0,-3.0601883E-2,-2.1727065E-2,1.0565323E-2,6.755447E-1,1.9161661E0,1.9166578E-1,2.4217272E0,4.3331122E-1,1.5072845E-1,8.262762E-2,5.292241E-2,4.5622745E-1,7.9742074E-2,1.1397053E-2,2.0323937E-1,2.611391E-2,4.5170307E-1],"categories":[],"categories_nodes":[],"categories_segments":[],"categories_sizes":[],"default_left":[0,0,0,0,0,0,1,0,0,0,0,0,0,0,0,0,0,0,0,0,0,0,0,0,0,0,0,0,0],"id":13,"left_children":[1,3,5,7,-1,9,11,13,-1,15,17,19,-1,-1,-1,21,23,25,27,-1,-1,-1,-1,-1,-1,-1,-1,-1,-1],"loss_changes":[8.859477E2,1.2328644E0,2.7705627E1,9.3078613E-4,0E0,3.1914124E1,1.3932472E1,1.6131592E-1,0E0,4.611322E1,3.8170216E1,1.7448883E0,0E0,0E0,0E0,2.8432861E1,8.8131935E1,2.8228518E1,3.503712E1,0E0,0E0,0E0,0E0,0E0,0E0,0E0,0E0,0E0,0E0],"parents":[2147483647,0,0,1,1,2,2,3,3,5,5,6,6,7,7,9,9,10,10,11,11,15,15,16,16,17,17,18,18],"right_children":[2,4,6,8,-1,10,12,14,-1,16,18,20,-1,-1,-1,22,24,26,28,-1,-1,-1,-1,-1,-1,-1,-1,-1,-1],"split_conditions":[6E-1,5E-1,6.125E0,3.3333334E-1,5.8286287E-2,2.087461E0,8.2E0,4E-1,-3.723532E-2,1.4333333E1,1E0,6.2E0,-3.0601883E-2,-2.1727065E-2,1.0565323E-2,1E0,1.25E1,1E0,4.5E0,4.3331122E-1,1.5072845E-1,8.262762E-2,5.292241E-2,4.5622745E-1,7.9742074E-2,1.1397053E-2,2.0323937E-1,2.611391E-2,4.5170307E-1],"split_indices":[1,0,2,0,0,7,1,1,0,8,42,1,0,0,0,14,9,56,1,0,0,0,0,0,0,0,0,0,0],"split_type":[0,0,0,0,0,0,0,0,0,0,0,0,0,0,0,0,0,0,0,0,0,0,0,0,0,0,0,0,0],"sum_hessian":[6.152E3,4.604E3,1.548E3,4.603E3,1E0,1.543E3,5E0,4.602E3,1E0,1.338E3,2.05E2,4E0,1E0,4.601E3,1E0,1.308E3,3E1,1.98E2,7E0,2E0,2E0,6.42E2,6.66E2,8E0,2.2E1,1.91E2,7E0,4E0,3E0],"tree_param":{"num_deleted":"0","num_feature":"161","num_nodes":"29","size_leaf_vector":"1"}},{"base_weights":[3.0728283E-3,-1.946152E-1,5.948521E-1,-1.9565263E-1,4.2701134E-1,2.432429E0,5.812608E-1,-1.9633958E-1,1.4838865E-1,1.6527767E0,-6.390033E-1,4.4973273E0,-3.7873905E-2,2.0129746E-1,6.3014895E-1,-1.955483E-2,-1.0576309E-1,-5.4957416E-2,2.5700852E-1,-3.250273E-2,-1.0325028E-1,4.960834E-1,1.0898965E-1,1.9673595E-1,-8.323925E-2,6.6646546E-1,-1.8442151E-1,2.5321095E0,6.0411054E-1,-4.9574138E-3,8.200407E-5,3.0859813E-2,2.6686642E-1,-3.9698046E-2,1.7045394E-1,1.1743467E-3,3.5005778E-1,-1.4729484E-2,6.590185E-2],"categories":[],"categories_nodes":[],"categories_segments":[],"categories_sizes":[],"default_left":[0,0,1,0,0,0,0,0,0,0,0,0,0,0,0,0,0,0,0,0,0,0,0,0,0,0,0,0,0,0,0,0,0,0,0,0,0,0,0],"id":14,"left_children":[1,3,5,7,9,11,13,15,-1,17,19,21,23,25,27,-1,-1,-1,-1,29,-1,-1,-1,-1,-1,31,33,35,37,-1,-1,-1,-1,-1,-1,-1,-1,-1,-1],"loss_changes":[7.1994086E2,3.0584412E0,3.707257E1,5.605591E0,1.1509601E1,5.6280495E1,2.8312561E1,2.9316254E0,0E0,9.49339E0,1.159729E0,4.069412E0,1.1196786E1,3.1701557E1,6.562488E1,0E0,0E0,0E0,0E0,1.7472522E-3,0E0,0E0,0E0,0E0,0E0,5.6498173E1,3.9623672E1,4.389499E1,5.5341766E1,0E0,0E0,0E0,0E0,0E0,0E0,0E0,0E0,0E0,0E0],"parents":[2147483647,0,0,1,1,2,2,3,3,4,4,5,5,6,6,7,7,9,9,10,10,11,11,12,12,13,13,14,14,19,19,25,25,26,26,27,27,28,28],"right_children":[2,4,6,8,10,12,14,16,-1,18,20,22,24,26,28,-1,-1,-1,-1,30,-1,-1,-1,-1,-1,32,34,36,38,-1,-1,-1,-1,-1,-1,-1,-1,-1,-1],"split_conditions":[1.1666666E0,1E0,1.4166666E0,1E0,1.25E0,4E0,2.2727273E0,3.3333334E-1,1.4838865E-1,8.75E-1,1.3333334E0,2.3333333E0,1E0,1.875E0,7.340492E-1,-1.955483E-2,-1.0576309E-1,-5.4957416E-2,2.5700852E-1,1E0,-1.0325028E-1,4.960834E-1,1.0898965E-1,1.9673595E-1,-8.323925E-2,6.285714E0,1E0,0E0,4.1E1,-4.9574138E-3,8.200407E-5,3.0859813E-2,2.6686642E-1,-3.9698046E-2,1.7045394E-1,1.1743467E-3,3.5005778E-1,-1.4729484E-2,6.590185E-2],"split_indices":[3,1,3,2,1,8,3,0,0,2,0,0,2,3,5,0,0,0,0,0,0,0,0,0,0,10,17,12,13,0,0,0,0,0,0,0,0,0,0],"split_type":[0,0,0,0,0,0,0,0,0,0,0,0,0,0,0,0,0,0,0,0,0,0,0,0,0,0,0,0,0,0,0,0,0,0,0,0,0,0,0],"sum_hessian":[6.152E3,4.612E3,1.54E3,4.605E3,7E0,1E1,1.53E3,4.604E3,1E0,3E0,4E0,5E0,5E0,1.75E2,1.355E3,4.601E3,3E0,1E0,2E0,2E0,2E0,4E0,1E0,1E0,4E0,7.9E1,9.6E1,1.7E1,1.338E3,1E0,1E0,6.8E1,1.1E1,8.7E1,9E0,5E0,1.2E1,9.1E1,1.247E3],"tree_param":{"num_deleted":"0","num_feature":"161","num_nodes":"39","size_leaf_vector":"1"}},{"base_weights":[3.036397E-3,-1.7599773E-2,5.3390753E-1,2.2418902E0,5.236059E-1,3.23553E-1,1.9095814E-1,5.153011E-1,2.566513E0,-5.116425E-1,1.1493801E-1,5.3655064E-1,-2.9444042E-1,3.209283E0,-3.236687E-2,-9.238255E-3,-6.7508124E-2,2.473565E-2,5.8527064E-2,2.7137792E-1,-5.2418303E-2,4.0003037E-1,1.3485017E-1],"categories":[],"categories_nodes":[],"categories_segments":[],"categories_sizes":[],"default_left":[0,0,0,0,0,0,0,0,1,0,0,0,0,0,0,0,0,0,0,0,0,0,0],"id":15,"left_children":[1,-1,3,5,7,-1,9,11,13,15,-1,17,19,21,-1,-1,-1,-1,-1,-1,-1,-1,-1],"loss_changes":[5.8489996E2,0E0,2.6133636E1,1.7723137E1,2.4872803E1,0E0,3.2816236E0,2.6639069E1,1.2185078E1,1.4320415E-1,0E0,2.0989563E1,2.906716E1,1.9651718E0,0E0,0E0,0E0,0E0,0E0,0E0,0E0,0E0,0E0],"parents":[2147483647,0,0,2,2,3,3,4,4,6,6,7,7,8,8,9,9,11,11,12,12,13,13],"right_children":[2,-1,4,6,8,-1,10,12,14,16,-1,18,20,22,-1,-1,-1,-1,-1,-1,-1,-1,-1],"split_conditions":[4E-1,-1.7599773E-2,1.6666666E0,3.25E0,6.125E0,3.23553E-1,2E0,5.4E0,8.2E0,1.3333334E0,1.1493801E-1,4.4E1,1.1767015E0,6.2E0,-3.236687E-2,-9.238255E-3,-6.7508124E-2,2.473565E-2,5.8527064E-2,2.7137792E-1,-5.2418303E-2,4.0003037E-1,1.3485017E-1],"split_indices":[1,0,8,10,2,0,0,1,1,0,0,13,4,1,0,0,0,0,0,0,0,0,0],"split_type":[0,0,0,0,0,0,0,0,0,0,0,0,0,0,0,0,0,0,0,0,0,0,0],"sum_hessian":[6.152E3,4.601E3,1.551E3,8E0,1.543E3,5E0,3E0,1.538E3,5E0,2E0,1E0,1.499E3,3.9E1,4E0,1E0,1E0,1E0,2.17E2,1.282E3,2E0,3.7E1,2E0,2E0],"tree_param":{"num_deleted":"0","num_feature":"161","num_nodes":"23","size_leaf_vector":"1"}},{"base_weights":[2.9194925E-3,-1.5777135E-1,4.8394734E-1,-1.571874E-1,-1.0026872E-1,2.1943657E0,4.7134215E-1,-1.5842414E-1,1.3068306E0,4.086947E0,-6.394283E-2,1.23963356E-1,5.1608205E-1,-1.5918648E-1,7.58822E-1,-7.6358914E-3,1.7933469E-1,4.5171458E-1,9.679766E-2,1.839728E-1,-8.126226E-2,2.7801093E-1,-8.63255E-1,2.2384195E0,4.925435E-1,-1.5840178E-2,-1.0222037E-1,2.0974874E-1,-3.8656227E-2,2.126409E-2,3.4756318E-1,9.381872E-2,-9.823693E-2,-3.8007738E-3,3.1168923E-1,-1.5635364E-2,5.399842E-2],"categories":[],"categories_nodes":[],"categories_segments":[],"categories_sizes":[],"default_left":[0,0,1,0,0,0,0,0,0,0,0,0,0,0,0,0,0,0,0,0,0,0,0,0,0,0,0,0,0,0,0,0,0,0,0,0,0],"id":16,"left_children":[1,3,5,7,-1,9,11,13,15,17,19,21,23,25,27,-1,-1,-1,-1,-1,-1,29,31,33,35,-1,-1,-1,-1,-1,-1,-1,-1,-1,-1,-1,-1],"loss_changes":[4.7568332E2,2.1183243E0,3.218991E1,8.555733E0,0E0,4.727568E1,2.3730408E1,3.342949E0,2.8287148E0,3.6781693E0,1.0046444E1,2.7005827E1,5.387155E1,2.956688E0,6.9439545E0,0E0,0E0,0E0,0E0,0E0,0E0,3.1242306E1,6.0715065E0,3.6114487E1,4.1304413E1,0E0,0E0,0E0,0E0,0E0,0E0,0E0,0E0,0E0,0E0,0E0,0E0],"parents":[2147483647,0,0,1,1,2,2,3,3,5,5,6,6,7,7,8,8,9,9,10,10,11,11,12,12,13,13,14,14,21,21,22,22,23,23,24,24],"right_children":[2,4,6,8,-1,10,12,14,16,18,20,22,24,26,28,-1,-1,-1,-1,-1,-1,30,32,34,36,-1,-1,-1,-1,-1,-1,-1,-1,-1,-1,-1,-1],"split_conditions":[1.1666666E0,1.0833334E0,1.4166666E0,1E0,-1.0026872E-1,4E0,2.2727273E0,1E0,1E0,2.3333333E0,1E0,2.5E0,7.340492E-1,3.3333334E-1,1E0,-7.6358914E-3,1.7933469E-1,4.5171458E-1,9.679766E-2,1.839728E-1,-8.126226E-2,3.3333333E0,5.99911E-1,0E0,4.1E1,-1.5840178E-2,-1.0222037E-1,2.0974874E-1,-3.8656227E-2,2.126409E-2,3.4756318E-1,9.381872E-2,-9.823693E-2,-3.8007738E-3,3.1168923E-1,-1.5635364E-2,5.399842E-2],"split_indices":[3,3,3,2,0,8,3,1,0,0,2,1,5,0,0,0,0,0,0,0,0,0,4,12,13,0,0,0,0,0,0,0,0,0,0,0,0],"split_type":[0,0,0,0,0,0,0,0,0,0,0,0,0,0,0,0,0,0,0,0,0,0,0,0,0,0,0,0,0,0,0,0,0,0,0,0,0],"sum_hessian":[6.152E3,4.612E3,1.54E3,4.61E3,2E0,1E1,1.53E3,4.607E3,3E0,5E0,5E0,1.75E2,1.355E3,4.604E3,3E0,1E0,2E0,4E0,1E0,1E0,4E0,1.52E2,2.3E1,1.7E1,1.338E3,4.601E3,3E0,1E0,2E0,1.5E2,2E0,1E0,2.2E1,5E0,1.2E1,9.1E1,1.247E3],"tree_param":{"num_deleted":"0","num_feature":"161","num_nodes":"37","size_leaf_vector":"1"}},{"base_weights":[2.8690947E-3,-1.4196724E-1,4.3643633E-1,-1.4141993E-1,-9.358414E-2,2.0341313E0,4.2467207E-1,-1.4257023E-1,1.2190723E0,3.769671E0,-4.043007E-2,5.468331E-1,3.0163652E-1,-1.4329347E-1,7.257131E-1,-7.2541E-3,1.6737905E-1,4.155774E-1,9.1957785E-2,1.7477416E-1,-7.476127E-2,-1.2138986E-2,6.684066E-1,2.6348233E-1,1.8703971E0,-1.4256504E-2,-9.455385E-2,1.9926134E-1,-3.6079146E-2,2.1815998E-2,-1.5595855E-1,1.6755766E-1,5.7107545E-2,-1.1295149E-2,4.0676337E-2,4.914897E-1,3.2136675E-2],"categories":[],"categories_nodes":[],"categories_segments":[],"categories_sizes":[],"default_left":[0,0,1,0,0,0,0,0,0,0,0,0,0,0,0,0,0,0,0,0,0,0,0,0,0,0,0,0,0,0,0,0,0,0,0,0,0],"id":17,"left_children":[1,3,5,7,-1,9,11,13,15,17,19,21,23,25,27,-1,-1,-1,-1,-1,-1,29,31,33,35,-1,-1,-1,-1,-1,-1,-1,-1,-1,-1,-1,-1],"loss_changes":[3.8644748E2,1.871933E0,2.8100342E1,7.3898544E0,0E0,3.9757725E1,2.2846222E1,2.9977417E0,2.4706984E0,2.7810135E0,8.894018E0,5.213051E1,4.529609E1,2.5562973E0,6.224889E0,0E0,0E0,0E0,0E0,0E0,0E0,4.952003E1,6.0801422E1,4.0389946E1,8.330892E1,0E0,0E0,0E0,0E0,0E0,0E0,0E0,0E0,0E0,0E0,0E0,0E0],"parents":[2147483647,0,0,1,1,2,2,3,3,5,5,6,6,7,7,8,8,9,9,10,10,11,11,12,12,13,13,14,14,21,21,22,22,23,23,24,24],"right_children":[2,4,6,8,-1,10,12,14,16,18,20,22,24,26,28,-1,-1,-1,-1,-1,-1,30,32,34,36,-1,-1,-1,-1,-1,-1,-1,-1,-1,-1,-1,-1],"split_conditions":[1.1666666E0,1.0833334E0,1.4166666E0,1E0,-9.358414E-2,4E0,1E0,1E0,1E0,2.3333333E0,1E0,2.4545455E0,1.2333333E1,3.3333334E-1,1E0,-7.2541E-3,1.6737905E-1,4.155774E-1,9.1957785E-2,1.7477416E-1,-7.476127E-2,2.8E0,2.2E0,-5E0,2.023357E0,-1.4256504E-2,-9.455385E-2,1.9926134E-1,-3.6079146E-2,2.1815998E-2,-1.5595855E-1,1.6755766E-1,5.7107545E-2,-1.1295149E-2,4.0676337E-2,4.914897E-1,3.2136675E-2],"split_indices":[3,3,3,2,0,8,14,1,0,0,2,3,11,0,0,0,0,0,0,0,0,1,1,12,5,0,0,0,0,0,0,0,0,0,0,0,0],"split_type":[0,0,0,0,0,0,0,0,0,0,0,0,0,0,0,0,0,0,0,0,0,0,0,0,0,0,0,0,0,0,0,0,0,0,0,0,0],"sum_hessian":[6.152E3,4.612E3,1.54E3,4.61E3,2E0,1E1,1.53E3,4.607E3,3E0,5E0,5E0,7.66E2,7.64E2,4.604E3,3E0,1E0,2E0,4E0,1E0,1E0,4E0,1.37E2,6.29E2,7.47E2,1.7E1,4.601E3,3E0,1E0,2E0,1.2E2,1.7E1,5.4E1,5.75E2,2.06E2,5.41E2,5E0,1.2E1],"tree_param":{"num_deleted":"0","num_feature":"161","num_nodes":"37","size_leaf_vector":"1"}},{"base_weights":[2.8051718E-3,-1.2774429E-1,3.9360458E-1,-1.2723142E-1,-8.7345205E-2,1.8859499E0,3.8262522E-1,-1.283014E-1,1.1371963E0,3.477293E0,-1.971821E-2,4.0645054E-1,-2.521752E-1,-1.2898776E-1,6.9393736E-1,-6.8913936E-3,1.5622044E-1,3.8233122E-1,8.7359905E-2,1.6603546E-1,-6.878036E-2,3.9741796E-1,4.7089776E-1,-4.8489806E-1,1.2047743E0,-1.2831164E-2,-8.7462306E-2,1.8929827E-1,-3.3673868E-2,3.8953222E-2,3.1980547E-1,1.4213745E-1,-6.859306E-2,7.949458E-3,4.540866E-1],"categories":[],"categories_nodes":[],"categories_segments":[],"categories_sizes":[],"default_left":[0,0,1,0,0,0,0,0,0,0,0,0,0,0,0,0,0,0,0,0,0,0,0,0,0,0,0,0,0,0,0,0,0,0,0],"id":18,"left_children":[1,3,5,7,-1,9,11,13,15,17,19,21,23,25,27,-1,-1,-1,-1,-1,-1,29,-1,31,33,-1,-1,-1,-1,-1,-1,-1,-1,-1,-1],"loss_changes":[3.1396802E2,1.6531372E0,2.452768E1,6.384201E0,0E0,3.3426857E1,2.3257843E1,2.69001E0,2.158084E0,2.0655289E0,7.8765907E0,5.5490295E1,1.9571857E1,2.2093506E0,5.58075E0,0E0,0E0,0E0,0E0,0E0,0E0,3.1307785E1,0E0,1.9752884E1,2.9671314E1,0E0,0E0,0E0,0E0,0E0,0E0,0E0,0E0,0E0,0E0],"parents":[2147483647,0,0,1,1,2,2,3,3,5,5,6,6,7,7,8,8,9,9,10,10,11,11,12,12,13,13,14,14,21,21,23,23,24,24],"right_children":[2,4,6,8,-1,10,12,14,16,18,20,22,24,26,28,-1,-1,-1,-1,-1,-1,30,-1,32,34,-1,-1,-1,-1,-1,-1,-1,-1,-1,-1],"split_conditions":[1.1666666E0,1.0833334E0,1.4166666E0,1E0,-8.7345205E-2,4E0,1.2428572E1,1E0,1E0,2.3333333E0,1E0,1.52E1,1E0,3.3333334E-1,1E0,-6.8913936E-3,1.5622044E-1,3.8233122E-1,8.7359905E-2,1.6603546E-1,-6.878036E-2,6.125E0,4.7089776E-1,2.2857144E0,5.125E0,-1.2831164E-2,-8.7462306E-2,1.8929827E-1,-3.3673868E-2,3.8953222E-2,3.1980547E-1,1.4213745E-1,-6.859306E-2,7.949458E-3,4.540866E-1],"split_indices":[3,3,3,2,0,8,10,1,0,0,2,9,72,0,0,0,0,0,0,0,0,2,0,2,2,0,0,0,0,0,0,0,0,0,0],"split_type":[0,0,0,0,0,0,0,0,0,0,0,0,0,0,0,0,0,0,0,0,0,0,0,0,0,0,0,0,0,0,0,0,0,0,0],"sum_hessian":[6.152E3,4.612E3,1.54E3,4.61E3,2E0,1E1,1.53E3,4.607E3,3E0,5E0,5E0,1.475E3,5.5E1,4.604E3,3E0,1E0,2E0,4E0,1E0,1E0,4E0,1.473E3,2E0,4.8E1,7E0,4.601E3,3E0,1E0,2E0,1.47E3,3E0,4E0,4.4E1,6E0,1E0],"tree_param":{"num_deleted":"0","num_feature":"161","num_nodes":"35","size_leaf_vector":"1"}},{"base_weights":[2.8577258E-3,-1.1494443E-1,3.554979E-1,-1.1446389E-1,-8.15222E-2,-1.9712505E-1,3.8192937E-1,-1.1545925E-1,1.0608089E0,-2.7147815E-1,2.5037962E-1,1.8113767E0,3.679416E-1,-1.1611076E-1,6.634497E-1,-6.546819E-3,1.4580575E-1,-4.1807175E-1,7.6855296E-1,3.9132147E0,2.088874E-1,5.507872E-1,2.7763823E-1,-1.15483245E-2,-8.090263E-2,1.7983337E-1,-3.1428948E-2,-5.2592855E-2,1.2773347E-1,3.3440447E-1,2.861093E-3,1.6719387E-1,4.6158677E-1,-5.7573605E-2,3.2429376E-1,-9.821971E-2,5.921049E-2,-3.014688E-2,3.551571E-2],"categories":[],"categories_nodes":[],"categories_segments":[],"categories_sizes":[],"default_left":[0,0,0,0,0,0,0,0,0,0,0,0,1,0,0,0,0,0,0,0,0,0,0,0,0,0,0,0,0,0,0,0,0,0,0,0,0,0,0],"id":19,"left_children":[1,3,5,7,-1,9,11,13,15,17,-1,19,21,23,25,-1,-1,27,29,31,33,35,37,-1,-1,-1,-1,-1,-1,-1,-1,-1,-1,-1,-1,-1,-1,-1,-1],"loss_changes":[2.5564738E2,1.4590187E0,2.2584137E1,5.5165253E0,0E0,1.493808E1,2.874588E1,2.4154205E0,1.8851037E0,1.0993641E1,0E0,4.6337E1,2.392096E1,1.9088631E0,5.0036793E0,0E0,0E0,1.2009181E1,1.7055756E1,1.7315903E0,2.329236E1,3.1047821E1,4.401116E1,0E0,0E0,0E0,0E0,0E0,0E0,0E0,0E0,0E0,0E0,0E0,0E0,0E0,0E0,0E0,0E0],"parents":[2147483647,0,0,1,1,2,2,3,3,5,5,6,6,7,7,8,8,9,9,11,11,12,12,13,13,14,14,17,17,18,18,19,19,20,20,21,21,22,22],"right_children":[2,4,6,8,-1,10,12,14,16,18,-1,20,22,24,26,-1,-1,28,30,32,34,36,38,-1,-1,-1,-1,-1,-1,-1,-1,-1,-1,-1,-1,-1,-1,-1,-1],"split_conditions":[1.1666666E0,1.0833334E0,-2.2E2,1E0,-8.15222E-2,5.25E0,-2.05E2,1E0,1E0,1.2333333E1,2.5037962E-1,1.4175034E0,2.6E0,3.3333334E-1,1E0,-6.546819E-3,1.4580575E-1,1E0,2.3333333E0,1.1942744E0,1E0,-1.6E2,2.6E0,-1.15483245E-2,-8.090263E-2,1.7983337E-1,-3.1428948E-2,-5.2592855E-2,1.2773347E-1,3.3440447E-1,2.861093E-3,1.6719387E-1,4.6158677E-1,-5.7573605E-2,3.2429376E-1,-9.821971E-2,5.921049E-2,-3.014688E-2,3.551571E-2],"split_indices":[3,3,12,2,0,2,12,1,0,8,0,4,1,0,0,0,0,101,0,5,125,12,3,0,0,0,0,0,0,0,0,0,0,0,0,0,0,0,0],"split_type":[0,0,0,0,0,0,0,0,0,0,0,0,0,0,0,0,0,0,0,0,0,0,0,0,0,0,0,0,0,0,0,0,0,0,0,0,0,0,0],"sum_hessian":[6.152E3,4.612E3,1.54E3,4.61E3,2E0,7E1,1.47E3,4.607E3,3E0,6.9E1,1E0,1.3E1,1.457E3,4.604E3,3E0,1E0,2E0,6.1E1,8E0,5E0,8E0,4.8E2,9.77E2,4.601E3,3E0,1E0,2E0,5.8E1,3E0,1E0,7E0,2E0,3E0,7E0,1E0,1.2E1,4.68E2,1.15E2,8.62E2],"tree_param":{"num_deleted":"0","num_feature":"161","num_nodes":"39","size_leaf_vector":"1"}},{"base_weights":[2.838204E-3,-9.551843E-2,3.5052717E-1,-9.966863E-2,5.672704E-1,1.9065537E0,3.2936373E-1,-9.624897E-2,-7.7161074E-1,-3.674481E-1,1.6617664E0,-1.0881007E-1,2.6900637E0,-1.7573607E-1,3.778285E-1,-9.82868E-2,3.15765E-1,8.7596655E-2,-8.8133E-1,2.8115422E-1,-1.3341878E-1,4.6667555E-1,3.7195948E-1,7.330154E-1,-1.1949741E-1,3.262353E0,-3.050185E-1,-2.304593E-1,3.1134415E-1,6.154999E-1,2.8894427E-1,-9.699444E-3,-1.10243574E-1,1.5068638E-2,-1.0436668E-1,-5.4091852E-2,1.3758253E-1,-4.06939E-2,1.8788321E-1,-5.8316983E-2,1.3661338E-1,1.3172154E-1,3.8271278E-1,-8.236431E-2,3.6611535E-2,-2.8579647E-2,3.094326E-1,3.518504E-2,1.4150184E-1,-5.121813E-2,3.6418658E-2],"categories":[],"categories_nodes":[],"categories_segments":[],"categories_sizes":[],"default_left":[0,0,0,0,0,0,0,0,0,0,0,0,0,0,0,0,0,0,0,0,0,0,0,0,0,0,0,0,0,0,0,0,0,0,0,0,0,0,0,0,0,0,0,0,0,0,0,0,0,0,0],"id":20,"left_children":[1,3,5,7,9,11,13,15,17,19,21,23,25,27,29,31,-1,-1,33,35,-1,37,-1,39,-1,41,43,45,-1,47,49,-1,-1,-1,-1,-1,-1,-1,-1,-1,-1,-1,-1,-1,-1,-1,-1,-1,-1,-1,-1],"loss_changes":[2.104508E2,1.3251667E1,4.4059235E1,1.088171E1,3.1301983E1,2.8715736E1,3.2868988E1,3.1773994E1,5.1105204E0,1.1034615E1,3.2694244E1,6.3620973E0,2.3277779E1,2.1956867E1,2.565831E1,6.0481415E0,0E0,0E0,4.0105534E0,1.0643101E1,0E0,1.3101376E1,0E0,4.1298923E0,0E0,7.0430527E0,1.3457478E0,2.24105E1,0E0,6.948529E1,5.395498E1,0E0,0E0,0E0,0E0,0E0,0E0,0E0,0E0,0E0,0E0,0E0,0E0,0E0,0E0,0E0,0E0,0E0,0E0,0E0,0E0],"parents":[2147483647,0,0,1,1,2,2,3,3,4,4,5,5,6,6,7,7,8,8,9,9,10,10,11,11,12,12,13,13,14,14,15,15,18,18,19,19,21,21,23,23,25,25,26,26,27,27,29,29,30,30],"right_children":[2,4,6,8,10,12,14,16,18,20,22,24,26,28,30,32,-1,-1,34,36,-1,38,-1,40,-1,42,44,46,-1,48,50,-1,-1,-1,-1,-1,-1,-1,-1,-1,-1,-1,-1,-1,-1,-1,-1,-1,-1,-1,-1],"split_conditions":[2.2727273E0,1E0,7.340492E-1,2.5E0,3.25E0,0E0,4.2E1,3.3333333E0,5.99911E-1,7.46817E-1,1.5E0,2.6666667E0,3E0,3.25E2,1.4482005E0,3E0,3.15765E-1,8.7596655E-2,4.1E1,2.5714285E0,-1.3341878E-1,2.55E2,3.7195948E-1,2.3333333E0,-1.1949741E-1,2E0,4E0,1E0,3.1134415E-1,1.373481E0,1.5118291E0,-9.699444E-3,-1.10243574E-1,1.5068638E-2,-1.0436668E-1,-5.4091852E-2,1.3758253E-1,-4.06939E-2,1.8788321E-1,-5.8316983E-2,1.3661338E-1,1.3172154E-1,3.8271278E-1,-8.236431E-2,3.6611535E-2,-2.8579647E-2,3.094326E-1,3.518504E-2,1.4150184E-1,-5.121813E-2,3.6418658E-2],"split_indices":[3,18,5,1,9,12,13,0,4,4,0,2,0,12,7,0,0,0,13,10,0,12,0,0,0,2,0,82,0,7,7,0,0,0,0,0,0,0,0,0,0,0,0,0,0,0,0,0,0,0,0],"split_type":[0,0,0,0,0,0,0,0,0,0,0,0,0,0,0,0,0,0,0,0,0,0,0,0,0,0,0,0,0,0,0,0,0,0,0,0,0,0,0,0,0,0,0,0,0,0,0,0,0,0,0],"sum_hessian":[6.152E3,4.796E3,1.356E3,4.767E3,2.9E1,1.7E1,1.339E3,4.744E3,2.3E1,1.6E1,1.3E1,5E0,1.2E1,1.17E2,1.222E3,4.742E3,2E0,1E0,2.2E1,1E1,6E0,9E0,4E0,3E0,2E0,1E1,2E0,1.16E2,1E0,3.31E2,8.91E2,4.737E3,5E0,3E0,1.9E1,6E0,4E0,6E0,3E0,1E0,2E0,3E0,7E0,1E0,1E0,1.15E2,1E0,2.5E2,8.1E1,7.6E1,8.15E2],"tree_param":{"num_deleted":"0","num_feature":"161","num_nodes":"51","size_leaf_vector":"1"}},{"base_weights":[2.8542147E-3,-9.411948E-2,2.9114407E-1,-9.4339214E-2,4.5876395E-2,3.05388E-1,-6.671868E-1,-9.418788E-2,-3.9547097E-2,3.2507238E-1,-3.9833477E-1,-4.2607754E-1,-1.4499646E-1,-9.422663E-2,4.20796E-3,-2.0780115E-1,3.4998608E-1,-5.934337E-1,3.8003603E-1,-8.1616247E-1,9.8034896E-2,-9.401472E-3,-1.0822777E-2,-2.8346166E-2,2.3928963E-1,1.66243E-1,3.3667818E-2,-1.4449121E-1,-1.4650042E-2,-1.16806505E-2,-1.0638201E-1,9.790046E-2,-5.0561737E-2],"categories":[],"categories_nodes":[],"categories_segments":[],"categories_sizes":[],"default_left":[0,0,0,0,0,0,0,0,0,0,0,0,0,0,0,0,0,0,0,0,0,0,0,0,0,0,0,0,0,0,0,0,0],"id":21,"left_children":[1,3,5,7,-1,9,11,13,-1,15,17,19,-1,21,-1,23,25,27,-1,29,31,-1,-1,-1,-1,-1,-1,-1,-1,-1,-1,-1,-1],"loss_changes":[1.7204396E2,6.0272217E-1,2.1348206E1,1.7256927E-1,0E0,2.1281998E1,3.7231073E0,2.8266907E-2,0E0,1.9800644E1,3.6660015E1,3.9645317E0,0E0,3.4828186E-3,0E0,1.3861889E1,2.4241821E1,1.5391034E1,0E0,1.7809486E0,5.2811956E0,0E0,0E0,0E0,0E0,0E0,0E0,0E0,0E0,0E0,0E0,0E0,0E0],"parents":[2147483647,0,0,1,1,2,2,3,3,5,5,6,6,7,7,9,9,10,10,11,11,13,13,15,15,16,16,17,17,19,19,20,20],"right_children":[2,4,6,8,-1,10,12,14,-1,16,18,20,-1,22,-1,24,26,28,-1,30,32,-1,-1,-1,-1,-1,-1,-1,-1,-1,-1,-1,-1],"split_conditions":[6E-1,5E-1,1E0,3.3333334E-1,4.5876395E-2,1E0,6E0,4E-1,-3.9547097E-2,-2.2E2,4.25E0,2.1238847E0,-1.4499646E-1,1E0,4.20796E-3,5.25E0,-2.05E2,5.571429E0,3.8003603E-1,8.142858E0,4.571429E0,-9.401472E-3,-1.0822777E-2,-2.8346166E-2,2.3928963E-1,1.66243E-1,3.3667818E-2,-1.4449121E-1,-1.4650042E-2,-1.16806505E-2,-1.0638201E-1,9.790046E-2,-5.0561737E-2],"split_indices":[1,0,74,0,0,70,0,1,0,12,2,5,0,107,0,2,12,10,0,10,2,0,0,0,0,0,0,0,0,0,0,0,0],"split_type":[0,0,0,0,0,0,0,0,0,0,0,0,0,0,0,0,0,0,0,0,0,0,0,0,0,0,0,0,0,0,0,0,0],"sum_hessian":[6.152E3,4.604E3,1.548E3,4.603E3,1E0,1.526E3,2.2E1,4.602E3,1E0,1.485E3,4.1E1,1.8E1,4E0,4.601E3,1E0,6.6E1,1.419E3,4E1,1E0,1E1,8E0,4.54E3,6.1E1,6.5E1,1E0,1.3E1,1.406E3,1.3E1,2.7E1,3E0,7E0,3E0,5E0],"tree_param":{"num_deleted":"0","num_feature":"161","num_nodes":"33","size_leaf_vector":"1"}},{"base_weights":[2.6348326E-3,-7.806418E-2,2.879042E-1,-7.478656E-2,-7.267854E-1,1.7078497E0,2.6861545E-1,-7.6656565E-2,2.9246947E-1,8.153343E-2,-8.292834E-1,-1.3285244E-1,2.4260316E0,-2.5906634E-1,3.0726886E-1,-8.336439E-2,2.6172295E-1,-1.2141768E0,-3.752831E-1,1.2974332E-1,-6.783962E-1,3.269953E0,4.2176643E-1,-1.6232395E0,7.1789436E-2,4.466331E-1,1.6696554E-1,-8.164956E-3,-1.2164735E-1,1.3570279E-2,3.031746E-1,-1.3456738E-1,-3.7112795E-2,-8.512025E-2,8.625971E-3,-1.1387384E-1,5.8148623E-2,1.0921442E-1,3.7361637E-1,9.268554E-2,-7.9929486E-2,-9.747494E-2,-2.3120084E-1,3.611183E-1,-7.464851E-3,4.207269E-2,3.5800382E-1,1.5309677E-1,1.2855271E-2],"categories":[],"categories_nodes":[],"categories_segments":[],"categories_sizes":[],"default_left":[0,0,0,0,0,0,0,0,0,0,0,0,0,0,0,0,0,0,0,0,0,0,0,0,0,0,0,0,0,0,0,0,0,0,0,0,0,0,0,0,0,0,0,0,0,0,0,0,0],"id":22,"left_children":[1,3,5,7,9,11,13,15,-1,-1,17,19,21,23,25,27,29,31,33,-1,35,37,39,41,43,45,47,-1,-1,-1,-1,-1,-1,-1,-1,-1,-1,-1,-1,-1,-1,-1,-1,-1,-1,-1,-1,-1,-1],"loss_changes":[1.4167044E2,1.0145332E1,3.6708084E1,2.700175E1,4.4696836E0,2.4117561E1,2.7411179E1,1.0853262E1,0E0,0E0,3.5634003E0,5.5618744E0,2.0609596E1,4.164023E1,2.4347458E1,8.99435E0,3.2052902E1,8.30883E-1,2.7093105E0,0E0,3.5620458E0,5.0574265E0,3.8245537E0,5.7862473E0,3.914218E1,4.930909E1,3.2497787E1,0E0,0E0,0E0,0E0,0E0,0E0,0E0,0E0,0E0,0E0,0E0,0E0,0E0,0E0,0E0,0E0,0E0,0E0,0E0,0E0,0E0,0E0],"parents":[2147483647,0,0,1,1,2,2,3,3,4,4,5,5,6,6,7,7,10,10,11,11,12,12,13,13,14,14,15,15,16,16,17,17,18,18,20,20,21,21,22,22,23,23,24,24,25,25,26,26],"right_children":[2,4,6,8,10,12,14,16,-1,-1,18,20,22,24,26,28,30,32,34,-1,36,38,40,42,44,46,48,-1,-1,-1,-1,-1,-1,-1,-1,-1,-1,-1,-1,-1,-1,-1,-1,-1,-1,-1,-1,-1,-1],"split_conditions":[2.2727273E0,2.5E0,7.340492E-1,3.3333333E0,5.99911E-1,0E0,4.1E1,1.6666666E0,2.9246947E-1,8.153343E-2,1.385533E0,2.25E0,1E0,1.1308364E0,7.857143E0,2E0,1E0,1E0,2.090909E0,1.2974332E-1,4E0,2E0,3.3333333E0,9.78877E-1,3.8E1,1.2333333E1,2.142857E0,-8.164956E-3,-1.2164735E-1,1.3570279E-2,3.031746E-1,-1.3456738E-1,-3.7112795E-2,-8.512025E-2,8.625971E-3,-1.1387384E-1,5.8148623E-2,1.0921442E-1,3.7361637E-1,9.268554E-2,-7.9929486E-2,-9.747494E-2,-2.3120084E-1,3.611183E-1,-7.464851E-3,4.207269E-2,3.5800382E-1,1.5309677E-1,1.2855271E-2],"split_indices":[3,1,5,0,4,12,13,0,0,0,4,1,14,5,10,1,35,59,3,0,0,2,1,4,13,8,2,0,0,0,0,0,0,0,0,0,0,0,0,0,0,0,0,0,0,0,0,0,0],"split_type":[0,0,0,0,0,0,0,0,0,0,0,0,0,0,0,0,0,0,0,0,0,0,0,0,0,0,0,0,0,0,0,0,0,0,0,0,0,0,0,0,0,0,0,0,0,0,0,0,0],"sum_hessian":[6.152E3,4.796E3,1.356E3,4.773E3,2.3E1,1.7E1,1.339E3,4.771E3,2E0,1E0,2.2E1,5E0,1.2E1,9.1E1,1.248E3,4.679E3,9.2E1,1.1E1,1.1E1,1E0,4E0,8E0,4E0,1.7E1,7.4E1,6.25E2,6.23E2,4.673E3,6E0,8.9E1,3E0,9E0,2E0,5E0,6E0,3E0,1E0,2E0,6E0,3E0,1E0,1E1,7E0,2E0,7.2E1,6.21E2,4E0,1.6E1,6.07E2],"tree_param":{"num_deleted":"0","num_feature":"161","num_nodes":"49","size_leaf_vector":"1"}},{"base_weights":[2.6107968E-3,-7.019257E-2,2.5996903E-1,-7.375315E-2,4.9804217E-1,1.5687095E0,2.4219492E-1,-6.944723E-2,-5.344741E-1,-3.637529E-1,1.5089332E0,2.055073E0,-6.4733064E-1,2.3376927E-1,2.4450913E-1,-7.0489556E-2,2.4272528E-1,-6.805944E-1,1.689368E-1,2.3788138E-1,-1.2572135E-1,4.203882E-1,3.3842364E-1,3.1643777E0,6.888839E-1,-1.0528626E-1,2.8463269E-2,-2.9611498E-1,2.7228105E-1,-7.656235E-3,2.327327E-2,-7.785269E-2,1.6673195E-1,-5.0641198E-2,1.2323158E-1,-3.816126E-2,1.7187925E-1,7.0178725E-2,3.4159213E-1,1.3959305E-1,-3.6714513E-2,-1.4791752E-1,-4.342036E-4,4.09734E-2,1.3328298E-2],"categories":[],"categories_nodes":[],"categories_segments":[],"categories_sizes":[],"default_left":[0,0,0,0,0,0,0,0,0,0,0,0,0,0,0,0,0,0,0,0,0,0,0,0,0,0,0,0,0,0,0,0,0,0,0,0,0,0,0,0,0,0,0,0,0],"id":23,"left_children":[1,3,5,7,9,11,13,15,17,19,21,23,25,27,-1,29,-1,31,-1,33,-1,35,-1,37,39,-1,-1,41,43,-1,-1,-1,-1,-1,-1,-1,-1,-1,-1,-1,-1,-1,-1,-1,-1],"loss_changes":[1.15304214E2,9.742243E0,3.1186172E1,9.421774E0,2.6684307E1,2.0730724E1,2.429995E1,1.2467331E1,1.5447503E1,9.437189E0,2.7156233E1,2.055291E1,1.811443E0,2.7344093E1,0E0,8.716623E0,0E0,1.0955416E1,0E0,8.765719E0,0E0,1.1069125E1,0E0,2.5583344E0,6.4858027E0,0E0,0E0,3.140541E1,2.3751091E1,0E0,0E0,0E0,0E0,0E0,0E0,0E0,0E0,0E0,0E0,0E0,0E0,0E0,0E0,0E0,0E0],"parents":[2147483647,0,0,1,1,2,2,3,3,4,4,5,5,6,6,7,7,8,8,9,9,10,10,11,11,12,12,13,13,15,15,17,17,19,19,21,21,23,23,24,24,27,27,28,28],"right_children":[2,4,6,8,10,12,14,16,18,20,22,24,26,28,-1,30,-1,32,-1,34,-1,36,-1,38,40,-1,-1,42,44,-1,-1,-1,-1,-1,-1,-1,-1,-1,-1,-1,-1,-1,-1,-1,-1],"split_conditions":[2.2727273E0,1E0,7.340492E-1,2.3333333E0,3.25E0,3.2E0,3.4E2,3.3333333E0,1E0,7.46817E-1,1.5E0,4.5E1,4E0,4.1E1,2.4450913E-1,1.4E0,2.4272528E-1,1.3E1,1.689368E-1,2.5714285E0,-1.2572135E-1,2.55E2,3.3842364E-1,1.8571428E0,2.25E0,-1.0528626E-1,2.8463269E-2,1.1308364E0,1E0,-7.656235E-3,2.327327E-2,-7.785269E-2,1.6673195E-1,-5.0641198E-2,1.2323158E-1,-3.816126E-2,1.7187925E-1,7.0178725E-2,3.4159213E-1,1.3959305E-1,-3.6714513E-2,-1.4791752E-1,-4.342036E-4,4.09734E-2,1.3328298E-2],"split_indices":[3,18,5,1,9,1,12,0,17,4,0,13,0,13,0,1,0,8,0,10,0,12,0,2,1,0,0,5,14,0,0,0,0,0,0,0,0,0,0,0,0,0,0,0,0],"split_type":[0,0,0,0,0,0,0,0,0,0,0,0,0,0,0,0,0,0,0,0,0,0,0,0,0,0,0,0,0,0,0,0,0,0,0,0,0,0,0,0,0,0,0,0,0],"sum_hessian":[6.152E3,4.796E3,1.356E3,4.767E3,2.9E1,1.7E1,1.339E3,4.724E3,4.3E1,1.6E1,1.3E1,1.4E1,3E0,1.335E3,4E0,4.723E3,1E0,4.1E1,2E0,1E1,6E0,9E0,4E0,7E0,7E0,2E0,1E0,9E1,1.245E3,4.631E3,9.2E1,4E1,1E0,6E0,4E0,6E0,3E0,1E0,6E0,4E0,3E0,1.7E1,7.3E1,6.25E2,6.2E2],"tree_param":{"num_deleted":"0","num_feature":"161","num_nodes":"45","size_leaf_vector":"1"}},{"base_weights":[2.597308E-3,-6.703181E-2,2.2327644E-1,-6.547033E-2,-1.2719898E-1,2.843415E-1,-1.308082E-2,-6.76153E-2,6.531754E-1,2.7211097E-1,2.2827272E0,-5.3879505E-1,2.2480458E-1,-6.481893E-2,-1.2435703E0,2.4518156E-1,-3.1146222E-1,5.45353E-1,1.7904703E-1,3.986361E-1,8.411586E-3,-6.5007895E-1,3.0906034E-1,1.5551157E0,5.2867312E-2,-6.8191527E-3,8.068513E-2,-1.8850116E-1,-3.9486732E-2,-1.0254619E-1,1.0159029E-1,3.5060763E-2,1.8990946E-1,2.0410582E-2,-1.0932692E-1,-2.152156E-2,3.396466E-2,-1.199592E-1,-1.3215721E-2,6.0042467E-2,3.3894446E-1,-7.563628E-4,1.8771279E-1],"categories":[],"categories_nodes":[],"categories_segments":[],"categories_sizes":[],"default_left":[0,0,0,0,0,0,0,0,0,1,0,0,0,0,0,0,0,0,0,0,0,0,0,0,0,0,0,0,0,0,0,0,0,0,0,0,0,0,0,0,0,0,0],"id":24,"left_children":[1,3,5,7,-1,9,11,13,15,17,19,21,23,25,27,-1,29,31,33,-1,35,37,-1,39,41,-1,-1,-1,-1,-1,-1,-1,-1,-1,-1,-1,-1,-1,-1,-1,-1,-1,-1],"loss_changes":[9.456007E1,8.718443E0,2.130709E1,7.2474785E0,0E0,2.804853E1,3.8139286E1,1.5243359E1,2.505415E1,2.9577972E1,2.7088676E1,4.037902E1,4.7951096E1,1.3725056E1,5.2439976E0,0E0,1.0519153E1,7.737009E1,2.8024874E1,0E0,3.6938983E-1,2.6309711E1,0E0,3.999411E1,2.0629412E1,0E0,0E0,0E0,0E0,0E0,0E0,0E0,0E0,0E0,0E0,0E0,0E0,0E0,0E0,0E0,0E0,0E0,0E0],"parents":[2147483647,0,0,1,1,2,2,3,3,5,5,6,6,7,7,8,8,9,9,10,10,11,11,12,12,13,13,14,14,16,16,17,17,18,18,20,20,21,21,23,23,24,24],"right_children":[2,4,6,8,-1,10,12,14,16,18,20,22,24,26,28,-1,30,32,34,-1,36,38,-1,40,42,-1,-1,-1,-1,-1,-1,-1,-1,-1,-1,-1,-1,-1,-1,-1,-1,-1,-1],"split_conditions":[1.3333334E0,3.25E0,9.625E0,2.5714285E0,-1.2719898E-1,1.35E1,1.0428572E1,2E0,1.1155823E0,2.3333333E0,1.5997514E0,1E0,1.625067E0,1.5E0,6.5E0,2.4518156E-1,1.7278626E0,3.142857E0,1E0,3.986361E-1,5.6666665E0,1.74814E0,3.0906034E-1,1.440015E0,1E0,-6.8191527E-3,8.068513E-2,-1.8850116E-1,-3.9486732E-2,-1.0254619E-1,1.0159029E-1,3.5060763E-2,1.8990946E-1,2.0410582E-2,-1.0932692E-1,-2.152156E-2,3.396466E-2,-1.199592E-1,-1.3215721E-2,6.0042467E-2,3.3894446E-1,-7.563628E-4,1.8771279E-1],"split_indices":[0,2,10,2,0,8,10,1,4,0,4,18,5,1,8,0,5,2,52,0,0,4,0,5,17,0,0,0,0,0,0,0,0,0,0,0,0,0,0,0,0,0,0],"split_type":[0,0,0,0,0,0,0,0,0,0,0,0,0,0,0,0,0,0,0,0,0,0,0,0,0,0,0,0,0,0,0,0,0,0,0,0,0,0,0,0,0,0,0],"sum_hessian":[6.152E3,4.677E3,1.475E3,4.672E3,5E0,1.172E3,3.03E2,4.659E3,1.3E1,1.166E3,6E0,9.4E1,2.09E2,4.649E3,1E1,4E0,9E0,2.95E2,8.71E2,3E0,3E0,9.2E1,2E0,2.3E1,1.86E2,4.632E3,1.7E1,5E0,5E0,6E0,3E0,2.59E2,3.6E1,8.55E2,1.6E1,2E0,1E0,4.4E1,4.8E1,1.6E1,7E0,1.81E2,5E0],"tree_param":{"num_deleted":"0","num_feature":"161","num_nodes":"43","size_leaf_vector":"1"}},{"base_weights":[2.5442871E-3,-5.811888E-2,2.0987722E-1,-5.988216E-2,1.3492619E0,5.005033E-1,1.4803146E-1,-5.7837512E-2,-7.4830157E-1,-1.58897E-1,4.8171505E-1,7.158205E-1,-4.1722673E-1,6.3300025E-1,1.0376128E-1,-6.0583547E-2,2.5564203E-1,-1.2610216E-1,1.4549549E-1,9.152708E-1,-3.4742993E-1,7.5567853E-1,-8.879163E-1,4.3783846E-1,2.7250497E0,-3.2010898E-1,1.8784021E-1,-5.8832564E-3,-9.74285E-2,3.4425028E-2,-4.2413916E-2,-1.0510079E-2,1.269957E-1,-1.315503E-1,2.2229886E-2,2.9812273E-1,-8.1198506E-2,-1.2572032E-1,1.0449562E-1,6.046324E-2,-1.6024089E-1,3.3438084E-1,-8.03131E-2,-4.6429496E-2,9.633074E-2,1.634823E-2,2.5296864E-1],"categories":[],"categories_nodes":[],"categories_segments":[],"categories_sizes":[],"default_left":[0,0,1,0,0,0,0,0,0,0,0,0,0,0,0,0,0,0,0,0,0,0,0,0,0,0,0,0,0,0,0,0,0,0,0,0,0,0,0,0,0,0,0,0,0,0,0],"id":25,"left_children":[1,3,5,7,9,11,13,15,17,-1,-1,19,21,23,25,27,-1,-1,29,31,33,35,37,39,41,43,45,-1,-1,-1,-1,-1,-1,-1,-1,-1,-1,-1,-1,-1,-1,-1,-1,-1,-1,-1,-1],"loss_changes":[7.740139E1,1.1895731E1,2.496368E1,6.651142E0,6.879108E1,4.8513813E1,2.4624418E1,3.420411E1,6.5992203E0,0E0,0E0,4.230697E1,2.6618471E1,3.8002518E1,3.765881E1,7.5244884E0,0E0,0E0,8.2531554E-1,6.0572723E1,1.7941683E1,5.1265484E1,2.5582392E1,3.1255636E1,2.015026E1,3.2831123E1,4.9840855E1,0E0,0E0,0E0,0E0,0E0,0E0,0E0,0E0,0E0,0E0,0E0,0E0,0E0,0E0,0E0,0E0,0E0,0E0,0E0,0E0],"parents":[2147483647,0,0,1,1,2,2,3,3,4,4,5,5,6,6,7,7,8,8,11,11,12,12,13,13,14,14,15,15,18,18,19,19,20,20,21,21,22,22,23,23,24,24,25,25,26,26],"right_children":[2,4,6,8,10,12,14,16,18,-1,-1,20,22,24,26,28,-1,-1,30,32,34,36,38,40,42,44,46,-1,-1,-1,-1,-1,-1,-1,-1,-1,-1,-1,-1,-1,-1,-1,-1,-1,-1,-1,-1],"split_conditions":[1.6666666E0,1E0,2.3333333E0,3.3636363E0,1.4773036E0,8.833333E0,1.0372874E0,3.1E0,1.8961275E0,-1.58897E-1,4.8171505E-1,2.45E2,-4.5E1,1.3409568E0,2.6363637E0,2.9166667E0,2.5564203E-1,-1.2610216E-1,3.25E0,-2E1,2E0,1.6310635E0,1.0833333E1,1E0,3.5E0,1.0125E1,1E0,-5.8832564E-3,-9.74285E-2,3.4425028E-2,-4.2413916E-2,-1.0510079E-2,1.269957E-1,-1.315503E-1,2.2229886E-2,2.9812273E-1,-8.1198506E-2,-1.2572032E-1,1.0449562E-1,6.046324E-2,-1.6024089E-1,3.3438084E-1,-8.03131E-2,-4.6429496E-2,9.633074E-2,1.634823E-2,2.5296864E-1],"split_indices":[0,56,0,3,4,11,5,3,6,0,0,12,12,6,3,3,0,0,2,12,0,6,11,52,3,10,62,0,0,0,0,0,0,0,0,0,0,0,0,0,0,0,0,0,0,0,0],"split_type":[0,0,0,0,0,0,0,0,0,0,0,0,0,0,0,0,0,0,0,0,0,0,0,0,0,0,0,0,0,0,0,0,0,0,0,0,0,0,0,0,0,0,0,0,0,0,0],"sum_hessian":[6.152E3,4.76E3,1.392E3,4.755E3,5E0,2.43E2,1.149E3,4.742E3,1.3E1,3E0,2E0,1.97E2,4.6E1,9.5E1,1.054E3,4.738E3,4E0,8E0,5E0,1.66E2,3.1E1,1.3E1,3.3E1,8.8E1,7E0,1.74E2,8.8E2,4.73E3,8E0,4E0,1E0,4.3E1,1.23E2,1.1E1,2E1,5E0,8E0,2.8E1,5E0,8.2E1,6E0,6E0,1E0,1.57E2,1.7E1,8.72E2,8E0],"tree_param":{"num_deleted":"0","num_feature":"161","num_nodes":"47","size_leaf_vector":"1"}},{"base_weights":[2.4552222E-3,-5.159333E-2,1.9351524E-1,-4.613725E-2,-3.1548446E-1,1.3474847E0,1.7786975E-1,-5.5887207E-2,4.597356E-1,-4.8935768E-1,1.2461482E0,1.7102805E0,-1.0365876E-1,-5.5591416E-1,2.0204143E-1,-5.5426896E-2,-7.447572E-2,7.4246E-2,1.7044522E0,-5.582851E-1,2.7536651E-1,-1.1272066E0,2.4243298E0,2.5621793E0,5.381093E-1,-1.050062E0,9.770668E-1,7.726202E-1,1.4750732E-1,-5.6322473E-3,9.9013165E-2,-1.1878983E-1,7.737874E-2,2.3938067E-1,-1.622946E-3,-6.508216E-2,1.08947806E-1,-2.32409E-2,-1.3480027E-1,-3.6559224E-3,2.840571E-1,3.049595E-1,5.708167E-2,1.197423E-1,-4.2056024E-2,-2.5362967E-2,-1.699665E-1,-7.962149E-2,3.2642478E-1,9.41396E-2,-5.980704E-2,1.1052324E-2,7.267572E-2],"categories":[],"categories_nodes":[],"categories_segments":[],"categories_sizes":[],"default_left":[0,0,0,0,0,0,0,0,0,0,0,0,0,0,0,0,0,0,0,0,0,0,0,0,0,0,0,0,0,0,0,0,0,0,0,0,0,0,0,0,0,0,0,0,0,0,0,0,0,0,0,0,0],"id":26,"left_children":[1,3,5,7,9,11,13,15,17,19,21,23,-1,25,27,29,-1,31,33,35,-1,37,39,41,43,45,47,49,51,-1,-1,-1,-1,-1,-1,-1,-1,-1,-1,-1,-1,-1,-1,-1,-1,-1,-1,-1,-1,-1,-1,-1,-1],"loss_changes":[6.3549046E1,6.8922176E0,2.4260185E1,2.3212143E1,2.6947842E1,1.7341618E1,2.3879616E1,1.4214802E0,4.2577896E1,2.1208258E1,3.069515E1,1.4598408E1,0E0,3.3599304E1,4.0274597E1,4.373395E0,0E0,6.184081E1,2.4948212E1,1.3974661E1,0E0,4.7698355E-1,7.2741165E0,6.994831E0,5.5601006E0,1.6641953E1,4.7213013E1,2.6704369E1,2.5327389E1,0E0,0E0,0E0,0E0,0E0,0E0,0E0,0E0,0E0,0E0,0E0,0E0,0E0,0E0,0E0,0E0,0E0,0E0,0E0,0E0,0E0,0E0,0E0,0E0],"parents":[2147483647,0,0,1,1,2,2,3,3,4,4,5,5,6,6,7,7,8,8,9,9,10,10,11,11,13,13,14,14,15,15,17,17,18,18,19,19,21,21,22,22,23,23,24,24,25,25,26,26,27,27,28,28],"right_children":[2,4,6,8,10,12,14,16,18,20,22,24,-1,26,28,30,-1,32,34,36,-1,38,40,42,44,46,48,50,52,-1,-1,-1,-1,-1,-1,-1,-1,-1,-1,-1,-1,-1,-1,-1,-1,-1,-1,-1,-1,-1,-1,-1,-1],"split_conditions":[2.2727273E0,1.875E0,7.340492E-1,1.1666666E0,1E0,3.3333333E0,7.46817E-1,1.0833334E0,5.1666665E0,1E0,3.2E0,4.5E1,-1.0365876E-1,3.142857E0,9.93605E-1,1E0,-7.447572E-2,1.7E2,7.25E0,1.2333333E1,2.7536651E-1,1.3333334E0,1.7142857E0,1E0,2.25E0,5.571429E0,4.4E1,1.447368E0,1E0,-5.6322473E-3,9.9013165E-2,-1.1878983E-1,7.737874E-2,2.3938067E-1,-1.622946E-3,-6.508216E-2,1.08947806E-1,-2.32409E-2,-1.3480027E-1,-3.6559224E-3,2.840571E-1,3.049595E-1,5.708167E-2,1.197423E-1,-4.2056024E-2,-2.5362967E-2,-1.699665E-1,-7.962149E-2,3.2642478E-1,9.41396E-2,-5.980704E-2,1.1052324E-2,7.267572E-2],"split_indices":[3,3,5,3,17,1,4,3,11,29,9,13,0,2,4,2,0,12,9,8,0,0,2,14,1,10,13,5,40,0,0,0,0,0,0,0,0,0,0,0,0,0,0,0,0,0,0,0,0,0,0,0,0],"split_type":[0,0,0,0,0,0,0,0,0,0,0,0,0,0,0,0,0,0,0,0,0,0,0,0,0,0,0,0,0,0,0,0,0,0,0,0,0,0,0,0,0,0,0,0,0,0,0,0,0,0,0,0,0],"sum_hessian":[6.152E3,4.796E3,1.356E3,4.7E3,9.6E1,1.7E1,1.339E3,4.612E3,8.8E1,8.7E1,9E0,1.5E1,2E0,4.2E1,1.297E3,4.61E3,2E0,6.8E1,2E1,8.6E1,1E0,3E0,6E0,8E0,7E0,3.2E1,1E1,1.12E2,1.185E3,4.607E3,3E0,2.4E1,4.4E1,1.4E1,6E0,8.2E1,4E0,1E0,2E0,1E0,5E0,6E0,2E0,4E0,3E0,1.5E1,1.7E1,6E0,4E0,1E2,1.2E1,1.115E3,7E1],"tree_param":{"num_deleted":"0","num_feature":"161","num_nodes":"53","size_leaf_vector":"1"}},{"base_weights":[2.3986169E-3,-4.742092E-2,1.7267027E-1,-4.9058992E-2,1.2589284E0,2.2507955E-1,-1.4291641E-1,-4.7111962E-2,-7.0518184E-1,-1.4780866E-1,4.488639E-1,2.181749E-1,4.2346078E-1,-1.2820534E0,4.335541E-2,-4.957124E-2,2.2932127E-1,-1.1772189E-1,1.2040416E-1,3.7428895E-1,6.351616E-2,-1.6395131E0,-7.434834E-1,-4.8732016E-2,2.2209494E0,-4.7993655E-3,-8.7334685E-2,3.0786833E-2,-4.0845837E-2,2.9990522E-2,1.5537345E-1,-3.8299862E-2,2.182058E-2,-1.8010288E-1,-3.3926927E-2,-1.0623129E-1,-1.9446362E-2,2.1653244E-2,-6.5112315E-2,7.3295296E-3,3.813366E-1],"categories":[],"categories_nodes":[],"categories_segments":[],"categories_sizes":[],"default_left":[0,0,0,0,0,0,0,0,0,0,0,0,0,0,0,0,0,0,0,0,0,0,0,0,0,0,0,0,0,0,0,0,0,0,0,0,0,0,0,0,0],"id":27,"left_children":[1,3,5,7,9,11,13,15,17,-1,-1,19,-1,21,23,25,-1,-1,27,29,31,33,35,37,39,-1,-1,-1,-1,-1,-1,-1,-1,-1,-1,-1,-1,-1,-1,-1,-1],"loss_changes":[5.2203197E1,1.02498045E1,2.3071926E1,6.042534E0,5.967319E1,3.215889E1,4.2281216E1,2.7412037E1,5.597643E0,0E0,0E0,2.8804642E1,0E0,4.1715317E0,3.4599224E1,6.1167736E0,0E0,0E0,7.2060806E-1,5.1646553E1,4.159537E1,2.7491188E0,2.0689864E0,2.6666616E1,2.3660217E1,0E0,0E0,0E0,0E0,0E0,0E0,0E0,0E0,0E0,0E0,0E0,0E0,0E0,0E0,0E0,0E0],"parents":[2147483647,0,0,1,1,2,2,3,3,4,4,5,5,6,6,7,7,8,8,11,11,13,13,14,14,15,15,18,18,19,19,20,20,21,21,22,22,23,23,24,24],"right_children":[2,4,6,8,10,12,14,16,18,-1,-1,20,-1,22,24,26,-1,-1,28,30,32,34,36,38,40,-1,-1,-1,-1,-1,-1,-1,-1,-1,-1,-1,-1,-1,-1,-1,-1],"split_conditions":[1.6666666E0,1E0,2.087461E0,3.3636363E0,1.4773036E0,1.3272727E1,2.0693243E0,3.1E0,1.8961275E0,-1.4780866E-1,4.488639E-1,1E0,4.2346078E-1,1.8913653E0,1E0,2.9166667E0,2.2932127E-1,-1.1772189E-1,3.25E0,1.3E1,-5E0,4.7272725E0,2.1887176E0,5E0,4.5E0,-4.7993655E-3,-8.7334685E-2,3.0786833E-2,-4.0845837E-2,2.9990522E-2,1.5537345E-1,-3.8299862E-2,2.182058E-2,-1.8010288E-1,-3.3926927E-2,-1.0623129E-1,-1.9446362E-2,2.1653244E-2,-6.5112315E-2,7.3295296E-3,3.813366E-1],"split_indices":[0,56,7,3,4,11,6,3,6,0,0,14,0,4,42,3,0,0,2,8,12,3,7,0,1,0,0,0,0,0,0,0,0,0,0,0,0,0,0,0,0],"split_type":[0,0,0,0,0,0,0,0,0,0,0,0,0,0,0,0,0,0,0,0,0,0,0,0,0,0,0,0,0,0,0,0,0,0,0,0,0,0,0,0,0],"sum_hessian":[6.152E3,4.76E3,1.392E3,4.755E3,5E0,1.194E3,1.98E2,4.742E3,1.3E1,3E0,2E0,1.193E3,1E0,2.7E1,1.71E2,4.738E3,4E0,8E0,5E0,5.93E2,6E2,1.5E1,1.2E1,1.65E2,6E0,4.73E3,8E0,4E0,1E0,5.59E2,3.4E1,1.54E2,4.46E2,1.3E1,2E0,7E0,5E0,1.15E2,5E1,3E0,3E0],"tree_param":{"num_deleted":"0","num_feature":"161","num_nodes":"41","size_leaf_vector":"1"}},{"base_weights":[2.3063845E-3,-4.215277E-2,1.5946797E-1,-4.509642E-2,4.2709604E-1,1.0154194E0,1.4067033E-1,-4.102562E-2,-4.8121992E-1,-3.4568924E-1,1.3349713E0,2.7107854E0,3.5276723E-1,1.11421205E-1,6.497637E-1,-4.2025212E-2,2.3405305E-1,-6.006935E-1,1.3518168E-1,2.131462E-1,-1.17447495E-1,3.9975256E-1,2.9384145E-1,3.115402E-1,9.979577E-2,-7.609273E-1,1.535637E0,8.8134445E-2,8.7750226E-1,8.114426E-1,-1.6790225E-1,-4.0203696E-3,-8.9666925E-2,-6.867983E-2,1.4648025E-1,-4.3233324E-2,1.0741881E-1,2.329593E-1,-7.351783E-3,-1.06387496E-1,5.0254077E-2,2.3532353E-1,-1.4290367E-1,1.2543727E-1,7.064032E-3,-2.1964632E-2,1.635542E-1,3.3663254E-2,1.8580827E-1],"categories":[],"categories_nodes":[],"categories_segments":[],"categories_sizes":[],"default_left":[0,0,0,0,0,0,0,0,0,0,0,0,0,0,0,0,0,0,0,0,0,0,0,0,0,0,0,0,0,0,0,0,0,0,0,0,0,0,0,0,0,0,0,0,0,0,0,0,0],"id":28,"left_children":[1,3,5,7,9,11,13,15,17,19,21,23,25,27,29,31,-1,33,-1,35,-1,37,-1,-1,-1,39,41,43,45,47,-1,-1,-1,-1,-1,-1,-1,-1,-1,-1,-1,-1,-1,-1,-1,-1,-1,-1,-1],"loss_changes":[4.29994E1,6.6453695E0,2.1691109E1,8.4452305E0,2.1509262E1,3.1623428E1,1.9717125E1,1.1346655E1,1.0448005E1,8.123967E0,1.9819345E1,2.4352646E0,3.0150331E1,2.2364813E1,2.8471558E1,7.3180437E0,0E0,8.47569E0,0E0,6.57804E0,0E0,9.30463E0,0E0,0E0,0E0,5.1278176E0,3.0025888E1,2.4843021E1,3.1131485E1,3.316747E1,0E0,0E0,0E0,0E0,0E0,0E0,0E0,0E0,0E0,0E0,0E0,0E0,0E0,0E0,0E0,0E0,0E0,0E0,0E0],"parents":[2147483647,0,0,1,1,2,2,3,3,4,4,5,5,6,6,7,7,8,8,9,9,10,10,11,11,12,12,13,13,14,14,15,15,17,17,19,19,21,21,25,25,26,26,27,27,28,28,29,29],"right_children":[2,4,6,8,10,12,14,16,18,20,22,24,26,28,30,32,-1,34,-1,36,-1,38,-1,-1,-1,40,42,44,46,48,-1,-1,-1,-1,-1,-1,-1,-1,-1,-1,-1,-1,-1,-1,-1,-1,-1,-1,-1],"split_conditions":[2.2727273E0,1E0,4.1666665E0,2.3333333E0,3.25E0,2.5E0,5.5E1,3.3333333E0,1E0,7.46817E-1,1.5E0,2.05E2,3.5E0,1E0,4.25E0,2.6666667E0,2.3405305E-1,1.3E1,1.3518168E-1,2.5714285E0,-1.17447495E-1,5.647697E-1,2.9384145E-1,3.115402E-1,9.979577E-2,4E0,3.3333333E0,8.149244E-1,1.3401158E0,7.5E0,-1.6790225E-1,-4.0203696E-3,-8.9666925E-2,-6.867983E-2,1.4648025E-1,-4.3233324E-2,1.0741881E-1,2.329593E-1,-7.351783E-3,-1.06387496E-1,5.0254077E-2,2.3532353E-1,-1.4290367E-1,1.2543727E-1,7.064032E-3,-2.1964632E-2,1.635542E-1,3.3663254E-2,1.8580827E-1],"split_indices":[3,18,10,1,9,3,13,0,17,4,0,12,8,18,1,0,0,8,0,10,0,4,0,0,0,0,0,5,7,8,0,0,0,0,0,0,0,0,0,0,0,0,0,0,0,0,0,0,0],"split_type":[0,0,0,0,0,0,0,0,0,0,0,0,0,0,0,0,0,0,0,0,0,0,0,0,0,0,0,0,0,0,0,0,0,0,0,0,0,0,0,0,0,0,0,0,0,0,0,0,0],"sum_hessian":[6.152E3,4.796E3,1.356E3,4.767E3,2.9E1,2.8E1,1.328E3,4.724E3,4.3E1,1.6E1,1.3E1,7E0,2.1E1,1.257E3,7.1E1,4.723E3,1E0,4.1E1,2E0,1E1,6E0,9E0,4E0,5E0,2E0,1.1E1,1E1,1.221E3,3.6E1,6.7E1,4E0,4.714E3,9E0,4E1,1E0,6E0,4E0,1E0,8E0,9E0,2E0,8E0,2E0,1.7E1,1.204E3,1.5E1,2.1E1,4.7E1,2E1],"tree_param":{"num_deleted":"0","num_feature":"161","num_nodes":"49","size_leaf_vector":"1"}},{"base_weights":[2.3346057E-3,-3.8875204E-2,1.4317995E-1,-4.0401343E-2,1.1773245E0,5.072228E-1,9.9169016E-2,-3.8592428E-2,-6.503504E-1,-1.3725282E-1,4.1846868E-1,1.0270944E0,5.168903E-2,2.3620453E-1,8.813074E-2,-4.0839378E-2,2.0987844E-1,-1.0788565E-1,1.0080055E-1,6.205562E-1,2.6089213E0,-3.2065362E-1,1.5843718E0,8.066654E-1,6.472442E-2,-3.93889E-3,-7.987698E-2,2.7758766E-2,-3.9156746E-2,1.345117E-3,1.6606672E-1,3.8820976E-1,2.6433695E-2,2.304244E-2,-1.2336385E-1,3.5413137E-1,5.6075384E-3,1.5382712E-1,-7.748746E-2,-1.3225858E-1,7.865972E-3],"categories":[],"categories_nodes":[],"categories_segments":[],"categories_sizes":[],"default_left":[0,0,1,0,0,0,0,0,0,0,0,0,0,0,0,0,0,0,0,0,0,1,0,0,0,0,0,0,0,0,0,0,0,0,0,0,0,0,0,0,0],"id":29,"left_children":[1,3,5,7,9,11,13,15,17,-1,-1,19,21,-1,23,25,-1,-1,27,29,31,33,35,37,39,-1,-1,-1,-1,-1,-1,-1,-1,-1,-1,-1,-1,-1,-1,-1,-1],"loss_changes":[3.571887E1,8.884417E0,2.2268154E1,5.2224164E0,5.1753582E1,3.546977E1,3.0864784E1,2.2864338E1,4.614969E0,0E0,0E0,4.3396126E1,4.673337E1,0E0,2.0785599E1,5.178413E0,0E0,0E0,6.3096017E-1,3.5970688E1,4.0764786E1,3.349057E1,4.765401E1,4.631746E1,2.3322453E1,0E0,0E0,0E0,0E0,0E0,0E0,0E0,0E0,0E0,0E0,0E0,0E0,0E0,0E0,0E0,0E0],"parents":[2147483647,0,0,1,1,2,2,3,3,4,4,5,5,6,6,7,7,8,8,11,11,12,12,14,14,15,15,18,18,19,19,20,20,21,21,22,22,23,23,24,24],"right_children":[2,4,6,8,10,12,14,16,18,-1,-1,20,22,-1,24,26,-1,-1,28,30,32,34,36,38,40,-1,-1,-1,-1,-1,-1,-1,-1,-1,-1,-1,-1,-1,-1,-1,-1],"split_conditions":[1.6666666E0,1E0,2.2E0,3.3636363E0,1.4773036E0,1E0,2E0,3.1E0,1.8961275E0,-1.3725282E-1,4.1846868E-1,3E0,1.5941092E0,2.3620453E-1,2E0,2.9166667E0,2.0987844E-1,-1.0788565E-1,3.25E0,2.5E1,9.5E1,2.6363637E0,1.699354E0,8.2E0,3.8333333E0,-3.93889E-3,-7.987698E-2,2.7758766E-2,-3.9156746E-2,1.345117E-3,1.6606672E-1,3.8820976E-1,2.6433695E-2,2.304244E-2,-1.2336385E-1,3.5413137E-1,5.6075384E-3,1.5382712E-1,-7.748746E-2,-1.3225858E-1,7.865972E-3],"split_indices":[0,56,1,3,4,14,8,3,6,0,0,3,7,0,0,3,0,0,2,12,12,3,7,9,11,0,0,0,0,0,0,0,0,0,0,0,0,0,0,0,0],"split_type":[0,0,0,0,0,0,0,0,0,0,0,0,0,0,0,0,0,0,0,0,0,0,0,0,0,0,0,0,0,0,0,0,0,0,0,0,0,0,0,0,0],"sum_hessian":[6.152E3,4.76E3,1.392E3,4.755E3,5E0,1.49E2,1.243E3,4.742E3,1.3E1,3E0,2E0,6.9E1,8E1,5E0,1.238E3,4.738E3,4E0,8E0,5E0,5.6E1,1.3E1,6.5E1,1.5E1,3.8E1,1.2E3,4.73E3,8E0,4E0,1E0,3.6E1,2E1,8E0,5E0,4.1E1,2.4E1,6E0,9E0,2.6E1,1.2E1,1.1E1,1.189E3],"tree_param":{"num_deleted":"0","num_feature":"161","num_nodes":"41","size_leaf_vector":"1"}},{"base_weights":[2.3152998E-3,-3.4534115E-2,1.3257642E-1,-2.9522782E-2,-2.77047E-1,1.5681976E-1,-4.3344882E-1,-3.4858048E-2,6.260877E-1,-4.2966104E-1,1.0936612E0,1.4772819E-1,4.0442267E-1,-6.4038163E-1,8.8819575E-1,-3.309171E-2,-1.4006105E-1,2.6853433E-1,2.4882836E0,-4.9434826E-1,2.5990638E-1,-1.034445E0,2.1534846E0,1.3962051E-1,2.7397113E0,9.901466E-1,-8.073207E-1,-1.3217984E-1,4.0154123E-1,-3.4960143E-3,2.8783736E-1,8.866064E-2,-8.869757E-2,3.6310527E-1,1.3516354E-2,-5.751705E-2,9.461708E-2,-2.1440923E-2,-1.2363205E-1,-5.5656437E-4,2.514254E-1,2.6549658E-2,1.468867E-3,3.1965837E-1,6.845476E-2,4.6426058E-4,1.2353619E-1,-6.3934125E-2,-1.7926307E-1,4.7392584E-2,-7.052406E-2],"categories":[],"categories_nodes":[],"categories_segments":[],"categories_sizes":[],"default_left":[0,0,0,0,0,0,0,0,0,0,0,1,0,0,0,0,0,0,0,0,0,0,0,0,0,0,0,0,0,0,0,0,0,0,0,0,0,0,0,0,0,0,0,0,0,0,0,0,0,0,0],"id":30,"left_children":[1,3,5,7,9,11,13,15,17,19,21,23,-1,25,27,29,-1,31,33,35,-1,37,39,41,43,45,47,49,-1,-1,-1,-1,-1,-1,-1,-1,-1,-1,-1,-1,-1,-1,-1,-1,-1,-1,-1,-1,-1,-1,-1],"loss_changes":[2.9539263E1,5.821678E0,1.8689201E1,1.6465246E1,2.0761265E1,4.5418655E1,1.5884314E1,1.1204998E1,2.4633526E1,1.8525782E1,2.4781826E1,2.6936941E1,0E0,1.4137114E1,2.605824E1,2.5445051E1,0E0,2.4354618E1,1.5643646E1,1.0673271E1,0E0,3.9710188E-1,5.466427E0,2.039263E1,1.5675735E0,1.202568E0,6.3019295E0,2.765579E0,0E0,0E0,0E0,0E0,0E0,0E0,0E0,0E0,0E0,0E0,0E0,0E0,0E0,0E0,0E0,0E0,0E0,0E0,0E0,0E0,0E0,0E0,0E0],"parents":[2147483647,0,0,1,1,2,2,3,3,4,4,5,5,6,6,7,7,8,8,9,9,10,10,11,11,13,13,14,14,15,15,17,17,18,18,19,19,21,21,22,22,23,23,24,24,25,25,26,26,27,27],"right_children":[2,4,6,8,10,12,14,16,18,20,22,24,-1,26,28,30,-1,32,34,36,-1,38,40,42,44,46,48,50,-1,-1,-1,-1,-1,-1,-1,-1,-1,-1,-1,-1,-1,-1,-1,-1,-1,-1,-1,-1,-1,-1,-1],"split_conditions":[2.2727273E0,1.875E0,1.2428572E1,1.7272727E0,1E0,1.52E1,1E0,2.25E0,6.3333335E0,1E0,3.2E0,6.125E0,4.0442267E-1,2.2857144E0,5.125E0,2E0,-1.4006105E-1,4.5E0,1.5E0,1.2333333E1,2.5990638E-1,1.3333334E0,1.7142857E0,1E0,6.2E0,1E0,5.142857E0,2.3870163E0,4.0154123E-1,-3.4960143E-3,2.8783736E-1,8.866064E-2,-8.869757E-2,3.6310527E-1,1.3516354E-2,-5.751705E-2,9.461708E-2,-2.1440923E-2,-1.2363205E-1,-5.5656437E-4,2.514254E-1,2.6549658E-2,1.468867E-3,3.1965837E-1,6.845476E-2,4.6426058E-4,1.2353619E-1,-6.3934125E-2,-1.7926307E-1,4.7392584E-2,-7.052406E-2],"split_indices":[3,3,10,3,17,9,72,1,8,29,9,2,0,2,2,2,0,8,1,8,0,0,2,14,1,0,2,4,0,0,0,0,0,0,0,0,0,0,0,0,0,0,0,0,0,0,0,0,0,0,0],"split_type":[0,0,0,0,0,0,0,0,0,0,0,0,0,0,0,0,0,0,0,0,0,0,0,0,0,0,0,0,0,0,0,0,0,0,0,0,0,0,0,0,0,0,0,0,0,0,0,0,0,0,0],"sum_hessian":[6.152E3,4.796E3,1.356E3,4.7E3,9.6E1,1.301E3,5.5E1,4.663E3,3.7E1,8.7E1,9E0,1.299E3,2E0,4.8E1,7E0,4.658E3,5E0,3.2E1,5E0,8.6E1,1E0,3E0,6E0,1.296E3,3E0,4E0,4.4E1,6E0,1E0,4.656E3,2E0,2.1E1,1.1E1,3E0,2E0,8.2E1,4E0,1E0,2E0,1E0,5E0,6.45E2,6.51E2,2E0,1E0,1E0,3E0,3.9E1,5E0,3E0,3E0],"tree_param":{"num_deleted":"0","num_feature":"161","num_nodes":"51","size_leaf_vector":"1"}},{"base_weights":[2.4093764E-3,-2.189133E-2,1.7257439E-1,-1.7142167E-2,-9.637012E-1,6.7974496E-1,7.96007E-2,-2.2236254E-2,8.8847834E-1,-1.2879883E0,2.0599249E-1,-1.604575E-1,1.1928473E0,4.2901833E-2,2.2109072E0,-2.376843E-2,2.706324E-1,3.3361936E0,-1.532451E-1,-1.6775352E0,-4.6648365E-2,-3.807611E-1,3.1241477E-1,9.728442E-1,3.5240743E0,-9.2538244E-1,9.029665E-2,6.1434156E-1,-3.1710222E-2,-2.7834915E-3,7.756486E-2,4.1276845E-1,-1.497868E-1,2.1002924E-1,-7.707141E-2,-4.3759435E-2,-1.8826745E-1,1.2021493E-1,-7.865973E-2,1.9399208E-1,-6.613273E-2,1.6985738E-1,4.042259E-2,4.5102292E-1,-7.033497E-2,-1.1988795E-1,1.9357182E-1,1.2007691E-1,3.6991478E-3,1.2040851E-1,-1.0140045E-1],"categories":[],"categories_nodes":[],"categories_segments":[],"categories_sizes":[],"default_left":[0,0,0,0,0,0,0,0,0,0,0,0,0,0,0,0,0,0,0,0,0,0,0,0,0,0,0,0,0,0,0,0,0,0,0,0,0,0,0,0,0,0,0,0,0,0,0,0,0,0,0],"id":31,"left_children":[1,3,5,7,9,11,13,15,17,19,-1,21,23,25,27,29,-1,31,33,35,37,39,-1,41,43,45,47,-1,49,-1,-1,-1,-1,-1,-1,-1,-1,-1,-1,-1,-1,-1,-1,-1,-1,-1,-1,-1,-1,-1,-1],"loss_changes":[2.5447233E1,2.4069548E1,3.6206947E1,2.4742474E1,2.9127277E1,5.1493465E1,5.0824104E1,2.2347134E1,7.700652E1,1.2010746E1,0E0,3.4475624E1,3.4524536E1,2.9500107E1,9.720503E1,1.7341934E1,0E0,4.0617783E1,3.2231495E1,4.0090027E0,7.413932E0,2.9931538E1,0E0,2.7787148E1,2.818563E1,2.5795778E1,3.618226E1,0E0,1.0932265E1,0E0,0E0,0E0,0E0,0E0,0E0,0E0,0E0,0E0,0E0,0E0,0E0,0E0,0E0,0E0,0E0,0E0,0E0,0E0,0E0,0E0,0E0],"parents":[2147483647,0,0,1,1,2,2,3,3,4,4,5,5,6,6,7,7,8,8,9,9,11,11,12,12,13,13,14,14,15,15,17,17,18,18,19,19,20,20,21,21,23,23,24,24,25,25,26,26,28,28],"right_children":[2,4,6,8,10,12,14,16,18,20,-1,22,24,26,28,30,-1,32,34,36,38,40,-1,42,44,46,48,-1,50,-1,-1,-1,-1,-1,-1,-1,-1,-1,-1,-1,-1,-1,-1,-1,-1,-1,-1,-1,-1,-1,-1],"split_conditions":[3.0833333E0,4E0,6.6363635E0,1E0,3.625E0,5.6E0,2.8E2,5.3333335E0,6.5E0,1.05E1,2.0599249E-1,2.0408254E0,1E0,2.75E0,2.85E2,1E0,2.706324E-1,2.7E0,2.142857E0,4.5E0,1.6033151E0,7.340492E-1,3.1241477E-1,3.2727273E0,3.6666667E0,1.1E1,3.090909E0,6.1434156E-1,1.4332433E0,-2.7834915E-3,7.756486E-2,4.1276845E-1,-1.497868E-1,2.1002924E-1,-7.707141E-2,-4.3759435E-2,-1.8826745E-1,1.2021493E-1,-7.865973E-2,1.9399208E-1,-6.613273E-2,1.6985738E-1,4.042259E-2,4.5102292E-1,-7.033497E-2,-1.1988795E-1,1.9357182E-1,1.2007691E-1,3.6991478E-3,1.2040851E-1,-1.0140045E-1],"split_indices":[3,1,11,40,2,9,12,0,8,8,0,7,31,2,12,117,0,3,2,9,6,5,0,3,2,10,3,0,4,0,0,0,0,0,0,0,0,0,0,0,0,0,0,0,0,0,0,0,0,0,0],"split_type":[0,0,0,0,0,0,0,0,0,0,0,0,0,0,0,0,0,0,0,0,0,0,0,0,0,0,0,0,0,0,0,0,0,0,0,0,0,0,0,0,0,0,0,0,0,0,0,0,0,0,0],"sum_hessian":[6.152E3,5.384E3,7.68E2,5.358E3,2.6E1,1.18E2,6.5E2,5.329E3,2.9E1,2.4E1,2E0,4.5E1,7.3E1,6.4E2,1E1,5.327E3,2E0,8E0,2.1E1,1.8E1,6E0,4.3E1,2E0,6.8E1,5E0,2.9E1,6.11E2,3E0,7E0,5.301E3,2.6E1,7E0,1E0,4E0,1.7E1,3E0,1.5E1,2E0,4E0,4E0,3.9E1,2.9E1,3.9E1,4E0,1E0,2.7E1,2E0,2.7E1,5.84E2,3E0,4E0],"tree_param":{"num_deleted":"0","num_feature":"161","num_nodes":"51","size_leaf_vector":"1"}},{"base_weights":[2.5940812E-3,-2.1902787E-2,1.4634624E-1,-2.7417153E-2,1.0090812E0,-3.729004E-1,2.047893E-1,-2.369585E-2,-7.71482E-1,3.0317945E0,4.84062E-2,2.390707E-2,-1.266571E0,8.749676E-1,9.649468E-2,-2.621734E-2,1.8527951E0,4.3159845E-1,-1.4337951E0,3.7665124E0,-1.4229746E-1,1.9322689E0,-5.4332626E-1,-5.344199E-1,6.3549453E-1,-1.7390844E0,-7.5811334E-2,6.4923E-1,3.7284029E0,-7.42554E-1,1.5023099E-1,-3.0085905E-3,8.856698E-2,9.320003E-3,3.1491914E-1,-2.4990242E-2,1.5163253E-1,-1.6453561E-1,9.7559E-2,4.3462595E-1,1.3515139E-1,-1.2191292E-2,2.4762927E-1,1.6477701E-1,-7.992507E-2,9.043611E-3,-1.4335312E-1,1.5866722E-1,-6.328407E-2,-1.3396195E-1,-2.6695552E-1,1.4383508E-1,-7.139078E-2,-3.8256504E-2,1.1487173E-1,5.028986E-1,-1.1556395E-2,-1.2595886E-1,6.549981E-2,1.14833135E-2,2.0344472E-1],"categories":[],"categories_nodes":[],"categories_segments":[],"categories_sizes":[],"default_left":[0,0,0,0,0,0,0,0,0,0,0,0,0,0,0,0,0,0,0,0,0,0,0,0,0,0,0,0,0,0,0,0,0,0,0,0,0,0,0,0,0,0,0,0,0,0,0,0,0,0,0,0,0,0,0,0,0,0,0,0,0],"id":32,"left_children":[1,3,5,7,9,11,13,15,17,19,21,23,25,27,29,31,33,35,37,39,-1,41,43,45,47,49,51,53,55,57,59,-1,-1,-1,-1,-1,-1,-1,-1,-1,-1,-1,-1,-1,-1,-1,-1,-1,-1,-1,-1,-1,-1,-1,-1,-1,-1,-1,-1,-1,-1],"loss_changes":[2.167086E1,2.9920574E1,2.7266706E1,1.4465788E1,5.4262005E1,3.230026E1,5.841239E1,2.468103E1,2.133604E1,3.4816643E1,2.3344706E1,2.219343E1,1.5622356E1,6.972171E1,3.1447287E1,1.8370659E1,1.5674423E1,7.7713566E0,1.0270634E1,5.3266754E0,0E0,5.889509E0,1.02890625E1,1.9231356E1,3.8402885E1,3.8576202E0,9.722482E0,5.4553154E1,4.0576355E1,3.1173504E1,4.338636E1,0E0,0E0,0E0,0E0,0E0,0E0,0E0,0E0,0E0,0E0,0E0,0E0,0E0,0E0,0E0,0E0,0E0,0E0,0E0,0E0,0E0,0E0,0E0,0E0,0E0,0E0,0E0,0E0,0E0,0E0],"parents":[2147483647,0,0,1,1,2,2,3,3,4,4,5,5,6,6,7,7,8,8,9,9,10,10,11,11,12,12,13,13,14,14,15,15,16,16,17,17,18,18,19,19,21,21,22,22,23,23,24,24,25,25,26,26,27,27,28,28,29,29,30,30],"right_children":[2,4,6,8,10,12,14,16,18,20,22,24,26,28,30,32,34,36,38,40,-1,42,44,46,48,50,52,54,56,58,60,-1,-1,-1,-1,-1,-1,-1,-1,-1,-1,-1,-1,-1,-1,-1,-1,-1,-1,-1,-1,-1,-1,-1,-1,-1,-1,-1,-1,-1,-1],"split_conditions":[2.909091E0,1E0,1.275067E0,3.6666667E0,6.5E0,7E0,1.4482005E0,4.5E0,5E0,2.7E0,2.142857E0,4.8E1,3.5454545E0,1.4303237E0,1.5213089E0,1E0,2.7142856E0,-8E1,3.5714285E0,6.3333335E0,-1.4229746E-1,3.3333334E-1,6.428571E0,3.3333333E0,1.1879307E0,1.4551922E0,6.5E0,-2.5E1,4E0,8.333333E0,2.8E2,-3.0085905E-3,8.856698E-2,9.320003E-3,3.1491914E-1,-2.4990242E-2,1.5163253E-1,-1.6453561E-1,9.7559E-2,4.3462595E-1,1.3515139E-1,-1.2191292E-2,2.4762927E-1,1.6477701E-1,-7.992507E-2,9.043611E-3,-1.4335312E-1,1.5866722E-1,-6.328407E-2,-1.3396195E-1,-2.6695552E-1,1.4383508E-1,-7.139078E-2,-3.8256504E-2,1.1487173E-1,5.028986E-1,-1.1556395E-2,-1.2595886E-1,6.549981E-2,1.14833135E-2,2.0344472E-1],"split_indices":[3,40,7,1,8,9,7,0,12,3,2,13,3,7,7,117,2,12,2,8,0,0,10,0,4,5,8,12,0,8,12,0,0,0,0,0,0,0,0,0,0,0,0,0,0,0,0,0,0,0,0,0,0,0,0,0,0,0,0,0,0],"split_type":[0,0,0,0,0,0,0,0,0,0,0,0,0,0,0,0,0,0,0,0,0,0,0,0,0,0,0,0,0,0,0,0,0,0,0,0,0,0,0,0,0,0,0,0,0,0,0,0,0,0,0,0,0,0,0,0,0,0,0,0,0],"sum_hessian":[6.152E3,5.257E3,8.95E2,5.23E3,2.7E1,9E1,8.05E2,5.205E3,2.5E1,8E0,1.9E1,6.3E1,2.7E1,1.11E2,6.94E2,5.199E3,6E0,9E0,1.6E1,7E0,1E0,4E0,1.5E1,3.3E1,3E1,1.9E1,8E0,1.04E2,7E0,4.1E1,6.53E2,5.178E3,2.1E1,3E0,3E0,6E0,3E0,1.5E1,1E0,5E0,2E0,1E0,3E0,1E0,1.4E1,2E1,1.3E1,1.7E1,1.3E1,1.5E1,4E0,2E0,6E0,3.4E1,7E1,5E0,2E0,3E1,1.1E1,6.42E2,1.1E1],"tree_param":{"num_deleted":"0","num_feature":"161","num_nodes":"61","size_leaf_vector":"1"}},{"base_weights":[2.5901895E-3,8.7864476E-4,1.7559212E0,-5.210019E-3,4.8100185E-1,2.9733562E-1,4.0386468E-1,-1.0658911E-2,4.3062553E-1,9.192884E-1,-9.05309E-1,-3.1464793E-2,7.482515E-2,-8.339031E-3,-1.0016468E0,2.7124556E-2,1.4014632E0,6.688796E-1,5.370626E-1,-1.1880465E0,9.9863976E-1,-2.5507559E-3,1.0426409E-2,1.21989824E-1,-1.2663732E-1,1.4290377E-1,-2.850145E-2,2.717572E-1,2.8126702E-2,2.3022127E-1,1.3398091E-2,-1.9540411E-1,-2.9004673E-2,6.3331844E-3,1.4346278E-1],"categories":[],"categories_nodes":[],"categories_segments":[],"categories_sizes":[],"default_left":[0,0,0,0,0,0,0,1,0,0,0,0,0,0,0,0,0,0,0,0,0,0,0,0,0,0,0,0,0,0,0,0,0,0,0],"id":33,"left_children":[1,3,5,7,9,-1,11,13,15,17,19,-1,-1,21,23,25,27,29,-1,31,33,-1,-1,-1,-1,-1,-1,-1,-1,-1,-1,-1,-1,-1,-1],"loss_changes":[1.846302E1,1.797501E1,8.675413E0,1.4424503E1,4.7617546E1,0E0,1.2252208E0,1.3780894E1,2.9342033E1,6.2172276E1,1.1414467E1,0E0,0E0,1.157304E1,9.778268E0,2.4037254E1,3.167023E1,4.9490612E1,0E0,1.1126905E1,1.1324914E0,0E0,0E0,0E0,0E0,0E0,0E0,0E0,0E0,0E0,0E0,0E0,0E0,0E0,0E0],"parents":[2147483647,0,0,1,1,2,2,3,3,4,4,6,6,7,7,8,8,9,9,10,10,13,13,14,14,15,15,16,16,17,17,19,19,20,20],"right_children":[2,4,6,8,10,-1,12,14,16,18,20,-1,-1,22,24,26,28,30,-1,32,34,-1,-1,-1,-1,-1,-1,-1,-1,-1,-1,-1,-1,-1,-1],"split_conditions":[6.125E0,1E0,6.2E0,1E0,1.8049884E0,2.9733562E-1,8E0,7E0,1.3401158E0,1.7996025E0,3.5E0,-3.1464793E-2,7.482515E-2,2.909091E0,1.6907138E0,5.99911E-1,4E0,7.5833335E0,5.370626E-1,7.857143E0,3.3333333E0,-2.5507559E-3,1.0426409E-2,1.21989824E-1,-1.2663732E-1,1.4290377E-1,-2.850145E-2,2.717572E-1,2.8126702E-2,2.3022127E-1,1.3398091E-2,-1.9540411E-1,-2.9004673E-2,6.3331844E-3,1.4346278E-1],"split_indices":[2,40,1,18,7,0,0,0,7,7,1,0,0,3,7,4,0,11,0,10,0,0,0,0,0,0,0,0,0,0,0,0,0,0,0],"split_type":[0,0,0,0,0,0,0,0,0,0,0,0,0,0,0,0,0,0,0,0,0,0,0,0,0,0,0,0,0,0,0,0,0,0,0],"sum_hessian":[6.152E3,6.147E3,5E0,6.071E3,7.6E1,2E0,3E0,5.997E3,7.4E1,5.8E1,1.8E1,1E0,2E0,5.984E3,1.3E1,5.3E1,2.1E1,5.6E1,2E0,1.6E1,2E0,5.193E3,7.91E2,1E0,1.2E1,9E0,4.4E1,9E0,1.2E1,1.3E1,4.3E1,8E0,8E0,1E0,1E0],"tree_param":{"num_deleted":"0","num_feature":"161","num_nodes":"35","size_leaf_vector":"1"}},{"base_weights":[2.569141E-3,9.735286E-4,1.6371118E0,-4.620264E-3,4.4207138E-1,2.7751324E-1,3.743183E-1,-9.592489E-3,3.9308682E-1,8.4059143E-1,-8.1870514E-1,-2.989155E-2,6.983681E-2,-7.2208326E-3,-8.435726E-1,2.6530705E-2,1.2749479E0,6.062656E-1,5.0125843E-1,-1.4365368E0,2.7389579E-2,-2.2957285E-3,9.638164E-3,-1.2251635E-1,1.3455726E-1,1.3004243E-1,-2.5714634E-2,2.4729903E-1,2.5530389E-2,2.0884359E-1,1.2088725E-2,-2.185932E-1,-6.9603495E-2,6.8321034E-2,-9.631889E-2],"categories":[],"categories_nodes":[],"categories_segments":[],"categories_sizes":[],"default_left":[0,0,0,0,0,0,0,0,0,0,0,0,0,0,0,0,0,0,0,0,0,0,0,0,0,0,0,0,0,0,0,0,0,0,0],"id":34,"left_children":[1,3,5,7,9,-1,11,13,15,17,19,-1,-1,21,23,25,27,29,-1,31,33,-1,-1,-1,-1,-1,-1,-1,-1,-1,-1,-1,-1,-1,-1],"loss_changes":[1.6046024E1,1.5171678E1,7.583727E0,1.2011088E1,3.937644E1,0E0,1.081398E0,1.1857443E1,2.4210045E1,5.4639763E1,9.971482E0,0E0,0E0,9.754879E0,1.5849628E1,1.9848614E1,2.624332E1,4.0754097E1,0E0,4.5827293E0,6.5048375E0,0E0,0E0,0E0,0E0,0E0,0E0,0E0,0E0,0E0,0E0,0E0,0E0,0E0,0E0],"parents":[2147483647,0,0,1,1,2,2,3,3,4,4,6,6,7,7,8,8,9,9,10,10,13,13,14,14,15,15,16,16,17,17,19,19,20,20],"right_children":[2,4,6,8,10,-1,12,14,16,18,20,-1,-1,22,24,26,28,30,-1,32,34,-1,-1,-1,-1,-1,-1,-1,-1,-1,-1,-1,-1,-1,-1],"split_conditions":[6.125E0,1E0,6.2E0,1E0,1.8049884E0,2.7751324E-1,8E0,5.8E0,1.3401158E0,1.7996025E0,1.9268652E0,-2.989155E-2,6.983681E-2,2.909091E0,1E0,5.99911E-1,4E0,7.5833335E0,5.0125843E-1,7.571429E0,2.1704025E0,-2.2957285E-3,9.638164E-3,-1.2251635E-1,1.3455726E-1,1.3004243E-1,-2.5714634E-2,2.4729903E-1,2.5530389E-2,2.0884359E-1,1.2088725E-2,-2.185932E-1,-6.9603495E-2,6.8321034E-2,-9.631889E-2],"split_indices":[2,40,1,18,7,0,0,1,7,7,5,0,0,3,78,4,0,11,0,10,5,0,0,0,0,0,0,0,0,0,0,0,0,0,0],"split_type":[0,0,0,0,0,0,0,0,0,0,0,0,0,0,0,0,0,0,0,0,0,0,0,0,0,0,0,0,0,0,0,0,0,0,0],"sum_hessian":[6.152E3,6.147E3,5E0,6.071E3,7.6E1,2E0,3E0,5.997E3,7.4E1,5.8E1,1.8E1,1E0,2E0,5.981E3,1.6E1,5.3E1,2.1E1,5.6E1,2E0,1E1,8E0,5.193E3,7.88E2,1.4E1,2E0,9E0,4.4E1,9E0,1.2E1,1.3E1,4.3E1,4E0,6E0,5E0,3E0],"tree_param":{"num_deleted":"0","num_feature":"161","num_nodes":"35","size_leaf_vector":"1"}},{"base_weights":[2.4942572E-3,1.0067179E-3,1.5263104E0,-1.9800508E-2,1.0675006E-1,2.590124E-1,3.468728E-1,-2.5076577E-2,8.2284594E-1,6.8013646E-2,7.788228E-1,-2.8396977E-2,6.5181024E-2,-2.7615327E-2,1.2716858E0,2.6703486E0,-1.6192017E-2,1.4849465E-1,-4.0271112E-1,1.1925458E0,-5.179763E-1,-3.1801108E-3,6.57583E-2,2.7753922E-1,-7.870992E-2,5.179331E-1,8.551661E-2,-4.1720983E-2,2.7963302E-1,6.8239504E-3,1.9970769E-1,1.6399255E-2,-8.055502E-2,2.3028743E-1,1.7519286E-2,1.3618836E-1,-1.4061086E-1],"categories":[],"categories_nodes":[],"categories_segments":[],"categories_sizes":[],"default_left":[0,0,0,0,0,0,0,0,0,0,0,0,0,0,0,0,0,0,0,0,0,0,0,0,0,0,0,0,0,0,0,0,0,0,0,0,0],"id":35,"left_children":[1,3,5,7,9,-1,11,13,15,17,19,-1,-1,21,23,25,27,29,31,33,35,-1,-1,-1,-1,-1,-1,-1,-1,-1,-1,-1,-1,-1,-1,-1,-1],"loss_changes":[1.3945693E1,1.3529101E1,6.6297665E0,2.2863468E1,2.626709E1,0E0,9.545646E-1,1.6848156E1,4.9647232E1,3.6315174E1,3.0126064E1,0E0,0E0,1.4642432E1,3.3142593E1,4.1113426E1,2.7107697E1,1.2122076E2,3.209276E1,4.7039577E1,2.5288853E1,0E0,0E0,0E0,0E0,0E0,0E0,0E0,0E0,0E0,0E0,0E0,0E0,0E0,0E0,0E0,0E0],"parents":[2147483647,0,0,1,1,2,2,3,3,4,4,6,6,7,7,8,8,9,9,10,10,13,13,14,14,15,15,16,16,17,17,18,18,19,19,20,20],"right_children":[2,4,6,8,10,-1,12,14,16,18,20,-1,-1,22,24,26,28,30,32,34,36,-1,-1,-1,-1,-1,-1,-1,-1,-1,-1,-1,-1,-1,-1,-1,-1],"split_conditions":[6.125E0,4.6E1,6.2E0,1E0,1.15E1,2.590124E-1,8E0,1E0,1.5362823E0,8.8E0,5E0,-2.8396977E-2,6.5181024E-2,1E0,1E0,3.8333333E0,2.404103E0,8.4E0,3E0,1.5E1,1.7939883E0,-3.1801108E-3,6.57583E-2,2.7753922E-1,-7.870992E-2,5.179331E-1,8.551661E-2,-4.1720983E-2,2.7963302E-1,6.8239504E-3,1.9970769E-1,1.6399255E-2,-8.055502E-2,2.3028743E-1,1.7519286E-2,1.3618836E-1,-1.4061086E-1],"split_indices":[2,13,1,42,8,0,0,18,4,9,0,0,0,35,14,2,6,9,2,12,4,0,0,0,0,0,0,0,0,0,0,0,0,0,0,0,0],"split_type":[0,0,0,0,0,0,0,0,0,0,0,0,0,0,0,0,0,0,0,0,0,0,0,0,0,0,0,0,0,0,0,0,0,0,0,0,0],"sum_hessian":[6.152E3,6.147E3,5E0,5.137E3,1.01E3,2E0,3E0,5.106E3,3.1E1,9.56E2,5.4E1,1E0,2E0,5.097E3,9E0,9E0,2.2E1,8.17E2,1.39E2,4.1E1,1.3E1,5.067E3,3E1,5E0,4E0,3E0,6E0,2E1,2E0,7.84E2,3.3E1,5.8E1,8.1E1,1.9E1,2.2E1,4E0,9E0],"tree_param":{"num_deleted":"0","num_feature":"161","num_nodes":"37","size_leaf_vector":"1"}},{"base_weights":[2.5348088E-3,-2.5126864E-3,4.008607E-1,-3.920861E-3,1.4229789E0,7.67468E-1,-7.5864935E-1,-1.9252808E-3,-8.672995E-1,2.417449E-1,3.213815E-1,5.48404E-1,4.6738622E-1,-9.4805473E-1,1.3253239E-1,-1.9086435E-2,1.0636414E-1,1.1556744E-1,-1.1118109E0,-2.6977122E-2,6.083562E-2,9.609993E-1,-9.2199564E-1,-1.6371237E0,-2.3308717E-1,-8.683942E-4,-2.4421105E-2,8.246776E-2,5.025353E-3,-8.599955E-3,-1.4109544E-1,-6.371049E-2,1.3782227E-1,-1.286122E-1,2.1881897E-2,-2.0500112E-2,-1.7905138E-1,-5.338751E-2,3.5156347E-2],"categories":[],"categories_nodes":[],"categories_segments":[],"categories_sizes":[],"default_left":[0,0,0,1,0,0,0,0,0,0,0,0,0,0,0,0,0,0,0,0,0,0,0,0,0,0,0,0,0,0,0,0,0,0,0,0,0,0,0],"id":36,"left_children":[1,3,5,7,9,11,13,15,17,-1,19,21,-1,23,-1,25,27,-1,29,-1,-1,31,33,35,37,-1,-1,-1,-1,-1,-1,-1,-1,-1,-1,-1,-1,-1,-1],"loss_changes":[1.237191E1,1.2204191E1,3.331377E1,1.0460031E1,5.796111E0,4.7926117E1,8.756078E0,1.1261903E1,8.209855E0,0E0,8.427003E-1,3.5466797E1,0E0,8.486322E0,0E0,1.2248135E1,3.337141E1,0E0,3.867899E0,0E0,0E0,3.0882572E1,5.681634E0,1.6100063E0,1.9462492E0,0E0,0E0,0E0,0E0,0E0,0E0,0E0,0E0,0E0,0E0,0E0,0E0,0E0,0E0],"parents":[2147483647,0,0,1,1,2,2,3,3,4,4,5,5,6,6,7,7,8,8,10,10,11,11,13,13,15,15,16,16,18,18,21,21,22,22,23,23,24,24],"right_children":[2,4,6,8,10,12,14,16,18,-1,20,22,-1,24,-1,26,28,-1,30,-1,-1,32,34,36,38,-1,-1,-1,-1,-1,-1,-1,-1,-1,-1,-1,-1,-1,-1],"split_conditions":[1E0,6.125E0,1.8049884E0,7E0,6.2E0,1.7996025E0,4E0,2.909091E0,1.6907138E0,2.417449E-1,8E0,3.8333333E0,4.6738622E-1,7.857143E0,1.3253239E-1,2.6E0,2.25E0,1.1556744E-1,4.6E0,-2.6977122E-2,6.083562E-2,1.1767015E0,4.5E0,9.255987E-1,-3.5E1,-8.683942E-4,-2.4421105E-2,8.246776E-2,5.025353E-3,-8.599955E-3,-1.4109544E-1,-6.371049E-2,1.3782227E-1,-1.286122E-1,2.1881897E-2,-2.0500112E-2,-1.7905138E-1,-5.338751E-2,3.5156347E-2],"split_indices":[40,2,7,0,1,7,0,3,7,0,0,2,0,10,0,2,1,0,1,0,0,4,1,4,12,0,0,0,0,0,0,0,0,0,0,0,0,0,0],"split_type":[0,0,0,0,0,0,0,0,0,0,0,0,0,0,0,0,0,0,0,0,0,0,0,0,0,0,0,0,0,0,0,0,0,0,0,0,0,0,0],"sum_hessian":[6.152E3,6.076E3,7.6E1,6.071E3,5E0,5.8E1,1.8E1,6.058E3,1.3E1,2E0,3E0,5.6E1,2E0,1.7E1,1E0,5.23E3,8.28E2,1E0,1.2E1,1E0,2E0,4.4E1,1.2E1,8E0,9E0,5E3,2.3E2,5.9E1,7.69E2,3E0,9E0,9E0,3.5E1,9E0,3E0,1E0,7E0,6E0,3E0],"tree_param":{"num_deleted":"0","num_feature":"161","num_nodes":"39","size_leaf_vector":"1"}},{"base_weights":[2.3874824E-3,1.2065554E-3,1.4542142E0,-1.7130384E-2,9.4303384E-2,2.2562857E-1,1.6740465E-1,-2.203982E-2,7.6692015E-1,5.944289E-2,6.997952E-1,-2.5628269E-2,5.0738968E-2,-2.435389E-2,1.1598773E0,2.459136E0,-2.1702207E-3,1.3140573E-1,-3.619643E-1,1.5060941E0,1.16623394E-1,-1.3252808E-3,-2.801399E-2,2.5399217E-1,-7.281516E-2,4.7871122E-1,7.775586E-2,-3.747423E-2,2.6065576E-1,5.895297E-3,1.8024781E-1,2.104219E-2,-6.9232516E-2,3.785569E-1,6.625972E-2,5.0089438E-2,-1.14683524E-1],"categories":[],"categories_nodes":[],"categories_segments":[],"categories_sizes":[],"default_left":[1,0,0,0,0,0,0,0,0,0,0,0,0,0,0,0,0,0,0,0,0,0,0,0,0,0,0,0,0,0,0,0,0,0,0,0,0],"id":37,"left_children":[1,3,5,7,9,-1,11,13,15,17,19,-1,-1,21,23,25,27,29,31,33,35,-1,-1,-1,-1,-1,-1,-1,-1,-1,-1,-1,-1,-1,-1,-1,-1],"loss_changes":[1.0547573E1,1.0498641E1,4.782854E0,1.9794325E1,2.1319437E1,0E0,5.621772E-1,1.3996096E1,4.165228E1,2.909954E1,2.5685947E1,0E0,0E0,1.4472066E1,2.7905088E1,3.5424465E1,2.3331388E1,9.905318E1,2.6618841E1,4.171448E1,1.659629E1,0E0,0E0,0E0,0E0,0E0,0E0,0E0,0E0,0E0,0E0,0E0,0E0,0E0,0E0,0E0,0E0],"parents":[2147483647,0,0,1,1,2,2,3,3,4,4,6,6,7,7,8,8,9,9,10,10,13,13,14,14,15,15,16,16,17,17,18,18,19,19,20,20],"right_children":[2,4,6,8,10,-1,12,14,16,18,20,-1,-1,22,24,26,28,30,32,34,36,-1,-1,-1,-1,-1,-1,-1,-1,-1,-1,-1,-1,-1,-1,-1,-1],"split_conditions":[6.125E0,4.6E1,6.2E0,1E0,1.15E1,2.2562857E-1,8E0,1E0,1.5362823E0,8.8E0,1.95015E0,-2.5628269E-2,5.0738968E-2,3.6666667E0,1E0,3.8333333E0,2.404103E0,8.4E0,2.5E0,8.181818E0,5E0,-1.3252808E-3,-2.801399E-2,2.5399217E-1,-7.281516E-2,4.7871122E-1,7.775586E-2,-3.747423E-2,2.6065576E-1,5.895297E-3,1.8024781E-1,2.104219E-2,-6.9232516E-2,3.785569E-1,6.625972E-2,5.0089438E-2,-1.14683524E-1],"split_indices":[2,13,1,42,8,0,0,18,4,9,5,0,0,3,14,2,6,9,1,11,0,0,0,0,0,0,0,0,0,0,0,0,0,0,0,0,0],"split_type":[0,0,0,0,0,0,0,0,0,0,0,0,0,0,0,0,0,0,0,0,0,0,0,0,0,0,0,0,0,0,0,0,0,0,0,0,0],"sum_hessian":[6.152E3,6.148E3,4E0,5.137E3,1.011E3,2E0,2E0,5.106E3,3.1E1,9.57E2,5.4E1,1E0,1E0,5.097E3,9E0,9E0,2.2E1,8.18E2,1.39E2,2.2E1,3.2E1,4.886E3,2.11E2,5E0,4E0,3E0,6E0,2E1,2E0,7.85E2,3.3E1,5.1E1,8.8E1,5E0,1.7E1,2.5E1,7E0],"tree_param":{"num_deleted":"0","num_feature":"161","num_nodes":"37","size_leaf_vector":"1"}},{"base_weights":[2.4250883E-3,6.1718607E-3,-4.6444166E-1,-2.0656925E-2,8.775498E-2,-6.200117E-1,3.5014603E-1,-1.8744793E-2,-5.4974142E-2,2.409476E-1,1.3776037E-2,-1.4961231E0,-2.518525E-1,-1.8431097E-2,-8.259301E-3,-3.362251E-2,-1.3048048E-1,2.2042024E-1,2.69018E-1,-4.691739E-3,1.1036508E0,1.21226095E-1,-1.7977111E0,3.8677815E-1,-7.501644E-1,-1.8206995E-3,-3.201925E-3,-3.482266E-3,5.279442E-3,-3.519645E-2,-8.912499E-3,1.716641E-2,1.1184678E-1,-4.5545166E-3,4.5521565E-2,-9.471999E-2,2.3084056E-1,-2.3297895E-2,-1.9086906E-1,-1.11737184E-1,9.812758E-2,-4.9695653E-5,-1.1537933E-1],"categories":[],"categories_nodes":[],"categories_segments":[],"categories_sizes":[],"default_left":[0,0,0,0,1,0,0,0,0,0,0,0,0,0,0,0,0,0,0,0,0,0,0,0,0,0,0,0,0,0,0,0,0,0,0,0,0,0,0,0,0,0,0],"id":38,"left_children":[1,3,5,7,9,11,-1,13,15,17,19,21,23,25,-1,27,29,31,-1,33,35,-1,37,39,41,-1,-1,-1,-1,-1,-1,-1,-1,-1,-1,-1,-1,-1,-1,-1,-1,-1,-1],"loss_changes":[1.0765961E1,1.336429E1,3.2402744E1,3.0048907E-1,1.7120888E1,1.510552E1,0E0,8.56837E-2,3.8576132E-1,2.4142952E1,2.0535294E1,1.3614721E1,1.1428452E1,1.2614489E-2,0E0,2.1543965E-2,4.5408893E-1,2.1219032E1,0E0,1.888468E1,4.4189648E1,0E0,1.812809E0,1.5403867E1,6.051175E0,0E0,0E0,0E0,0E0,0E0,0E0,0E0,0E0,0E0,0E0,0E0,0E0,0E0,0E0,0E0,0E0,0E0,0E0],"parents":[2147483647,0,0,1,1,2,2,3,3,4,4,5,5,7,7,8,8,9,9,10,10,11,11,12,12,13,13,15,15,16,16,17,17,19,19,20,20,22,22,23,23,24,24],"right_children":[2,4,6,8,10,12,-1,14,16,18,20,22,24,26,-1,28,30,32,-1,34,36,-1,38,40,42,-1,-1,-1,-1,-1,-1,-1,-1,-1,-1,-1,-1,-1,-1,-1,-1,-1,-1],"split_conditions":[1E0,4E-1,4.25E0,4.6E1,2.6E0,5.571429E0,3.5014603E-1,1E0,8.25E0,1E0,1E0,4.2E0,7.375E0,1E0,-8.259301E-3,1E0,8.666667E0,1E0,2.69018E-1,2.6486967E0,2.6E0,1.21226095E-1,2E0,1.3696216E0,2.5714285E0,-1.8206995E-3,-3.201925E-3,-3.482266E-3,5.279442E-3,-3.519645E-2,-8.912499E-3,1.716641E-2,1.1184678E-1,-4.5545166E-3,4.5521565E-2,-9.471999E-2,2.3084056E-1,-2.3297895E-2,-1.9086906E-1,-1.11737184E-1,9.812758E-2,-4.9695653E-5,-1.1537933E-1],"split_indices":[70,1,2,13,1,10,0,35,9,57,62,9,10,63,0,18,9,35,0,4,3,0,0,4,2,0,0,0,0,0,0,0,0,0,0,0,0,0,0,0,0,0,0],"split_type":[0,0,0,0,0,0,0,0,0,0,0,0,0,0,0,0,0,0,0,0,0,0,0,0,0,0,0,0,0,0,0,0,0,0,0,0,0,0,0,0,0,0,0],"sum_hessian":[6.152E3,6.104E3,4.8E1,4.594E3,1.51E3,4.7E1,1E0,4.353E3,2.41E2,4.91E2,1.019E3,1.3E1,3.4E1,4.333E3,2E1,1.89E2,5.2E1,4.88E2,3E0,1.003E3,1.6E1,1E0,1.2E1,1.5E1,1.9E1,4.265E3,6.8E1,1.87E2,2E0,7E0,4.5E1,4.64E2,2.4E1,9.22E2,8.1E1,6E0,1E1,1E0,1.1E1,4E0,1.1E1,7E0,1.2E1],"tree_param":{"num_deleted":"0","num_feature":"161","num_nodes":"43","size_leaf_vector":"1"}},{"base_weights":[2.2878472E-3,-2.259911E-3,3.6117667E-1,-3.4686641E-3,1.2213748E0,2.6566723E-1,1.9900331E-1,-1.9199273E-4,-4.975859E-1,2.0922111E-1,2.62904E-1,-1.14379294E-1,1.1629157E0,-5.006094E-3,4.6351776E-1,2.3148929E-1,-7.065293E-1,-2.6622927E-2,5.2802484E-2,1.3010108E0,-5.299632E-1,2.5502641E0,-5.077954E-1,-4.877486E-5,-5.6263506E-2,3.2729203E-1,3.1532235E-2,-4.4667777E-2,-1.389446E-1,4.964521E-2,3.8173893E-1,9.478319E-2,-8.3516315E-2,-9.555577E-2,3.546164E-1,-8.115853E-2,3.7031285E-2],"categories":[],"categories_nodes":[],"categories_segments":[],"categories_sizes":[],"default_left":[0,0,0,0,0,0,0,0,0,0,0,0,0,0,0,0,0,0,0,0,0,0,0,0,0,0,0,0,0,0,0,0,0,0,0,0,0],"id":39,"left_children":[1,3,5,7,9,-1,11,13,15,-1,17,19,21,23,25,-1,27,-1,-1,29,31,33,35,-1,-1,-1,-1,-1,-1,-1,-1,-1,-1,-1,-1,-1,-1],"loss_changes":[1.004337E1,8.992558E0,2.8135967E1,9.830835E0,4.4579754E0,0E0,2.2184368E1,1.3470062E1,2.5141497E1,0E0,7.017127E-1,3.3629433E1,4.3016464E1,1.5046539E1,2.478109E1,0E0,6.1227303E0,0E0,0E0,2.4424314E1,2.0636604E1,3.8303047E1,2.7013845E0,0E0,0E0,0E0,0E0,0E0,0E0,0E0,0E0,0E0,0E0,0E0,0E0,0E0,0E0],"parents":[2147483647,0,0,1,1,2,2,3,3,4,4,6,6,7,7,8,8,10,10,11,11,12,12,13,13,14,14,16,16,19,19,20,20,21,21,22,22],"right_children":[2,4,6,8,10,-1,12,14,16,-1,18,20,22,24,26,-1,28,-1,-1,30,32,34,36,-1,-1,-1,-1,-1,-1,-1,-1,-1,-1,-1,-1,-1,-1],"split_conditions":[1E0,6.125E0,6.428571E0,5.4E0,6.2E0,2.6566723E-1,1.8831095E0,4.571429E0,1.1767015E0,2.0922111E-1,8E0,1.4829136E0,1.8023665E0,1E0,3.5833333E0,2.3148929E-1,6.3333335E0,-2.6622927E-2,5.2802484E-2,4.3333335E0,2.5454545E0,3E0,9.090909E0,-4.877486E-5,-5.6263506E-2,3.2729203E-1,3.1532235E-2,-4.4667777E-2,-1.389446E-1,4.964521E-2,3.8173893E-1,9.478319E-2,-8.3516315E-2,-9.555577E-2,3.546164E-1,-8.115853E-2,3.7031285E-2],"split_indices":[40,2,10,1,1,0,6,2,4,0,0,7,7,70,3,0,0,0,0,0,3,3,11,0,0,0,0,0,0,0,0,0,0,0,0,0,0],"split_type":[0,0,0,0,0,0,0,0,0,0,0,0,0,0,0,0,0,0,0,0,0,0,0,0,0,0,0,0,0,0,0,0,0,0,0,0,0],"sum_hessian":[6.152E3,6.076E3,7.6E1,6.071E3,5E0,4E0,7.2E1,6.032E3,3.9E1,2E0,3E0,5.5E1,1.7E1,5.971E3,6.1E1,2E0,3.7E1,1E0,2E0,1.2E1,4.3E1,9E0,8E0,5.924E3,4.7E1,2E0,5.9E1,2.8E1,9E0,1E1,2E0,7E0,3.6E1,2E0,7E0,6E0,2E0],"tree_param":{"num_deleted":"0","num_feature":"161","num_nodes":"37","size_leaf_vector":"1"}},{"base_weights":[2.3043298E-3,-1.2156992E-2,1.035682E-1,-8.2395105E-3,-7.892544E-1,5.3414565E-1,2.4701398E-2,-9.564546E-3,2.3605792E-1,-1.0601265E0,1.7310975E-1,-2.2981949E-1,1.0018247E0,-7.1442425E-3,1.8781881E0,-6.115715E-3,-7.448866E-1,-1.3985989E0,1.0031019E-2,-6.9066566E-1,1.1334668E0,-6.952075E-1,1.2180591E0,-8.293953E-1,3.3173855E-2,5.496549E-1,-1.6576552E-1,-9.286377E-4,6.17322E-2,1.2517959E-1,-1.306647E-1,-3.2524712E-2,-1.5795246E-1,1.1762806E-1,-6.9172494E-2,1.5627472E-1,-9.50759E-2,1.7224748E-2,2.4447243E-1,-1.1380339E-1,1.423702E-1,9.762305E-2,3.9731216E-1,-1.0757797E-1,1.7466575E-1,1.0028881E-1,-1.3296526E-3,1.0223093E-1,-1.08307235E-1],"categories":[],"categories_nodes":[],"categories_segments":[],"categories_sizes":[],"default_left":[0,0,0,0,0,0,0,0,0,0,0,0,0,0,0,0,0,0,0,0,0,0,0,0,0,0,0,0,0,0,0,0,0,0,0,0,0,0,0,0,0,0,0,0,0,0,0,0,0],"id":40,"left_children":[1,3,5,7,9,11,13,15,-1,17,-1,19,21,23,25,27,29,31,33,35,37,39,41,43,45,-1,47,-1,-1,-1,-1,-1,-1,-1,-1,-1,-1,-1,-1,-1,-1,-1,-1,-1,-1,-1,-1,-1,-1],"loss_changes":[9.01177E0,1.6386868E1,2.6100712E1,1.6843246E1,2.0267893E1,4.274781E1,3.8439003E1,1.3580806E1,0E0,9.0695E0,0E0,2.968305E1,2.8001595E1,2.127769E1,8.22645E1,1.0547527E1,2.9677082E1,3.1760025E0,6.542621E0,2.1999212E1,1.4703776E1,1.00650015E1,4.0094017E1,2.091999E1,2.7591885E1,0E0,9.825867E0,0E0,0E0,0E0,0E0,0E0,0E0,0E0,0E0,0E0,0E0,0E0,0E0,0E0,0E0,0E0,0E0,0E0,0E0,0E0,0E0,0E0,0E0],"parents":[2147483647,0,0,1,1,2,2,3,3,4,4,5,5,6,6,7,7,9,9,11,11,12,12,13,13,14,14,15,15,16,16,17,17,18,18,19,19,20,20,21,21,22,22,23,23,24,24,26,26],"right_children":[2,4,6,8,10,12,14,16,-1,18,-1,20,22,24,26,28,30,32,34,36,38,40,42,44,46,-1,48,-1,-1,-1,-1,-1,-1,-1,-1,-1,-1,-1,-1,-1,-1,-1,-1,-1,-1,-1,-1,-1,-1],"split_conditions":[3.0833333E0,4E0,6.6363635E0,5.3333335E0,3.625E0,5.6E0,2.8E2,1E0,2.3605792E-1,1.05E1,1.7310975E-1,6.1666665E0,-1.35E2,2.75E0,2.85E2,1E0,6E0,4.5E0,1.6033151E0,7.340492E-1,1.5929124E0,1E0,1E0,1.1E1,3.090909E0,5.496549E-1,1.4332433E0,