{"learner":{"attributes":{"scikit_learn":"{\"_estimator_type\": \"regressor\"}"},"feature_names":["rolling_saves_3","rolling_saves_5","rolling_saves_8","rolling_saves_12","rolling_opponent_xg_3","rolling_opponent_xg_5","rolling_opponent_xg_8","rolling_opponent_xg_12","rolling_opponent_deep_3","rolling_opponent_deep_5","rolling_opponent_deep_8","rolling_opponent_deep_12","def_atk_diff","value","was_home_0","was_home_1","unique_id_5","unique_id_14","unique_id_15","unique_id_39","unique_id_46","unique_id_47","unique_id_51","unique_id_55","unique_id_73","unique_id_75","unique_id_84","unique_id_91","unique_id_109","unique_id_142","unique_id_146","unique_id_152","unique_id_154","unique_id_155","unique_id_183","unique_id_185","unique_id_201","unique_id_204","unique_id_209","unique_id_227","unique_id_235","unique_id_242","unique_id_248","unique_id_280","unique_id_283","unique_id_293","unique_id_294","unique_id_304","unique_id_308","unique_id_310","unique_id_325","unique_id_344","unique_id_347","unique_id_358","unique_id_367","unique_id_374","unique_id_383","unique_id_396","unique_id_412","unique_id_413","unique_id_414","unique_id_427","unique_id_443","unique_id_445","unique_id_454","unique_id_465","unique_id_466","unique_id_469","unique_id_479","unique_id_488","unique_id_508","unique_id_510","unique_id_513","unique_id_521","unique_id_522","unique_id_536","unique_id_554","unique_id_556","unique_id_568","unique_id_581","unique_id_599","unique_id_615","unique_id_624","unique_id_639","unique_id_641","unique_id_660","unique_id_668","unique_id_669","unique_id_719","unique_id_734","unique_id_737","unique_id_754","unique_id_755","unique_id_758","unique_id_767","unique_id_771","unique_id_781","unique_id_789","unique_id_791","unique_id_801","unique_id_805","unique_id_825","unique_id_831","unique_id_839","unique_id_842","unique_id_854","unique_id_857","unique_id_867","unique_id_885","unique_id_887","unique_id_898","unique_id_915","unique_id_922","unique_id_930","unique_id_932","unique_id_942","unique_id_943","unique_id_952","unique_id_960","unique_id_961","unique_id_967","unique_id_979","unique_id_988","unique_id_990","unique_id_993","unique_id_1008","unique_id_1018","unique_id_1049","unique_id_1050","unique_id_1055","unique_id_1058","unique_id_1067","unique_id_1073","unique_id_1075","unique_id_1077","unique_id_1078","unique_id_1082","unique_id_1109","unique_id_1113","unique_id_1118","unique_id_1122","unique_id_1133","unique_id_1135","unique_id_1144","unique_id_1147","unique_id_1157","unique_id_1164","unique_id_1168","unique_id_1179","unique_id_1190","unique_id_1193","unique_id_1201","unique_id_1204","unique_id_1217","unique_id_1223","unique_id_1231","unique_id_1243","unique_id_1249","unique_id_1271"],"feature_types":["float","float","float","float","float","float","float","float","float","float","float","float","int","int","i","i","i","i","i","i","i","i","i","i","i","i","i","i","i","i","i","i","i","i","i","i","i","i","i","i","i","i","i","i","i","i","i","i","i","i","i","i","i","i","i","i","i","i","i","i","i","i","i","i","i","i","i","i","i","i","i","i","i","i","i","i","i","i","i","i","i","i","i","i","i","i","i","i","i","i","i","i","i","i","i","i","i","i","i","i","i","i","i","i","i","i","i","i","i","i","i","i","i","i","i","i","i","i","i","i","i","i","i","i","i","i","i","i","i","i","i","i","i","i","i","i","i","i","i","i","i","i","i","i","i","i","i","i","i","i","i","i","i","i","i","i","i","i","i"],"gradient_booster":{"model":{"gbtree_model_param":{"num_parallel_tree":"1","num_trees":"100"},"iteration_indptr":[0,1,2,3,4,5,6,7,8,9,10,11,12,13,14,15,16,17,18,19,20,21,22,23,24,25,26,27,28,29,30,31,32,33,34,35,36,37,38,39,40,41,42,43,44,45,46,47,48,49,50,51,52,53,54,55,56,57,58,59,60,61,62,63,64,65,66,67,68,69,70,71,72,73,74,75,76,77,78,79,80,81,82,83,84,85,86,87,88,89,90,91,92,93,94,95,96,97,98,99,100],"tree_info":[0,0,0,0,0,0,0,0,0,0,0,0,0,0,0,0,0,0,0,0,0,0,0,0,0,0,0,0,0,0,0,0,0,0,0,0,0,0,0,0,0,0,0,0,0,0,0,0,0,0,0,0,0,0,0,0,0,0,0,0,0,0,0,0,0,0,0,0,0,0,0,0,0,0,0,0,0,0,0,0,0,0,0,0,0,0,0,0,0,0,0,0,0,0,0,0,0,0,0,0],"trees":[{"base_weights":[1.2738669E-9,-8.535659E-2,2.511409E0,2.6400013E0,1.5854533E0,1.2349406E0,2.7003393E0,2.4204018E0,1.3701907E0,1.0495913E0,4.0977994E-1,2.6427777E0,3.9363837E0,1.8608645E0,5.5173593E0,1.2925261E0,3.3173592E0,8.311426E-2,2.622249E-1,4.770557E-1,2.6058707E-1,3.1919014E-1,5.9815687E-1,1.5084755E-1,4.764466E-1,6.6100246E-1,5.733494E-2,1.345651E-1,-8.8997595E-2,4.764466E-1,7.6446585E-2],"categories":[],"categories_nodes":[],"categories_segments":[],"categories_sizes":[],"default_left":[0,0,0,0,0,0,0,0,0,0,0,0,0,0,0,0,0,0,0,0,0,0,0,0,0,0,0,0,0,0,0],"id":0,"left_children":[1,-1,3,5,7,9,11,13,15,17,-1,19,21,23,25,27,29,-1,-1,-1,-1,-1,-1,-1,-1,-1,-1,-1,-1,-1,-1],"loss_changes":[1.2439619E4,0E0,1.7108594E2,1.06115234E2,2.939502E1,2.4883568E1,7.760742E1,5.2116013E1,1.7942413E1,1.6028427E1,0E0,8.062695E1,6.160547E1,2.555523E1,2.3220871E1,1.777774E1,1.4829277E1,0E0,0E0,0E0,0E0,0E0,0E0,0E0,0E0,0E0,0E0,0E0,0E0,0E0,0E0],"parents":[2147483647,0,0,2,2,3,3,4,4,5,5,6,6,7,7,8,8,9,9,11,11,12,12,13,13,14,14,15,15,16,16],"right_children":[2,-1,4,6,8,10,12,14,16,18,-1,20,22,24,26,28,30,-1,-1,-1,-1,-1,-1,-1,-1,-1,-1,-1,-1,-1,-1],"split_conditions":[4E-1,-8.535659E-2,2.10405E0,-2.3E2,1.9560885E0,1.0083333E1,1E0,9.5E1,6.125E0,1.933295E0,4.0977994E-1,3.125E0,7E0,1.9480838E0,2.3710425E0,6.2E0,3.1281166E0,8.311426E-2,2.622249E-1,4.770557E-1,2.6058707E-1,3.1919014E-1,5.9815687E-1,1.5084755E-1,4.764466E-1,6.6100246E-1,5.733494E-2,1.345651E-1,-8.8997595E-2,4.764466E-1,7.6446585E-2],"split_indices":[1,0,7,12,5,11,49,12,2,6,0,10,8,5,7,1,4,0,0,0,0,0,0,0,0,0,0,0,0,0,0],"split_type":[0,0,0,0,0,0,0,0,0,0,0,0,0,0,0,0,0,0,0,0,0,0,0,0,0,0,0,0,0,0,0],"sum_hessian":[5.801E3,4.33E3,1.471E3,1.29E3,1.81E2,5.4E1,1.236E3,3.5E1,1.46E2,5.2E1,2E0,1.184E3,5.2E1,3.1E1,4E0,1.42E2,4E0,4.7E1,5E0,1.8E1,1.166E3,4E1,1.2E1,2.9E1,2E0,3E0,1E0,1.39E2,3E0,2E0,2E0],"tree_param":{"num_deleted":"0","num_feature":"159","num_nodes":"31","size_leaf_vector":"1"}},{"base_weights":[7.357367E-4,-7.682291E-2,2.263226E0,2.377868E0,1.4375896E0,1.1251761E0,2.4316432E0,2.2157402E0,1.2372427E0,2.8649774E0,8.536702E-1,3.626034E0,2.3814228E0,1.694381E0,5.1092906E0,1.1635921E0,3.0962017E0,6.508677E-2,5.600168E-1,6.2289704E-2,2.4037282E-1,5.079671E-1,3.0003867E-1,2.324438E-1,3.560054E-1,1.3626562E-1,4.4468352E-1,6.1142725E-1,5.4468192E-2,1.212047E-1,-8.232277E-2,4.4468346E-1,7.135015E-2],"categories":[],"categories_nodes":[],"categories_segments":[],"categories_sizes":[],"default_left":[0,0,0,0,0,0,0,0,0,0,0,0,0,0,0,0,0,0,0,0,0,0,0,0,0,0,0,0,0,0,0,0,0],"id":1,"left_children":[1,-1,3,5,7,9,11,13,15,17,19,21,23,25,27,29,31,-1,-1,-1,-1,-1,-1,-1,-1,-1,-1,-1,-1,-1,-1,-1,-1],"loss_changes":[1.0095915E4,0E0,1.3590967E2,8.423193E1,2.5632416E1,2.3534393E1,6.556299E1,4.5651764E1,1.6523575E1,3.8747112E1,1.6030598E1,2.8413269E1,7.165088E1,2.3158318E1,1.96064E1,1.4764557E1,1.2917946E1,0E0,0E0,0E0,0E0,0E0,0E0,0E0,0E0,0E0,0E0,0E0,0E0,0E0,0E0,0E0,0E0],"parents":[2147483647,0,0,2,2,3,3,4,4,5,5,6,6,7,7,8,8,9,9,10,10,11,11,12,12,13,13,14,14,15,15,16,16],"right_children":[2,-1,4,6,8,10,12,14,16,18,20,22,24,26,28,30,32,-1,-1,-1,-1,-1,-1,-1,-1,-1,-1,-1,-1,-1,-1,-1,-1],"split_conditions":[4E-1,-7.682291E-2,2.10405E0,-2.3E2,1.9560885E0,2.2857144E0,4.0833335E0,9.5E1,6.125E0,2.25E0,1.933295E0,3.125E0,1E0,1.9480838E0,2.3710425E0,6.2E0,3.1281166E0,6.508677E-2,5.600168E-1,6.2289704E-2,2.4037282E-1,5.079671E-1,3.0003867E-1,2.324438E-1,3.560054E-1,1.3626562E-1,4.4468352E-1,6.1142725E-1,5.4468192E-2,1.212047E-1,-8.232277E-2,4.4468346E-1,7.135015E-2],"split_indices":[1,0,7,12,5,2,11,12,2,2,6,10,49,5,7,1,4,0,0,0,0,0,0,0,0,0,0,0,0,0,0,0,0],"split_type":[0,0,0,0,0,0,0,0,0,0,0,0,0,0,0,0,0,0,0,0,0,0,0,0,0,0,0,0,0,0,0,0,0],"sum_hessian":[5.801E3,4.33E3,1.471E3,1.29E3,1.81E2,5.4E1,1.236E3,3.5E1,1.46E2,6E0,4.8E1,4.7E1,1.189E3,3.1E1,4E0,1.42E2,4E0,4E0,2E0,4.3E1,5E0,1.2E1,3.5E1,1.137E3,5.2E1,2.9E1,2E0,3E0,1E0,1.39E2,3E0,2E0,2E0],"tree_param":{"num_deleted":"0","num_feature":"159","num_nodes":"33","size_leaf_vector":"1"}},{"base_weights":[1.3600166E-3,-6.9018275E-1,2.043483E0,-6.9134426E-1,7.4025095E-1,1.7583113E0,2.320894E0,-6.9142394E-2,-1.7316604E-2,1.1024453E-1,-1.7316604E-2,2.0231836E0,1.2823081E0,1.9443818E0,2.5351093E0,2.217537E0,1.0996317E0,1.2208077E0,4.2115703E-1,4.2738123E0,1.8395602E0,2.9434872E0,2.2258756E0,2.0770259E-1,4.6709844E-1,1.2277746E-1,4.141077E-3,1.5065914E-1,7.198771E-2,5.204421E-1,5.738203E-3,2.7174506E-1,1.5435682E-1,1.6577382E-1,3.352447E-1,4.042739E-1,2.111172E-1],"categories":[],"categories_nodes":[],"categories_segments":[],"categories_sizes":[],"default_left":[1,0,0,0,0,0,0,0,0,0,0,0,0,0,0,0,0,0,0,0,0,0,0,0,0,0,0,0,0,0,0,0,0,0,0,0,0],"id":2,"left_children":[1,3,5,7,9,11,13,-1,-1,-1,-1,15,17,19,21,23,25,27,-1,29,31,33,35,-1,-1,-1,-1,-1,-1,-1,-1,-1,-1,-1,-1,-1,-1],"loss_changes":[8.195085E3,7.7141113E0,1.1205176E2,5.908203E-2,1.5142441E0,8.9191895E1,5.483618E1,0E0,0E0,0E0,0E0,8.120654E1,4.223819E1,5.879785E1,5.267505E1,1.2267688E2,1.1204239E1,3.5993317E1,0E0,4.2863678E1,6.414557E1,9.908057E1,4.794165E1,0E0,0E0,0E0,0E0,0E0,0E0,0E0,0E0,0E0,0E0,0E0,0E0,0E0,0E0],"parents":[2147483647,0,0,1,1,2,2,3,3,4,4,5,5,6,6,11,11,12,12,13,13,14,14,15,15,16,16,17,17,19,19,20,20,21,21,22,22],"right_children":[2,4,6,8,10,12,14,-1,-1,-1,-1,16,18,20,22,24,26,28,-1,30,32,34,36,-1,-1,-1,-1,-1,-1,-1,-1,-1,-1,-1,-1,-1,-1],"split_conditions":[3.3333334E-1,6E-1,2E1,4E-1,2.2E0,1E0,4.6E1,-6.9142394E-2,-1.7316604E-2,1.1024453E-1,-1.7316604E-2,2.0706115E0,1.2166667E1,4.0833335E0,1.2E2,1.3E1,1.3142858E1,8.5E0,4.2115703E-1,3.6E0,3.5E1,1.2864096E0,3.125E0,2.0770259E-1,4.6709844E-1,1.2277746E-1,4.141077E-3,1.5065914E-1,7.198771E-2,5.204421E-1,5.738203E-3,2.7174506E-1,1.5435682E-1,1.6577382E-1,3.352447E-1,4.042739E-1,2.111172E-1],"split_indices":[0,1,12,1,1,14,13,0,0,0,0,7,11,11,12,8,10,11,0,1,12,7,10,0,0,0,0,0,0,0,0,0,0,0,0,0,0],"split_type":[0,0,0,0,0,0,0,0,0,0,0,0,0,0,0,0,0,0,0,0,0,0,0,0,0,0,0,0,0,0,0,0,0,0,0,0,0],"sum_hessian":[5.801E3,4.334E3,1.467E3,4.331E3,3E0,7.27E2,7.4E2,4.33E3,1E0,2E0,1E0,4.65E2,2.62E2,2.72E2,4.68E2,3.83E2,8.2E1,2.58E2,4E0,1E1,2.62E2,1.98E2,2.7E2,3.64E2,1.9E1,7.3E1,9E0,1.63E2,9.5E1,8E0,2E0,6.4E1,1.98E2,4.9E1,1.49E2,1.4E1,2.56E2],"tree_param":{"num_deleted":"0","num_feature":"159","num_nodes":"37","size_leaf_vector":"1"}},{"base_weights":[1.8308284E-3,-6.21163E-1,1.8415287E0,-6.2222975E-1,6.8945783E-1,1.936162E0,1.1622175E0,-6.222975E-2,-1.6450776E-2,1.02894895E-1,-1.6450776E-2,8.612916E-1,1.982538E0,1.8766004E0,9.793604E-1,6.968851E-1,3.4787086E-1,1.9359272E0,2.9837623E0,1.3985933E0,4.5605254E0,-8.404502E-1,1.0361415E0,5.7703085E-2,3.4646535E-1,2.9975516E-1,1.8892835E-1,2.306387E-1,4.89058E-1,1.0860328E-1,4.058001E-1,5.4805225E-1,4.402694E-2,-2.1345878E-2,-1.1872917E-1,9.6588336E-2,2.7820888E-1],"categories":[],"categories_nodes":[],"categories_segments":[],"categories_sizes":[],"default_left":[1,0,0,0,0,0,0,0,0,0,0,0,0,0,0,0,0,0,0,0,0,0,0,0,0,0,0,0,0,0,0,0,0,0,0,0,0],"id":3,"left_children":[1,3,5,7,9,11,13,-1,-1,-1,-1,15,17,19,21,23,-1,25,27,29,31,33,35,-1,-1,-1,-1,-1,-1,-1,-1,-1,-1,-1,-1,-1,-1],"loss_changes":[6.650934E3,6.48999E0,9.2120605E1,3.173828E-2,1.3289249E0,6.2447266E1,2.1936798E1,0E0,0E0,0E0,0E0,2.1243359E1,5.1765137E1,3.980735E1,1.606044E1,1.5582417E1,0E0,5.281787E1,5.717691E1,2.2192112E1,1.65402E1,8.3389497E-1,1.4854202E1,0E0,0E0,0E0,0E0,0E0,0E0,0E0,0E0,0E0,0E0,0E0,0E0,0E0,0E0],"parents":[2147483647,0,0,1,1,2,2,3,3,4,4,5,5,6,6,11,11,12,12,13,13,14,14,15,15,17,17,18,18,19,19,20,20,21,21,22,22],"right_children":[2,4,6,8,10,12,14,-1,-1,-1,-1,16,18,20,22,24,-1,26,28,30,32,34,36,-1,-1,-1,-1,-1,-1,-1,-1,-1,-1,-1,-1,-1,-1],"split_conditions":[3.3333334E-1,6E-1,2.10405E0,4E-1,2.2E0,-2.3E2,1.9560885E0,-6.222975E-2,-1.6450776E-2,1.02894895E-1,-1.6450776E-2,1.0083333E1,1E0,9.5E1,2.007889E0,5.142857E0,3.4787086E-1,4.0833335E0,7E0,1.9480838E0,2.3710425E0,3.125E0,6.125E0,5.7703085E-2,3.4646535E-1,2.9975516E-1,1.8892835E-1,2.306387E-1,4.89058E-1,1.0860328E-1,4.058001E-1,5.4805225E-1,4.402694E-2,-2.1345878E-2,-1.1872917E-1,9.6588336E-2,2.7820888E-1],"split_indices":[0,1,7,1,1,12,5,0,0,0,0,11,49,12,5,2,0,11,8,5,7,2,2,0,0,0,0,0,0,0,0,0,0,0,0,0,0],"split_type":[0,0,0,0,0,0,0,0,0,0,0,0,0,0,0,0,0,0,0,0,0,0,0,0,0,0,0,0,0,0,0,0,0,0,0,0,0],"sum_hessian":[5.801E3,4.334E3,1.467E3,4.331E3,3E0,1.286E3,1.81E2,4.33E3,1E0,2E0,1E0,5.4E1,1.232E3,3.5E1,1.46E2,5.2E1,2E0,1.18E3,5.2E1,3.1E1,4E0,4E0,1.42E2,5.1E1,1E0,4.7E1,1.133E3,4E1,1.2E1,2.9E1,2E0,3E0,1E0,2E0,2E0,1.38E2,4E0],"tree_param":{"num_deleted":"0","num_feature":"159","num_nodes":"37","size_leaf_vector":"1"}},{"base_weights":[2.2181368E-3,-5.600821E-2,1.6566476E0,1.4150432E0,1.891154E0,1.6504626E0,9.91637E-1,1.3100227E0,2.0063906E0,1.8707249E0,1.0772913E0,9.344029E-1,3.7580347E-1,4.658248E0,1.1331685E0,2.1658487E0,1.465359E0,1.2827724E-1,2.1872392E-1,-1.3206984E-2,1.4041583E-1,8.8903226E-2,3.6045235E-1,5.036723E-1,1.3829379E-1,6.1853528E-2,1.9885814E-1,2.090806E-1,5.8274263E-1,1.6667843E-1,3.887829E-2],"categories":[],"categories_nodes":[],"categories_segments":[],"categories_sizes":[],"default_left":[0,0,0,0,0,0,0,0,0,0,0,0,0,0,0,0,0,0,0,0,0,0,0,0,0,0,0,0,0,0,0],"id":4,"left_children":[1,-1,3,5,7,9,11,13,15,17,19,21,-1,23,25,27,29,-1,-1,-1,-1,-1,-1,-1,-1,-1,-1,-1,-1,-1,-1],"loss_changes":[5.3984473E3,0E0,8.072412E1,7.102869E1,4.7195557E1,5.6942505E1,3.8129852E1,6.933206E1,5.022827E1,5.972229E1,5.2365097E1,2.8172043E1,0E0,4.7225952E-1,5.203708E1,1.1860913E2,3.0578339E1,0E0,0E0,0E0,0E0,0E0,0E0,0E0,0E0,0E0,0E0,0E0,0E0,0E0,0E0],"parents":[2147483647,0,0,2,2,3,3,4,4,5,5,6,6,7,7,8,8,9,9,10,10,11,11,13,13,14,14,15,15,16,16],"right_children":[2,-1,4,6,8,10,12,14,16,18,20,22,-1,24,26,28,30,-1,-1,-1,-1,-1,-1,-1,-1,-1,-1,-1,-1,-1,-1],"split_conditions":[4E-1,-5.600821E-2,2E1,1E0,4.4E1,2.068405E0,1.2166667E1,7.209108E-1,1.834198E0,2.8333333E0,-1.6E2,1E0,3.7580347E-1,3.3333333E0,1.788774E0,1.944902E0,1.2E1,1.2827724E-1,2.1872392E-1,-1.3206984E-2,1.4041583E-1,8.8903226E-2,3.6045235E-1,5.036723E-1,1.3829379E-1,6.1853528E-2,1.9885814E-1,2.090806E-1,5.8274263E-1,1.6667843E-1,3.887829E-2],"split_indices":[1,0,12,14,13,4,11,5,6,3,12,18,0,0,4,7,8,0,0,0,0,0,0,0,0,0,0,0,0,0,0],"split_type":[0,0,0,0,0,0,0,0,0,0,0,0,0,0,0,0,0,0,0,0,0,0,0,0,0,0,0,0,0,0,0],"sum_hessian":[5.801E3,4.33E3,1.471E3,7.28E2,7.43E2,4.66E2,2.62E2,1.25E2,6.18E2,3.35E2,1.31E2,2.58E2,4E0,5E0,1.2E2,4.75E2,1.43E2,1.19E2,2.16E2,2.8E1,1.03E2,2.55E2,3E0,4E0,1E0,7.6E1,4.4E1,4.67E2,8E0,1.2E2,2.3E1],"tree_param":{"num_deleted":"0","num_feature":"159","num_nodes":"31","size_leaf_vector":"1"}},{"base_weights":[2.5381094E-3,-5.0367165E-1,1.49465E0,-5.040722E-2,6.15724E-2,1.6685343E0,1.2016041E0,1.6335535E0,5.4521513E0,1.1344393E0,2.3714533E0,6.911301E-1,1.7002163E0,7.434822E-1,1.6107751E0,1.9168708E-1,1.2058182E0,-3.4257302E-1,3.2505786E0,2.7214391E-2,1.9858108E-1,1.6475365E-1,3.4490258E-1,1.1258865E-2,2.0726411E-1,2.1355955E-3,3.2469693E-1,1.9832978E-1,1.1080942E-1,3.0380595E-2,-4.783137E-2,4.0674415E-1,9.190954E-2],"categories":[],"categories_nodes":[],"categories_segments":[],"categories_sizes":[],"default_left":[0,0,0,0,0,0,0,0,0,0,0,0,0,0,0,0,0,0,0,0,0,0,0,0,0,0,0,0,0,0,0,0,0],"id":5,"left_children":[1,3,5,-1,-1,7,9,11,13,15,17,19,21,-1,23,25,27,29,31,-1,-1,-1,-1,-1,-1,-1,-1,-1,-1,-1,-1,-1,-1],"loss_changes":[4.3831284E3,2.2530518E0,7.2900635E1,0E0,0E0,1.1285913E2,4.0603333E1,5.6183838E1,4.8953644E1,3.496289E1,7.030667E1,3.3091682E1,7.281006E1,0E0,2.5344896E0,1.9706224E1,3.4727783E1,8.47234E-1,3.8160645E1,0E0,0E0,0E0,0E0,0E0,0E0,0E0,0E0,0E0,0E0,0E0,0E0,0E0,0E0],"parents":[2147483647,0,0,1,1,2,2,5,5,6,6,7,7,8,8,9,9,10,10,11,11,12,12,14,14,15,15,16,16,17,17,18,18],"right_children":[2,4,6,-1,-1,8,10,12,14,16,18,20,22,-1,24,26,28,30,32,-1,-1,-1,-1,-1,-1,-1,-1,-1,-1,-1,-1,-1,-1],"split_conditions":[3.3333334E-1,6E-1,8.2E0,-5.040722E-2,6.15724E-2,1.2333333E1,1E0,-1.6E2,5E0,7E0,-1.05E2,4E0,1E0,7.434822E-1,5.5E0,4.5E0,2.4E0,1.056457E0,2.1501932E0,2.7214391E-2,1.9858108E-1,1.6475365E-1,3.4490258E-1,1.1258865E-2,2.0726411E-1,2.1355955E-3,3.2469693E-1,1.9832978E-1,1.1080942E-1,3.0380595E-2,-4.783137E-2,4.0674415E-1,9.190954E-2],"split_indices":[0,1,10,0,0,8,40,12,0,9,12,0,76,0,0,1,1,5,4,0,0,0,0,0,0,0,0,0,0,0,0,0,0],"split_type":[0,0,0,0,0,0,0,0,0,0,0,0,0,0,0,0,0,0,0,0,0,0,0,0,0,0,0,0,0,0,0,0,0],"sum_hessian":[5.801E3,4.332E3,1.469E3,4.331E3,1E0,9.19E2,5.5E2,9.12E2,7E0,5.22E2,2.8E1,6.1E1,8.51E2,4E0,3E0,3.7E1,4.85E2,7E0,2.1E1,4.7E1,1.4E1,8.28E2,2.3E1,1E0,2E0,3.6E1,1E0,5.2E1,4.33E2,1E0,6E0,1.5E1,6E0],"tree_param":{"num_deleted":"0","num_feature":"159","num_nodes":"33","size_leaf_vector":"1"}},{"base_weights":[2.771347E-3,-4.5293713E-1,1.3484753E0,-4.5367662E-2,4.6115622E-1,1.1356465E0,1.5557505E0,7.94599E-2,-2.6958598E-2,1.350591E0,7.5047636E-1,1.6033858E0,5.180587E-1,1.8988225E0,1.141838E0,6.9737095E-1,3.3512406E0,1.5683353E0,3.5056183E0,3.17723E-1,2.5257212E-1,1.6218635E-1,4.9770567E-1,-1.0137401E-2,1.284834E-1,6.5516666E-2,3.2241052E-1,3.717408E-1,9.4328545E-2,1.6364531E-1,6.341166E-2,4.862258E-1,6.338716E-2,-7.884871E-2,5.7560813E-2],"categories":[],"categories_nodes":[],"categories_segments":[],"categories_sizes":[],"default_left":[1,0,0,0,0,0,0,0,0,0,0,0,0,0,0,0,0,0,0,0,0,0,0,0,0,0,0,0,0,0,0,0,0,0,0],"id":6,"left_children":[1,3,5,-1,7,9,11,-1,-1,13,15,17,19,21,23,25,27,29,31,-1,33,-1,-1,-1,-1,-1,-1,-1,-1,-1,-1,-1,-1,-1,-1],"loss_changes":[3.55868E3,3.1394653E0,6.299243E1,0E0,1.1888553E0,5.925763E1,3.579773E1,0E0,0E0,5.1163208E1,3.3987076E1,4.1707275E1,2.320065E1,1.0020108E2,6.0573578E1,2.5507195E1,9.019966E-1,4.331714E1,4.3669052E1,0E0,1.1215448E1,0E0,0E0,0E0,0E0,0E0,0E0,0E0,0E0,0E0,0E0,0E0,0E0,0E0,0E0],"parents":[2147483647,0,0,1,1,2,2,4,4,5,5,6,6,9,9,10,10,11,11,12,12,13,13,14,14,15,15,16,16,17,17,18,18,20,20],"right_children":[2,4,6,-1,8,10,12,-1,-1,14,16,18,20,22,24,26,28,30,32,-1,34,-1,-1,-1,-1,-1,-1,-1,-1,-1,-1,-1,-1,-1,-1],"split_conditions":[3.3333334E-1,6E-1,2E1,-4.5367662E-2,2.2E0,1E0,1.26E1,7.94599E-2,-2.6958598E-2,1.4039972E0,1.2166667E1,4.857143E0,1.4803154E0,1.6295733E0,2.4545455E0,1E0,4.5E0,5E0,6E1,3.17723E-1,1.7901199E0,1.6218635E-1,4.9770567E-1,-1.0137401E-2,1.284834E-1,6.5516666E-2,3.2241052E-1,3.717408E-1,9.4328545E-2,1.6364531E-1,6.341166E-2,4.862258E-1,6.338716E-2,-7.884871E-2,5.7560813E-2],"split_indices":[0,1,12,0,1,14,9,0,0,5,11,2,5,4,3,18,1,0,12,0,6,0,0,0,0,0,0,0,0,0,0,0,0,0,0],"split_type":[0,0,0,0,0,0,0,0,0,0,0,0,0,0,0,0,0,0,0,0,0,0,0,0,0,0,0,0,0,0,0,0,0,0,0],"sum_hessian":[5.801E3,4.334E3,1.467E3,4.331E3,3E0,7.27E2,7.4E2,2E0,1E0,4.65E2,2.62E2,7.07E2,3.3E1,1.26E2,3.39E2,2.58E2,4E0,6.96E2,1.1E1,2E0,3.1E1,1.17E2,9E0,3.5E1,3.04E2,2.55E2,3E0,3E0,1E0,6.48E2,4.8E1,7E0,4E0,7E0,2.4E1],"tree_param":{"num_deleted":"0","num_feature":"159","num_nodes":"35","size_leaf_vector":"1"}},{"base_weights":[2.9617185E-3,-4.0764177E-1,1.2154707E0,-4.0831942E-2,4.281659E-1,1.2886329E0,6.914313E-1,7.4162565E-2,-2.5610669E-2,1.2597617E0,2.6956608E0,1.3108547E0,5.3503215E-1,1.2186513E0,2.1753252E0,6.538497E0,1.4080269E0,8.7776494E-1,3.820458E0,-4.5325002E-1,6.342927E-1,2.773411E-1,1.19286835E-1,1.8393852E-1,5.830744E-1,7.12261E-1,1.8089662E-1,2.0863472E-1,1.2975323E-2,5.8596987E-2,3.5031274E-1,4.650522E-1,2.5010182E-2,-7.578732E-2,9.16326E-2,8.080743E-2,5.5111717E-3],"categories":[],"categories_nodes":[],"categories_segments":[],"categories_sizes":[],"default_left":[1,0,0,0,0,0,0,0,0,0,0,0,0,0,0,0,0,0,0,0,0,0,0,0,0,0,0,0,0,0,0,0,0,0,0,0,0],"id":7,"left_children":[1,3,5,-1,7,9,11,-1,-1,13,15,17,19,21,23,25,27,29,31,33,35,-1,-1,-1,-1,-1,-1,-1,-1,-1,-1,-1,-1,-1,-1,-1,-1],"loss_changes":[2.8890815E3,2.630066E0,5.5391846E1,0E0,1.0479028E0,4.8885498E1,1.6930313E1,0E0,0E0,4.488733E1,1.1449776E2,3.5774345E1,1.4707821E1,4.5236206E1,5.435907E1,3.690918E0,1.7070866E1,2.246144E1,1.3655006E1,6.5353227E0,1.3442692E1,0E0,0E0,0E0,0E0,0E0,0E0,0E0,0E0,0E0,0E0,0E0,0E0,0E0,0E0,0E0,0E0],"parents":[2147483647,0,0,1,1,2,2,4,4,5,5,6,6,9,9,10,10,11,11,12,12,13,13,14,14,15,15,16,16,17,17,18,18,19,19,20,20],"right_children":[2,4,6,-1,8,10,12,-1,-1,14,16,18,20,22,24,26,28,30,32,34,36,-1,-1,-1,-1,-1,-1,-1,-1,-1,-1,-1,-1,-1,-1,-1,-1],"split_conditions":[3.3333334E-1,6E-1,2.10405E0,-4.0831942E-2,2.2E0,1.4333333E1,1.9560885E0,7.4162565E-2,-2.5610669E-2,1E0,1.5333333E1,9.5E1,2.062737E0,3.125E0,7.6363635E0,4.5E0,4.125E0,1.9480838E0,2.3710425E0,3.8E0,2.8382857E0,2.773411E-1,1.19286835E-1,1.8393852E-1,5.830744E-1,7.12261E-1,1.8089662E-1,2.0863472E-1,1.2975323E-2,5.8596987E-2,3.5031274E-1,4.650522E-1,2.5010182E-2,-7.578732E-2,9.16326E-2,8.080743E-2,5.5111717E-3],"split_indices":[0,1,7,0,1,8,5,0,0,49,8,12,6,10,11,1,2,5,7,1,5,0,0,0,0,0,0,0,0,0,0,0,0,0,0,0,0],"split_type":[0,0,0,0,0,0,0,0,0,0,0,0,0,0,0,0,0,0,0,0,0,0,0,0,0,0,0,0,0,0,0,0,0,0,0,0,0],"sum_hessian":[5.801E3,4.334E3,1.467E3,4.331E3,3E0,1.286E3,1.81E2,2E0,1E0,1.262E3,2.4E1,3.5E1,1.46E2,1.21E3,5.2E1,5E0,1.9E1,3.1E1,4E0,1.3E1,1.33E2,1.8E1,1.192E3,4.9E1,3E0,4E0,1E0,1.2E1,7E0,2.9E1,2E0,3E0,1E0,1.1E1,2E0,1.02E2,3.1E1],"tree_param":{"num_deleted":"0","num_feature":"159","num_nodes":"37","size_leaf_vector":"1"}},{"base_weights":[3.2321406E-3,-3.668758E-1,1.0961577E0,-3.674969E-2,3.9748728E-1,1.2407384E0,8.53288E-1,6.921839E-2,-2.4330134E-2,1.208541E0,4.752118E0,7.921971E-1,1.9256061E0,1.1662337E0,2.5010815E0,6.5408504E-1,1.3281734E0,3.991047E-1,9.628086E-1,-5.151701E-1,2.7256336E0,6.950354E-2,1.2670358E-1,1.3267349E-1,5.271106E-1,1.4557481E-3,1.761193E-1,2.4360437E-2,4.34968E-1,7.397311E-2,1.6753183E-1,1.47879E-2,-6.31017E-2,3.4297955E-1,2.7623622E-2],"categories":[],"categories_nodes":[],"categories_segments":[],"categories_sizes":[],"default_left":[1,0,0,0,0,0,0,0,0,0,0,0,0,0,0,0,0,0,0,0,0,0,0,0,0,0,0,0,0,0,0,0,0,0,0],"id":8,"left_children":[1,3,5,-1,7,9,11,-1,-1,13,15,17,19,21,23,-1,25,27,29,31,33,-1,-1,-1,-1,-1,-1,-1,-1,-1,-1,-1,-1,-1,-1],"loss_changes":[2.3473137E3,2.2040405E0,5.0489014E1,0E0,9.237624E-1,9.8043335E1,3.4569916E1,0E0,0E0,4.6900146E1,4.0308792E1,3.4691315E1,5.8032112E1,4.11073E1,8.408977E1,0E0,2.2496462E0,9.7230934E1,5.661664E1,7.078116E-1,3.699756E1,0E0,0E0,0E0,0E0,0E0,0E0,0E0,0E0,0E0,0E0,0E0,0E0,0E0,0E0],"parents":[2147483647,0,0,1,1,2,2,4,4,5,5,6,6,9,9,10,10,11,11,12,12,13,13,14,14,16,16,17,17,18,18,19,19,20,20],"right_children":[2,4,6,-1,8,10,12,-1,-1,14,16,18,20,22,24,-1,26,28,30,32,34,-1,-1,-1,-1,-1,-1,-1,-1,-1,-1,-1,-1,-1,-1],"split_conditions":[3.3333334E-1,6E-1,8.2E0,-3.674969E-2,2.2E0,1.2333333E1,1E0,6.921839E-2,-2.4330134E-2,1E0,5E0,8.833333E0,-1.05E2,-6E1,3.125E0,6.5408504E-1,5.5E0,2.4E2,4.6E1,1.056457E0,3.8E0,6.950354E-2,1.2670358E-1,1.3267349E-1,5.271106E-1,1.4557481E-3,1.761193E-1,2.4360437E-2,4.34968E-1,7.397311E-2,1.6753183E-1,1.47879E-2,-6.31017E-2,3.4297955E-1,2.7623622E-2],"split_indices":[0,1,10,0,1,8,40,0,0,76,0,11,12,12,2,0,0,12,13,5,2,0,0,0,0,0,0,0,0,0,0,0,0,0,0],"split_type":[0,0,0,0,0,0,0,0,0,0,0,0,0,0,0,0,0,0,0,0,0,0,0,0,0,0,0,0,0,0,0,0,0,0,0],"sum_hessian":[5.801E3,4.334E3,1.467E3,4.331E3,3E0,9.17E2,5.5E2,2E0,1E0,9.1E2,7E0,5.22E2,2.8E1,8.83E2,2.7E1,4E0,3E0,1.59E2,3.63E2,7E0,2.1E1,1.57E2,7.26E2,2E1,7E0,1E0,2E0,1.54E2,5E0,2.78E2,8.5E1,1E0,6E0,1.6E1,5E0],"tree_param":{"num_deleted":"0","num_feature":"159","num_nodes":"35","size_leaf_vector":"1"}},{"base_weights":[3.3775533E-3,-3.3018634E-1,9.8838854E-1,-3.3075567E-2,3.6896065E-1,2.67972E-1,1.0291696E0,6.4603835E-2,-2.3113627E-2,1.5283668E0,8.667736E-2,1.1506728E0,8.1420046E-1,2.3331828E0,-2.6215276E-1,7.745771E-1,-2.590783E-1,1.1199299E0,4.3808637E0,7.4475807E-1,2.17491E0,4.869039E-2,4.6325865E-1,-7.8588516E-2,1.7438643E-2,-1.4831314E-2,3.0370697E-1,-1.2807505E-1,-8.2631055E-3,1.07870355E-1,2.4834256E-1,6.017582E-1,1.2397498E-1,7.13581E-2,3.576334E-1,2.8765038E-1,6.011074E-3],"categories":[],"categories_nodes":[],"categories_segments":[],"categories_sizes":[],"default_left":[1,0,0,0,0,0,0,0,0,0,0,0,0,0,0,0,0,0,0,0,0,0,0,0,0,0,0,0,0,0,0,0,0,0,0,0,0],"id":9,"left_children":[1,3,5,-1,7,9,11,-1,-1,13,15,17,19,21,23,25,27,29,31,33,35,-1,-1,-1,-1,-1,-1,-1,-1,-1,-1,-1,-1,-1,-1,-1,-1],"loss_changes":[1.9066553E3,1.8475952E0,4.285315E1,0E0,8.144168E-1,1.814775E1,3.5343018E1,0E0,0E0,1.50220375E1,1.7087687E1,8.297888E1,4.6098114E1,2.7461761E1,1.0515665E0,5.0563206E1,8.547189E0,4.6675293E1,3.3668655E1,3.9999084E1,3.5436623E1,0E0,0E0,0E0,0E0,0E0,0E0,0E0,0E0,0E0,0E0,0E0,0E0,0E0,0E0,0E0,0E0],"parents":[2147483647,0,0,1,1,2,2,4,4,5,5,6,6,9,9,10,10,11,11,12,12,13,13,14,14,15,15,16,16,17,17,18,18,19,19,20,20],"right_children":[2,4,6,-1,8,10,12,-1,-1,14,16,18,20,22,24,26,28,30,32,34,36,-1,-1,-1,-1,-1,-1,-1,-1,-1,-1,-1,-1,-1,-1,-1,-1],"split_conditions":[3.3333334E-1,6E-1,-2.2E2,-3.3075567E-2,2.2E0,2.2E0,8.2E0,6.4603835E-2,-2.3113627E-2,2.6E0,7.5E0,1.2333333E1,1E0,1.8E0,1.5E0,3.5714285E0,2.5714285E0,1E0,5E0,6.125E0,3.8E0,4.869039E-2,4.6325865E-1,-7.8588516E-2,1.7438643E-2,-1.4831314E-2,3.0370697E-1,-1.2807505E-1,-8.2631055E-3,1.07870355E-1,2.4834256E-1,6.017582E-1,1.2397498E-1,7.13581E-2,3.576334E-1,2.8765038E-1,6.011074E-3],"split_indices":[0,1,12,0,1,1,10,0,0,3,8,8,40,1,0,2,2,76,0,2,2,0,0,0,0,0,0,0,0,0,0,0,0,0,0,0,0],"split_type":[0,0,0,0,0,0,0,0,0,0,0,0,0,0,0,0,0,0,0,0,0,0,0,0,0,0,0,0,0,0,0,0,0,0,0,0,0],"sum_hessian":[5.801E3,4.334E3,1.467E3,4.331E3,3E0,7.9E1,1.388E3,2E0,1E0,9E0,7E1,8.84E2,5.04E2,6E0,3E0,2.3E1,4.7E1,8.77E2,7E0,4.81E2,2.3E1,4E0,2E0,1E0,2E0,1.7E1,6E0,6E0,4.1E1,8.53E2,2.4E1,4E0,3E0,4.77E2,4E0,1.7E1,6E0],"tree_param":{"num_deleted":"0","num_feature":"159","num_nodes":"37","size_leaf_vector":"1"}},{"base_weights":[3.4562624E-3,-2.9716575E-1,8.9118993E-1,-2.9768774E-2,3.4243715E-1,7.207756E-1,1.0574118E0,6.029692E-2,-2.1957947E-2,9.125282E-1,3.7827563E-1,1.8834057E0,1.001301E0,4.365365E-1,1.1073717E0,3.275052E-1,2.9325287E0,2.4170232E0,4.910639E-1,4.7098652E-1,1.1076496E0,3.639987E-2,5.1508373E-1,1.520512E-1,6.0146656E-2,-4.303048E-2,4.439312E-2,3.255311E-1,8.2069986E-2,3.1123784E-1,7.433696E-2,-1.1256852E-1,2.8343436E-1,8.2883576E-4,1.2214016E-1,1.0695248E-2,1.17576554E-1],"categories":[],"categories_nodes":[],"categories_segments":[],"categories_sizes":[],"default_left":[1,0,0,0,0,0,0,0,0,0,0,0,0,0,0,0,0,0,0,0,0,0,0,0,0,0,0,0,0,0,0,0,0,0,0,0,0],"id":10,"left_children":[1,3,5,-1,7,9,11,-1,-1,13,15,17,19,21,23,25,27,29,31,33,35,-1,-1,-1,-1,-1,-1,-1,-1,-1,-1,-1,-1,-1,-1,-1,-1],"loss_changes":[1.548658E3,1.5492249E0,4.0821167E1,0E0,7.1809304E-1,4.746637E1,3.245746E1,0E0,0E0,4.273526E1,3.3145565E1,3.2990067E1,3.8731445E1,4.4974297E1,6.8058655E1,2.3042282E1,7.3666763E-1,3.6091217E1,5.622951E1,4.096132E1,3.934088E1,0E0,0E0,0E0,0E0,0E0,0E0,0E0,0E0,0E0,0E0,0E0,0E0,0E0,0E0,0E0,0E0],"parents":[2147483647,0,0,1,1,2,2,4,4,5,5,6,6,9,9,10,10,11,11,12,12,13,13,14,14,15,15,16,16,17,17,18,18,19,19,20,20],"right_children":[2,4,6,-1,8,10,12,-1,-1,14,16,18,20,22,24,26,28,30,32,34,36,-1,-1,-1,-1,-1,-1,-1,-1,-1,-1,-1,-1,-1,-1,-1,-1],"split_conditions":[3.3333334E-1,6E-1,2E1,-2.9768774E-2,2.2E0,1E0,4.0833335E0,6.029692E-2,-2.1957947E-2,2.8181818E0,1.2166667E1,3.6666667E0,4.4E1,1E0,1.8913833E0,1.1964977E0,4.5E0,2.3333333E0,3.8333333E0,1.788774E0,7.44984E-1,3.639987E-2,5.1508373E-1,1.520512E-1,6.0146656E-2,-4.303048E-2,4.439312E-2,3.255311E-1,8.2069986E-2,3.1123784E-1,7.433696E-2,-1.1256852E-1,2.8343436E-1,8.2883576E-4,1.2214016E-1,1.0695248E-2,1.17576554E-1],"split_indices":[0,1,12,0,1,14,11,0,0,3,11,10,13,49,4,6,1,0,11,4,4,0,0,0,0,0,0,0,0,0,0,0,0,0,0,0,0],"split_type":[0,0,0,0,0,0,0,0,0,0,0,0,0,0,0,0,0,0,0,0,0,0,0,0,0,0,0,0,0,0,0,0,0,0,0,0,0],"sum_hessian":[5.801E3,4.334E3,1.467E3,4.331E3,3E0,7.27E2,7.4E2,2E0,1E0,4.65E2,2.62E2,4.5E1,6.95E2,1.36E2,3.29E2,2.58E2,4E0,3.2E1,1.3E1,1.17E2,5.78E2,1.35E2,1E0,1.8E2,1.49E2,3.4E1,2.24E2,3E0,1E0,2.2E1,1E1,8E0,5E0,7.3E1,4.4E1,3.7E1,5.41E2],"tree_param":{"num_deleted":"0","num_feature":"159","num_nodes":"37","size_leaf_vector":"1"}},{"base_weights":[3.4534244E-3,-2.6744723E-1,8.0341995E-1,-2.6792586E-2,3.1777814E-1,8.372358E-1,7.2403364E-2,5.6277115E-2,-2.0860046E-2,8.1455284E-1,2.3650372E0,2.143554E-1,7.561757E-3,9.050029E-1,5.566938E-1,8.7864864E-1,3.501296E0,-5.4548824E-1,3.4460294E-1,8.8642515E-2,2.8996038E-1,3.4163342E-4,7.981902E-2,1.6566366E-1,-7.024925E-2,4.166038E-1,3.3997174E-2,-6.888883E-2,1.6588941E-2,6.362712E-2,-5.086988E-2],"categories":[],"categories_nodes":[],"categories_segments":[],"categories_sizes":[],"default_left":[1,0,0,0,0,0,0,0,0,0,0,0,0,0,0,0,0,0,0,0,0,0,0,0,0,0,0,0,0,0,0],"id":11,"left_children":[1,3,5,-1,7,9,11,-1,-1,13,15,-1,17,19,21,23,25,27,29,-1,-1,-1,-1,-1,-1,-1,-1,-1,-1,-1,-1],"loss_changes":[1.2575746E3,1.2994385E0,3.6228394E1,0E0,6.332306E-1,4.6694702E1,8.847376E0,0E0,0E0,3.1775696E1,3.0702034E1,0E0,1.2304018E1,3.533716E1,4.8365738E1,1.3464863E1,2.1699768E1,2.6645675E0,1.0527792E1,0E0,0E0,0E0,0E0,0E0,0E0,0E0,0E0,0E0,0E0,0E0,0E0],"parents":[2147483647,0,0,1,1,2,2,4,4,5,5,6,6,9,9,10,10,12,12,13,13,14,14,15,15,16,16,17,17,18,18],"right_children":[2,4,6,-1,8,10,12,-1,-1,14,16,-1,18,20,22,24,26,28,30,-1,-1,-1,-1,-1,-1,-1,-1,-1,-1,-1,-1],"split_conditions":[3.3333334E-1,6E-1,2.58986E0,-2.6792586E-2,2.2E0,2.531542E0,5.75E0,5.6277115E-2,-2.0860046E-2,1.8523709E0,4.2E0,2.143554E-1,2.6683934E0,1.4333333E1,1.7304182E0,3.6E0,1E0,1E0,6.5E0,8.8642515E-2,2.8996038E-1,3.4163342E-4,7.981902E-2,1.6566366E-1,-7.024925E-2,4.166038E-1,3.3997174E-2,-6.888883E-2,1.6588941E-2,6.362712E-2,-5.086988E-2],"split_indices":[0,1,5,0,1,5,10,0,0,5,1,0,4,8,7,2,74,72,0,0,0,0,0,0,0,0,0,0,0,0,0],"split_type":[0,0,0,0,0,0,0,0,0,0,0,0,0,0,0,0,0,0,0,0,0,0,0,0,0,0,0,0,0,0,0],"sum_hessian":[5.801E3,4.334E3,1.467E3,4.331E3,3E0,1.402E3,6.5E1,2E0,1E0,1.383E3,1.9E1,1E0,6.4E1,1.022E3,3.61E2,9E0,1E1,2.4E1,4E1,1.014E3,8E0,1.1E2,2.51E2,6E0,3E0,8E0,2E0,2E1,4E0,3E1,1E1],"tree_param":{"num_deleted":"0","num_feature":"159","num_nodes":"31","size_leaf_vector":"1"}},{"base_weights":[3.3128671E-3,-2.4115408E-2,7.225948E-1,2.024896E0,7.0508015E-1,4.2880452E-1,3.1467073E0,6.748274E-1,1.4623306E0,-7.3379606E-1,2.0655043E-1,3.5511506E0,-4.488623E-2,6.451828E-1,1.388042E0,9.413152E-1,2.9209244E0,6.53059E-2,-1.141779E-1,1.00418605E-1,3.7225705E-1,9.502424E-2,5.556494E-2,6.048916E-2,2.6271954E-1,1.4916585E-1,-9.689497E-2,4.7495556E-1,9.557569E-2],"categories":[],"categories_nodes":[],"categories_segments":[],"categories_sizes":[],"default_left":[0,0,0,0,0,0,0,0,0,0,0,0,0,0,0,0,0,0,0,0,0,0,0,0,0,0,0,0,0],"id":12,"left_children":[1,-1,3,5,7,9,11,13,15,17,-1,19,-1,21,23,25,27,-1,-1,-1,-1,-1,-1,-1,-1,-1,-1,-1,-1],"loss_changes":[1.02040173E3,0E0,3.2147644E1,3.2670433E1,3.2322754E1,1.8641111E1,1.7590225E1,2.870459E1,3.904773E1,4.140527E0,0E0,6.2784576E-1,0E0,3.623529E1,5.1785225E1,4.5600014E1,4.5770515E1,0E0,0E0,0E0,0E0,0E0,0E0,0E0,0E0,0E0,0E0,0E0,0E0],"parents":[2147483647,0,0,2,2,3,3,4,4,5,5,6,6,7,7,8,8,9,9,11,11,13,13,14,14,15,15,16,16],"right_children":[2,-1,4,6,8,10,12,14,16,18,-1,20,-1,22,24,26,28,-1,-1,-1,-1,-1,-1,-1,-1,-1,-1,-1,-1],"split_conditions":[4E-1,-2.4115408E-2,3.125E0,6.06323E-1,1E0,2.8E2,2.3333333E0,1E0,7E0,5E-1,2.0655043E-1,8E-1,-4.488623E-2,2.4E0,1.373481E0,5.5E0,1.5E2,6.53059E-2,-1.141779E-1,1.00418605E-1,3.7225705E-1,9.502424E-2,5.556494E-2,6.048916E-2,2.6271954E-1,1.4916585E-1,-9.689497E-2,4.7495556E-1,9.557569E-2],"split_indices":[1,0,10,4,49,12,2,18,8,0,0,1,0,1,7,8,12,0,0,0,0,0,0,0,0,0,0,0,0],"split_type":[0,0,0,0,0,0,0,0,0,0,0,0,0,0,0,0,0,0,0,0,0,0,0,0,0,0,0,0,0],"sum_hessian":[5.801E3,4.33E3,1.471E3,1.8E1,1.453E3,8E0,1E1,1.399E3,5.4E1,5E0,3E0,9E0,1E0,1.345E3,5.4E1,4.1E1,1.3E1,1E0,4E0,1E0,8E0,3.03E2,1.042E3,3.4E1,2E1,3.2E1,9E0,6E0,7E0],"tree_param":{"num_deleted":"0","num_feature":"159","num_nodes":"29","size_leaf_vector":"1"}},{"base_weights":[3.2673448E-3,-2.166915E-1,6.5280294E-1,-2.1705711E-2,2.3345125E-1,7.0737207E-1,2.6333463E-1,4.619036E-2,-2.2595286E-2,6.806973E-1,2.0266838E0,8.1190133E-1,1.2720038E-1,7.0509285E-1,-2.7980074E-1,5.591743E0,8.5583174E-1,4.1428468E-1,3.1942677E0,-2.4558449E-1,3.799264E-1,6.728842E-2,1.4088877E-1,2.4699025E-1,-5.4544438E-2,6.106331E-1,1.5094039E-1,2.3962998E-1,1.8258907E-2,1.3973567E-2,3.0216798E-1,3.9466283E-1,9.241295E-3,-5.569464E-2,2.4466448E-2,2.2368924E-1,1.9183192E-2],"categories":[],"categories_nodes":[],"categories_segments":[],"categories_sizes":[],"default_left":[1,0,0,0,0,0,0,0,0,0,0,0,0,0,0,0,0,0,0,0,0,0,0,0,0,0,0,0,0,0,0,0,0,0,0,0,0],"id":13,"left_children":[1,3,5,-1,7,9,11,-1,-1,13,15,17,19,21,23,25,27,29,31,33,35,-1,-1,-1,-1,-1,-1,-1,-1,-1,-1,-1,-1,-1,-1,-1,-1],"loss_changes":[8.290795E2,7.641449E-1,3.1013E1,0E0,5.241761E-1,4.391284E1,1.3488253E1,0E0,0E0,2.9791687E1,9.956833E1,3.2778336E1,1.39425335E1,2.697931E1,2.4721313E1,3.3874054E0,2.0304634E1,2.248521E1,1.1303848E1,9.294956E0,3.0307985E1,0E0,0E0,0E0,0E0,0E0,0E0,0E0,0E0,0E0,0E0,0E0,0E0,0E0,0E0,0E0,0E0],"parents":[2147483647,0,0,1,1,2,2,4,4,5,5,6,6,9,9,10,10,11,11,12,12,13,13,14,14,15,15,16,16,17,17,18,18,19,19,20,20],"right_children":[2,4,6,-1,8,10,12,-1,-1,14,16,18,20,22,24,26,28,30,32,34,36,-1,-1,-1,-1,-1,-1,-1,-1,-1,-1,-1,-1,-1,-1,-1,-1],"split_conditions":[3.3333334E-1,6E-1,2.10405E0,-2.1705711E-2,2.2E0,1.4333333E1,1.9560885E0,4.619036E-2,-2.2595286E-2,1.22E1,1.5333333E1,9.5E1,2.3518317E0,1E0,1.4803154E0,4.5E0,0E0,1.9480838E0,2.3710425E0,4E0,1.8769103E0,6.728842E-2,1.4088877E-1,2.4699025E-1,-5.4544438E-2,6.106331E-1,1.5094039E-1,2.3962998E-1,1.8258907E-2,1.3973567E-2,3.0216798E-1,3.9466283E-1,9.241295E-3,-5.569464E-2,2.4466448E-2,2.2368924E-1,1.9183192E-2],"split_indices":[0,1,7,0,1,8,5,0,0,9,8,12,5,49,5,1,12,5,7,3,4,0,0,0,0,0,0,0,0,0,0,0,0,0,0,0,0],"split_type":[0,0,0,0,0,0,0,0,0,0,0,0,0,0,0,0,0,0,0,0,0,0,0,0,0,0,0,0,0,0,0,0,0,0,0,0,0],"sum_hessian":[5.801E3,4.334E3,1.467E3,4.331E3,3E0,1.286E3,1.81E2,2E0,1E0,1.262E3,2.4E1,3.5E1,1.46E2,1.231E3,3.1E1,5E0,1.9E1,3.1E1,4E0,5.9E1,8.7E1,1.179E3,5.2E1,2E0,2.9E1,4E0,1E0,5E0,1.4E1,2.9E1,2E0,3E0,1E0,3.6E1,2.3E1,7E0,8E1],"tree_param":{"num_deleted":"0","num_feature":"159","num_nodes":"37","size_leaf_vector":"1"}},{"base_weights":[3.3462837E-3,-1.950219E-1,5.891247E-1,-1.953564E-2,2.1600494E-1,-4.6820454E-2,6.2100095E-1,4.3111008E-2,-2.1465523E-2,1.6682326E0,-2.3079816E-1,6.1182E-1,3.0564594E0,-1.5984228E-1,4.1589466E-1,-3.180117E-1,2.6754346E-1,6.352004E-1,-3.7169468E-1,4.5890146E-1,5.050847E-1,-4.6854895E-2,3.4471632E-3,-5.7561513E-2,2.3687221E-2,7.7706344E-2,4.9591195E-2,8.955727E-3,-1.0040765E-1,-1.8911576E-2,9.467428E-2],"categories":[],"categories_nodes":[],"categories_segments":[],"categories_sizes":[],"default_left":[1,0,0,0,0,0,0,0,0,0,0,0,0,0,0,0,0,0,0,0,0,0,0,0,0,0,0,0,0,0,0],"id":14,"left_children":[1,3,5,-1,7,9,11,-1,-1,13,15,17,19,21,-1,23,-1,25,27,-1,29,-1,-1,-1,-1,-1,-1,-1,-1,-1,-1],"loss_changes":[6.7430615E2,6.382141E-1,2.978769E1,0E0,4.6308887E-1,2.2787762E1,2.938916E1,0E0,0E0,3.253725E1,1.7325907E1,3.2291138E1,1.7232769E1,3.1608164E-1,0E0,9.284508E0,0E0,2.6527649E1,9.715603E0,0E0,1.0988417E0,0E0,0E0,0E0,0E0,0E0,0E0,0E0,0E0,0E0,0E0],"parents":[2147483647,0,0,1,1,2,2,4,4,5,5,6,6,9,9,10,10,11,11,12,12,13,13,15,15,17,17,18,18,20,20],"right_children":[2,4,6,-1,8,10,12,-1,-1,14,16,18,20,22,-1,24,-1,26,28,-1,30,-1,-1,-1,-1,-1,-1,-1,-1,-1,-1],"split_conditions":[3.3333334E-1,6E-1,-2.3E2,-1.953564E-2,2.2E0,2.2857144E0,6.125E0,4.3111008E-2,-2.1465523E-2,2.25E0,1E0,6E0,6.2E0,1.5E0,4.1589466E-1,1.933295E0,2.6754346E-1,1E0,5.3333335E0,4.5890146E-1,8E0,-4.6854895E-2,3.4471632E-3,-5.7561513E-2,2.3687221E-2,7.7706344E-2,4.9591195E-2,8.955727E-3,-1.0040765E-1,-1.8911576E-2,9.467428E-2],"split_indices":[0,1,12,0,1,2,2,0,0,2,75,0,1,0,0,6,0,14,1,0,0,0,0,0,0,0,0,0,0,0,0],"split_type":[0,0,0,0,0,0,0,0,0,0,0,0,0,0,0,0,0,0,0,0,0,0,0,0,0,0,0,0,0,0,0],"sum_hessian":[5.801E3,4.334E3,1.467E3,4.331E3,3E0,7E1,1.397E3,2E0,1E0,6E0,6.4E1,1.393E3,4E0,4E0,2E0,6.3E1,1E0,1.361E3,3.2E1,2E0,2E0,1E0,3E0,4.3E1,2E1,6.72E2,6.89E2,1.9E1,1.3E1,1E0,1E0],"tree_param":{"num_deleted":"0","num_feature":"159","num_nodes":"31","size_leaf_vector":"1"}},{"base_weights":[3.2148142E-3,-1.7551921E-1,5.310137E-1,-1.7582526E-2,1.9981578E-1,1.2871101E0,5.0509983E-1,4.0236935E-2,-2.0392245E-2,9.291037E-1,3.6383047E0,-1.4868909E0,5.1459724E-1,2.3189807E0,3.1628096E-1,1.2595324E-1,4.512808E-1,-2.9299513E-1,-7.5805575E-1,3.790222E-1,6.635091E-1,-7.043667E-3,3.3887702E-1,-1.542112E-1,8.239797E-2,-2.7920485E-3,-8.984987E-2,3.497974E-2,2.7236035E-1,5.617071E-2,1.4799646E-1],"categories":[],"categories_nodes":[],"categories_segments":[],"categories_sizes":[],"default_left":[1,0,0,0,0,0,0,0,0,0,0,0,0,0,0,0,0,0,0,0,0,0,0,0,0,0,0,0,0,0,0],"id":15,"left_children":[1,3,5,-1,7,9,11,-1,-1,13,15,17,19,21,23,-1,-1,-1,25,27,29,-1,-1,-1,-1,-1,-1,-1,-1,-1,-1],"loss_changes":[5.474285E2,5.330963E-1,2.8113007E1,0E0,4.0916657E-1,3.70233E1,2.7648743E1,0E0,0E0,3.589172E1,6.797432E0,5.141206E0,2.8315521E1,3.346895E1,3.0519283E1,0E0,0E0,0E0,5.9016776E-1,4.9957664E1,5.5106293E1,0E0,0E0,0E0,0E0,0E0,0E0,0E0,0E0,0E0,0E0],"parents":[2147483647,0,0,1,1,2,2,4,4,5,5,6,6,9,9,10,10,11,11,12,12,13,13,14,14,18,18,19,19,20,20],"right_children":[2,4,6,-1,8,10,12,-1,-1,14,16,18,20,22,24,-1,-1,-1,26,28,30,-1,-1,-1,-1,-1,-1,-1,-1,-1,-1],"split_conditions":[3.3333334E-1,6E-1,4.0833335E0,-1.7582526E-2,2.2E0,4E0,8.46176E-1,4.0236935E-2,-2.0392245E-2,3.125E0,1.5E0,-8E1,4.6E1,5.059503E-1,1.65E2,1.2595324E-1,4.512808E-1,-2.9299513E-1,5E-1,1E0,1.0333333E1,-7.043667E-3,3.3887702E-1,-1.542112E-1,8.239797E-2,-2.7920485E-3,-8.984987E-2,3.497974E-2,2.7236035E-1,5.617071E-2,1.4799646E-1],"split_indices":[0,1,11,0,1,11,7,0,0,10,0,12,13,5,12,0,0,0,0,18,8,0,0,0,0,0,0,0,0,0,0],"split_type":[0,0,0,0,0,0,0,0,0,0,0,0,0,0,0,0,0,0,0,0,0,0,0,0,0,0,0,0,0,0,0],"sum_hessian":[5.801E3,4.334E3,1.467E3,4.331E3,3E0,4.7E1,1.42E3,2E0,1E0,4.2E1,5E0,6E0,1.414E3,1.2E1,3E1,2E0,3E0,1E0,5E0,7.42E2,6.72E2,4E0,8E0,6E0,2.4E1,1E0,4E0,7.34E2,8E0,5.99E2,7.3E1],"tree_param":{"num_deleted":"0","num_feature":"159","num_nodes":"31","size_leaf_vector":"1"}},{"base_weights":[3.0597073E-3,-1.5796678E-1,4.785684E-1,-1.5824681E-2,1.8479538E-1,5.8164185E-1,3.059731E-1,3.755447E-2,-1.937263E-2,5.544018E-1,3.6108987E0,-5.463142E-1,3.683874E-1,5.1881313E-1,1.6581863E0,5.098743E-1,8.4836954E-1,-6.975212E-1,2.524173E-1,3.3261752E-1,1.9738077E0,5.4065127E-2,-1.1131441E-1,6.1269727E-2,4.195322E-1,-1.7423749E-2,1.2473177E-1,-9.32499E-2,4.427405E-2,1.0327678E-1,2.4630446E-2,5.1701695E-1,1.2890086E-2],"categories":[],"categories_nodes":[],"categories_segments":[],"categories_sizes":[],"default_left":[1,0,0,0,0,0,0,0,0,0,0,0,0,0,0,0,0,0,0,0,0,0,0,0,0,0,0,0,0,0,0,0,0],"id":16,"left_children":[1,3,5,-1,7,9,11,-1,-1,13,15,17,19,21,23,-1,25,27,-1,29,31,-1,-1,-1,-1,-1,-1,-1,-1,-1,-1,-1,-1],"loss_changes":[4.443318E2,4.4532776E-1,2.5937744E1,0E0,3.6156386E-1,7.374884E1,2.9511646E1,0E0,0E0,3.492581E1,2.8556076E1,1.940327E1,2.8860275E1,3.2106552E1,7.1700874E1,0E0,1.8491988E0,1.0326492E1,0E0,3.0203419E1,6.4200455E1,0E0,0E0,0E0,0E0,0E0,0E0,0E0,0E0,0E0,0E0,0E0,0E0],"parents":[2147483647,0,0,1,1,2,2,4,4,5,5,6,6,9,9,10,10,11,11,12,12,13,13,14,14,16,16,17,17,19,19,20,20],"right_children":[2,4,6,-1,8,10,12,-1,-1,14,16,18,20,22,24,-1,26,28,-1,30,32,-1,-1,-1,-1,-1,-1,-1,-1,-1,-1,-1,-1],"split_conditions":[3.3333334E-1,6E-1,8.2E0,-1.5824681E-2,2.2E0,1.2333333E1,7E0,3.755447E-2,-1.937263E-2,1E0,5E0,4.5E0,2.25E2,1E0,3.125E0,5.098743E-1,5.5E0,1.818671E0,2.524173E-1,2.4E0,3.5E0,5.4065127E-2,-1.1131441E-1,6.1269727E-2,4.195322E-1,-1.7423749E-2,1.2473177E-1,-9.32499E-2,4.427405E-2,1.0327678E-1,2.4630446E-2,5.1701695E-1,1.2890086E-2],"split_indices":[0,1,10,0,1,8,9,0,0,76,0,1,12,30,2,0,0,4,0,1,0,0,0,0,0,0,0,0,0,0,0,0,0],"split_type":[0,0,0,0,0,0,0,0,0,0,0,0,0,0,0,0,0,0,0,0,0,0,0,0,0,0,0,0,0,0,0,0,0],"sum_hessian":[5.801E3,4.334E3,1.467E3,4.331E3,3E0,9.17E2,5.5E2,2E0,1E0,9.1E2,7E0,3.7E1,5.13E2,8.83E2,2.7E1,4E0,3E0,3.6E1,1E0,5.03E2,1E1,8.72E2,1.1E1,2E1,7E0,1E0,2E0,3E1,6E0,5.4E1,4.49E2,3E0,7E0],"tree_param":{"num_deleted":"0","num_feature":"159","num_nodes":"33","size_leaf_vector":"1"}},{"base_weights":[3.0819343E-3,-1.4216956E-1,4.320071E-1,-1.4242579E-2,1.7086127E-1,4.013499E-1,9.8823696E-1,3.5050835E-2,-1.8404001E-2,5.18749E-1,2.3293768E-1,1.2374988E0,-7.806408E-1,4.535897E-1,1.557278E0,2.1000923E-1,2.3684962E0,9.103084E-1,3.5367384E0,-1.3176601E0,3.5430324E-1,4.0167626E-2,1.725924E-1,2.587591E-1,6.600867E-2,1.6859306E-2,1.4000247E-1,4.2433402E-1,3.7023924E-2,-8.181684E-2,1.2723671E-1,4.211034E-1,-5.916636E-2,-1.4325272E-1,-3.1422894E-2,5.9747692E-2,-1.8760884E-2],"categories":[],"categories_nodes":[],"categories_segments":[],"categories_sizes":[],"default_left":[1,0,0,0,0,0,0,0,0,0,0,0,0,0,0,0,0,0,0,0,0,0,0,0,0,0,0,0,0,0,0,0,0,0,0,0,0],"id":17,"left_children":[1,3,5,-1,7,9,11,-1,-1,13,15,17,19,21,23,25,27,29,31,33,35,-1,-1,-1,-1,-1,-1,-1,-1,-1,-1,-1,-1,-1,-1,-1,-1],"loss_changes":[3.6153775E2,3.7202454E-1,2.4636353E1,0E0,3.195355E-1,2.7420792E1,3.4475487E1,0E0,0E0,5.4782883E1,2.7608528E1,4.718383E1,6.5617194E0,5.036438E1,4.2662598E1,2.7807632E1,2.090747E1,3.8589622E1,2.4761612E1,3.566866E-1,6.392069E-1,0E0,0E0,0E0,0E0,0E0,0E0,0E0,0E0,0E0,0E0,0E0,0E0,0E0,0E0,0E0,0E0],"parents":[2147483647,0,0,1,1,2,2,4,4,5,5,6,6,9,9,10,10,11,11,12,12,13,13,14,14,15,15,16,16,17,17,18,18,19,19,20,20],"right_children":[2,4,6,-1,8,10,12,-1,-1,14,16,18,20,22,24,26,28,30,32,34,36,-1,-1,-1,-1,-1,-1,-1,-1,-1,-1,-1,-1,-1,-1,-1,-1],"split_conditions":[3.3333334E-1,6E-1,1E0,-1.4242579E-2,2.2E0,8E0,1.9625026E0,3.5050835E-2,-1.8404001E-2,1E1,6.125E0,2.0899029E0,8.666667E0,8.636364E0,-2E1,1E0,6.2E0,7.142857E0,2.5956433E0,3.3333333E0,3.2E0,4.0167626E-2,1.725924E-1,2.587591E-1,6.600867E-2,1.6859306E-2,1.4000247E-1,4.2433402E-1,3.7023924E-2,-8.181684E-2,1.2723671E-1,4.211034E-1,-5.916636E-2,-1.4325272E-1,-3.1422894E-2,5.9747692E-2,-1.8760884E-2],"split_indices":[0,1,40,0,1,10,7,0,0,8,2,5,9,11,12,18,1,10,4,0,1,0,0,0,0,0,0,0,0,0,0,0,0,0,0,0,0],"split_type":[0,0,0,0,0,0,0,0,0,0,0,0,0,0,0,0,0,0,0,0,0,0,0,0,0,0,0,0,0,0,0,0,0,0,0,0,0],"sum_hessian":[5.801E3,4.334E3,1.467E3,4.331E3,3E0,1.392E3,7.5E1,2E0,1E0,8.19E2,5.73E2,6.6E1,9E0,7.72E2,4.7E1,5.68E2,5E0,5.9E1,7E0,6E0,3E0,7.43E2,2.9E1,2.1E1,2.6E1,5.5E2,1.8E1,2E0,3E0,1E1,4.9E1,6E0,1E0,5E0,1E0,2E0,1E0],"tree_param":{"num_deleted":"0","num_feature":"159","num_nodes":"37","size_leaf_vector":"1"}},{"base_weights":[3.0205254E-3,-1.2795205E-1,3.8978013E-1,-1.2818649E-2,1.5793684E-1,2.5588164E-1,5.208035E-1,3.2714114E-2,-1.74838E-2,2.9256505E-1,-1.2955577E0,4.8159522E-1,1.580509E0,2.59076E-1,2.6175892E0,1.5636167E-1,-1.5719821E0,7.45311E-1,3.1545654E-1,-1.8029092E-1,1.9375817E0,4.3220177E-2,-4.120765E-3,3.6790514E-1,-1.0855063E-1,-2.1136034E-1,4.2305044E-3,-3.7305776E-2,9.254416E-2,6.746518E-2,2.0002627E-3,9.641116E-2,3.0003998E-1],"categories":[],"categories_nodes":[],"categories_segments":[],"categories_sizes":[],"default_left":[1,0,0,0,0,0,0,0,0,0,0,0,0,0,0,0,0,0,0,0,0,0,0,0,0,0,0,0,0,0,0,0,0],"id":18,"left_children":[1,3,5,-1,7,9,11,-1,-1,13,15,17,19,21,23,-1,25,27,29,-1,31,-1,-1,-1,-1,-1,-1,-1,-1,-1,-1,-1,-1],"loss_changes":[2.9394962E2,3.1080627E-1,2.5621078E1,0E0,2.8242445E-1,4.181103E1,3.002684E1,0E0,0E0,5.476021E1,1.5893854E1,3.113527E1,3.490457E1,3.656456E1,4.330059E1,0E0,1.4078732E1,5.594612E1,4.678791E1,0E0,2.1938202E1,0E0,0E0,0E0,0E0,0E0,0E0,0E0,0E0,0E0,0E0,0E0,0E0],"parents":[2147483647,0,0,1,1,2,2,4,4,5,5,6,6,9,9,10,10,11,11,12,12,13,13,14,14,16,16,17,17,18,18,20,20],"right_children":[2,4,6,-1,8,10,12,-1,-1,14,16,18,20,22,24,-1,26,28,30,-1,32,-1,-1,-1,-1,-1,-1,-1,-1,-1,-1,-1,-1],"split_conditions":[3.3333334E-1,6E-1,2E1,-1.2818649E-2,2.2E0,5.5E1,1E0,3.2714114E-2,-1.74838E-2,1E0,-2.05E2,8E1,4.5E1,1E0,4.3333335E0,1.5636167E-1,3.5E0,1.2900467E0,2.5E0,-1.8029092E-1,3E0,4.3220177E-2,-4.120765E-3,3.6790514E-1,-1.0855063E-1,-2.1136034E-1,4.2305044E-3,-3.7305776E-2,9.254416E-2,6.746518E-2,2.0002627E-3,9.641116E-2,3.0003998E-1],"split_indices":[0,1,12,0,1,13,114,0,0,18,12,12,12,14,0,0,0,7,0,0,0,0,0,0,0,0,0,0,0,0,0,0,0],"split_type":[0,0,0,0,0,0,0,0,0,0,0,0,0,0,0,0,0,0,0,0,0,0,0,0,0,0,0,0,0,0,0,0,0],"sum_hessian":[5.801E3,4.334E3,1.467E3,4.331E3,3E0,7.27E2,7.4E2,2E0,1E0,7.11E2,1.6E1,7.15E2,2.5E1,7.02E2,9E0,1E0,1.5E1,2.75E2,4.4E2,2E0,2.3E1,4.45E2,2.57E2,7E0,2E0,1.1E1,4E0,3.8E1,2.37E2,1.98E2,2.42E2,1.3E1,1E1],"tree_param":{"num_deleted":"0","num_feature":"159","num_nodes":"33","size_leaf_vector":"1"}},{"base_weights":[2.8203274E-3,-1.0744488E-1,3.7656888E-1,-1.15040496E-1,5.2931774E-1,8.072977E-1,2.9264894E-1,-1.1040533E-1,-9.2715406E-1,1.0053473E-2,2.3026328E0,1.0630611E0,1.1302403E-1,2.601431E-1,1.2265306E0,-1.1269841E-1,1.9300468E0,-1.2226683E0,1.6475066E0,8.942914E-1,-1.0073228E0,3.18994E0,-2.6946658E-1,1.5188683E0,4.2811304E-1,-3.632769E-1,2.4832263E0,1.5226538E0,2.346936E-1,2.0859704E0,-3.18574E-2,-1.1384535E-2,2.4668865E-1,2.4542657E-1,-8.341408E-3,1.916586E-1,-1.4524792E-1,-5.143701E-2,2.98563E-1,1.06166415E-1,-1.3939539E-1,-1.12980835E-1,6.599509E-2,-3.0116616E-2,4.2304227E-1,4.9248137E-2,-6.876097E-2,1.8961953E-1,-8.9095436E-2,1.00159995E-1,-6.411177E-2,-1.091959E-1,5.39609E-2,5.297084E-1,5.2056085E-2,2.6283333E-2,4.0047476E-1,-2.4766725E-2,3.221322E-2,3.7411767E-1,1.2314446E-1,-4.6504647E-2,2.0003107E-1],"categories":[],"categories_nodes":[],"categories_segments":[],"categories_sizes":[],"default_left":[1,0,0,0,0,0,0,0,0,0,0,0,0,0,0,0,0,0,0,0,0,0,0,0,0,0,0,0,0,0,0,0,0,0,0,0,0,0,0,0,0,0,0,0,0,0,0,0,0,0,0,0,0,0,0,0,0,0,0,0,0,0,0],"id":19,"left_children":[1,3,5,7,9,11,13,15,17,19,21,23,25,27,29,31,33,35,37,39,41,43,45,47,49,51,53,55,57,59,61,-1,-1,-1,-1,-1,-1,-1,-1,-1,-1,-1,-1,-1,-1,-1,-1,-1,-1,-1,-1,-1,-1,-1,-1,-1,-1,-1,-1,-1,-1,-1,-1],"loss_changes":[2.3914935E2,2.1733715E1,4.754973E1,1.6569618E1,4.8780266E1,3.8057358E1,3.3316055E1,2.0828175E1,2.1035578E1,3.8684155E1,2.824649E1,4.478772E1,6.7508934E1,3.408628E1,4.0082275E1,1.3301605E1,5.482191E0,1.9376804E1,1.02142935E1,1.0288675E1,4.829956E0,3.396598E1,1.6130481E0,8.4434906E1,4.172586E1,3.348507E1,5.2469162E1,6.461426E1,4.444992E1,2.6510109E1,1.5015246E1,0E0,0E0,0E0,0E0,0E0,0E0,0E0,0E0,0E0,0E0,0E0,0E0,0E0,0E0,0E0,0E0,0E0,0E0,0E0,0E0,0E0,0E0,0E0,0E0,0E0,0E0,0E0,0E0,0E0,0E0,0E0,0E0],"parents":[2147483647,0,0,1,1,2,2,3,3,4,4,5,5,6,6,7,7,8,8,9,9,10,10,11,11,12,12,13,13,14,14,15,15,16,16,17,17,18,18,19,19,20,20,21,21,22,22,23,23,24,24,25,25,26,26,27,27,28,28,29,29,30,30],"right_children":[2,4,6,8,10,12,14,16,18,20,22,24,26,28,30,32,34,36,38,40,42,44,46,48,50,52,54,56,58,60,62,-1,-1,-1,-1,-1,-1,-1,-1,-1,-1,-1,-1,-1,-1,-1,-1,-1,-1,-1,-1,-1,-1,-1,-1,-1,-1,-1,-1,-1,-1,-1,-1],"split_conditions":[1.5E0,2.4E0,2.25E0,1.6666666E0,9.75E0,7.818182E0,1E0,2.25E0,1E0,1.5525895E0,2.5E0,2.3333333E0,3E0,3.5E0,4.3333335E0,1E0,2.6666667E0,1.4285715E0,1.3333334E0,5.7E1,3.2E0,6.6666665E0,3.5E0,2.6E2,1.3890321E0,8.25E0,8.285714E0,3.5E0,2.6E0,1.5E1,4.857143E0,-1.1384535E-2,2.4668865E-1,2.4542657E-1,-8.341408E-3,1.916586E-1,-1.4524792E-1,-5.143701E-2,2.98563E-1,1.06166415E-1,-1.3939539E-1,-1.12980835E-1,6.599509E-2,-3.0116616E-2,4.2304227E-1,4.9248137E-2,-6.876097E-2,1.8961953E-1,-8.9095436E-2,1.00159995E-1,-6.411177E-2,-1.091959E-1,5.39609E-2,5.297084E-1,5.2056085E-2,2.6283333E-2,4.0047476E-1,-2.4766725E-2,3.221322E-2,3.7411767E-1,1.2314446E-1,-4.6504647E-2,2.0003107E-1],"split_indices":[0,2,1,1,11,11,18,2,56,7,1,0,2,9,0,62,3,2,0,13,1,8,1,12,6,9,10,8,3,12,2,0,0,0,0,0,0,0,0,0,0,0,0,0,0,0,0,0,0,0,0,0,0,0,0,0,0,0,0,0,0,0,0],"split_type":[0,0,0,0,0,0,0,0,0,0,0,0,0,0,0,0,0,0,0,0,0,0,0,0,0,0,0,0,0,0,0,0,0,0,0,0,0,0,0,0,0,0,0,0,0,0,0,0,0,0,0,0,0,0,0,0,0,0,0,0,0,0,0],"sum_hessian":[5.801E3,4.48E3,1.321E3,4.428E3,5.2E1,2.14E2,1.107E3,4.404E3,2.4E1,4.1E1,1.1E1,1.56E2,5.8E1,1.071E3,3.6E1,4.4E3,4E0,2.2E1,2E0,2.2E1,1.9E1,8E0,3E0,9E1,6.6E1,4.9E1,9E0,2E1,1.051E3,2.1E1,1.5E1,4.399E3,1E0,3E0,1E0,1E0,2.1E1,1E0,1E0,2.1E1,1E0,1.8E1,1E0,2E0,6E0,1E0,2E0,7.8E1,1.2E1,4.3E1,2.3E1,2.7E1,2.2E1,3E0,6E0,1.4E1,6E0,1.61E2,8.9E2,6E0,1.5E1,1.3E1,2E0],"tree_param":{"num_deleted":"0","num_feature":"159","num_nodes":"63","size_leaf_vector":"1"}},{"base_weights":[3.0221299E-3,-1.03828624E-1,3.1855005E-1,-1.0393884E-1,1.8692708E-2,8.941253E-1,2.9210496E-1,-1.0406692E-1,-3.08231E-2,5.014312E-1,1.9503129E0,-5.0796688E-2,3.4349757E-1,-1.03976734E-1,-1.9937893E-2,-9.0595875E-3,2.2367954E-2,-1.16802E0,8.1494784E-1,2.4152007E0,-1.02423035E-1,4.0332302E-1,-8.6881864E-1,3.1094354E-1,1.2507074E0,-1.0374848E-2,-1.17767695E-2,3.4011126E-2,-1.4320546E-1,2.2809409E-1,3.9043617E-2,2.8117806E-1,-1.0837904E-2,-3.608283E-2,8.8978596E-2,2.8389556E-2,-1.3761704E-1,1.429029E-1,2.8453728E-2,-6.927533E-2,1.5320604E-1],"categories":[],"categories_nodes":[],"categories_segments":[],"categories_sizes":[],"default_left":[1,0,0,0,0,0,0,0,0,0,0,0,0,0,0,0,0,0,0,0,0,0,0,0,0,0,0,0,0,0,0,0,0,0,0,0,0,0,0,0,0],"id":20,"left_children":[1,3,5,7,-1,9,11,13,15,17,19,21,23,25,-1,-1,-1,27,29,31,-1,33,35,37,39,-1,-1,-1,-1,-1,-1,-1,-1,-1,-1,-1,-1,-1,-1,-1,-1],"loss_changes":[1.9564398E2,1.583519E-1,2.2083466E1,3.7376404E-2,0E0,2.5566597E1,2.4777222E1,1.6456604E-2,1.571754E-1,2.6075104E1,2.5981804E1,6.870272E1,3.570085E1,1.3923645E-3,0E0,0E0,0E0,3.6726484E0,2.4625011E1,1.5316757E1,0E0,4.4557076E1,3.8989567E1,3.4461777E1,2.4026863E1,0E0,0E0,0E0,0E0,0E0,0E0,0E0,0E0,0E0,0E0,0E0,0E0,0E0,0E0,0E0,0E0],"parents":[2147483647,0,0,1,1,2,2,3,3,5,5,6,6,7,7,8,8,9,9,10,10,11,11,12,12,13,13,17,17,18,18,19,19,21,21,22,22,23,23,24,24],"right_children":[2,4,6,8,-1,10,12,14,16,18,20,22,24,26,-1,-1,-1,28,30,32,-1,34,36,38,40,-1,-1,-1,-1,-1,-1,-1,-1,-1,-1,-1,-1,-1,-1,-1,-1],"split_conditions":[3.3333334E-1,4.4545455E0,4.2727275E0,1E0,1.8692708E-2,9.684029E-1,1.1422824E0,4E-1,4E-1,1.25E2,3.5E0,1.1115243E0,1E0,1E0,-1.9937893E-2,-9.0595875E-3,2.2367954E-2,5E-1,3.125E0,3.2E2,-1.02423035E-1,2.25E0,2.5E0,1.9166666E0,8.823543E-1,-1.0374848E-2,-1.17767695E-2,3.4011126E-2,-1.4320546E-1,2.2809409E-1,3.9043617E-2,2.8117806E-1,-1.0837904E-2,-3.608283E-2,8.8978596E-2,2.8389556E-2,-1.3761704E-1,1.429029E-1,2.8453728E-2,-6.927533E-2,1.5320604E-1],"split_indices":[0,3,11,52,0,7,6,1,1,12,0,4,49,63,0,0,0,0,10,12,0,2,0,3,4,0,0,0,0,0,0,0,0,0,0,0,0,0,0,0,0],"split_type":[0,0,0,0,0,0,0,0,0,0,0,0,0,0,0,0,0,0,0,0,0,0,0,0,0,0,0,0,0,0,0,0,0,0,0,0,0,0,0,0,0],"sum_hessian":[5.801E3,4.334E3,1.467E3,4.333E3,1E0,6.3E1,1.404E3,4.325E3,8E0,4.7E1,1.6E1,1.83E2,1.221E3,4.323E3,2E0,7E0,1E0,7E0,4E1,1.4E1,2E0,1.18E2,6.5E1,1.18E3,4.1E1,4.261E3,6.2E1,1E0,6E0,8E0,3.2E1,1.2E1,2E0,4.6E1,7.2E1,2E1,4.5E1,2.6E1,1.154E3,5E0,3.6E1],"tree_param":{"num_deleted":"0","num_feature":"159","num_nodes":"41","size_leaf_vector":"1"}},{"base_weights":[2.8086118E-3,-8.787072E-2,3.1016964E-1,-8.912302E-2,2.7612174E-1,6.9366246E-1,2.3547548E-1,-9.113971E-2,1.429848E0,9.213957E-1,7.59034E-2,2.0536041E-1,1.1016343E0,-9.301167E-2,9.6574014E-1,4.1819295E-1,-9.916753E-2,8.188419E-1,3.3658607E0,-3.627178E-1,2.261419E0,1.7343992E-1,1.0693697E0,2.1789513E0,2.680567E-1,-9.359372E-3,1.253501E-1,2.8873235E-1,-7.646744E-2,1.2033296E-1,2.9961055E-2,-6.06534E-2,4.2816463E-1,-1.0180314E-1,4.508255E-2,4.8633313E-1,4.515524E-2,-3.352159E-2,2.2699753E-2,2.7029613E-1,4.6918746E-2,-8.0325626E-2,2.6623565E-1,-5.0560396E-2,1.24700986E-1],"categories":[],"categories_nodes":[],"categories_segments":[],"categories_sizes":[],"default_left":[1,0,0,0,0,0,0,0,0,0,0,0,0,0,0,0,0,0,0,0,0,0,0,0,0,0,0,0,0,0,0,0,0,0,0,0,0,0,0,0,0,0,0,0,0],"id":21,"left_children":[1,3,5,7,-1,9,11,13,15,17,19,21,23,25,27,-1,-1,29,31,33,35,37,39,41,43,-1,-1,-1,-1,-1,-1,-1,-1,-1,-1,-1,-1,-1,-1,-1,-1,-1,-1,-1,-1],"loss_changes":[1.617365E2,1.623391E1,3.7704918E1,1.3853897E1,0E0,3.0177185E1,2.8675312E1,8.94331E0,4.41325E1,3.660211E1,5.7378456E1,2.9379864E1,3.2642925E1,3.619053E0,2.8808943E1,0E0,0E0,2.9984451E1,2.4424133E1,2.7115252E1,4.4895096E1,2.8271965E1,3.5989E1,2.5204376E1,1.7292799E1,0E0,0E0,0E0,0E0,0E0,0E0,0E0,0E0,0E0,0E0,0E0,0E0,0E0,0E0,0E0,0E0,0E0,0E0,0E0,0E0],"parents":[2147483647,0,0,1,1,2,2,3,3,5,5,6,6,7,7,8,8,9,9,10,10,11,11,12,12,13,13,14,14,17,17,18,18,19,19,20,20,21,21,22,22,23,23,24,24],"right_children":[2,4,6,8,-1,10,12,14,16,18,20,22,24,26,28,-1,-1,30,32,34,36,38,40,42,44,-1,-1,-1,-1,-1,-1,-1,-1,-1,-1,-1,-1,-1,-1,-1,-1,-1,-1,-1,-1],"split_conditions":[1.5E0,1E0,2.25E0,1E0,2.7612174E-1,7.818182E0,1E0,1E0,2.5E0,7.75E0,3E0,1E0,4E0,4E0,1.393651E0,4.1819295E-1,-9.916753E-2,2.3333333E0,3.5E0,8.25E0,8.285714E0,2.5E0,1.15E2,9.638701E-1,9.125E0,-9.359372E-3,1.253501E-1,2.8873235E-1,-7.646744E-2,1.2033296E-1,2.9961055E-2,-6.06534E-2,4.2816463E-1,-1.0180314E-1,4.508255E-2,4.8633313E-1,4.515524E-2,-3.352159E-2,2.2699753E-2,2.7029613E-1,4.6918746E-2,-8.0325626E-2,2.6623565E-1,-5.0560396E-2,1.24700986E-1],"split_indices":[0,123,1,56,0,11,18,27,1,11,2,49,0,2,6,0,0,0,8,9,10,2,12,6,10,0,0,0,0,0,0,0,0,0,0,0,0,0,0,0,0,0,0,0,0],"split_type":[0,0,0,0,0,0,0,0,0,0,0,0,0,0,0,0,0,0,0,0,0,0,0,0,0,0,0,0,0,0,0,0,0,0,0,0,0,0,0,0,0,0,0,0,0],"sum_hessian":[5.801E3,4.48E3,1.321E3,4.479E3,1E0,2.14E2,1.107E3,4.474E3,5E0,1.56E2,5.8E1,1.071E3,3.6E1,4.467E3,7E0,2E0,3E0,1.51E2,5E0,4.9E1,9E0,1.034E3,3.7E1,1.5E1,2.1E1,4.466E3,1E0,3E0,4E0,8.6E1,6.5E1,1E0,4E0,2.7E1,2.2E1,3E0,6E0,9.8E1,9.36E2,9E0,2.8E1,2E0,1.3E1,1.2E1,9E0],"tree_param":{"num_deleted":"0","num_feature":"159","num_nodes":"45","size_leaf_vector":"1"}},{"base_weights":[2.9555955E-3,-7.8877576E-2,2.803319E-1,-8.0066234E-2,2.6231566E-1,6.132884E-1,2.0890144E-1,-8.1952386E-2,1.3400341E0,-2.6204878E-1,7.5902927E-1,1.4407433E0,1.857028E-1,-8.368454E-2,8.956993E-1,3.9031348E-1,-9.172996E-2,-4.7208923E-1,3.334643E-1,1.014727E0,1.1760221E-2,2.7838615E-1,3.5596373E0,-2.369542E-1,2.5748095E-1,-8.271481E-3,-9.327269E-2,2.6707742E-1,-7.035004E-2,-7.083532E-2,2.1266682E-1,8.861548E-2,3.1700435E-1,-5.0192505E-2,1.5914257E-1,2.3255323E-1,-4.913385E-2,-2.9615367E-2,4.251628E-1,-3.203236E-2,3.011164E-1,-1.5019633E-1,2.8249789E-2],"categories":[],"categories_nodes":[],"categories_segments":[],"categories_sizes":[],"default_left":[1,0,0,0,0,0,0,0,0,0,0,0,0,0,0,0,0,0,0,0,0,0,0,0,0,0,0,0,0,0,0,0,0,0,0,0,0,0,0,0,0,0,0],"id":22,"left_children":[1,3,5,7,-1,9,11,13,15,17,19,21,23,25,27,-1,-1,29,-1,31,33,35,37,39,41,-1,-1,-1,-1,-1,-1,-1,-1,-1,-1,-1,-1,-1,-1,-1,-1,-1,-1],"loss_changes":[1.3171928E2,1.4602085E1,3.1313316E1,1.2109623E1,0E0,2.9923279E1,3.0881443E1,7.6531105E0,3.8294983E1,2.7259575E1,3.8203064E1,4.8267284E1,3.2552513E1,3.6015587E0,2.4588484E1,0E0,0E0,2.1768192E1,0E0,3.848082E1,4.2994217E1,2.3202965E1,1.9936333E1,4.320836E1,4.074284E1,0E0,0E0,0E0,0E0,0E0,0E0,0E0,0E0,0E0,0E0,0E0,0E0,0E0,0E0,0E0,0E0,0E0,0E0],"parents":[2147483647,0,0,1,1,2,2,3,3,5,5,6,6,7,7,8,8,9,9,10,10,11,11,12,12,13,13,14,14,17,17,19,19,20,20,21,21,22,22,23,23,24,24],"right_children":[2,4,6,8,-1,10,12,14,16,18,20,22,24,26,28,-1,-1,30,-1,32,34,36,38,40,42,-1,-1,-1,-1,-1,-1,-1,-1,-1,-1,-1,-1,-1,-1,-1,-1,-1,-1],"split_conditions":[1.5E0,1E0,2.3333333E0,1E0,2.6231566E-1,7.67499E-1,3.5E0,1E0,2.5E0,3.1818182E0,1.7628105E0,3.5E0,2.6E0,3.5E0,1.393651E0,3.9031348E-1,-9.172996E-2,1.6051364E0,3.334643E-1,1.7121062E0,5E1,2.3333333E0,2.2857144E0,1.1571428E1,4.2E0,-8.271481E-3,-9.327269E-2,2.6707742E-1,-7.035004E-2,-7.083532E-2,2.1266682E-1,8.861548E-2,3.1700435E-1,-5.0192505E-2,1.5914257E-1,2.3255323E-1,-4.913385E-2,-2.9615367E-2,4.251628E-1,-3.203236E-2,3.011164E-1,-1.5019633E-1,2.8249789E-2],"split_indices":[0,123,1,56,0,4,9,27,1,3,6,8,3,1,6,0,0,7,0,6,13,0,2,10,9,0,0,0,0,0,0,0,0,0,0,0,0,0,0,0,0,0,0],"split_type":[0,0,0,0,0,0,0,0,0,0,0,0,0,0,0,0,0,0,0,0,0,0,0,0,0,0,0,0,0,0,0,0,0,0,0,0,0,0,0,0,0,0,0],"sum_hessian":[5.801E3,4.48E3,1.321E3,4.479E3,1E0,2.32E2,1.089E3,4.474E3,5E0,3.3E1,1.99E2,1.9E1,1.07E3,4.467E3,7E0,2E0,3E0,3.2E1,1E0,1.48E2,5.1E1,1.3E1,6E0,1.55E2,9.15E2,4.463E3,4E0,3E0,4E0,3E1,2E0,1.41E2,7E0,3.9E1,1.2E1,3E0,1E1,1E0,5E0,1.52E2,3E0,1.2E1,9.03E2],"tree_param":{"num_deleted":"0","num_feature":"159","num_nodes":"43","size_leaf_vector":"1"}},{"base_weights":[3.0688744E-3,-7.0843406E-2,2.5359675E-1,-7.675731E-2,4.246951E-1,1.8725504E0,2.3982991E-1,-7.270482E-2,-9.239317E-1,-1.9721655E-2,1.9447625E0,2.0183659E-1,2.7984102E0,2.7864456E-1,-2.719303E-1,-7.3782176E-2,2.3381305E-1,-1.2328128E0,1.3402923E0,8.6453533E-1,-7.877833E-1,3.8284E-1,8.915055E-1,1.1117556E-1,-7.753613E-2,-4.565797E-2,3.417005E0,2.5725475E-1,2.2448182E0,2.3033652E0,-3.538419E-1,-7.5227595E-3,9.992148E-2,-1.449643E-1,-5.7289125E-3,-4.0742982E-2,2.4178684E-1,2.1561325E-1,1.5698422E-2,-9.4219625E-2,1.3046506E-1,-4.794782E-2,2.084188E-1,8.847465E-2,3.7465075E-1,-2.6757373E-2,2.9421581E-2,2.6071456E-1,-1.0515552E-1,3.132405E-1,3.2264303E-2,-1.350863E-1,-1.2313259E-2],"categories":[],"categories_nodes":[],"categories_segments":[],"categories_sizes":[],"default_left":[1,0,0,0,0,0,0,0,0,0,0,0,0,0,0,0,0,0,0,0,0,0,0,0,0,0,0,0,0,0,0,0,0,0,0,0,0,0,0,0,0,0,0,0,0,0,0,0,0,0,0,0,0],"id":23,"left_children":[1,3,5,7,9,11,13,15,17,19,21,23,25,27,29,31,-1,33,35,37,39,-1,41,-1,-1,-1,43,45,47,49,51,-1,-1,-1,-1,-1,-1,-1,-1,-1,-1,-1,-1,-1,-1,-1,-1,-1,-1,-1,-1,-1,-1],"loss_changes":[1.074541E2,1.3164478E1,2.9015465E1,1.51383095E1,3.584215E1,1.6450493E1,2.6137062E1,1.1624083E1,1.6339228E1,2.920595E1,2.039442E1,5.3078666E0,1.5654778E1,5.073095E1,2.043306E1,6.9116917E0,0E0,4.759836E0,6.6350217E0,1.7938944E1,8.660511E0,0E0,1.5715658E1,0E0,0E0,0E0,1.6916046E0,2.3511765E1,1.8268318E1,3.9156427E0,2.076567E1,0E0,0E0,0E0,0E0,0E0,0E0,0E0,0E0,0E0,0E0,0E0,0E0,0E0,0E0,0E0,0E0,0E0,0E0,0E0,0E0,0E0,0E0],"parents":[2147483647,0,0,1,1,2,2,3,3,4,4,5,5,6,6,7,7,8,8,9,9,10,10,11,11,12,12,13,13,14,14,15,15,17,17,18,18,19,19,20,20,22,22,26,26,27,27,28,28,29,29,30,30],"right_children":[2,4,6,8,10,12,14,16,18,20,22,24,26,28,30,32,-1,34,36,38,40,-1,42,-1,-1,-1,44,46,48,50,52,-1,-1,-1,-1,-1,-1,-1,-1,-1,-1,-1,-1,-1,-1,-1,-1,-1,-1,-1,-1,-1,-1],"split_conditions":[1.5E0,2.4E0,7.5490355E-1,2E0,9.75E0,6.06323E-1,1.22E1,1E0,1E0,1.5283252E0,1.116441E0,6.25093E-1,2E0,5.142857E0,1.4669997E0,2.25E0,2.3381305E-1,1E0,1.3333334E0,2.5714285E0,2.65E2,3.8284E-1,1.7121062E0,1.1117556E-1,-7.753613E-2,-4.565797E-2,1.6666666E0,8.2779133E-1,1E0,4.3333335E0,1.7901199E0,-7.5227595E-3,9.992148E-2,-1.449643E-1,-5.7289125E-3,-4.0742982E-2,2.4178684E-1,2.1561325E-1,1.5698422E-2,-9.4219625E-2,1.3046506E-1,-4.794782E-2,2.084188E-1,8.847465E-2,3.7465075E-1,-2.6757373E-2,2.9421581E-2,2.6071456E-1,-1.0515552E-1,3.132405E-1,3.2264303E-2,-1.350863E-1,-1.2313259E-2],"split_indices":[0,2,6,1,11,4,9,62,56,7,4,5,0,2,6,2,0,64,0,2,12,0,6,0,0,0,1,4,27,0,6,0,0,0,0,0,0,0,0,0,0,0,0,0,0,0,0,0,0,0,0,0,0],"split_type":[0,0,0,0,0,0,0,0,0,0,0,0,0,0,0,0,0,0,0,0,0,0,0,0,0,0,0,0,0,0,0,0,0,0,0,0,0,0,0,0,0,0,0,0,0,0,0,0,0,0,0,0,0],"sum_hessian":[5.801E3,4.48E3,1.321E3,4.428E3,5.2E1,1E1,1.311E3,4.408E3,2E1,4.1E1,1.1E1,4E0,6E0,1.219E3,9.2E1,4.407E3,1E0,1.8E1,2E0,1.9E1,2.2E1,3E0,8E0,2E0,2E0,1E0,5E0,1.207E3,1.2E1,2E0,9E1,4.402E3,5E0,1.5E1,3E0,1E0,1E0,6E0,1.3E1,2.1E1,1E0,4E0,4E0,1E0,4E0,7.9E1,1.128E3,1.1E1,1E0,1E0,1E0,1.6E1,7.4E1],"tree_param":{"num_deleted":"0","num_feature":"159","num_nodes":"53","size_leaf_vector":"1"}},{"base_weights":[3.105814E-3,-6.8408E-2,2.135156E-1,-6.843792E-2,3.0588473E-3,2.3942126E-1,-3.4198105E-1,-6.821017E-2,-8.132383E-2,2.1842887E-1,1.6843226E0,1.803433E-1,-4.0273255E-1,-6.7995675E-3,-8.1423506E-2,-6.6856975E-3,-1.4567554E-1,1.8750682E-1,7.6496994E-1,3.9978117E-1,2.6989672E0,-8.0774194E-1,1.4480844E-2,-1.8328179E-2,-6.5418333E-3,-5.3400487E-2,-6.1826985E-3,2.6433391E-2,-3.4462386E-3,3.164431E-2,1.8818974E-1,1.4952935E-1,-5.79776E-2,3.2796738E-1,5.7192487E-3,-1.4994787E-1,-6.3066475E-2,5.1532518E-2,-7.956894E-2],"categories":[],"categories_nodes":[],"categories_segments":[],"categories_sizes":[],"default_left":[0,0,0,0,0,0,0,0,0,0,0,0,0,0,0,0,0,0,0,0,0,0,0,0,0,0,0,0,0,0,0,0,0,0,0,0,0,0,0],"id":24,"left_children":[1,3,5,7,-1,9,11,13,15,17,19,-1,21,-1,23,-1,25,27,29,31,33,35,37,-1,-1,-1,-1,-1,-1,-1,-1,-1,-1,-1,-1,-1,-1,-1,-1],"loss_changes":[8.731848E1,1.4923096E-2,2.126471E1,7.162094E-3,0E0,4.2309143E1,9.328548E0,6.5402985E-3,5.5428177E-2,2.331398E1,2.4988068E1,0E0,1.0995094E1,0E0,9.071636E-2,0E0,3.5771435E-1,2.2434132E1,3.647641E1,1.15981045E1,1.6687477E1,3.096529E0,1.3800423E1,0E0,0E0,0E0,0E0,0E0,0E0,0E0,0E0,0E0,0E0,0E0,0E0,0E0,0E0,0E0,0E0],"parents":[2147483647,0,0,1,1,2,2,3,3,5,5,6,6,7,7,8,8,9,9,10,10,12,12,14,14,16,16,17,17,18,18,19,19,20,20,21,21,22,22],"right_children":[2,4,6,8,-1,10,12,14,16,18,20,-1,22,-1,24,-1,26,28,30,32,34,36,38,-1,-1,-1,-1,-1,-1,-1,-1,-1,-1,-1,-1,-1,-1,-1,-1],"split_conditions":[4E-1,1E0,2.58986E0,1E0,3.0588473E-3,2.531542E0,5.75E0,1E0,1.8153088E0,1E0,4.2E0,1.803433E-1,1.1E1,-6.7995675E-3,7.67499E-1,-6.6856975E-3,1.728293E0,1.8523709E0,1E1,3.7E0,1E0,7.5833335E0,1.4666667E1,-1.8328179E-2,-6.5418333E-3,-5.3400487E-2,-6.1826985E-3,2.6433391E-2,-3.4462386E-3,3.164431E-2,1.8818974E-1,1.4952935E-1,-5.79776E-2,3.2796738E-1,5.7192487E-3,-1.4994787E-1,-6.3066475E-2,5.1532518E-2,-7.956894E-2],"split_indices":[1,27,5,33,0,5,10,63,6,40,1,0,8,0,4,0,5,5,12,3,74,11,8,0,0,0,0,0,0,0,0,0,0,0,0,0,0,0,0],"split_type":[0,0,0,0,0,0,0,0,0,0,0,0,0,0,0,0,0,0,0,0,0,0,0,0,0,0,0,0,0,0,0,0,0,0,0,0,0,0,0],"sum_hessian":[5.801E3,4.33E3,1.471E3,4.329E3,1E0,1.406E3,6.5E1,4.26E3,6.9E1,1.387E3,1.9E1,1E0,6.4E1,4.198E3,6.2E1,5.8E1,1.1E1,1.314E3,7.3E1,9E0,1E1,3.2E1,3.2E1,7E0,5.5E1,1E0,1E1,9.76E2,3.38E2,5.3E1,2E1,4E0,5E0,8E0,2E0,5E0,2.7E1,2E1,1.2E1],"tree_param":{"num_deleted":"0","num_feature":"159","num_nodes":"39","size_leaf_vector":"1"}},{"base_weights":[2.8835523E-3,-5.7660047E-2,2.080976E-1,-5.869406E-2,2.2873619E-1,1.3235434E0,1.8994671E-1,-6.0377814E-2,1.2068893E0,3.2561438E0,5.1609683E-1,2.4171202E-1,-1.4480306E-1,-6.2553875E-2,5.499715E-1,3.4851944E-1,-8.035618E-2,3.9703956E-1,1.21842705E-1,-4.5868394E-1,1.548213E0,2.1611504E-1,1.410168E0,-1.4293021E0,-9.074214E-2,-6.1181253E-3,-1.273322E-1,2.4012096E-1,-2.6720865E-2,9.083428E-2,-9.7902626E-2,1.9252183E-1,-5.454118E-2,-1.5108182E-2,2.830397E-2,4.7643414E-1,2.7673615E-2,-1.7907585E-1,-3.504406E-2,-4.4111833E-2,6.875085E-3],"categories":[],"categories_nodes":[],"categories_segments":[],"categories_sizes":[],"default_left":[1,0,0,0,0,0,0,0,0,0,0,0,0,0,0,0,0,0,0,0,0,0,0,0,0,0,0,0,0,0,0,0,0,0,0,0,0,0,0,0,0],"id":25,"left_children":[1,3,5,7,-1,9,11,13,15,17,19,21,23,25,27,-1,-1,-1,-1,29,31,33,35,37,39,-1,-1,-1,-1,-1,-1,-1,-1,-1,-1,-1,-1,-1,-1,-1,-1],"loss_changes":[7.209835E1,1.09997225E1,2.6514256E1,9.619449E0,0E0,3.108942E1,2.2596611E1,5.977894E0,3.0283096E1,3.8950195E0,1.6807533E1,3.3432526E1,1.2022512E1,7.334278E0,2.4846344E1,0E0,0E0,0E0,0E0,7.2911882E0,7.364496E0,2.7197613E1,8.992299E1,2.1021757E0,9.474478E0,0E0,0E0,0E0,0E0,0E0,0E0,0E0,0E0,0E0,0E0,0E0,0E0,0E0,0E0,0E0,0E0],"parents":[2147483647,0,0,1,1,2,2,3,3,5,5,6,6,7,7,8,8,9,9,10,10,11,11,12,12,13,13,14,14,19,19,20,20,21,21,22,22,23,23,24,24],"right_children":[2,4,6,8,-1,10,12,14,16,18,20,22,24,26,28,-1,-1,-1,-1,30,32,34,36,38,40,-1,-1,-1,-1,-1,-1,-1,-1,-1,-1,-1,-1,-1,-1,-1,-1],"split_conditions":[1.5E0,1E0,9.016674E-1,1E0,2.2873619E-1,4E1,2.10405E0,3.1E0,2.5E0,2.3333333E0,8.46176E-1,1.4333333E1,1.3732333E0,3.3333333E0,3.3636363E0,3.4851944E-1,-8.035618E-2,3.9703956E-1,1.21842705E-1,1.5E0,6.2E0,4.4E1,1.5333333E1,4.2E0,3.5454545E0,-6.1181253E-3,-1.273322E-1,2.4012096E-1,-2.6720865E-2,9.083428E-2,-9.7902626E-2,1.9252183E-1,-5.454118E-2,-1.5108182E-2,2.830397E-2,4.7643414E-1,2.7673615E-2,-1.7907585E-1,-3.504406E-2,-4.4111833E-2,6.875085E-3],"split_indices":[0,123,7,56,0,13,7,3,1,0,7,8,4,2,3,0,0,0,0,1,9,13,8,1,3,0,0,0,0,0,0,0,0,0,0,0,0,0,0,0,0],"split_type":[0,0,0,0,0,0,0,0,0,0,0,0,0,0,0,0,0,0,0,0,0,0,0,0,0,0,0,0,0,0,0,0,0,0,0,0,0,0,0,0,0],"sum_hessian":[5.801E3,4.48E3,1.321E3,4.479E3,1E0,2E1,1.301E3,4.474E3,5E0,5E0,1.5E1,1.127E3,1.74E2,4.459E3,1.5E1,2E0,3E0,3E0,2E0,8E0,7E0,1.104E3,2.3E1,6E0,1.68E2,4.455E3,4E0,4E0,1.1E1,2E0,6E0,6E0,1E0,1.7E2,9.34E2,5E0,1.8E1,4E0,2E0,5.2E1,1.16E2],"tree_param":{"num_deleted":"0","num_feature":"159","num_nodes":"41","size_leaf_vector":"1"}},{"base_weights":[2.852463E-3,-5.1765308E-2,1.8798059E-1,-5.274695E-2,2.1729937E-1,4.8082265E-1,1.2520978E-1,-5.432217E-2,1.1308943E0,6.6770864E-1,-4.539043E-2,1.2114741E0,1.04807824E-1,-5.6328405E-2,5.083118E-1,3.252848E-1,-7.432947E-2,5.844155E-1,2.874749E0,-4.8222306E-1,2.023763E0,1.2954164E-1,3.2022712E0,-4.035494E-1,1.6165198E-1,-5.50645E-3,-1.1714561E-1,2.209113E-1,-2.4271458E-2,-5.556036E-2,7.173217E-2,-6.6259444E-2,3.7147364E-1,8.2994126E-2,-8.144037E-2,3.825647E-2,3.916688E-1,1.450209E-1,-7.652968E-2,-3.2342542E-2,3.8437915E-1,2.0335171E-2,-1.19555615E-1,1.2727368E-2,1.3499926E-1],"categories":[],"categories_nodes":[],"categories_segments":[],"categories_sizes":[],"default_left":[1,0,0,0,0,0,0,0,0,0,0,0,0,0,0,0,0,0,0,0,0,0,0,0,0,0,0,0,0,0,0,0,0,0,0,0,0,0,0,0,0,0,0,0,0],"id":26,"left_children":[1,3,5,7,-1,9,11,13,15,17,19,21,23,25,27,-1,-1,29,31,33,35,37,39,41,43,-1,-1,-1,-1,-1,-1,-1,-1,-1,-1,-1,-1,-1,-1,-1,-1,-1,-1,-1,-1],"loss_changes":[5.8675415E1,9.900742E0,2.4240711E1,8.414361E0,0E0,2.2943958E1,2.4029516E1,5.079913E0,2.627948E1,2.9938927E1,5.7016075E1,4.266333E1,3.101407E1,6.2214956E0,2.0973728E1,0E0,0E0,2.5701653E1,2.028931E1,2.3341433E1,3.267493E1,1.7654818E1,1.707582E1,5.2155457E1,3.921061E1,0E0,0E0,0E0,0E0,0E0,0E0,0E0,0E0,0E0,0E0,0E0,0E0,0E0,0E0,0E0,0E0,0E0,0E0,0E0,0E0],"parents":[2147483647,0,0,1,1,2,2,3,3,5,5,6,6,7,7,8,8,9,9,10,10,11,11,12,12,13,13,14,14,17,17,18,18,19,19,20,20,21,21,22,22,23,23,24,24],"right_children":[2,4,6,8,-1,10,12,14,16,18,20,22,24,26,28,-1,-1,30,32,34,36,38,40,42,44,-1,-1,-1,-1,-1,-1,-1,-1,-1,-1,-1,-1,-1,-1,-1,-1,-1,-1,-1,-1],"split_conditions":[1.5E0,1E0,2.3333333E0,1E0,2.1729937E-1,7.818182E0,3.5E0,3.1E0,2.5E0,7.75E0,3E0,3.5E0,1.1422824E0,3.3333333E0,3.3636363E0,3.252848E-1,-7.432947E-2,3.25E0,3.5E0,-1.45E2,4.6E1,4.5E1,2.2857144E0,1.1536463E0,1E0,-5.50645E-3,-1.1714561E-1,2.209113E-1,-2.4271458E-2,-5.556036E-2,7.173217E-2,-6.6259444E-2,3.7147364E-1,8.2994126E-2,-8.144037E-2,3.825647E-2,3.916688E-1,1.450209E-1,-7.652968E-2,-3.2342542E-2,3.8437915E-1,2.0335171E-2,-1.19555615E-1,1.2727368E-2,1.3499926E-1],"split_indices":[0,123,1,56,0,11,9,3,1,11,2,8,6,2,3,0,0,9,8,12,13,13,2,4,18,0,0,0,0,0,0,0,0,0,0,0,0,0,0,0,0,0,0,0,0],"split_type":[0,0,0,0,0,0,0,0,0,0,0,0,0,0,0,0,0,0,0,0,0,0,0,0,0,0,0,0,0,0,0,0,0,0,0,0,0,0,0,0,0,0,0,0,0],"sum_hessian":[5.801E3,4.48E3,1.321E3,4.479E3,1E0,2.32E2,1.089E3,4.474E3,5E0,1.71E2,6.1E1,1.9E1,1.07E3,4.459E3,1.5E1,2E0,3E0,1.66E2,5E0,5.1E1,1E1,1.3E1,6E0,1.07E2,9.63E2,4.455E3,4E0,4E0,1.1E1,1.7E1,1.49E2,1E0,4E0,1E1,4.1E1,6E0,4E0,5E0,8E0,1E0,5E0,6.1E1,4.6E1,9.37E2,2.6E1],"tree_param":{"num_deleted":"0","num_feature":"159","num_nodes":"45","size_leaf_vector":"1"}},{"base_weights":[2.8712903E-3,-4.646777E-2,1.7010689E-1,-5.136397E-2,3.635652E-1,2.862229E-1,2.152134E-2,-4.7046144E-2,-8.1011045E-1,-1.9066384E-2,1.6724787E0,2.1964042E-1,1.2033318E0,-5.382711E-3,1.7320213E0,-4.8829727E-2,1.532273E0,1.8439704E-1,-9.9752927E-1,7.1829146E-1,-6.5941817E-1,2.3266952E0,-2.1762854E-1,1.8015467E-1,1.6108637E0,1.7123907E0,-2.2799027E-1,-6.156952E-2,7.4484575E-1,4.1846094E0,-1.066971E0,-4.984711E-3,2.2138195E-1,2.0014825E-1,-1.7228246E-2,-1.2385595E-1,1.10253565E-1,1.958628E-1,4.6816715E-3,-8.01393E-2,1.2320136E-1,-2.9728452E-2,3.1188732E-1,3.854556E-2,-5.471418E-2,-2.894087E-2,2.873998E-2,-7.142408E-2,2.7389306E-1,2.113936E-1,-1.280286E-1,2.0720457E-1,-7.840001E-2,-2.4476366E-2,2.0510072E-2,1.3464838E-2,2.561973E-1,5.6669086E-1,-8.7229334E-2,-3.159684E-2,-1.17572956E-1],"categories":[],"categories_nodes":[],"categories_segments":[],"categories_sizes":[],"default_left":[1,0,0,0,0,0,0,0,0,0,0,0,0,0,0,0,0,0,0,0,0,0,0,0,0,0,0,0,0,0,0,0,0,0,0,0,0,0,0,0,0,0,0,0,0,0,0,0,0,0,0,0,0,0,0,0,0,0,0,0,0],"id":27,"left_children":[1,3,5,7,9,11,13,15,17,19,21,23,25,27,29,31,33,-1,35,37,39,41,43,45,47,49,51,53,55,57,59,-1,-1,-1,-1,-1,-1,-1,-1,-1,-1,-1,-1,-1,-1,-1,-1,-1,-1,-1,-1,-1,-1,-1,-1,-1,-1,-1,-1,-1,-1],"loss_changes":[4.7881638E1,9.0147505E0,2.280252E1,1.4471893E1,2.657596E1,4.504474E1,2.674658E1,1.248303E1,1.427503E1,2.0304728E1,1.5344833E1,3.7778713E1,3.682177E1,2.4199495E1,6.6247826E1,1.0241333E1,4.343789E0,0E0,1.3513857E1,1.6565395E1,7.1636457E0,1.963512E1,1.0057958E0,3.407509E1,5.1790844E1,4.7169167E1,1.9528278E1,2.6137396E1,4.4007282E1,4.2422417E1,3.689623E-2,0E0,0E0,0E0,0E0,0E0,0E0,0E0,0E0,0E0,0E0,0E0,0E0,0E0,0E0,0E0,0E0,0E0,0E0,0E0,0E0,0E0,0E0,0E0,0E0,0E0,0E0,0E0,0E0,0E0,0E0],"parents":[2147483647,0,0,1,1,2,2,3,3,4,4,5,5,6,6,7,7,8,8,9,9,10,10,11,11,12,12,13,13,14,14,15,15,16,16,18,18,19,19,20,20,21,21,22,22,23,23,24,24,25,25,26,26,27,27,28,28,29,29,30,30],"right_children":[2,4,6,8,10,12,14,16,18,20,22,24,26,28,30,32,34,-1,36,38,40,42,44,46,48,50,52,54,56,58,60,-1,-1,-1,-1,-1,-1,-1,-1,-1,-1,-1,-1,-1,-1,-1,-1,-1,-1,-1,-1,-1,-1,-1,-1,-1,-1,-1,-1,-1,-1],"split_conditions":[1.5E0,2.4E0,8E0,1.6666666E0,9.75E0,1E1,2.4E2,2.25E0,1.4285715E0,1.5283252E0,2.5E0,1E0,1.928379E0,1E0,9.428572E0,1E0,2.6666667E0,1.8439704E-1,1E0,2.5714285E0,2.65E2,6.6666665E0,3.5E0,-5.5E1,2.8888888E0,1.05E2,1.0333333E1,1.0666667E1,0E0,5.3333335E0,3E0,-4.984711E-3,2.2138195E-1,2.0014825E-1,-1.7228246E-2,-1.2385595E-1,1.10253565E-1,1.958628E-1,4.6816715E-3,-8.01393E-2,1.2320136E-1,-2.9728452E-2,3.1188732E-1,3.854556E-2,-5.471418E-2,-2.894087E-2,2.873998E-2,-7.142408E-2,2.7389306E-1,2.113936E-1,-1.280286E-1,2.0720457E-1,-7.840001E-2,-2.4476366E-2,2.0510072E-2,1.3464838E-2,2.561973E-1,5.6669086E-1,-8.7229334E-2,-3.159684E-2,-1.17572956E-1],"split_indices":[0,2,10,1,11,8,12,2,2,7,1,76,5,40,10,62,3,0,56,2,12,8,1,12,3,12,8,8,12,0,0,0,0,0,0,0,0,0,0,0,0,0,0,0,0,0,0,0,0,0,0,0,0,0,0,0,0,0,0,0,0],"split_type":[0,0,0,0,0,0,0,0,0,0,0,0,0,0,0,0,0,0,0,0,0,0,0,0,0,0,0,0,0,0,0,0,0,0,0,0,0,0,0,0,0,0,0,0,0,0,0,0,0,0,0,0,0,0,0,0,0,0,0,0,0],"sum_hessian":[5.801E3,4.48E3,1.321E3,4.428E3,5.2E1,7.41E2,5.8E2,4.404E3,2.4E1,4.1E1,1.1E1,6.92E2,4.9E1,5.72E2,8E0,4.4E3,4E0,1E0,2.3E1,1.9E1,2.2E1,8E0,3E0,6.74E2,1.8E1,3.6E1,1.3E1,5.33E2,3.9E1,4E0,4E0,4.399E3,1E0,3E0,1E0,2.1E1,2E0,6E0,1.3E1,2.1E1,1E0,2E0,6E0,1E0,2E0,1.25E2,5.49E2,6E0,1.2E1,3.2E1,4E0,2E0,1.1E1,3.16E2,2.17E2,3E1,9E0,3E0,1E0,1E0,3E0],"tree_param":{"num_deleted":"0","num_feature":"159","num_nodes":"61","size_leaf_vector":"1"}},{"base_weights":[2.9444098E-3,-4.495112E-2,1.4412019E-1,-4.500201E-2,8.775437E-3,1.3664788E-1,1.9445877E0,-4.5029655E-2,3.7363693E-3,1.5667148E-1,-6.8593585E-1,3.5294276E-1,2.6981094E-1,-4.4809904E-2,-5.7766136E-2,1.2103986E-1,5.6336874E-1,1.496105E-1,-7.941166E-1,-1.636949E-1,7.851642E-2,-4.4611427E-3,-5.7330276E-3,-4.3956824E-3,-1.2084807E-2,-2.8025303E-3,2.5945177E-2,3.1550166E-1,3.1355884E-2,-1.5728801E-1,-5.3396013E-2,3.396827E-3,-2.7951062E-2],"categories":[],"categories_nodes":[],"categories_segments":[],"categories_sizes":[],"default_left":[0,0,0,0,0,0,0,0,0,0,0,0,0,0,0,0,0,0,0,0,0,0,0,0,0,0,0,0,0,0,0,0,0],"id":28,"left_children":[1,3,5,7,-1,9,11,13,-1,15,17,-1,19,21,23,25,27,-1,29,31,-1,-1,-1,-1,-1,-1,-1,-1,-1,-1,-1,-1,-1],"loss_changes":[3.9237793E1,3.3211708E-2,1.951113E1,1.1547089E-2,0E0,2.423762E1,1.4973238E1,9.531975E-3,0E0,2.0668839E1,9.449999E0,0E0,1.022162E0,8.033752E-3,5.5666193E-2,2.7180134E1,7.346391E1,0E0,6.048559E0,7.817199E-2,0E0,0E0,0E0,0E0,0E0,0E0,0E0,0E0,0E0,0E0,0E0,0E0,0E0],"parents":[2147483647,0,0,1,1,2,2,3,3,5,5,6,6,7,7,9,9,10,10,12,12,13,13,14,14,15,15,16,16,18,18,19,19],"right_children":[2,4,6,8,-1,10,12,14,-1,16,18,-1,20,22,24,26,28,-1,30,32,-1,-1,-1,-1,-1,-1,-1,-1,-1,-1,-1,-1,-1],"split_conditions":[6E-1,3.3333334E-1,6.125E0,1E0,8.775437E-3,5.3333335E0,6.2E0,1E0,3.7363693E-3,1.2333333E1,3.75E0,3.5294276E-1,8E0,1E0,1.8153088E0,2E1,8.375E0,1.496105E-1,1.7501131E0,7.2E0,7.851642E-2,-4.4611427E-3,-5.7330276E-3,-4.3956824E-3,-1.2084807E-2,-2.8025303E-3,2.5945177E-2,3.1550166E-1,3.1355884E-2,-1.5728801E-1,-5.3396013E-2,3.396827E-3,-2.7951062E-2],"split_indices":[1,0,2,27,0,1,1,33,0,8,2,0,0,63,6,12,10,0,7,1,0,0,0,0,0,0,0,0,0,0,0,0,0],"split_type":[0,0,0,0,0,0,0,0,0,0,0,0,0,0,0,0,0,0,0,0,0,0,0,0,0,0,0,0,0,0,0,0,0],"sum_hessian":[5.801E3,4.332E3,1.469E3,4.331E3,1E0,1.464E3,5E0,4.33E3,1E0,1.43E3,3.4E1,2E0,3E0,4.261E3,6.9E1,1.316E3,1.14E2,1E0,3.3E1,2E0,1E0,4.199E3,6.2E1,5.8E1,1.1E1,6.34E2,6.82E2,9E0,1.05E2,7E0,2.6E1,1E0,1E0],"tree_param":{"num_deleted":"0","num_feature":"159","num_nodes":"33","size_leaf_vector":"1"}},{"base_weights":[2.7709107E-3,-2.9938417E-2,1.7393856E-1,-2.5901148E-2,-9.6131396E-1,3.3793753E-1,1.6340007E-1,-2.2413353E-2,-1.0786868E0,1.4430873E-1,-1.3158404E0,-6.042704E-1,2.040763E-1,-4.0437035E-2,1.8206549E-1,1.8350013E-1,-1.395266E0,-3.6257696E-1,7.7205345E-2,-1.5003241E0,7.257078E-2,2.2070427E-1,-7.133651E-1,-5.210285E-1,2.4915007E-1,-4.1305437E-3,1.9098015E-1,-1.5266192E-2,4.311861E-2,2.0468037E-3,-1.9119392E-1,-4.8165895E-2,-2.6655197E-4,-5.1996585E-2,-1.6111511E-1,-1.0652363E-1,-5.04531E-3,-6.790555E-2,3.7691748E-1,7.883618E-2,1.8349973E-2],"categories":[],"categories_nodes":[],"categories_segments":[],"categories_sizes":[],"default_left":[0,0,0,0,0,0,0,0,0,0,0,0,0,0,0,0,0,0,0,0,0,0,0,0,0,0,0,0,0,0,0,0,0,0,0,0,0,0,0,0,0],"id":29,"left_children":[1,3,5,7,9,-1,11,13,15,17,19,21,23,25,27,-1,29,31,-1,33,-1,-1,35,37,39,-1,-1,-1,-1,-1,-1,-1,-1,-1,-1,-1,-1,-1,-1,-1,-1],"loss_changes":[3.248932E1,1.8294857E1,3.0897388E1,1.7791893E1,8.4213085E0,0E0,2.9132215E1,1.783394E1,1.7318926E1,2.1890974E0,7.114914E0,1.5989294E1,2.8989082E1,7.6085773E0,3.2753723E1,0E0,1.1011211E1,1.7015195E-1,0E0,7.9200745E-1,0E0,0E0,1.0676201E1,3.781382E1,2.9307667E1,0E0,0E0,0E0,0E0,0E0,0E0,0E0,0E0,0E0,0E0,0E0,0E0,0E0,0E0,0E0,0E0],"parents":[2147483647,0,0,1,1,2,2,3,3,4,4,6,6,7,7,8,8,9,9,10,10,11,11,12,12,13,13,14,14,16,16,17,17,19,19,22,22,23,23,24,24],"right_children":[2,4,6,8,10,-1,12,14,16,18,20,22,24,26,28,-1,30,32,-1,34,-1,-1,36,38,40,-1,-1,-1,-1,-1,-1,-1,-1,-1,-1,-1,-1,-1,-1,-1,-1],"split_conditions":[2.8181818E0,3.6666667E0,9.016674E-1,1E0,-1.6E2,3.3793753E-1,-2.3E2,1.6666666E0,5.428571E0,1.6510607E0,3.5714285E0,4E1,4E1,1E0,2E1,1.8350013E-1,2.125E0,3.8E0,7.7205345E-2,2.4545455E0,7.257078E-2,2.2070427E-1,1.933295E0,1.075E1,1.1147681E0,-4.1305437E-3,1.9098015E-1,-1.5266192E-2,4.311861E-2,2.0468037E-3,-1.9119392E-1,-4.8165895E-2,-2.6655197E-4,-5.1996585E-2,-1.6111511E-1,-1.0652363E-1,-5.04531E-3,-6.790555E-2,3.7691748E-1,7.883618E-2,1.8349973E-2],"split_indices":[3,1,7,109,12,0,12,0,10,6,2,13,13,123,12,0,2,1,0,3,0,0,6,9,5,0,0,0,0,0,0,0,0,0,0,0,0,0,0,0,0],"split_type":[0,0,0,0,0,0,0,0,0,0,0,0,0,0,0,0,0,0,0,0,0,0,0,0,0,0,0,0,0,0,0,0,0,0,0,0,0,0,0,0,0],"sum_hessian":[5.801E3,4.871E3,9.3E2,4.851E3,2E1,2E0,9.28E2,4.836E3,1.5E1,5E0,1.5E1,4.6E1,8.82E2,4.445E3,3.91E2,1E0,1.4E1,3E0,2E0,1.4E1,1E0,1E0,4.5E1,5.1E1,8.31E2,4.444E3,1E0,1.67E2,2.24E2,4E0,1E1,2E0,1E0,2E0,1.2E1,2.9E1,1.6E1,5E1,1E0,8.9E1,7.42E2],"tree_param":{"num_deleted":"0","num_feature":"159","num_nodes":"41","size_leaf_vector":"1"}},{"base_weights":[2.6576584E-3,-2.5909992E-2,1.659597E-1,-2.2833208E-2,-9.7117114E-1,6.7116266E-1,7.6378286E-2,-1.8736145E-2,-7.385646E-1,1.7432512E-1,-1.2683494E0,5.121276E-1,3.8725328E-1,-8.302051E-1,1.2017808E-1,-2.4970127E-2,9.008718E-1,1.2782003E-2,-1.3905839E0,1.883059E-2,-1.7381266E0,1.2374218E0,-1.9850315E-1,-1.0734591E0,9.455317E-2,1.03982516E-1,3.859083E-1,-2.8421937E-3,7.029464E-2,2.2498249E-1,-2.1150537E-2,-4.1338492E-2,1.713189E-1,-1.5884002E-1,6.894224E-2,-3.1639866E-3,1.1035621E-2,-4.9810372E-2,-1.9583426E-1,3.13971E-2,2.6864702E-1,-5.6010373E-2,1.5946725E-1,-1.1902101E-1,9.810314E-2,-6.92747E-2,1.6376358E-1,6.83368E-3,1.06368355E-1],"categories":[],"categories_nodes":[],"categories_segments":[],"categories_sizes":[],"default_left":[0,0,0,0,0,0,0,0,0,0,0,0,0,0,0,0,0,0,0,0,0,0,0,0,0,0,0,0,0,0,0,0,0,0,0,0,0,0,0,0,0,0,0,0,0,0,0,0,0],"id":30,"left_children":[1,3,5,7,9,11,13,15,17,-1,19,21,-1,23,25,27,29,31,33,35,37,39,41,43,45,47,-1,-1,-1,-1,-1,-1,-1,-1,-1,-1,-1,-1,-1,-1,-1,-1,-1,-1,-1,-1,-1,-1,-1],"loss_changes":[2.7071533E1,1.4342241E1,3.9050613E1,1.442528E1,1.5117725E1,6.420369E1,2.9285275E1,2.8096115E1,1.3734763E1,0E0,9.103052E0,6.467268E1,0E0,7.7498417E0,4.210739E1,1.2243919E1,4.9993816E1,1.0853407E1,7.266968E0,2.6588358E-2,2.0283394E0,8.212026E1,4.2391632E1,7.6439495E0,1.0853421E1,2.3873774E1,0E0,0E0,0E0,0E0,0E0,0E0,0E0,0E0,0E0,0E0,0E0,0E0,0E0,0E0,0E0,0E0,0E0,0E0,0E0,0E0,0E0,0E0,0E0],"parents":[2147483647,0,0,1,1,2,2,3,3,4,4,5,5,6,6,7,7,8,8,10,10,11,11,13,13,14,14,15,15,16,16,17,17,18,18,19,19,20,20,21,21,22,22,23,23,24,24,25,25],"right_children":[2,4,6,8,10,12,14,16,18,-1,20,22,-1,24,26,28,30,32,34,36,38,40,42,44,46,48,-1,-1,-1,-1,-1,-1,-1,-1,-1,-1,-1,-1,-1,-1,-1,-1,-1,-1,-1,-1,-1,-1,-1],"split_conditions":[2.9E0,1E0,6.3333335E0,3.6666667E0,5.428571E0,8E0,1.2447318E0,4E0,5E0,1.7432512E-1,2.125E0,1.18431E0,3.8725328E-1,1E0,1E0,1E0,1E0,4.6E1,3.5714285E0,3.3333334E-1,6.181818E0,5.5E0,1.642734E0,3E2,6.7272725E0,1E0,3.859083E-1,-2.8421937E-3,7.029464E-2,2.2498249E-1,-2.1150537E-2,-4.1338492E-2,1.713189E-1,-1.5884002E-1,6.894224E-2,-3.1639866E-3,1.1035621E-2,-4.9810372E-2,-1.9583426E-1,3.13971E-2,2.6864702E-1,-5.6010373E-2,1.5946725E-1,-1.1902101E-1,9.810314E-2,-6.92747E-2,1.6376358E-1,6.83368E-3,1.06368355E-1],"split_indices":[3,109,11,1,10,9,7,0,12,0,2,4,0,73,37,114,14,13,2,0,11,9,7,12,11,18,0,0,0,0,0,0,0,0,0,0,0,0,0,0,0,0,0,0,0,0,0,0,0],"split_type":[0,0,0,0,0,0,0,0,0,0,0,0,0,0,0,0,0,0,0,0,0,0,0,0,0,0,0,0,0,0,0,0,0,0,0,0,0,0,0,0,0,0,0,0,0,0,0,0,0],"sum_hessian":[5.801E3,4.938E3,8.63E2,4.923E3,1.5E1,1.29E2,7.34E2,4.896E3,2.7E1,1E0,1.4E1,1.24E2,5E0,3.3E1,7.01E2,4.864E3,3.2E1,1.3E1,1.4E1,4E0,1E1,6.1E1,6.3E1,2.6E1,7E0,6.99E2,2E0,4.842E3,2.2E1,1.4E1,1.8E1,1.1E1,2E0,1.3E1,1E0,3E0,1E0,2E0,8E0,3.8E1,2.3E1,5.3E1,1E1,2.5E1,1E0,5E0,2E0,6.75E2,2.4E1],"tree_param":{"num_deleted":"0","num_feature":"159","num_nodes":"49","size_leaf_vector":"1"}},{"base_weights":[2.6696092E-3,-2.930672E-2,1.257108E-1,-2.4560247E-2,-7.775841E-1,-4.376524E-1,1.5739469E-1,-2.7068526E-2,2.2749243E0,-1.0832777E0,1.4038208E0,-5.110524E-1,2.0932737E-1,3.0086333E-1,1.0320891E-2,-2.893101E-2,1.039562E0,2.6927286E-1,3.0185355E-2,-1.2679563E0,1.766843E-1,-1.8211557E-2,1.9931714E-1,-7.682828E-1,8.0406986E-2,3.924848E-1,-5.055357E-1,-2.8511927E-2,1.1833615E0,-2.6924934E-3,-1.0419059E-1,3.1182155E-1,-8.312731E-2,-1.3583042E-1,4.5019686E-2,-4.3659534E-2,-1.1107693E-1,2.7493128E-1,-3.688777E-2,3.5324153E-2,2.0112668E-1,-6.0382765E-2,2.597699E-1,4.5392975E-2,-1.1759679E-2,2.224317E-1,-3.9587248E-2],"categories":[],"categories_nodes":[],"categories_segments":[],"categories_sizes":[],"default_left":[0,0,0,0,0,0,0,0,0,0,0,0,0,0,0,0,0,0,0,0,0,0,0,0,0,0,0,0,0,0,0,0,0,0,0,0,0,0,0,0,0,0,0,0,0,0,0],"id":31,"left_children":[1,3,5,7,9,11,13,15,17,19,21,23,-1,25,27,29,31,-1,-1,33,-1,-1,-1,35,37,39,41,43,45,-1,-1,-1,-1,-1,-1,-1,-1,-1,-1,-1,-1,-1,-1,-1,-1,-1,-1],"loss_changes":[2.2831104E1,1.6339931E1,2.1434784E1,2.646632E1,2.085913E1,1.295905E1,2.3924839E1,9.116715E0,3.308979E0,1.5925539E1,4.1016765E0,9.646677E0,0E0,4.260752E1,2.558868E1,9.252573E0,3.370263E1,0E0,0E0,4.4922943E0,0E0,0E0,0E0,4.513376E0,2.499613E1,3.206913E1,1.9564922E1,2.3433548E1,3.0470966E1,0E0,0E0,0E0,0E0,0E0,0E0,0E0,0E0,0E0,0E0,0E0,0E0,0E0,0E0,0E0,0E0,0E0,0E0],"parents":[2147483647,0,0,1,1,2,2,3,3,4,4,5,5,6,6,7,7,8,8,9,9,10,10,11,11,13,13,14,14,15,15,16,16,19,19,23,23,24,24,25,25,26,26,27,27,28,28],"right_children":[2,4,6,8,10,12,14,16,18,20,22,24,-1,26,28,30,32,-1,-1,34,-1,-1,-1,36,38,40,42,44,46,-1,-1,-1,-1,-1,-1,-1,-1,-1,-1,-1,-1,-1,-1,-1,-1,-1,-1],"split_conditions":[2.375E0,2.6E0,-2.3E2,1E0,3.2E0,1E0,1E0,2.5E0,2.3333333E0,1E0,2.3333333E0,1.933295E0,2.0932737E-1,4.6666665E0,4.875E0,2.2857144E0,1.341985E0,2.6927286E-1,3.0185355E-2,3E0,1.766843E-1,-1.8211557E-2,1.9931714E-1,1.4416347E0,1.9610114E0,1.4333333E1,8.666667E0,1.0450016E0,1.275E1,-2.6924934E-3,-1.0419059E-1,3.1182155E-1,-8.312731E-2,-1.3583042E-1,4.5019686E-2,-4.3659534E-2,-1.1107693E-1,2.7493128E-1,-3.688777E-2,3.5324153E-2,2.0112668E-1,-6.0382765E-2,2.597699E-1,4.5392975E-2,-1.1759679E-2,2.224317E-1,-3.9587248E-2],"split_indices":[2,1,12,40,1,75,14,1,0,114,0,6,0,1,2,2,4,0,0,3,0,0,0,4,6,8,0,4,9,0,0,0,0,0,0,0,0,0,0,0,0,0,0,0,0,0,0],"split_type":[0,0,0,0,0,0,0,0,0,0,0,0,0,0,0,0,0,0,0,0,0,0,0,0,0,0,0,0,0,0,0,0,0,0,0,0,0,0,0,0,0,0,0,0,0,0,0],"sum_hessian":[5.801E3,4.605E3,1.196E3,4.577E3,2.8E1,6.3E1,1.133E3,4.573E3,4E0,2.5E1,3E0,6.2E1,1E0,5.73E2,5.6E2,4.566E3,7E0,3E0,1E0,2.4E1,1E0,1E0,2E0,4.3E1,1.9E1,5.15E2,5.8E1,5.43E2,1.7E1,4.558E3,8E0,3E0,4E0,2.3E1,1E0,2.3E1,2E1,2E0,1.7E1,5.04E2,1.1E1,5.7E1,1E0,8.4E1,4.59E2,1E1,7E0],"tree_param":{"num_deleted":"0","num_feature":"159","num_nodes":"47","size_leaf_vector":"1"}},{"base_weights":[2.6841485E-3,-4.2512803E-3,5.2526987E-1,-6.0372027E-3,1.699632E0,-2.9234293E-1,1.0359744E0,-2.110824E-3,-6.439574E-1,3.1166095E-1,2.1199116E-1,1.302999E0,-1.2845409E0,3.164936E0,7.07171E-1,-1.0982345E-2,4.0961924E-1,-7.8470993E-1,6.430526E-1,-1.3207734E-1,6.2209833E-2,2.836069E0,-1.9720371E-1,-1.8132424E-1,-8.2502806E-1,-4.603081E-2,3.9820465E-1,2.6156569E-2,1.6137371E0,-4.7001033E-4,-4.5900013E-2,2.9607448E-1,2.9612575E-2,-5.6561112E-2,-1.4864041E-1,-2.605006E-2,1.6768561E-1,4.981953E-3,-2.4793554E-2,-2.0731723E-2,3.4862098E-1,-8.907549E-2,1.0244495E-1,1.2029103E-2,-1.5174405E-1,3.1899187E-1,-3.8764533E-2,3.3762464E-1,-5.239104E-2],"categories":[],"categories_nodes":[],"categories_segments":[],"categories_sizes":[],"default_left":[0,0,0,1,0,0,0,0,0,0,0,0,0,0,0,0,0,0,0,0,0,0,0,0,0,0,0,0,0,0,0,0,0,0,0,0,0,0,0,0,0,0,0,0,0,0,0,0,0],"id":32,"left_children":[1,3,5,7,9,11,13,15,17,-1,19,21,23,25,27,29,31,33,35,37,-1,39,41,-1,43,-1,-1,45,47,-1,-1,-1,-1,-1,-1,-1,-1,-1,-1,-1,-1,-1,-1,-1,-1,-1,-1,-1,-1],"loss_changes":[2.1030746E1,1.7437544E1,3.2037315E1,1.4330627E1,1.1987028E1,4.9160606E1,3.0662312E1,2.0780897E1,6.844857E0,0E0,6.46585E-1,2.815827E1,3.1199818E0,1.9606312E1,2.5887945E1,1.5672102E1,3.3867584E1,4.078966E0,4.1732078E0,7.5574756E-2,0E0,1.2594528E1,6.843487E0,0E0,8.037141E0,0E0,0E0,3.3965828E1,6.9586075E1,0E0,0E0,0E0,0E0,0E0,0E0,0E0,0E0,0E0,0E0,0E0,0E0,0E0,0E0,0E0,0E0,0E0,0E0,0E0,0E0],"parents":[2147483647,0,0,1,1,2,2,3,3,4,4,5,5,6,6,7,7,8,8,10,10,11,11,12,12,13,13,14,14,15,15,16,16,17,17,18,18,19,19,21,21,22,22,24,24,27,27,28,28],"right_children":[2,4,6,8,10,12,14,16,18,-1,20,22,24,26,28,30,32,34,36,38,-1,40,42,-1,44,-1,-1,46,48,-1,-1,-1,-1,-1,-1,-1,-1,-1,-1,-1,-1,-1,-1,-1,-1,-1,-1,-1,-1],"split_conditions":[1E0,6.125E0,1.592601E0,6E0,6.2E0,2.7E0,1.4834977E0,4.090909E0,1E0,3.1166095E-1,8E0,2.3333333E0,7.7272725E0,3.4E0,1.8843216E0,4.125E0,4.1E0,5.8E0,5E0,7.2E0,6.2209833E-2,1.5E0,1.2954613E0,-1.8132424E-1,8.454545E0,-4.603081E-2,3.9820465E-1,1.616417E0,2.1501932E0,-4.7001033E-4,-4.5900013E-2,2.9607448E-1,2.9612575E-2,-5.6561112E-2,-1.4864041E-1,-2.605006E-2,1.6768561E-1,4.981953E-3,-2.4793554E-2,-2.0731723E-2,3.4862098E-1,-8.907549E-2,1.0244495E-1,1.2029103E-2,-1.5174405E-1,3.1899187E-1,-3.8764533E-2,3.3762464E-1,-5.239104E-2],"split_indices":[40,2,5,0,1,3,7,3,45,0,0,0,11,1,6,2,3,1,2,1,0,0,4,0,11,0,0,5,4,0,0,0,0,0,0,0,0,0,0,0,0,0,0,0,0,0,0,0,0],"split_type":[0,0,0,0,0,0,0,0,0,0,0,0,0,0,0,0,0,0,0,0,0,0,0,0,0,0,0,0,0,0,0,0,0,0,0,0,0,0,0,0,0,0,0,0,0,0,0,0,0],"sum_hessian":[5.801E3,5.726E3,7.5E1,5.721E3,5E0,2.9E1,4.6E1,5.687E3,3.4E1,2E0,3E0,1.1E1,1.8E1,5E0,4.1E1,5.568E3,1.19E2,3.1E1,3E0,2E0,1E0,5E0,6E0,7E0,1.1E1,1E0,4E0,2.4E1,1.7E1,5.492E3,7.6E1,4E0,1.15E2,2.5E1,6E0,2E0,1E0,1E0,1E0,1E0,4E0,4E0,2E0,5E0,6E0,2E0,2.2E1,9E0,8E0],"tree_param":{"num_deleted":"0","num_feature":"159","num_nodes":"49","size_leaf_vector":"1"}},{"base_weights":[2.675577E-3,-2.1125363E-2,1.38729E-1,-1.831892E-2,-8.834881E-1,5.834666E-1,5.98792E-2,-1.4600743E-2,-6.6794723E-1,1.6622035E-1,-1.1640145E0,4.3667796E-1,3.5443187E-1,-7.630538E-1,9.965105E-2,-2.0195443E-2,8.1063616E-1,2.3478448E-2,-1.268748E0,2.1051824E-2,-1.5968615E0,1.0743536E0,-1.8789336E-1,-3.4280476E-1,-1.2725155E0,8.4613405E-2,3.5752186E-1,-2.3172842E-3,6.076193E-2,2.028481E-1,-1.9348534E-2,-3.6654353E-2,1.5757403E-1,-1.4504479E-1,6.3752435E-2,-2.6895E-3,1.0641957E-2,-1.8419672E-2,-1.7197083E-1,2.2995789E-2,2.4017318E-1,-5.1812883E-2,1.4503436E-1,-8.8789344E-2,1.9003997E-3,-1.5693532E-1,-3.649694E-2,6.2451735E-3,1.3500117E-1],"categories":[],"categories_nodes":[],"categories_segments":[],"categories_sizes":[],"default_left":[0,0,0,0,0,0,0,0,0,0,0,0,0,0,0,0,0,0,0,0,0,0,0,0,0,0,0,0,0,0,0,0,0,0,0,0,0,0,0,0,0,0,0,0,0,0,0,0,0],"id":33,"left_children":[1,3,5,7,9,11,13,15,17,-1,19,21,-1,23,25,27,29,31,33,35,37,39,41,43,45,47,-1,-1,-1,-1,-1,-1,-1,-1,-1,-1,-1,-1,-1,-1,-1,-1,-1,-1,-1,-1,-1,-1,-1],"loss_changes":[1.8790966E1,1.1937048E1,3.026336E1,1.1883839E1,1.3360965E1,5.4952793E1,2.413227E1,2.2625591E1,1.16612425E1,0E0,7.7279053E0,4.99861E1,0E0,6.8432007E0,3.638707E1,9.108007E0,4.0747E1,9.053404E0,6.1202335E0,2.3327716E-2,1.5921898E0,6.893931E1,3.5375713E1,3.9612303E0,3.4681435E0,1.9546026E1,0E0,0E0,0E0,0E0,0E0,0E0,0E0,0E0,0E0,0E0,0E0,0E0,0E0,0E0,0E0,0E0,0E0,0E0,0E0,0E0,0E0,0E0,0E0],"parents":[2147483647,0,0,1,1,2,2,3,3,4,4,5,5,6,6,7,7,8,8,10,10,11,11,13,13,14,14,15,15,16,16,17,17,18,18,19,19,20,20,21,21,22,22,23,23,24,24,25,25],"right_children":[2,4,6,8,10,12,14,16,18,-1,20,22,-1,24,26,28,30,32,34,36,38,40,42,44,46,48,-1,-1,-1,-1,-1,-1,-1,-1,-1,-1,-1,-1,-1,-1,-1,-1,-1,-1,-1,-1,-1,-1,-1],"split_conditions":[2.9E0,1E0,6.3333335E0,3.6666667E0,5.428571E0,8E0,1.2447318E0,4E0,5E0,1.6622035E-1,2.125E0,1.18431E0,3.5443187E-1,3.5E0,1E0,1E0,1E0,4.6E1,3.5714285E0,3.3333334E-1,7.1859664E-1,5.5E0,1.642734E0,1.1250428E0,3.6666667E0,1E0,3.5752186E-1,-2.3172842E-3,6.076193E-2,2.028481E-1,-1.9348534E-2,-3.6654353E-2,1.5757403E-1,-1.4504479E-1,6.3752435E-2,-2.6895E-3,1.0641957E-2,-1.8419672E-2,-1.7197083E-1,2.2995789E-2,2.4017318E-1,-5.1812883E-2,1.4503436E-1,-8.8789344E-2,1.9003997E-3,-1.5693532E-1,-3.649694E-2,6.2451735E-3,1.3500117E-1],"split_indices":[3,109,11,1,10,9,7,0,12,0,2,4,0,0,37,114,14,13,2,0,4,9,7,6,3,35,0,0,0,0,0,0,0,0,0,0,0,0,0,0,0,0,0,0,0,0,0,0,0],"split_type":[0,0,0,0,0,0,0,0,0,0,0,0,0,0,0,0,0,0,0,0,0,0,0,0,0,0,0,0,0,0,0,0,0,0,0,0,0,0,0,0,0,0,0,0,0,0,0,0,0],"sum_hessian":[5.801E3,4.938E3,8.63E2,4.923E3,1.5E1,1.29E2,7.34E2,4.896E3,2.7E1,1E0,1.4E1,1.24E2,5E0,3.3E1,7.01E2,4.864E3,3.2E1,1.3E1,1.4E1,4E0,1E1,6.1E1,6.3E1,1.9E1,1.4E1,6.99E2,2E0,4.842E3,2.2E1,1.4E1,1.8E1,1.1E1,2E0,1.3E1,1E0,3E0,1E0,1E0,9E0,3.8E1,2.3E1,5.3E1,1E1,7E0,1.2E1,1E1,4E0,6.88E2,1.1E1],"tree_param":{"num_deleted":"0","num_feature":"159","num_nodes":"49","size_leaf_vector":"1"}},{"base_weights":[2.6139156E-3,-3.7432471E-3,4.816252E-1,-5.4069245E-3,1.5834745E0,-2.647612E-1,9.477947E-1,-1.0586044E-2,4.2537728E-1,2.904672E-1,1.9670776E-1,1.2032616E0,-1.1779987E0,2.9019337E0,6.460654E-1,-1.5713459E-2,4.2385083E-1,7.6161526E-2,1.3911898E0,-1.2963688E-1,5.8787085E-2,3.2479602E-1,1.6081102E-1,-1.6579077E0,-7.598928E-1,-4.4041526E-2,3.6584866E-1,1.259587E-1,1.6772819E0,-1.2174107E-3,-5.9372723E-2,5.174642E-3,1.6855562E-1,3.7950303E-2,-1.20548904E-1,1.909933E-1,-3.3952918E-2,4.4205966E-3,-2.386613E-2,-7.4663155E-2,1.481772E-1,-1.7589042E-1,-4.7546614E-2,1.0506246E-2,-1.392727E-1,2.9730943E-1,-1.9505484E-2,2.7574587E-1,-8.185281E-2],"categories":[],"categories_nodes":[],"categories_segments":[],"categories_sizes":[],"default_left":[0,0,0,0,0,0,0,0,0,0,0,0,0,0,0,1,0,0,0,0,0,0,0,0,0,0,0,0,0,0,0,0,0,0,0,0,0,0,0,0,0,0,0,0,0,0,0,0,0],"id":34,"left_children":[1,3,5,7,9,11,13,15,17,-1,19,21,23,25,27,29,31,33,35,37,-1,-1,39,41,43,-1,-1,45,47,-1,-1,-1,-1,-1,-1,-1,-1,-1,-1,-1,-1,-1,-1,-1,-1,-1,-1,-1,-1],"loss_changes":[1.7669779E1,1.5131385E1,2.6694574E1,1.2770758E1,1.0421784E1,4.1637043E1,2.5837341E1,1.2603388E1,2.2828875E1,0E0,5.868256E-1,2.5055656E1,2.5525703E0,1.6783237E1,2.231512E1,1.1428763E1,3.0898865E1,2.0285156E1,1.680886E1,6.740959E-2,0E0,0E0,1.1894604E1,1.1907959E-1,6.7148023E0,0E0,0E0,2.7085016E1,3.9999878E1,0E0,0E0,0E0,0E0,0E0,0E0,0E0,0E0,0E0,0E0,0E0,0E0,0E0,0E0,0E0,0E0,0E0,0E0,0E0,0E0],"parents":[2147483647,0,0,1,1,2,2,3,3,4,4,5,5,6,6,7,7,8,8,10,10,11,11,12,12,13,13,14,14,15,15,16,16,17,17,18,18,19,19,22,22,23,23,24,24,27,27,28,28],"right_children":[2,4,6,8,10,12,14,16,18,-1,20,22,24,26,28,30,32,34,36,38,-1,-1,40,42,44,-1,-1,46,48,-1,-1,-1,-1,-1,-1,-1,-1,-1,-1,-1,-1,-1,-1,-1,-1,-1,-1,-1,-1],"split_conditions":[1E0,6.125E0,1.592601E0,1E0,6.2E0,2.7E0,1.4834977E0,1E0,8.545455E0,2.904672E-1,8E0,6.5E0,7.7272725E0,3.4E0,4.6E1,6E0,7.3333335E0,7.0833335E0,1.1142858E1,7.2E0,5.8787085E-2,3.2479602E-1,1.355368E0,4.25E0,8.454545E0,-4.4041526E-2,3.6584866E-1,1.616417E0,1E0,-1.2174107E-3,-5.9372723E-2,5.174642E-3,1.6855562E-1,3.7950303E-2,-1.20548904E-1,1.909933E-1,-3.3952918E-2,4.4205966E-3,-2.386613E-2,-7.4663155E-2,1.481772E-1,-1.7589042E-1,-4.7546614E-2,1.0506246E-2,-1.392727E-1,2.9730943E-1,-1.9505484E-2,2.7574587E-1,-8.185281E-2],"split_indices":[40,2,5,18,1,3,7,49,11,0,0,8,11,1,13,0,8,11,10,1,0,0,4,3,11,0,0,5,14,0,0,0,0,0,0,0,0,0,0,0,0,0,0,0,0,0,0,0,0],"split_type":[0,0,0,0,0,0,0,0,0,0,0,0,0,0,0,0,0,0,0,0,0,0,0,0,0,0,0,0,0,0,0,0,0,0,0,0,0,0,0,0,0,0,0,0,0,0,0,0,0],"sum_hessian":[5.801E3,5.726E3,7.5E1,5.721E3,5E0,2.9E1,4.6E1,5.654E3,6.7E1,2E0,3E0,1.1E1,1.8E1,5E0,4.1E1,5.589E3,6.5E1,5E1,1.7E1,2E0,1E0,3E0,8E0,7E0,1.1E1,1E0,4E0,2.8E1,1.3E1,5.556E3,3.3E1,5.1E1,1.4E1,4.1E1,9E0,1.3E1,4E0,1E0,1E0,5E0,3E0,6E0,1E0,5E0,6E0,2E0,2.6E1,9E0,4E0],"tree_param":{"num_deleted":"0","num_feature":"159","num_nodes":"49","size_leaf_vector":"1"}},{"base_weights":[2.5863987E-3,-3.278591E-3,4.445102E-1,-4.8334603E-3,1.4800951E0,-2.3674819E-1,8.698983E-1,-8.222981E-3,5.4615027E-1,2.7110273E-1,1.8687236E-1,1.116128E0,-1.0787358E0,-4.1985437E-1,1.275652E0,-1.2965637E-2,3.8393423E-1,-1.1202155E0,1.3565769E0,-1.23155035E-1,5.584773E-2,2.4638276E0,-1.9849014E-1,-1.5200465E0,-6.946341E-1,1.848007E-1,-1.0582273E0,1.6655458E0,-9.5140773E-1,-1.7680044E-3,3.8409803E-2,6.6925744E-3,1.2607953E-1,-1.4173579E-1,1.07417524E-1,2.8091231E-2,2.1048437E-1,4.1995645E-3,-2.267282E-2,-1.5846122E-2,3.0199775E-1,-7.5791016E-2,8.0004E-2,-1.6081409E-1,-4.5169283E-2,9.630731E-3,-1.2733504E-1,-1.4490406E-1,3.3668365E-2,-1.986531E-2,2.2175477E-1,-2.51441E-3,-1.4082536E-1],"categories":[],"categories_nodes":[],"categories_segments":[],"categories_sizes":[],"default_left":[0,0,0,0,0,0,0,0,0,0,0,0,0,0,0,0,0,0,0,0,0,0,0,0,0,0,0,0,0,0,0,0,0,0,0,0,0,0,0,0,0,0,0,0,0,0,0,0,0,0,0,0,0],"id":35,"left_children":[1,3,5,7,9,11,13,15,17,-1,19,21,23,25,27,29,31,33,35,37,-1,39,41,43,45,-1,47,49,51,-1,-1,-1,-1,-1,-1,-1,-1,-1,-1,-1,-1,-1,-1,-1,-1,-1,-1,-1,-1,-1,-1,-1,-1],"loss_changes":[1.50395355E1,1.3216208E1,2.223069E1,1.0690733E1,9.044599E0,3.5377155E1,2.5131725E1,1.05838995E1,4.878601E1,0E0,5.2961004E-1,2.1749569E1,2.1647797E0,1.9328508E1,3.2844013E1,1.0528848E1,1.8817741E1,9.347048E0,1.8725937E1,6.083713E-2,0E0,9.228867E0,4.5165424E0,2.6540756E-2,5.615401E0,0E0,5.9393644E0,3.2340797E1,2.5035486E0,0E0,0E0,0E0,0E0,0E0,0E0,0E0,0E0,0E0,0E0,0E0,0E0,0E0,0E0,0E0,0E0,0E0,0E0,0E0,0E0,0E0,0E0,0E0,0E0],"parents":[2147483647,0,0,1,1,2,2,3,3,4,4,5,5,6,6,7,7,8,8,10,10,11,11,12,12,13,13,14,14,15,15,16,16,17,17,18,18,19,19,21,21,22,22,23,23,24,24,26,26,27,27,28,28],"right_children":[2,4,6,8,10,12,14,16,18,-1,20,22,24,26,28,30,32,34,36,38,-1,40,42,44,46,-1,48,50,52,-1,-1,-1,-1,-1,-1,-1,-1,-1,-1,-1,-1,-1,-1,-1,-1,-1,-1,-1,-1,-1,-1,-1,-1],"split_conditions":[1E0,6.125E0,1.592601E0,1E0,6.2E0,2.7E0,3E0,1E0,4.5E1,2.7110273E-1,8E0,2.3333333E0,7.7272725E0,7.25E0,4.1666665E0,1E0,8.545455E0,1E1,2.5E0,7.2E0,5.584773E-2,1.5E0,1.2954613E0,4.25E0,8.454545E0,1.848007E-1,8.5E0,3E0,1.7253214E0,-1.7680044E-3,3.8409803E-2,6.6925744E-3,1.2607953E-1,-1.4173579E-1,1.07417524E-1,2.8091231E-2,2.1048437E-1,4.1995645E-3,-2.267282E-2,-1.5846122E-2,3.0199775E-1,-7.5791016E-2,8.0004E-2,-1.6081409E-1,-4.5169283E-2,9.630731E-3,-1.2733504E-1,-1.4490406E-1,3.3668365E-2,-1.986531E-2,2.2175477E-1,-2.51441E-3,-1.4082536E-1],"split_indices":[40,2,5,114,1,3,1,18,12,0,0,0,11,9,3,49,11,8,0,1,0,0,4,3,11,0,9,3,6,0,0,0,0,0,0,0,0,0,0,0,0,0,0,0,0,0,0,0,0,0,0,0,0],"split_type":[0,0,0,0,0,0,0,0,0,0,0,0,0,0,0,0,0,0,0,0,0,0,0,0,0,0,0,0,0,0,0,0,0,0,0,0,0,0,0,0,0,0,0,0,0,0,0,0,0,0,0,0,0],"sum_hessian":[5.801E3,5.726E3,7.5E1,5.721E3,5E0,2.9E1,4.6E1,5.687E3,3.4E1,2E0,3E0,1.1E1,1.8E1,1.1E1,3.5E1,5.62E3,6.7E1,1.1E1,2.3E1,2E0,1E0,5E0,6E0,7E0,1.1E1,2E0,9E0,3E1,5E0,5.555E3,6.5E1,5E1,1.7E1,1E1,1E0,1E1,1.3E1,1E0,1E0,1E0,4E0,4E0,2E0,6E0,1E0,5E0,6E0,7E0,2E0,7E0,2.3E1,2E0,3E0],"tree_param":{"num_deleted":"0","num_feature":"159","num_nodes":"53","size_leaf_vector":"1"}},{"base_weights":[2.4623806E-3,-1.7162768E-2,1.1873493E-1,-2.1326896E-2,4.8345914E-1,2.976366E-1,-3.251116E-2,-1.7153613E-2,-5.876056E-1,8.254651E-2,1.8997544E0,2.2666582E-1,2.1571019E0,-2.6580417E-1,8.656048E-2,-2.2717373E-2,7.781507E-1,-1.0157683E0,1.10833645E-2,1.7869E-1,-8.505371E-2,2.591318E0,3.8747066E-1,1.3227268E-1,1.0268261E0,-8.823069E-1,3.0662413E0,-3.3541664E-1,3.3498284E-1,-7.698418E-2,6.0065246E-1,-1.054373E-3,-3.2499503E-2,2.5309527E-1,-5.7639917E-3,1.2232137E-1,-1.1888782E-1,1.3033378E-1,-5.282796E-2,6.925178E-4,-9.4583176E-2,5.6917537E-2,2.8819114E-1,1.4202134E-1,-1.3553788E-1,6.476819E-3,1.1321124E-1,2.033712E-1,-1.4009108E-2,-4.5402767E-3,-1.6965096E-1,-8.2661115E-2,3.5381877E-1,-4.385583E-2,1.8637408E-1,-9.37128E-2,3.2482767E-3,1.5316208E-1,1.952302E-2],"categories":[],"categories_nodes":[],"categories_segments":[],"categories_sizes":[],"default_left":[0,0,0,0,0,0,0,0,0,0,0,0,0,0,0,0,0,0,0,0,0,0,0,0,0,0,0,0,0,0,0,0,0,0,0,0,0,0,0,0,0,0,0,0,0,0,0,0,0,0,0,0,0,0,0,0,0,0,0],"id":36,"left_children":[1,3,5,7,9,11,13,15,17,19,21,23,25,27,29,31,33,35,37,-1,39,41,43,45,47,49,51,53,-1,55,57,-1,-1,-1,-1,-1,-1,-1,-1,-1,-1,-1,-1,-1,-1,-1,-1,-1,-1,-1,-1,-1,-1,-1,-1,-1,-1,-1,-1],"loss_changes":[1.3241425E1,1.036062E1,2.268443E1,1.1628887E1,2.312342E1,5.0186638E1,1.2662265E1,2.1655357E1,9.239365E0,9.578433E0,8.408501E0,2.7885681E1,4.1390816E1,3.9884323E1,2.5437492E1,1.7869465E1,4.995505E1,9.593637E0,1.1840432E1,0E0,2.4609258E0,1.8854141E0,9.124587E0,2.240207E1,4.610805E1,2.648612E0,2.3134094E1,3.529473E1,0E0,2.1686623E1,2.7253752E1,0E0,0E0,0E0,0E0,0E0,0E0,0E0,0E0,0E0,0E0,0E0,0E0,0E0,0E0,0E0,0E0,0E0,0E0,0E0,0E0,0E0,0E0,0E0,0E0,0E0,0E0,0E0,0E0],"parents":[2147483647,0,0,1,1,2,2,3,3,4,4,5,5,6,6,7,7,8,8,9,9,10,10,11,11,12,12,13,13,14,14,15,15,16,16,17,17,18,18,20,20,21,21,22,22,23,23,24,24,25,25,26,26,27,27,29,29,30,30],"right_children":[2,4,6,8,10,12,14,16,18,20,22,24,26,28,30,32,34,36,38,-1,40,42,44,46,48,50,52,54,-1,56,58,-1,-1,-1,-1,-1,-1,-1,-1,-1,-1,-1,-1,-1,-1,-1,-1,-1,-1,-1,-1,-1,-1,-1,-1,-1,-1,-1,-1],"split_conditions":[2.9166667E0,1E0,8E0,3.6666667E0,2.5E0,1E0,8.833333E0,4E0,1E1,7.989988E-1,1.7942487E0,7.75E0,1.1536463E0,1.4333333E1,4.6E1,2.6E0,1.4039972E0,1.0705534E0,1.5838296E0,1.7869E-1,2.2E0,2.5555556E0,2E0,1E0,1.728921E0,3.3333333E0,2E0,2.25E2,3.3498284E-1,2.3333333E0,9.583333E0,-1.054373E-3,-3.2499503E-2,2.5309527E-1,-5.7639917E-3,1.2232137E-1,-1.1888782E-1,1.3033378E-1,-5.282796E-2,6.925178E-4,-9.4583176E-2,5.6917537E-2,2.8819114E-1,1.4202134E-1,-1.3553788E-1,6.476819E-3,1.1321124E-1,2.033712E-1,-1.4009108E-2,-4.5402767E-3,-1.6965096E-1,-8.2661115E-2,3.5381877E-1,-4.385583E-2,1.8637408E-1,-9.37128E-2,3.2482767E-3,1.5316208E-1,1.952302E-2],"split_indices":[3,73,10,1,3,76,11,0,8,5,6,10,4,8,13,1,5,6,6,0,1,3,0,49,6,0,0,12,0,0,11,0,0,0,0,0,0,0,0,0,0,0,0,0,0,0,0,0,0,0,0,0,0,0,0,0,0,0,0],"split_type":[0,0,0,0,0,0,0,0,0,0,0,0,0,0,0,0,0,0,0,0,0,0,0,0,0,0,0,0,0,0,0,0,0,0,0,0,0,0,0,0,0,0,0,0,0,0,0,0,0,0,0,0,0,0,0,0,0,0,0],"sum_hessian":[5.801E3,4.964E3,8.37E2,4.924E3,4E1,3.83E2,4.54E2,4.889E3,3.5E1,3.2E1,8E0,3.7E2,1.3E1,1.53E2,3.01E2,4.856E3,3.3E1,2E1,1.5E1,2E0,3E1,5E0,3E0,3.32E2,3.8E1,3E0,1E1,1.51E2,2E0,2.29E2,7.2E1,4.669E3,1.87E2,1E1,2.3E1,1E0,1.9E1,4E0,1.1E1,2.8E1,2E0,1E0,4E0,2E0,1E0,3.12E2,2E1,2E1,1.8E1,2E0,1E0,1E0,9E0,1.45E2,6E0,2.5E1,2.04E2,2.1E1,5.1E1],"tree_param":{"num_deleted":"0","num_feature":"159","num_nodes":"59","size_leaf_vector":"1"}},{"base_weights":[2.5085974E-3,-2.844337E-3,4.0584737E-1,-4.294699E-3,1.3807917E0,-2.0367761E-1,7.862708E-1,-1.3347863E-3,-6.5269196E-1,2.5281265E-1,1.7509261E-1,1.03754E0,-9.768846E-1,5.3458804E-1,2.7934888E-1,-6.331699E-3,4.5292222E-1,-1.2730172E0,-3.0626866E-1,-1.1916276E-1,5.2892935E-2,2.8341537E0,1.2376273E-1,-1.3810604E0,-6.26027E-1,9.7708803E-1,-4.518112E-1,5.2899468E-5,-3.4782596E-2,1.7880699E-1,1.617771E-2,-2.3866761E-2,-1.3724774E-1,7.120224E-2,-7.5269006E-2,3.8271726E-3,-2.1701587E-2,3.210207E-1,8.529971E-2,-6.146426E-2,1.20043E-1,-1.4620176E-1,-4.071802E-2,5.5455156E-2,-9.1759786E-2,1.9016322E-1,-3.7821062E-2,-1.08441226E-1,1.4007942E-1],"categories":[],"categories_nodes":[],"categories_segments":[],"categories_sizes":[],"default_left":[0,0,0,0,0,0,0,0,0,0,0,0,0,0,0,0,0,0,0,0,0,0,0,0,0,0,0,0,0,0,0,0,0,0,0,0,0,0,0,0,0,0,0,0,0,0,0,0,0],"id":37,"left_children":[1,3,5,7,9,11,13,15,17,-1,19,21,23,25,-1,27,29,31,33,35,-1,37,39,41,43,45,47,-1,-1,-1,-1,-1,-1,-1,-1,-1,-1,-1,-1,-1,-1,-1,-1,-1,-1,-1,-1,-1,-1],"loss_changes":[1.2527941E1,1.1498719E1,1.7782843E1,1.0980786E1,7.8573847E0,2.98051E1,2.22502E1,1.2934388E1,5.1973877E0,0E0,4.7950214E-1,1.9349693E1,1.829773E0,1.921017E1,0E0,1.3204697E1,2.3811478E1,5.9832287E-1,8.718495E0,5.4521926E-2,0E0,2.4178314E-1,7.892987E0,3.543663E-2,4.639522E0,3.8310226E1,1.792648E1,0E0,0E0,0E0,0E0,0E0,0E0,0E0,0E0,0E0,0E0,0E0,0E0,0E0,0E0,0E0,0E0,0E0,0E0,0E0,0E0,0E0,0E0],"parents":[2147483647,0,0,1,1,2,2,3,3,4,4,5,5,6,6,7,7,8,8,10,10,11,11,12,12,13,13,15,15,16,16,17,17,18,18,19,19,21,21,22,22,23,23,24,24,25,25,26,26],"right_children":[2,4,6,8,10,12,14,16,18,-1,20,22,24,26,-1,28,30,32,34,36,-1,38,40,42,44,46,48,-1,-1,-1,-1,-1,-1,-1,-1,-1,-1,-1,-1,-1,-1,-1,-1,-1,-1,-1,-1,-1,-1],"split_conditions":[1E0,6.125E0,1.592601E0,5.6E0,6.2E0,2.7E0,1E1,4.625E0,4.75E0,2.5281265E-1,8E0,6.5E0,7.7272725E0,8.571428E0,2.7934888E-1,4.125E0,1.6890873E0,4.5E0,4.7272725E0,7.2E0,5.2892935E-2,2.3333333E0,1.355368E0,4.25E0,1.470739E0,1E0,-2E1,5.2899468E-5,-3.4782596E-2,1.7880699E-1,1.617771E-2,-2.3866761E-2,-1.3724774E-1,7.120224E-2,-7.5269006E-2,3.8271726E-3,-2.1701587E-2,3.210207E-1,8.529971E-2,-6.146426E-2,1.20043E-1,-1.4620176E-1,-4.071802E-2,5.5455156E-2,-9.1759786E-2,1.9016322E-1,-3.7821062E-2,-1.08441226E-1,1.4007942E-1],"split_indices":[40,2,5,1,1,3,9,2,2,0,0,8,11,10,0,2,6,0,3,1,0,0,4,3,6,14,12,0,0,0,0,0,0,0,0,0,0,0,0,0,0,0,0,0,0,0,0,0,0],"split_type":[0,0,0,0,0,0,0,0,0,0,0,0,0,0,0,0,0,0,0,0,0,0,0,0,0,0,0,0,0,0,0,0,0,0,0,0,0,0,0,0,0,0,0,0,0,0,0,0,0],"sum_hessian":[5.801E3,5.726E3,7.5E1,5.721E3,5E0,2.9E1,4.6E1,5.696E3,2.5E1,2E0,3E0,1.1E1,1.8E1,4.2E1,4E0,5.635E3,6.1E1,8E0,1.7E1,2E0,1E0,3E0,8E0,7E0,1.1E1,2.9E1,1.3E1,5.525E3,1.1E2,1E1,5.1E1,1E0,7E0,5E0,1.2E1,1E0,1E0,2E0,1E0,5E0,3E0,6E0,1E0,2E0,9E0,1.7E1,1.2E1,1E1,3E0],"tree_param":{"num_deleted":"0","num_feature":"159","num_nodes":"49","size_leaf_vector":"1"}},{"base_weights":[2.4280043E-3,-2.419461E-2,8.075688E-2,-2.4039468E-2,-7.8029367E-3,6.906341E-1,6.015698E-2,-2.3836527E-2,-3.6020394E-2,4.1699484E-1,2.53661E0,-8.731387E-2,1.614829E-1,-2.3862706E-2,4.371522E-3,-2.3474868E-3,-9.470087E-2,1.5269238E0,-6.19107E-2,8.448248E-2,3.171296E-1,6.2882006E-2,-3.715791E-1,3.8840026E-1,-1.6944813E-2,-2.3681803E-3,-3.5509777E-3,-4.8473787E-2,-1.5175887E-3,-2.8216053E-2,2.3623124E-1,2.6386642E-1,-3.3914566E-2,-4.2978045E-2,1.9112444E-2,-7.642349E-2,2.3186572E-2,3.4290876E-2,3.6588952E-1,-5.339382E-3,2.4223526E-1],"categories":[],"categories_nodes":[],"categories_segments":[],"categories_sizes":[],"default_left":[0,0,0,0,0,0,0,0,0,0,0,0,0,0,0,0,0,0,0,0,0,0,0,0,0,0,0,0,0,0,0,0,0,0,0,0,0,0,0,0,0],"id":38,"left_children":[1,3,5,7,-1,9,11,13,15,17,19,21,23,25,-1,-1,27,29,31,-1,-1,33,35,37,39,-1,-1,-1,-1,-1,-1,-1,-1,-1,-1,-1,-1,-1,-1,-1,-1],"loss_changes":[1.2100978E1,3.429675E-2,1.8451796E1,9.645224E-3,0E0,2.3188557E1,2.1307333E1,8.561134E-3,4.930933E-2,2.295123E1,3.7633286E0,2.4829432E1,3.421923E1,8.113861E-3,0E0,0E0,3.648559E-1,2.0313303E1,2.41044E1,0E0,0E0,2.4153805E1,4.780336E1,5.4091404E1,4.227267E1,0E0,0E0,0E0,0E0,0E0,0E0,0E0,0E0,0E0,0E0,0E0,0E0,0E0,0E0,0E0,0E0],"parents":[2147483647,0,0,1,1,2,2,3,3,5,5,6,6,7,7,8,8,9,9,10,10,11,11,12,12,13,13,16,16,17,17,18,18,21,21,22,22,23,23,24,24],"right_children":[2,4,6,8,-1,10,12,14,16,18,20,22,24,26,-1,-1,28,30,32,-1,-1,34,36,38,40,-1,-1,-1,-1,-1,-1,-1,-1,-1,-1,-1,-1,-1,-1,-1,-1],"split_conditions":[4E-1,1E0,4.0833335E0,1E0,-7.8029367E-3,4E0,7E0,1E0,1.8153088E0,3.125E0,1.5E0,1.4503176E0,8.666667E0,1E0,4.371522E-3,-2.3474868E-3,1.728293E0,5.059503E-1,3E0,8.448248E-2,3.171296E-1,8.2779133E-1,1.7304182E0,1E0,2.55E2,-2.3681803E-3,-3.5509777E-3,-4.8473787E-2,-1.5175887E-3,-2.8216053E-2,2.3623124E-1,2.6386642E-1,-3.3914566E-2,-4.2978045E-2,1.9112444E-2,-7.642349E-2,2.3186572E-2,3.4290876E-2,3.6588952E-1,-5.339382E-3,2.4223526E-1],"split_indices":[1,49,11,33,0,11,9,27,6,10,0,4,9,63,0,0,5,5,11,0,0,4,7,37,12,0,0,0,0,0,0,0,0,0,0,0,0,0,0,0,0],"split_type":[0,0,0,0,0,0,0,0,0,0,0,0,0,0,0,0,0,0,0,0,0,0,0,0,0,0,0,0,0,0,0,0,0,0,0,0,0,0,0,0,0],"sum_hessian":[5.801E3,4.33E3,1.471E3,4.319E3,1.1E1,4.7E1,1.424E3,4.25E3,6.9E1,4.2E1,5E0,5.8E2,8.44E2,4.249E3,1E0,